-0.00501172 -0.00145119 -0.00147976 -0.00404227 -0.0128119 0.00142762 -0.0027728 -0.00549403 -0.016283 -0.010416 -0.00708601 0.000924179 0.000325647 -0.0109877 -0.0014264 0.0127064 -1.13058e-05 0.00185403 0.00514333 0.00626712 0.00256356 0.00726474 0.0106621 0.000797046 -0.00261005 -0.00102448 0.00260269 -0.00311455 -0.00792084 0.00424599 0.000921007 0.00114921 0.000437406 5.86866e-05 0.0031663 0.00267411 -0.00172755 -0.000688978 0.0126463 0.00171811 -0.000180462 0.014896 0.0151039 0.00681591 0.000564853 -0.0101573 -0.00588951 -0.00371528 -0.00967934 -0.0114132 -0.0100121 -0.00688192 -0.00804928 -0.00483326 0.000510774 0.00457532 -0.000417859 -0.00140626 0.00267798 0.00241217 -0.00753566 -0.00563825 -0.00332007 -0.000525611 -0.0048768 0.00283048 0.00683969 -0.0040944 0.00144269 0.00747185 -0.00212361 -0.000406903 0.00253933 0.000129758 -0.00686391 -0.00750457 -0.0141624 -0.00755693 -0.00784613 -0.0158424 -0.00894237 -0.00882029 -0.0101908 -0.0103369 -0.0104665 -0.00215562 -0.00851084 0.00314014 0.00455818 0.00150602 0.00874991 0.0101922 0.0143085 0.00637345 0.0117175 -0.00119135 -0.000136227 0.0056221 0.00173804 0.00134338 0.00361897 0.0139142 0.00201581 0.0118206 0.00995289 0.00859139 0.0171293 0.00604501 0.00633737 -0.00125374 0.00248967 0.00754708 -0.0045745 -0.00678473 0.005415 0.00898224 0.00716321 0.00982874 0.00627909 -0.00314153 -0.00123978 -0.0075956 -0.0111866 -0.00861749 -0.00126915 -0.00424262 -0.00341252 -0.000132804 -0.000636438 -0.00340239 -0.00777485 -0.00609803 -0.00494735 0.00495787 -0.0059086 0.00216216 -0.00230219 0.00133042 -0.00115116 0.00362863 0.000789128 0.00581716 0.00682522 0.0020555 -0.000786594 0.00833697 0.00425115 -0.00275752 -0.00401628 -0.000567015 0.00798852 0.000377512 0.00208451 0.00301026 0.0141567 0.0120749 -0.00145805 -0.00162746 0.0127973 0.0108056 0.00559183 0.0114246 0.0128122 -0.00117416 -0.000631756 -0.000919578 0.000872547 -0.00221121 0.000662684 0.000459711 -0.00132583 -0.00243253 -0.000192281 -0.000162447 -0.0101791 0.0032524 -0.00793189 -0.0184646 -0.0143333 -0.0120455 -0.0176272 -0.00567939 -0.00243503 -0.00528424 -0.000326943 0.00051799 -0.00184559 -0.0050773 0.00405106 0.00941735 0.00590628 0.0118204 0.00467001 0.00283113 -0.00235888 -0.00319907 -0.00994356 -0.00659382 -0.0057272 -0.00392988 0.00595654 0.00230431 -0.00356609 -0.00449772 -0.00106985 -0.00239647 -0.00375751 0.000959352 0.0013699 -0.00182462 0.00367482 0.00360371 0.0117224 0.00740541 0.00322314 -0.00667738 -0.0026758 -0.000300181 -0.0102172 -0.00418651 -0.0110128 -0.00397106 -0.00849763 -0.00565826 0.000746602 0.00453516 0.000338581 -0.00867968 -0.00454323 0.004824 -0.00195348 -0.00530825 -0.00138279 -0.00194282 -0.00384701 0.0130199 0.00527838 -0.000301097 -0.00293802 -0.00564864 -0.00326691 -0.00737729 -0.0025138 -0.00540589 -0.00378988 -0.00444203 -0.00992703 -0.00765969 -0.00255017 -0.00920174 -0.00821213 -0.0108755 -0.0154444 -0.00806572 -0.00609746 -0.0051524 -9.96436e-05 -0.00188776 0.00853234 0.00542029 0.00414839 0.0159588 0.0152181 0.00633117 0.00541997 -0.00407144 -0.00200197 -0.00358434 -0.00224743 -0.00222415 -6.1852e-05 0.00749323 0.0105093 0.0145238 0.00954829 0.0106277 0.00540748 0.00509997 0.00289994 0.00409033 0.00243532 0.00683547 -0.0046724 -0.0107322 0.00105825 0.00211525 -0.00277031 0.00312349 0.00312167 -0.00725307 -0.0116612 -0.00688602 -0.000971183 -0.00411955 -0.00340382 -0.0105344 -0.00225867 -0.000167499 -0.00632817 -0.00433163 -0.00267896 -0.00628858 -0.00639765 0.00116455 0.00277128 -0.0020807 -0.000973893 0.00289251 -8.97754e-05 0.0032684 6.33672e-05 0.00666171 0.0104882 0.00517228 -0.000281688 -0.00180941 -0.00573663 -0.00671096 -0.007337 -0.00201409 -0.00916746 -0.00403249 0.00339274 -8.67852e-05 0.000660722 0.00737731 -0.00115814 0.00571244 0.00827144 0.0113151 0.0122155 0.00607966 0.00761827 -0.000433487 -0.00762618 0.00167275 -0.00165408 -0.00940975 -0.0081758 0.00209084 0.00128902 0.000828661 0.0145469 0.00652404 -0.00709055 -0.00105277 -0.00421374 -0.0095271 -0.0104652 -0.0086135 -0.00730169 -0.00410303 -0.00581333 -0.000899935 0.00168391 -0.00258254 0.00166795 0.00473635 0.00185431 0.00188762 -0.00439192 0.00890922 0.00548773 0.0032145 -0.0082768 -0.00428751 -0.012824 -0.00693463 -0.00314495 0.00456216 -0.000274615 0.00106759 -0.0023215 -0.00981408 -0.00197336 0.00147901 -0.00692359 -5.10623e-05 -0.00419967 -0.00480856 -0.00136384 0.00221865 0.00375439 -0.00252439 -0.003453 -0.000316606 0.00273988 0.00644211 -0.00846957 -0.00614935 -0.00302488 -0.00872496 -0.0198047 -0.010739 -0.00263998 0.00384414 0.00673197 -0.000772907 -0.00194871 0.00235138 -0.00355258 -0.00766427 -0.00428466 0.00196798 0.00742949 0.010976 0.00764258 0.000459605 0.000613118 0.00335344 -0.00238768 -0.00462091 -0.00110814 -0.00710956 -0.007385 -0.00849905 -0.00907484 -0.000442936 0.00227575 -0.000954488 -0.00104195 -0.0119161 -0.00853963 0.00332027 0.000136195 0.00330736 0.0083282 0.000310892 0.0035868 0.00250265 0.00664767 0.00494487 0.0137268 0.0040936 -0.000539415 -0.00590805 -0.0069336 -0.00157022 -0.000744205 -0.00423931 -0.00420617 0.000376446 0.00150856 0.0102299 0.00212553 0.000447274 0.000782053 -0.000841726 0.00302716 0.00218628 0.00420022 -0.00469243 -0.00674672 -0.00767272 0.00529748 0.000622295 -0.00227012 -0.00107602 -0.00129392 -0.011337 -0.015974 -0.00795225 -0.00614832 -0.00350078 -0.00838885 -0.00449351 0.00249416 0.00353002 -0.00551492 -0.00230218 -0.000647797 -0.00298447 -0.00733738 0.00155287 0.00339169 0.00183033 -0.00339927 0.000210719 -0.00107838 -0.000248169 0.00501256 0.00190882 0.00700271 -0.00204771 -0.0011112 -0.00818014 -0.00462578 -0.00677405 -0.00983551 -0.00402547 -0.00887028 -0.000886324 0.00338804 0.0021751 0.00282518 0.00365688 0.00826603 0.00490019 0.00851026 0.00556505 0.013516 0.00115508 -0.000644138 -0.00307265 -0.00153452 -0.00690441 -0.00572801 -0.0136902 -0.00779042 0.00679135 0.0135709 0.00354947 0.00472471 0.0042857 -0.00746554 0.000283765 0.00682565 0.0111383 -0.0101576 -0.00594529 -0.00658672 -0.000846024 0.000312971 -0.00998431 -0.00455125 0.000321005 -0.000781827 0.00834415 0.00774084 0.00276713 0.00833915 0.00921697 0.0056445 0.00123921 -0.000748225 -0.00955188 -0.0111785 -0.00756967 -0.00118983 0.00502921 0.00427928 -0.000313858 1.37753e-05 -0.0105375 0.00116661 -0.00210707 -0.00346342 -0.00365619 -0.00116588 0.00340783 0.000276766 -0.0034983 0.00961032 -0.00161972 -0.000667562 -0.000698724 0.00277445 0.00278249 -0.00267587 -0.00951007 0.00312177 0.00317072 -0.00829834 0.00338169 0.0047132 0.0156821 0.0149145 0.0103492 0.0076289 0.00527716 0.00128028 -0.000610817 -0.00396198 -0.00300527 -0.000604953 0.00111179 0.0095414 -0.00289986 -0.00411219 -0.00323429 0.000908008 -0.00749526 -0.00168932 -0.0116677 -0.00052409 0.00738859 0.00735354 0.000419787 0.00217295 -0.0112174 0.00177585 -0.00440863 -0.000127722 0.00482228 -0.00130617 0.000208242 0.00531854 -0.00371352 0.00135161 -0.00463935 -0.00395963 0.00288497 0.00360083 0.0103422 -0.00061161 -0.00605367 -0.00352432 -0.00064356 -0.000120157 -0.00255388 -0.00211782 -0.00282277 -0.00485388 0.00134306 -0.000306583 -0.00200039 0.00273919 -0.0022262 0.00437036 0.00249516 -0.0103414 -0.00225979 -0.0152153 -0.011132 0.00178908 0.00127999 0.00300086 -0.00142302 -0.00390651 -0.0018204 -0.00142418 -0.00193272 -0.00682591 0.001271 -0.00372494 -0.00740767 0.00341656 -0.00167065 -0.0103809 0.00178583 -0.00237678 -0.002834 -0.00961703 0.00274404 0.00596816 0.00777016 0.00712564 0.0081292 0.00785976 0.00332154 0.00648687 0.00414413 0.00226394 -0.00295276 -0.00120552 -0.00300838 0.00062191 0.000561782 -0.00749667 -0.000555733 -0.00290731 0.00136185 0.00494164 0.00255792 0.00028424 -0.000767699 -0.00197908 0.004137 0.00239115 -0.000778872 0.0101384 -0.00659583 -0.000461992 -0.00654378 -0.00493466 -0.00275321 -0.00302352 -0.00140922 -0.00429266 0.00133273 0.0129023 0.00472108 -0.000506551 0.00231659 0.00266496 -0.00115192 -0.00171161 -0.00937508 -0.00874451 -0.00658721 -0.00474126 0.00230031 -0.000798351 -0.0114733 -0.00714978 0.00121332 0.000532309 0.0102194 0.0127892 0.00861609 0.0063847 0.00935226 0.0124188 0.00928976 -0.00450129 -0.00573725 -0.0036778 -0.0107461 -0.00116489 0.0041101 -0.000723473 -0.00184427 -0.00476529 -0.00219252 -0.00387985 -0.0101274 -0.000619551 0.00237893 0.00463256 -0.00333763 -0.000939846 -0.0102997 -0.0034091 -0.0169158 -0.00572313 0.00244944 -0.00428496 -0.000511321 -0.00187238 -0.00112401 0.00367431 -0.00195206 -0.0123181 -0.00323202 0.00595208 0.0112091 0.00699602 0.00719153 0.00195569 -0.00321777 -0.00132338 -0.000370526 -0.00188442 -0.00405365 -0.00510018 -0.00368925 0.00391001 0.00091191 0.00504943 -0.00425441 -0.00893186 -0.00373367 -0.0068223 -0.00967326 0.00339076 0.00609966 0.0108327 0.0146352 0.000584872 0.00292881 0.00246931 0.00301275 0.00521754 0.0103753 0.00195769 0.0039476 0.00283597 0.00402328 0.00811775 -0.00567294 0.00167933 0.00433954 -0.00511217 0.00060257 -0.00660764 -0.00332667 -0.00443173 -0.00503475 -0.00289463 -0.00290797 -0.00708426 -0.00912573 -0.00356716 0.00156141 7.44338e-05 -0.00716062 -0.000444455 -0.00545477 0.002455 -0.00255123 0.00490242 0.00429344 -0.0121715 -0.00389502 0.00267373 0.000910736 -0.00344239 0.0023269 -0.00402631 -0.00458754 -0.00583262 -0.00662783 0.00139355 -0.00207573 -0.00547546 -0.0116127 0.00465636 -0.00262946 -0.00429751 0.00155922 0.00245104 -0.00585141 0.000930116 0.00217653 0.0100195 0.00281855 0.00645473 0.0104229 -0.0030353 -0.00288433 0.00743774 0.0144742 0.00547849 0.000316942 -0.00671459 -0.0110677 -0.00333182 0.00290673 -0.000732549 -0.00601298 -0.00657967 0.001305 0.00480341 0.00214399 6.7239e-05 0.00395938 0.00494857 0.00431211 -0.0013122 -0.00728459 0.0044797 -0.000238984 -0.00818301 -0.0071204 -0.00748427 -0.00566725 0.00136026 0.00248701 -0.00920514 -0.00209252 0.0115348 0.00252078 0.000782918 0.00787801 0.000420618 -0.00817753 -0.00336745 0.00529252 -0.00241267 0.00272047 -0.0080711 -0.00394977 -0.00637295 -0.0144198 -0.00200075 0.00956976 0.000229797 -0.00479129 0.00758744 0.00718494 -0.00138148 0.00537867 0.00828195 0.00797198 0.00109105 0.00101575 -0.00570225 0.00234848 -0.00223104 0.00167687 -0.00226385 0.00392072 0.00264968 -0.0114487 -0.000570013 0.000734521 0.00368453 -0.00495428 0.00145803 -0.00509364 -0.00935599 -0.00612309 -0.00089734 -0.00259527 0.000770046 0.00123288 0.00101066 -0.00479411 -0.00771331 -0.00222431 0.00232783 -0.00638214 -0.00622694 -0.00301779 0.00728355 0.00569379 0.000493303 -0.00267955 0.00422481 0.00658128 -0.000843756 0.00317353 0.00334716 -0.00380055 0.00435391 0.00188067 0.00984208 0.00606052 -0.00413427 -0.0067144 -0.000330599 0.00614539 -0.00254111 -0.0116278 0.00099338 0.00180817 0.000284518 0.00305099 -0.00246779 -0.00901503 -0.00559599 0.00384457 0.00664828 0.00231666 -0.000113049 -0.00320752 0.00588712 -0.00118547 0.00268953 0.00418026 0.00576748 0.00634658 -0.00364694 -0.0014547 -0.00782094 -0.00958633 -0.00103453 -0.00167438 0.00368611 -0.0101245 -0.00985374 -0.000162669 -0.0100866 0.00105798 -0.00229582 -0.00799032 -0.00785573 -0.00573193 0.0112555 0.00911283 0.0116323 0.0171421 0.00367822 -0.000916342 0.00120444 0.00290739 0.00402354 0.00410524 -0.0057855 -0.00184296 0.000205444 0.00298711 -0.00129138 0.00156508 -0.00524545 -0.00811533 -0.00221213 -0.000614607 -0.0049015 -0.00121551 -0.00894432 -0.00747958 -0.00187973 0.00123112 0.0029823 -0.00055865 0.00298524 0.0068671 0.00327472 -0.000278156 0.00475763 0.011292 0.00548892 0.000545824 -0.00216198 -0.000222106 0.00599345 -0.00394605 0.00171761 -0.00701535 -0.0020262 0.00551781 0.00244875 -0.00290699 0.00450174 -0.00246586 -0.00153461 -0.00631842 -0.00500425 -0.00686367 0.00271727 -0.00663555 -0.00634573 -0.00748079 -0.011525 -0.00480112 -0.00385178 -0.00783653 -0.00749264 -0.00335947 0.00735468 0.00738146 0.00143528 -8.56452e-05 -0.00550443 -0.00263817 0.00410913 0.00411425 -0.00332565 -0.00153136 -0.0035785 -0.00787125 -0.000990964 -0.00546397 -0.0106008 0.00292415 0.000866915 0.00197043 0.0117751 0.0118176 0.00437904 0.00433149 0.017598 0.0105421 -0.00219544 0.00696179 0.00650538 0.00420005 0.00407208 0.00486392 -0.000952525 0.00657923 0.00272722 -0.00104824 -0.000772334 0.00190467 0.00555292 -0.00163665 -0.00144456 -0.00746992 -0.00490732 -0.00452059 -0.000277024 -0.00436492 0.00227224 -0.00214548 -0.0054252 -0.00531361 -0.00849928 -0.00143663 -0.0019779 0.000503632 -0.00503237 -0.0037695 0.000616407 0.00130179 -0.000878914 -0.00223722 -0.000753382 0.00755588 0.00383549 0.000768877 0.000835487 0.000474447 0.00317984 0.000805299 0.00407322 -0.000740376 -0.00195625 -0.000213005 -0.00263606 0.00126074 -0.000288936 -0.0103685 0.00266178 -0.00049155 0.000696123 0.00635242 0.00127342 -0.00404218 0.00653457 0.0101634 0.00657555 0.0030793 -0.00285673 -0.00386118 -0.002021 0.00501404 0.00478084 -0.00530409 -0.000649328 0.00526914 -0.00639696 -0.00600351 -0.00778046 -0.00644115 -0.00370884 -0.00828809 -0.00507147 -0.0134273 -0.00614692 0.00188778 -0.000408372 0.00491609 0.00419257 -0.00289682 -0.00663144 -0.00680862 0.000666629 0.00329779 -0.00369244 0.0082214 -0.00209224 0.00106083 0.00878746 0.00544487 0.00600089 0.00793729 0.000756999 0.00823433 0.00383042 0.00153489 -0.00172991 0.00389071 -0.0138169 -0.00105113 0.00141285 -0.00187383 0.000182999 -0.0111802 -0.00307068 -0.000879422 -0.00426684 -0.00096754 0.00652607 0.00247548 0.00731357 0.00947039 -0.00516485 -0.000379168 -0.00194029 -0.00225491 -0.011296 -0.00167936 -0.00426731 -0.00537263 -0.00503848 0.00278189 0.00146349 0.000964715 0.000448447 0.00309076 0.00350501 0.000122601 0.000358586 -0.00282743 0.000522884 -0.0076315 -0.00950701 -0.00683663 -0.00508123 -0.008836 -0.00192258 -0.00542639 0.000316465 -0.00431042 -0.00949968 0.00422424 -0.000459679 0.00212837 0.00391934 -0.00159766 0.00127993 0.00667763 0.00108024 -0.00122241 0.00247492 0.00227801 0.000263066 -0.00515687 -0.0101679 -0.0156872 -0.00858702 -0.00876255 -0.0129632 -0.00292533 -0.00428652 0.00926622 0.0089971 0.000235306 0.0044363 0.00886766 0.00565001 0.00400014 0.00815709 0.00718995 0.0052507 0.00168676 -0.00484919 -0.00955811 0.00214492 0.0067794 0.00578271 0.0031955 0.000157779 0.00394128 0.00379302 0.00283502 0.000956495 0.00128617 -0.00296196 -0.00381467 0.00204122 -0.00504114 0.0027666 0.00227618 -0.00787877 -0.00542307 -0.00318877 0.000520372 0.00687792 0.00581715 0.00784501 0.00477384 0.00545565 0.00276284 -0.00337266 -0.00783903 -0.00164202 0.00215617 -0.00286243 0.00152617 -0.00165912 0.00188008 -9.45085e-05 0.00154682 -0.00103835 -0.0092721 -0.000687572 0.00332521 0.00338834 -0.00839729 -0.00425205 -0.00723445 -0.00675678 -0.00171156 -0.00472504 -0.0011051 -0.00311921 -0.00185593 0.00914733 0.00103863 0.00481098 0.00431716 -0.00346195 -0.00519229 -0.00396943 0.00343958 0.00429303 0.00953594 -0.00100997 -0.00591541 0.00112849 0.0012332 0.00225745 -0.00981467 -0.00907101 -0.00833246 -0.00467094 -0.0118336 -0.00694957 0.00118872 0.000113395 -0.00479846 0.00646163 -0.0014404 -0.00162605 -0.00927892 -0.000530895 0.00227127 -0.00920978 -0.00559171 -0.00725819 -0.0101096 0.00628039 0.00344581 0.00788532 0.0117414 0.00484203 0.00615382 0.0110115 0.00407143 0.00315871 0.00173786 -0.00167199 -0.000465425 0.000413062 -0.00239624 -0.00771265 -0.00669793 -0.00350643 -0.00999789 -0.00963652 0.000422124 0.0141363 0.0131323 0.00260373 0.00544922 0.000513128 0.00301192 -0.00109436 0.00168269 -0.00408813 -0.003548 -0.00695773 -0.00616549 -0.00789942 -0.00591087 0.00211807 0.0045728 0.00686632 0.00335134 0.00138721 -0.00289783 0.0033293 0.0056424 0.00318832 -0.00296066 -0.0156353 -0.00745837 -0.00146623 -0.00178586 -0.00517716 -0.00128231 -0.0011817 -0.00695925 -0.00398005 -0.00148682 0.0121715 0.00568802 0.00636073 0.00140932 0.00999945 0.00570697 -0.00375902 -0.00367616 0.00028431 -0.00181829 -0.010084 -0.00729974 -0.0141346 -0.0121486 -0.00853251 -0.0049092 -0.011457 0.00118464 -0.00591987 0.00267181 0.0107805 0.000311828 -0.00713163 -0.000664499 0.00301472 -0.00449874 0.00304253 0.00135008 0.00162262 -0.00876248 -0.00971307 -0.00867794 -0.011779 0.00355595 -0.00310653 0.00279726 0.00522458 0.0046387 -0.00127113 0.00763919 0.00304098 0.00120229 -0.0047444 0.00479104 -0.00425827 -0.00621964 0.000492196 -0.000379544 -0.00768125 -0.00188096 0.00172294 -0.0030999 0.00816335 0.00774906 -0.00232713 0.00177419 0.00780803 0.00250876 0.00411776 0.00275172 -0.00822679 -0.000520513 -0.00443691 0.00110417 0.0093677 0.00253556 -0.00400027 -0.00850793 -0.00817912 0.00109421 0.00274687 0.000908162 -0.00694112 -0.00571646 -0.00399009 -0.0128916 -0.00880992 -0.00457781 0.00337368 0.00622241 0.000649771 0.00229043 0.00936522 0.00321105 0.00357542 0.00256536 -0.000129076 -0.00902455 -0.00720124 -0.00735864 -0.00168561 0.00456483 -0.00687504 -0.00806159 -0.0117051 -0.000398009 -0.00487875 -0.00530608 -1.91346e-05 -0.00585968 -0.00746329 -0.00542852 -0.00188713 -0.00505286 -0.00196514 5.54739e-05 0.00532454 0.000926092 -0.00704619 -0.00911272 -0.00869522 -0.00647045 -0.00637846 -0.0138774 -0.0155836 -0.0174061 -0.00782874 0.00232088 -0.00167534 0.00305856 0.00676569 -0.00144237 -0.00237445 -0.00152473 -0.000539296 0.00566228 0.0082346 0.000139833 0.000350219 -0.00353031 -0.00652497 -0.00164552 -0.00860597 -0.0128048 -0.0105364 0.00429973 0.0112567 0.00968767 0.00853579 0.00431578 -0.00114192 0.00455406 0.00324988 0.00399425 -0.00197283 0.00130233 -0.00694803 -0.00421723 -0.000851318 -0.00493852 -0.000755245 0.00564708 0.00718075 0.00741074 0.00140968 -0.00424027 0.0020624 0.00327908 0.00395034 -0.00676177 -0.00780449 -0.00201578 -0.00575517 -0.00207257 -0.00176741 -0.00101924 0.00141594 -0.00431414 -0.00452242 -0.000618105 0.0109436 0.00595403 0.000742703 0.000624272 0.00565944 0.00235679 0.00272729 -0.00560748 -0.00681381 -0.00919007 -0.01021 -0.000700182 -0.00709291 -0.00890703 -0.00531621 0.00028075 -0.00544066 0.00049679 -0.00524679 -0.00426504 0.0060275 -0.00782803 0.000867962 -0.000426669 0.0114253 0.00116787 0.00619443 0.000368656 -0.000754732 0.000920166 -0.00306408 0.002725 -0.00252695 0.0045796 -0.000906658 -0.000477031 0.00788947 0.00647501 0.0095844 -0.00145999 -0.00401352 0.00521057 0.0057911 0.00358442 0.00626638 -0.00688166 0.000295113 -0.00495951 -0.00178101 -0.00599923 0.000780756 -0.000784121 0.00528497 0.00872804 8.6713e-05 0.00571546 0.00559463 0.00220198 -0.00211995 -0.000213306 0.00418662 0.00593342 0.00667602 0.00973387 0.0095401 0.00328338 0.0024913 0.00310375 -0.00162615 0.000641934 0.00327123 0.00842139 -0.00254543 0.00131918 0.000960295 -0.009234 -0.0091338 0.000540615 0.00840389 0.0013449 -0.0047762 -0.00440531 0.010106 0.00468715 0.00757677 0.00101227 -0.00610572 -0.00870637 -0.0121158 -0.00611427 -0.0103051 -0.00387036 -0.00781423 -0.0102485 -0.00615964 -0.0164472 -0.00862651 -0.0037751 -0.000122425 0.000255042 -0.00881853 -0.00104232 0.0016683 -0.00248341 0.00442369 0.00513667 0.00172668 -0.00837451 -0.0125164 -0.00763587 -0.00307405 0.00529951 -0.00264196 -0.0057846 0.00238758 -0.00348781 0.00425344 -0.00166147 0.00571147 0.000986533 -0.00190352 -0.00258453 0.00226617 -0.00512048 -0.00566985 0.00192601 0.000154141 0.00279773 0.00104246 -0.00803722 -0.0108454 0.00137313 -0.0103212 -0.0148114 -0.00626268 0.000517507 0.00425434 0.00935741 -0.00115988 0.000863669 0.000164205 0.00499708 -0.00132943 0.00271043 -0.00181661 -0.000131973 -0.00315931 -0.00182742 -0.00507256 -0.00819083 -0.00299919 -0.00548161 0.00411321 0.00843408 0.00106507 0.00227237 0.000620993 0.000483996 0.00339603 -0.0081407 -0.00865394 0.00010592 -0.00276399 -0.00112527 -0.00147357 -0.0014326 -0.00456987 -0.00314735 0.00114824 -0.00126469 0.00181297 0.00308271 0.00789586 0.0039941 0.0120066 0.01016 0.000677211 -0.00277746 -0.00601667 -0.00541664 -0.00215055 0.00053388 -0.00409793 -0.00663391 -0.00134591 0.000171418 -0.0058794 0.00185417 0.00424625 0.000346735 0.00784197 0.00847197 0.00101475 0.0074816 0.0113962 0.00900172 0.00168303 0.00629916 -0.00294847 0.00460253 0.00160634 -0.000296018 0.00529238 0.00460044 0.0150944 0.000175456 0.00514237 0.00743688 0.0085318 0.00961367 0.00560101 0.00761755 0.00385685 0.000196623 -0.00585691 -0.00408083 -0.000466653 -0.00805682 -0.00198976 -0.0105525 -0.0119619 -0.00739942 0.0024559 0.0102573 0.00582662 0.00765126 0.00763369 0.0102696 -0.00116501 0.00287286 0.00246956 0.0105273 0.011423 0.00791766 0.00153566 -0.00190739 0.0023922 0.00193849 -0.00213546 0.00778944 0.00524721 0.00217809 0.00833298 -0.0019739 0.0034494 -0.00574133 -0.00613771 -0.00423867 0.00144604 -0.000943491 -0.000305668 -0.00787057 0.00259517 0.00593901 0.0050042 -0.000953183 -0.00436194 -0.00677111 -0.00565372 -0.00100406 -0.00433517 -0.00796028 -0.0099938 0.00221188 0.00275117 -0.0053078 -0.00432716 -0.00217274 -0.00400953 -0.00329355 -0.00141815 -0.00192916 0.00636687 0.0073781 0.00612712 0.00417386 0.00627881 -0.00678027 -0.0117331 -0.00333889 0.00171376 0.00119781 -0.00643675 -0.00413332 -0.00122888 -0.00624021 0.000935283 0.00263852 0.00400534 -0.00118035 0.0041843 0.00237135 0.00159847 0.00136208 0.00124705 0.00460627 -0.00636487 0.00237332 0.00826022 -0.0003007 0.000356123 -0.00288508 -0.00403595 -0.00384776 -0.00588751 0.00831361 0.00391661 0.00315333 0.00607145 0.00767045 -0.00199642 -0.00229462 -0.00447777 -0.000563084 0.00150084 0.00272734 -0.000283178 -0.00288105 0.00226856 -0.00190162 0.00366211 0.00157421 0.00532126 0.0113074 0.00410658 0.00808565 0.00328252 0.00637907 0.00662384 0.000155003 -0.00596734 0.00552992 0.00650872 0.00268543 0.00458317 -0.00265083 -0.00659377 0.000878095 0.0036098 0.00532471 0.00568489 0.00215748 0.00356462 0.00114869 0.0107046 0.00244043 0.00638397 0.00237687 -0.00953982 -0.00794297 -0.00686567 -0.00497694 -0.00378963 -0.00316835 0.00819696 -0.00166053 -0.00477876 0.00463029 -0.00270889 0.00474793 -0.000159743 0.00215152 0.000745205 0.0158621 0.00920251 0.0110036 0.00509263 0.0100303 0.00667165 0.00533032 0.0056615 0.0102253 0.00557125 0.00519911 0.00444216 -8.88567e-05 0.0127659 0.000868107 0.00578587 0.00767325 0.00953376 0.00176745 0.00161436 0.00495171 -0.0062272 -0.00517556 -6.15145e-05 -0.00567876 -0.0117211 -0.00916254 -0.0117453 -0.00753853 -0.00593721 0.0119672 0.00128776 0.00163675 0.00599471 0.00509021 -0.00456755 0.000863054 0.0102388 0.0101517 0.00946095 0.00155951 0.00585887 0.00302776 -0.000274496 -0.00160718 -0.00367423 -0.00138925 0.00125884 0.00472937 -0.00159955 0.00826467 0.0110494 0.00492847 0.000236672 -0.00132208 -0.00682761 -0.00723824 -0.0156346 -0.00891188 -0.00297192 0.0079952 0.00488922 0.00734352 -0.00219991 -0.00167543 0.00553174 -0.00151764 0.00363122 -0.00463132 -0.000163519 0.00112454 0.00945927 0.00508322 0.00287562 0.00506698 0.00200484 0.00181316 0.00998143 0.00604647 0.00841935 0.00384073 0.0010929 0.0104916 0.000655252 -0.0158622 -0.0110622 0.000867756 0.00362933 -0.00429022 -0.00548981 -0.00496715 -0.00885794 -0.00992412 0.00411204 0.00772744 0.00858286 0.00451291 0.00455175 -0.00135647 -0.00702356 0.00446265 0.0151332 0.00313121 -0.00198793 0.00272463 0.0085243 -0.00273269 0.00353323 0.00453665 -0.00191609 -0.00336931 0.00452512 0.00707511 0.00419633 0.00582691 0.00199695 0.0025608 -0.00527053 -0.00197623 -0.000154579 0.00501596 -0.000118589 0.00956156 0.00157257 0.00173987 0.000460054 -7.06738e-05 -0.000711949 0.00416962 -0.00338675 0.00506765 0.00513972 0.000941193 0.00566464 0.0016649 0.00541607 0.00252141 0.00034807 0.00806748 0.0030546 0.00305281 0.000107763 0.00438594 -0.00214607 0.00565883 0.00016477 0.00590458 0.00167286 0.0120982 0.00126238 -0.000860802 -0.000560942 -0.00265191 -0.000648518 0.0032547 -0.00625999 -0.0105193 -0.00762056 -0.0118535 -0.00493031 -0.00214916 0.00746553 0.00985831 -0.00260028 0.00341648 0.00554335 0.000347158 -0.00899527 -0.00913031 -0.0138093 0.00483055 0.00697532 -0.000737881 -0.00783008 -0.00210646 -0.00140602 0.000761113 0.00812305 0.00722581 0.00556929 0.00436005 0.00916769 0.00815299 0.00202328 0.00521532 0.00326151 -0.00361471 -0.00168325 0.000155251 0.00597603 0.00463799 -0.00185186 0.000413266 0.0031727 -0.00352535 -0.0082986 -0.0140579 -0.0118404 -0.00912351 -0.00197748 0.0180539 0.0049307 0.000735364 0.00563133 0.0032734 -0.00551973 0.00570113 0.0100875 0.0056205 0.00976483 0.00412434 -0.00117711 -0.00444185 -0.00439144 0.00397721 0.00562913 0.00177356 0.00561934 0.00932757 0.00721277 0.0125584 0.0165524 0.0128305 0.00461441 0.00254401 0.0065521 0.00574863 0.00518835 -1.7166e-05 2.29329e-05 0.000983158 0.00548162 0.000786183 0.000486682 -0.00525446 -0.000162841 0.00348648 0.00184367 0.00101893 -0.000450692 0.00421996 -0.000179143 0.00437388 0.00912499 0.002656 0.000699307 0.00402124 0.00536222 0.0141593 0.00858858 0.0113065 0.00517174 0.00789293 0.00118725 -0.00276622 0.0018626 0.00224845 0.0056743 0.00336814 0.000389379 -0.00216278 -0.00124692 0.00223073 -0.0036671 0.00220065 0.0038553 0.00479869 -0.00344144 0.000394362 0.00065104 -0.00179169 0.00659658 9.88705e-05 0.00390222 -0.00236665 -0.00469842 -0.0105381 -0.00100676 -0.00272818 -0.00116745 0.00102779 0.00343124 0.00764164 0.00103052 0.00211751 0.00808105 0.00556979 0.00132835 5.57456e-05 -0.00275411 0.000960193 -0.00476035 0.00236875 0.000745174 -0.0015872 0.00246577 0.00521269 0.00391206 0.00217156 0.000777717 0.000293202 0.00617937 0.00369994 0.00797041 -0.00171061 -0.00236183 0.000476872 0.000886805 0.00581856 -0.000828281 0.00233632 0.00154727 0.00367245 -0.00187718 0.00193857 0.00457343 0.00322829 -0.00116306 0.00500527 0.00610601 -0.000978272 0.00613108 -0.00229612 -0.00178106 0.000533114 0.00108791 0.00360116 0.00142245 -0.00117764 -0.00233306 0.00592225 0.00215365 0.0101799 -0.00512809 0.00566987 -0.000174415 -0.00494753 -0.00650948 -0.00706746 -0.00885153 -0.00743626 0.00872402 -0.00116369 -0.00433917 0.00556115 0.00872608 0.00994894 0.00731893 0.00568039 0.00201321 0.0129703 0.00701638 0.00351729 0.0100742 0.00810771 0.000251091 -0.00405591 -0.00477547 -0.0057797 0.000555233 0.00143304 -0.00553762 -0.000905316 0.00650527 0.00261153 -0.00230811 -0.00989522 -0.00846666 -0.0098852 0.000138627 -0.000170687 0.0028361 0.00325046 -0.00141079 -0.000869445 -0.0038531 0.00551976 9.89478e-05 0.00391058 0.00126382 0.00439171 0.00213996 -0.00271016 -0.000911495 0.00188508 0.00546711 0.0119002 0.000804449 0.00680425 0.00391497 0.00781599 0.0173415 0.015752 0.00338068 0.00255188 0.00383338 0.0108103 0.00443353 0.0047448 0.012418 0.00650258 0.00707314 0.0082618 0.00268026 -7.71159e-05 0.00386882 0.00923066 0.0020169 0.00140099 0.00461726 0.00174301 0.0023004 0.00563719 0.00576712 0.0012574 0.00470521 0.0050457 0.009214 0.00728705 0.00795875 0.0060335 -0.00178849 0.00189442 0.0020065 0.00407193 0.00813962 0.00399354 0.0106543 0.00972225 0.00550933 0.00176284 0.00310296 0.00270371 -0.00207579 0.00742889 0.000169532 0.00507178 0.00347342 -0.000812127 -0.00183172 0.000729084 0.00394327 -0.000176427 -3.38431e-05 0.0024748 0.00391207 -0.00357299 -0.0074833 0.000246298 -0.00257965 -0.00598061 0.00301348 0.0102381 0.000841145 -0.00208029 0.00261294 0.00711759 0.000778987 0.000506221 -0.00178646 0.0093546 -0.00176054 0.00623243 0.00481587 -0.00338552 0.00497544 -0.00110539 0.00174794 0.00268347 0.00587221 0.00977624 0.00661547 -0.00437564 -0.001715 0.00376677 -0.00200235 -0.00133811 0.00507972 0.00359753 -0.00236271 -0.000582488 0.00348889 0.00363163 -0.0012516 -0.00150709 0.00482149 0.00766814 -0.00293463 0.00570788 0.00913456 0.0111318 0.00619452 0.00388278 -0.00117037 -0.00318643 -0.00257824 -0.00384033 0.000545753 0.00313892 0.0031456 0.00161573 0.00363906 0.00274734 -0.0132193 -0.0013601 0.00235096 -0.00293856 -0.0048462 -0.00585094 -0.00921403 -0.00388509 0.00287253 -0.000585699 -0.00694264 -0.00263766 0.00137503 0.00120409 0.00418109 0.00260069 0.00154115 -0.000999439 0.011219 0.00162053 0.0041547 -0.000346418 -0.00163235 -0.00813444 -0.00855277 -0.00881911 0.000177471 -0.00113295 -0.00691606 0.00261572 0.00311649 0.00089056 -0.0129476 -0.00665887 -0.00621902 -0.0154776 -0.0115522 -0.00540585 -0.00216773 0.00455908 -0.00604818 -0.00768225 -0.00172252 0.00261701 -0.000527114 -0.00429198 -0.00222828 -0.0040779 -0.000871966 0.000746722 -0.00346767 -0.00440998 -0.00130513 0.00367482 0.000174072 0.00977732 0.00711779 0.0119966 0.0121823 0.00497079 0.0069802 0.000123311 0.00338625 0.0110127 0.00980774 0.00014127 0.00121938 0.00807109 0.00758313 0.0126526 0.00469381 0.00215941 0.00143477 0.00438626 -0.000438302 0.0007505 0.00345008 -0.00158958 -0.00403858 0.000412037 -0.00119459 0.000159438 -0.00138489 0.00185306 -0.00245518 -0.000831021 0.00405131 0.00092023 0.00290347 0.00230786 0.000562719 0.00271837 0.00160423 0.00110862 0.00774337 0.00991204 0.0112247 0.0118842 0.00665706 0.00579927 -0.000151251 0.00320467 -0.000723405 0.000261049 -0.00298535 -0.00284433 0.00105862 -0.000912951 -0.00282643 -0.00249512 -0.0062867 -0.00111181 0.00816694 -0.00167617 -0.00429353 -0.00185029 -0.00357332 -0.0032647 -0.00132159 0.00212142 -0.000463113 0.0023717 -0.00299351 -0.00415357 -0.00141365 0.00200648 -0.0043236 0.00350225 -0.00222775 0.000631552 0.0031371 0.00884801 0.00424215 8.62285e-06 -4.73196e-05 0.00174338 -0.00234415 0.0154176 0.000226521 -0.000302022 0.000798416 -8.90959e-05 -0.00150956 0.000644308 0.00248993 0.00267934 0.0026246 0.000769282 0.00493967 0.00629854 0.0014811 0.00166329 0.000583871 6.99471e-06 -0.000680656 0.00670183 0.00893451 -0.00476323 0.00421847 0.00578014 0.000803186 0.00256415 0.00324307 -0.00622183 -0.00110093 0.0027821 0.000857158 0.0010328 0.00549734 0.00149516 -0.0055607 -0.0108429 -0.00165358 -0.0068145 -0.00829967 -0.00526958 -0.0105142 -0.00383316 0.000983724 0.00474353 -0.0011756 0.0046166 0.00758681 0.00406877 0.00821658 0.00566583 0.0106344 0.00797582 0.00276649 0.00227393 0.00166468 0.00372794 -0.00252233 -0.00306749 -0.0126519 -0.00702406 -0.00137135 -0.00156497 -0.00422141 0.00499053 -0.00421603 -0.00534271 -0.00982939 -0.00990944 -0.00630683 -0.0138416 -0.0134867 -0.00657923 0.00428093 0.000813874 -0.00185563 0.00111844 0.00247615 0.00343802 0.00298527 -0.00233921 0.00203561 0.00376997 0.00473772 -0.00325798 -0.00388769 -0.00490397 0.00240494 0.0063867 0.0117083 0.0107079 0.00759031 0.0100663 0.0109723 -0.00111472 -0.00719144 0.000514352 0.00358517 0.00161713 0.00496697 -0.00414048 -0.000149118 0.000487652 0.00433971 0.00489706 0.00573422 0.00397115 0.00419242 -0.0049051 -0.00549906 -0.00873646 0.00385804 -0.00154937 -0.00833516 -0.0113453 -0.004913 -0.000114468 -0.00366082 0.00168061 0.00236693 -0.00312422 0.00354929 0.00128933 -0.00569574 -0.00346386 -0.00036014 -0.00134286 0.00258793 0.00656567 0.0129384 0.00939429 0.00654462 0.0118252 0.0103929 0.00551422 -0.0040263 0.00235368 0.00231158 0.000196365 -0.00857837 -0.00156489 0.00315324 0.0045249 0.00188936 -0.00533447 -0.00544973 -0.0041905 0.000336138 -0.0118048 -0.00615432 -0.00534661 0.000128758 0.0022166 -0.00369709 -0.0024101 0.00482129 0.00176347 0.00255887 0.00161328 0.00231827 0.00529138 -0.00510954 -0.00166714 0.000185231 0.0026725 0.00687542 0.000491486 0.00883793 0.00179316 0.00213067 0.00513838 0.00283179 0.0102092 -0.00318888 0.00137581 0.00424796 0.00141484 -0.000797604 -0.000976338 -0.00391629 -0.00157662 -0.0034352 -0.00159819 -0.00117396 0.00178514 4.678e-05 0.00450876 -0.000229248 -0.00154609 -0.00405428 0.000332007 0.00266766 -0.00213813 -0.00275968 -0.00266707 -0.00242775 -0.0031857 -0.00547986 -0.00698133 0.00228305 0.00226002 0.00522884 0.000552639 -0.00286846 0.00025674 -0.0045296 -0.00921864 -0.00316009 -0.00344412 -0.0076393 -0.00106868 -0.00867854 0.00139153 0.0107914 0.00980506 0.00459206 0.00362275 0.00582764 0.00216586 0.00576755 0.0132314 0.0121826 0.0068484 0.00099283 -0.00228517 0.0038783 0.00176941 -0.00142703 -0.00403248 -0.0039275 -0.00693671 -0.00502608 0.000495256 -0.00110648 0.0031945 -0.00783938 -0.00829492 -0.00586061 -0.00818809 -0.0117331 -0.00551418 -0.000563881 0.0052853 0.000828552 -0.00338397 -0.00337901 -0.000105282 0.00239563 0.00255134 0.000326213 -0.000619504 0.00344832 0.006574 0.00473999 0.00179287 -3.19413e-05 -0.00791487 -0.0056314 0.00455762 0.0100102 0.00121297 0.00257998 0.00553568 0.00248761 0.00705431 -0.00236191 0.0101242 0.00758458 0.0032539 0.00393324 0.00423846 0.00480763 0.00412696 0.00396535 0.00507022 -0.000990058 0.000839987 -0.00543215 -0.00211795 -0.000101507 0.00147074 -0.0016549 0.00116153 -0.00299642 -0.003586 -0.00239972 -0.00427992 -0.00281476 -0.00406524 -0.00014591 0.000195389 -0.00143813 -0.0056301 -0.00540507 -0.00275836 7.3458e-05 -0.00327412 -0.00121085 0.00245716 0.00858434 0.0100328 0.0128252 0.0161503 0.00818646 0.00701386 0.000799336 0.00609238 0.00524457 0.000469858 -0.00638793 -0.00334947 0.00135447 -0.000406704 -0.00512177 -0.00538466 -0.00549257 -2.62409e-05 -0.003626 -0.00762067 -0.0127744 -0.0069249 0.00186847 0.000488777 0.00567203 -0.00341197 -0.000289382 0.00021888 0.00301673 -0.000823808 -0.000470402 0.0025963 -0.00279001 -0.00120182 -0.00453335 0.00084677 0.00483135 0.00693339 0.00491475 0.00316235 0.0056884 -0.0021254 0.00311447 2.42651e-05 -0.00300588 -0.004277 -0.0067574 -0.00919084 0.000755537 -0.00374249 -0.00189932 0.00232753 -0.00274035 -0.00596113 0.00284205 0.00180107 -0.00245111 0.0050347 -0.00303557 0.00131334 0.00186842 -0.000926753 -0.00254576 -0.00232498 0.00188782 0.00365115 0.00090827 -0.00285723 -0.00159744 -0.00433919 0.00574601 0.00664608 0.00109158 -0.000667413 0.00282016 -0.000250982 -0.00533628 -0.0126588 -0.00275512 0.00113844 -0.000878005 0.0082329 0.00492804 0.00781165 0.00661979 0.0115285 0.00798001 0.00720499 0.00475008 0.000918285 0.00692897 0.01428 0.00941585 0.00411964 0.00143292 0.00243729 0.00476511 0.00182899 0.00586554 0.00286715 0.000558622 -0.0038696 -0.00535289 -0.00150802 -0.00612163 -0.00203346 -0.00948265 -0.00824211 -0.00326143 -0.00676478 -0.00524765 -0.0023256 -0.00234932 -0.00768258 -0.00215175 -0.00127152 -0.00363666 -9.39045e-05 0.00173604 -0.00162301 -0.00388672 -0.00397861 0.00223579 0.00556514 -0.00179396 0.00111617 -0.00342678 -0.000340215 -0.000788399 0.00544675 0.00658594 0.00823102 0.00346765 -0.00298914 0.0009364 0.00658756 0.00492789 0.00201354 -0.00119105 0.000926212 0.00540646 0.00226849 0.0057222 0.00477966 0.00150605 0.00665856 0.00278173 0.00136308 0.00222398 0.00412338 0.00370714 0.0038014 0.00748165 0.000371774 -0.0013718 -0.00365751 0.00598808 0.00222239 -0.00438315 -0.00273401 0.0113829 0.00176564 0.00432623 0.00298532 0.00186487 0.00207676 -0.000839156 0.00745875 0.00614846 0.00469315 0.00892484 0.00741175 0.0135428 0.0113524 0.00157209 0.00198972 -0.00496629 -0.00628812 -0.00294511 0.00500206 0.00218895 0.00436649 0.00359253 -0.000934416 0.00218758 -0.00479886 -0.00543079 -0.00950598 -0.0026219 -0.00915249 -0.0119772 -0.000904132 -0.00346789 -0.00264479 0.000800178 -0.00116007 7.16245e-05 0.00312726 0.00282196 0.000370896 0.00293391 0.00019386 -0.00330369 -0.00176265 -0.00196467 -0.000118185 -0.00218923 0.00550651 0.00465454 -0.00335766 0.000280351 -0.00419653 -0.00620915 -0.00397135 -0.00508524 -0.00745292 -0.00627647 -0.00733215 -0.00230373 -0.0059414 -0.00937211 -0.00637694 -0.00860263 -0.00359839 -0.00430392 -0.00662581 -0.00371705 0.000834075 0.00158187 -0.00156959 -0.000674274 0.0015806 -0.000982509 0.00070027 -0.000730578 0.000734892 -0.0018761 -0.00264494 -0.0048589 0.000788913 0.00322696 -0.00301494 -0.00268855 0.00242681 -0.000890792 0.00310993 -0.000822935 -0.00148666 0.00226928 0.00406169 0.00228954 0.00383131 0.00347013 0.00338506 0.00911319 0.00467571 0.00321114 0.00305177 0.00640864 0.0012527 0.0053883 0.00481455 0.00249705 0.0040804 -0.00461392 0.00346566 0.00620715 0.00227528 -0.000195302 0.00485771 -0.0035745 0.00016375 0.00425775 -0.00295368 -0.00281566 -0.00178839 0.00111323 -0.00686261 -0.000959953 -0.00148291 0.00292085 0.00474258 -0.000228162 0.000887394 -0.00624638 -0.00508623 -0.00637336 0.000284222 -0.000802943 0.000874636 -0.00295298 -0.000191407 0.000881124 0.00380665 0.00104607 0.000827435 0.0014989 -0.00485956 -0.00576178 0.000281202 0.00370822 -0.000199692 -0.000963571 0.00411891 0.00111224 0.00112704 -0.000619562 -0.00405229 -0.00340044 0.00219343 -0.00106277 -0.00146331 0.00236368 0.00390201 -0.00567883 0.00697886 0.00784725 0.00647594 0.00884354 0.00825386 0.000308086 -0.00169712 0.00664991 0.00503841 -0.00142619 -0.000673508 -0.00502377 0.0011756 -0.00299763 -0.00708286 0.00207855 0.00794576 0.0068598 0.00549867 0.000221296 -0.0023053 0.000631567 0.0036545 -0.00156617 0.00423417 0.00401406 0.00607352 -0.00163086 0.0043498 0.0080474 -8.89187e-05 0.00471505 0.00832102 -0.00307696 0.00946795 0.00297406 0.00530152 0.00197552 0.000604898 0.00307274 0.00218889 -0.00473585 -0.00182368 -0.00680626 -0.00657582 -0.00566289 -0.00131843 -0.00393163 -0.00145556 -0.000226222 -0.00246363 0.00529962 0.00515783 0.0103012 0.0106619 0.00597836 0.00754563 -0.000568611 -0.00180963 0.00263628 -0.00629203 -0.00334867 0.00181916 -0.000972339 0.00351014 0.00536428 0.00281322 0.000755132 -0.00813176 -0.00960971 -0.00775103 -0.00304782 -0.00247788 -0.00509094 -0.00373886 -0.00321542 -0.0103154 -0.00564276 -0.00638059 -0.00569525 -0.00636946 -0.00161763 0.00391468 -0.00274801 0.000340916 -0.000423162 -0.00117432 -0.0102027 -0.00146778 0.00444632 0.00153759 -0.00417638 -0.00625382 -0.00970038 -0.00462706 8.94148e-05 0.00135877 0.00259257 -0.00207695 -0.000478753 0.00569379 -0.00933026 -0.00564732 0.00145361 -0.000327686 0.00658622 0.00844664 0.00232498 0.00371675 0.00505929 0.00637112 0.00360207 0.00402818 0.00360734 0.00941844 0.0085657 0.00380096 -0.0072863 -0.0034411 -0.000895639 -0.00240993 0.00612032 0.00497025 -0.00131473 -0.0022255 -0.00624371 -0.00765827 -0.00698006 0.000807842 -0.00251159 0.00147351 0.00340219 -0.00328269 -0.00597269 -0.0104999 0.00204943 0.00464201 0.00876467 0.00845665 0.0096929 -0.00461047 -0.0120616 -0.00549879 -0.00312738 0.000383474 -0.00296834 0.000732757 0.00351166 -0.000344657 0.00165572 -0.00165366 -0.00248809 -0.00363854 -0.00839203 -0.00122868 0.0029657 0.000789051 0.00885453 0.0112704 0.00919913 0.00214045 -0.00139332 0.00375455 -0.00582938 -0.0109655 -0.0118832 0.00143128 -0.000711036 0.00219003 0.0012396 0.00911832 -0.000229322 0.00475193 0.00861222 0.00372175 -0.00709865 -0.00801435 -0.00427834 0.00618101 0.00355677 -0.00211286 -0.0008065 -0.00291606 -0.005095 -0.00897913 -0.0115855 -0.00391972 -0.00235847 -0.00477943 -0.00479646 -0.00591651 -0.00318528 0.00133475 -0.00285384 0.00619228 -0.00340549 -0.00135059 -0.00373029 -0.00217199 0.000760704 0.0058763 0.0067568 0.000937807 -0.00212227 -0.00202807 -0.000538881 0.000564618 0.00683708 0.000486213 -0.000922838 -0.00287419 0.00101581 -0.0018237 -0.00185315 -0.00845473 -0.00803426 -0.00173988 -0.0090396 -0.0109145 -0.00436091 -0.00570234 0.00280476 0.000779705 -0.00182162 -0.00231202 0.00354545 -0.00124714 -0.00196623 -0.00836093 -0.00869289 -0.00421567 -0.00182612 0.001131 -0.00102201 -0.000276201 -0.000488562 0.00158752 -0.00203541 -0.00202929 -0.00288419 -0.00413172 0.00149958 -0.00100019 0.000402882 -0.00251199 0.000520687 -0.00635443 -0.00929423 -0.00406044 -0.00318158 -0.00527294 -0.00205745 0.00105046 -0.000928842 0.00278042 -5.82511e-05 -0.00072396 -0.00579298 -0.00833865 -0.000586874 -0.00206409 0.00134492 0.000356402 -0.00619721 0.00310577 0.00210647 0.0043999 0.000196006 0.000906573 0.00766903 0.00627637 0.00127394 -0.00364373 0.00232662 0.000941093 -0.000192048 0.00530345 -0.00287288 0.00552997 0.00597666 0.00319493 -0.00563384 -0.00155607 -0.000631237 0.00473901 0.00450276 -0.00206709 -0.00185798 0.00264926 -0.00235601 -0.00605169 -0.00473911 0.00814804 -0.00532418 0.00116283 0.00106505 0.000513665 -0.00351301 -0.00191578 0.00426544 -0.00052799 0.000593166 0.00304853 -0.00230265 0.00468131 0.00685978 0.011111 0.00484041 -0.00673818 0.000600494 0.00104718 -0.00698908 -0.0118809 -0.00247334 0.0105776 0.00449144 0.000540368 0.000668325 -0.00111771 0.000483298 -0.00757858 -0.00471701 -0.00343033 -0.000690479 0.00397552 0.00364033 0.00706334 0.00761486 0.00966882 0.00473272 0.00369497 -0.00875026 -0.00653007 -0.00755184 -0.00561127 -0.012592 -0.00293605 -0.000359599 0.00221841 -0.00687965 0.00121719 0.00186079 0.00977098 0.00323115 0.00207062 -0.00832189 -0.00698516 -0.00529703 0.00186256 -0.00959551 -0.00559752 -0.00544053 -0.000260205 -0.000677142 -0.00577851 -0.00177422 -0.00688891 -0.00233146 0.00104673 -0.010823 -0.00670889 -0.00605595 0.00149028 -0.00539304 8.20409e-05 0.00378214 -0.00180444 0.000637255 -0.00253898 0.00201498 0.00403859 0.000874094 -0.00200994 -0.00492671 -0.00804474 -0.00670032 -0.00360371 -0.00240995 -7.9046e-05 0.0022657 -0.00260926 -0.00617065 0.000765509 -0.0043283 -0.00832402 -0.00884753 -0.00537592 -0.00675251 0.0034218 0.00269316 -0.00328386 -0.00557834 -0.00425486 0.00340976 -0.00658958 -9.04191e-06 -0.00511006 -0.00569125 -0.00740302 -0.00327058 0.000851805 -0.00198168 -0.000288272 0.00249545 0.00405766 0.0021629 0.0012657 0.000655177 -0.0020485 -0.00125547 -0.000376395 -0.0045303 0.00172661 0.00616666 -0.00154942 0.00199614 0.000815218 0.0044104 -0.00192453 -0.00296891 0.00352889 -0.0034309 0.00184188 0.00440333 0.00720207 0.00493863 0.00733779 -0.00185862 -0.01054 -0.00787203 -0.00315766 -0.00311688 0.000348969 -0.00232673 -0.000253989 0.00600839 0.00307599 0.00343539 0.00253233 0.00931918 0.00715023 -0.000816106 0.00817363 -0.000995311 0.00042203 -0.00227247 -0.00657769 -0.000579691 -0.00543934 -0.000376164 -0.00546727 -0.0128807 -0.0111782 -0.00292525 0.000803545 0.00669253 -0.00286305 -0.00475936 0.00783823 -0.000470108 -0.0028851 -0.000630816 0.0023781 0.000691789 0.00375233 0.00297944 0.00623794 0.00442911 3.56381e-05 -0.00385292 0.00515812 0.00583722 0.00829367 0.00971296 0.00961555 0.00499208 0.00776501 0.00419128 -0.00248706 -0.00592926 -0.0078764 -0.00082317 -0.0089016 -0.0051809 0.000186742 0.000808659 0.00474073 -0.000880839 0.0017251 0.00422837 -0.00534867 -0.00357911 -0.00279445 0.00576699 0.00643974 0.00388197 0.000757675 0.000592802 0.00464918 0.00555925 0.00393367 -0.00667285 -0.00349181 -0.0109672 -0.00937789 -0.00790932 0.000911202 0.00468869 0.00217404 -0.00550501 0.00123893 0.00460908 0.00272717 0.00015405 0.0134385 0.00532754 -0.00347171 0.00295696 0.0043082 -0.00117936 0.000328512 0.00071381 -0.00218304 0.00337534 -0.00371165 -0.00625082 0.00102841 0.000582595 -0.00431778 -0.00275307 -0.00816984 -0.0013921 -0.00431655 -0.0079411 -0.00214839 -0.000277941 0.00585966 3.47527e-05 -0.000990524 0.000147524 -0.00158641 -0.000943936 -0.00743224 -0.00834659 -0.00376472 -0.00197739 -0.00368144 -0.00555241 0.00166552 -0.00650774 -0.000782415 0.00398456 0.00174894 -0.00265434 -0.00591884 -0.00194914 -0.00502306 -0.00360559 0.00299372 -0.00198928 -0.00419269 -0.00712737 0.00153991 0.000765009 -0.00300005 -0.00205213 5.76269e-05 -0.00332628 0.00365601 -0.00225504 0.00342797 -0.00315141 -0.00773106 -0.00510043 -0.00602914 0.000873606 -0.00203814 -0.000964025 -0.00202305 -0.0014003 -0.00140625 -0.00177426 0.00500809 0.00906157 -0.0013063 0.00323116 -0.00368374 0.00395109 -0.000930266 0.00322482 -0.000872188 -0.00121834 0.00100543 0.00379866 0.00145748 0.00123793 -0.000552563 -0.0031814 -0.00499987 -0.000434219 -0.00388823 -0.00802998 0.00283137 0.00210387 0.00511084 0.00360825 -0.0040544 -0.000851726 0.00248297 0.00927533 0.00282659 0.00476193 -0.000165157 -0.000452926 -0.00378324 -0.00275875 -0.00841048 -0.00312212 -0.00314873 -0.00319305 -0.0159741 -0.0127347 -0.0098984 -0.00539103 -0.00387868 -0.00365234 -0.00123766 -0.00581835 -0.000509985 0.00825798 0.0038762 0.00788782 0.0115651 -0.00462379 0.00271708 0.00213032 0.00916025 0.00586355 0.00167228 -4.143e-05 -0.00155766 0.00800111 0.00722474 0.00366793 0.000579876 0.000104588 -0.000281496 0.00127152 -0.00824572 -0.00407882 0.00185776 -0.0034849 -0.00193736 0.00278068 0.0102088 0.00640314 0.00416067 0.00733863 0.000312733 0.00222534 -0.00279563 -0.00683386 -0.00232869 0.000343599 -0.00112234 0.00749014 0.00297235 0.000327404 0.000921816 0.00752942 0.00226404 0.0030976 -0.00323551 -0.00215647 -0.00110278 -0.000536 3.80292e-05 0.00116581 0.00296282 0.0052549 0.00574111 -0.000137404 0.0021888 0.0102602 0.00574941 0.00124395 -0.00419471 -0.00276595 -0.00209372 -0.00128354 0.00349942 -0.00116523 0.0072396 0.00365305 -0.00228988 0.00232984 0.00152871 -0.00218001 -0.00591866 0.00336871 -0.000939861 -0.00016289 -0.00576934 -0.00739395 -0.00525894 -0.0013907 -0.00235437 0.00398656 -0.00247562 -0.0036245 -0.00683215 -0.00675252 -0.00412729 0.000407197 -0.000192223 0.00504702 -0.00205048 0.00346734 0.00437781 0.0036095 0.00132093 0.00358506 0.00832754 0.00468825 0.00259804 -0.00198795 -0.0018746 -0.0019179 0.000592796 0.000843354 -0.0011462 -0.00286217 0.00395373 -0.00303783 -0.00605169 0.00308878 -0.00691609 0.00171702 0.00671496 0.00149452 0.00264565 -0.0013854 -0.00942495 -0.00176901 -0.00256268 -0.000745713 -0.00315118 -0.00251397 -0.00133533 -0.00267822 -0.00513511 -0.00558325 0.00758991 0.0112266 -0.00498796 0.00616611 0.00149326 -0.0012567 0.00297938 0.00105169 -0.00561568 -0.0035098 0.00285228 0.00671635 0.00666824 0.004731 0.00274647 -0.000176271 -0.00574553 -0.00124872 -0.00497701 -0.00245068 5.67973e-05 0.00140299 0.00512301 0.00415198 -0.00325339 0.00553375 0.00205757 0.0123512 0.0140532 0.0123243 0.00612479 0.00592832 0.000286567 0.000626726 -0.00590493 -0.00132365 -0.00905905 -0.00671311 -0.0087722 -0.00676572 -0.00567518 -0.00114669 -0.00332146 -0.00285821 -0.000176097 0.00208439 0.00361109 0.00330588 0.00315751 0.00779619 -0.00342514 0.00756955 0.00670059 0.00265321 0.00490205 0.0103187 0.00560702 -0.000533505 -0.000212517 0.00437635 0.00672949 0.00358119 0.00126124 -0.00569304 -0.00444602 -0.00385886 -0.0063222 -0.00492352 -0.0018531 -0.0012948 -0.0064087 0.00011661 0.00266956 0.00315922 -0.00271325 0.00271785 -0.00431135 0.00333033 -0.00672564 -0.000784571 0.00340699 -0.00459349 -0.00215775 -0.00110319 0.00176605 0.00973374 0.00599321 0.00509603 0.00173972 -0.000609622 -0.00670696 -0.0107387 -0.00150977 -0.000635569 -0.00274014 0.00407567 0.000861097 2.01271e-05 0.000183037 -0.00620364 -0.000876104 0.00649118 0.0016922 -0.00628327 -0.003529 0.00334401 0.010789 0.00665505 0.00696201 0.00633691 0.00862945 0.00389546 0.00664158 0.00415057 -0.003596 -0.00561082 -0.00873279 0.00372249 -0.00689311 -0.00225242 -0.00733659 -0.0148876 -0.0109843 0.000796143 -0.00543895 -0.0107423 -0.0100773 -0.0121584 -0.00835857 -0.0121215 -0.0126031 -0.00177765 -0.0027916 -0.000997319 0.00198177 0.006883 0.00291846 -0.00659784 0.000236289 -0.000506659 0.00024814 0.000760309 -0.00186611 -0.00383857 -0.000383662 -0.00182271 0.00162579 -0.00101609 0.00298829 -0.00107099 0.00137032 0.00427906 0.00231059 0.000415979 -0.00176685 0.00673255 0.00233738 0.000631637 0.00133681 -0.00214318 -0.00522813 -0.00549765 0.00164469 -0.00412427 -0.00449818 -0.00826393 -0.00427081 -0.000663432 -0.000943615 -0.00509518 0.0020341 0.00726436 0.00285602 0.0051346 0.00143004 -0.00374299 0.00246223 0.00176812 -0.00605852 0.00100037 -0.00218317 0.0090746 0.00399064 0.00632856 0.00568357 -0.000733467 0.000657404 0.000890626 -0.000467066 -0.00230634 -0.00406972 0.00374596 0.00612718 0.00601025 0.00411533 0.00222613 0.00236188 0.010444 0.0143579 0.0116865 0.00340921 0.00918127 0.00535567 0.0101371 0.00511783 -0.00196564 -0.0120956 -0.00284935 7.67092e-05 -0.00159891 -0.00485379 -0.00794295 0.00183314 0.00295893 -0.00203434 -0.00214579 -0.00402725 0.00510003 0.0064932 0.00691365 0.00986751 0.00755403 -0.00201027 0.00863213 0.00620041 0.00503864 -0.00540168 -0.00705701 -0.00323637 -0.00347087 0.00346323 0.00200914 -0.00364513 -0.0020866 0.00291807 0.00614922 0.00242724 -0.0035982 0.000608573 -0.00326698 -0.00141769 0.00214051 0.00615259 0.0024941 0.00286087 -0.00372701 -0.00187516 0.00260369 -0.00450615 -0.000453935 0.00559304 -0.00157855 -0.00953948 -0.00518735 -0.000957712 0.0032607 -0.00431647 -0.000708128 -0.000154938 -0.00212958 -0.01373 -0.0056786 0.00091766 0.00154325 0.00434606 -0.00275402 -0.00245438 -0.00204828 0.00774943 0.00107981 -0.00603452 0.00337131 0.00174911 0.00193135 -0.00590382 0.00207437 0.00295655 0.00573376 0.00549654 0.00701347 0.010184 0.00573542 0.00182808 0.00087048 -5.38929e-05 -0.00564763 -0.0135126 -0.0011181 0.00189229 -0.00150497 -0.00662165 -0.0134786 -0.00527163 -0.00434677 -0.00462211 -0.00998429 -0.00973871 -0.0108823 -0.00948815 -0.00842448 -0.00701615 -0.00946565 -0.00761931 0.000602974 0.00298354 0.00371444 0.00283202 -0.000974351 -0.00295184 -0.00546172 -0.00370245 -0.00264348 -0.00350249 -0.00653815 0.00538497 0.00438297 0.00275151 -0.000533035 0.00249108 -0.000511684 0.00829698 0.00592307 -0.00439589 0.00235089 0.00256319 0.000887276 0.00196456 -0.00281779 0.00233977 0.000299895 -0.00468462 0.000711662 0.00612322 0.00244022 0.00134062 -0.00354134 0.000380537 0.00179496 -0.000656021 -0.00127184 0.00527344 0.0017589 0.00135492 0.00679033 -0.00311783 -0.00954046 -0.00602859 0.000829065 -0.00185191 -0.00168572 -0.00271934 -0.0047693 0.00606475 0.00133439 0.00586827 -0.00456612 -0.00751543 -3.7971e-05 0.00436005 -0.00500628 0.00555258 0.0047207 -0.00133953 0.00910396 0.00552291 0.00430595 0.00193885 0.00669535 0.00933362 0.0119056 0.00727411 0.0072972 0.00631802 0.0039155 0.00443159 0.000299272 -0.00723706 0.00292029 -0.00777238 -0.00250939 -0.00553294 -0.00534985 -0.0044185 -0.000933788 -0.00257087 -0.00479368 -0.00371172 0.0046459 0.00521061 0.00657466 0.00784731 0.00627864 0.00446283 0.00841924 0.00749266 -0.00011827 -0.00171699 -0.00332326 -0.00139315 -0.000142277 0.00363184 0.00285871 0.00166698 -0.00188698 -0.000884653 -0.00924865 0.00259693 -0.00192578 0.00232529 -0.00288796 0.000421767 0.00639933 -0.0001533 0.00157389 0.00464966 0.00144078 -0.000245639 -0.00556737 -0.00567701 -0.00289063 0.000505283 0.00206649 -0.00175795 0.00153129 -0.00600935 -0.0107167 -0.0011738 0.00264335 0.00508603 0.000903344 -0.00676745 -0.000805328 -0.00202829 0.00110275 -0.00689156 -0.0107634 -0.000619289 0.00123768 0.00752931 0.00602681 -0.000679647 0.00584143 0.00453385 0.00135729 -0.0048896 -0.000605532 0.00339709 0.00423673 0.00362995 0.00614935 0.0118 0.00515963 0.00799166 0.00176681 -0.00552416 -0.00930734 -0.00811886 -0.00126959 -0.00465368 -0.00292492 -0.00132908 -0.00515309 -0.00299659 -0.00498038 -0.000108468 -0.00227046 -0.00867692 -0.00477106 -0.00105584 -0.0096879 -0.0066663 0.00049702 -0.00445647 -0.00237621 0.000182547 0.00628998 0.00776983 -0.00178774 -0.0037781 -0.0123227 -0.00508674 -0.00474365 -0.00782464 -0.00852463 -0.00323739 -0.00471948 0.00271828 -0.00193408 -0.00599299 -0.00743527 0.00232195 0.00141482 0.00069248 -0.0031039 0.00508225 0.00167742 -0.00461126 0.000103776 -0.000205821 -0.00334296 0.000771892 -0.00490051 -0.00408854 0.00281584 0.00375802 -0.00151263 0.000115927 -0.00171426 -0.00235539 0.00245533 0.00516642 0.0023307 -0.00286361 0.000330022 -0.00714036 -0.00402629 -0.00385686 -0.00286854 -0.00610882 0.000625292 -0.00632938 -0.00263639 -0.000833431 0.00547545 0.00445136 -0.00282843 -0.00987383 -0.000511534 -0.00263765 -0.00581727 0.000552329 0.00113055 0.00125517 0.00814153 0.00655546 0.00253862 0.0010745 0.00294288 0.00916826 0.00658447 0.00339185 0.0080053 0.0084538 0.00471011 0.00387347 -0.00226832 -0.00974383 -0.00614592 0.00607472 -0.000100323 -0.00119943 -0.00305573 0.000874213 -0.00544799 -0.0107854 -0.00676552 -0.00294653 -0.00424554 0.00399081 0.00901686 0.00989872 0.00238123 0.00599943 0.00637693 0.00827914 0.0050217 0.0014227 0.00683604 0.000121363 -0.00270624 0.00620497 -0.0011736 0.00362313 -0.00315371 -0.00790953 -0.00617614 -0.00120391 -0.00114509 0.0012226 0.00273056 0.000983506 0.00354864 0.00429064 -0.000600428 0.00724372 -0.000773028 -0.00272035 -0.00217298 -0.00350994 -0.00123586 -0.00336213 -0.00376311 0.000690261 -0.0021242 -0.00523465 -0.0101087 -0.0103136 -0.00355814 0.00143002 -0.00155584 -0.00401972 -0.00708871 -0.00669184 8.04589e-05 -0.00108348 -0.00786643 0.00186477 0.00503761 0.00475097 -0.00624923 -0.00585568 -0.00294103 -0.00195049 0.000767135 -0.00239165 0.00165806 -0.000952912 -0.00183239 0.000447911 0.0031722 0.00892292 0.0115741 0.00489737 0.00825315 0.00156258 -0.00833978 -0.0113617 -0.00284183 -0.00415566 0.00637545 0.00549333 -0.000114757 -0.0023544 0.000541122 0.00163305 0.00438715 0.00389465 -0.00359877 -0.00492229 -0.00605598 -0.00219996 -0.00788952 -0.0101175 -0.00823462 0.00134985 0.00180442 -0.00235365 -0.00238239 -0.00170254 -0.00671497 -0.00410833 -0.00472223 -0.00855226 -0.00797599 -0.000166372 -0.00223503 -0.00213957 -0.00272143 -0.00480273 0.00470039 0.00217591 -0.0032682 0.00192375 0.00165057 0.00342986 -0.00115467 -0.00305126 -0.00107054 -0.00260897 -0.00517575 4.61955e-05 -0.00425331 -0.00893565 -0.00531983 -0.00229608 0.00341205 0.00408965 0.00287104 0.00408457 -0.00152713 0.00586908 0.00257116 -0.00404215 -0.000645985 -0.00521242 -0.00509031 -0.00458221 0.000767228 -0.00469782 0.000497765 -0.00535677 0.000799176 -0.00229841 0.00111494 0.00302917 0.00112283 -0.00270168 0.00394299 -0.00317135 -0.00916113 -0.00314685 -0.00058611 0.00190083 0.00222442 0.00643882 0.00322486 0.00449699 0.00293576 0.00233757 0.00107335 0.00300099 0.00494761 0.00456789 -0.0046775 0.00238839 -0.00491879 -0.00714629 -0.00689834 0.00288026 0.00460311 0.00269413 0.00192683 0.00200959 -0.00396524 -0.01175 -0.00451098 -0.0026862 0.00390696 0.00673362 0.0137668 0.0117541 0.00161662 0.00438729 0.00978962 0.00619482 0.0101369 0.00258777 0.00336156 -0.00597618 -0.0051249 -0.00413028 0.00303755 0.00415154 -0.00737247 -0.00629207 -0.00484973 0.0114178 -0.00347297 -0.000225125 0.00822267 0.00477337 0.00525342 0.0112879 0.00403998 0.00622821 -0.00134143 -0.00834572 -0.00451938 -0.00320853 0.00365006 -0.00537854 0.000649716 0.00647294 0.000580223 -0.00795254 -0.00952632 -0.0110755 -0.000311019 -0.00250462 -0.00115025 0.00475433 0.00716098 0.000399247 0.00010656 -0.00219124 -0.00218243 0.00445865 0.00918709 -0.000302828 -0.001538 -0.00454855 -0.00928928 -0.0106994 0.00488804 0.00571854 0.00116747 -0.00454098 0.00853899 -0.00237672 -0.000186343 -0.0012584 0.00233896 -0.000117837 0.00807037 0.0076706 -0.00799308 -0.0107099 -0.00670114 -0.00273056 0.00279816 -0.000992815 0.000379685 -0.00524268 -0.00196615 0.00532581 0.000723746 -0.000729729 0.00278895 0.00155288 0.00282418 -0.00297793 -0.00432417 -0.00752484 -0.00133744 0.00449429 0.00546694 0.000164032 -0.0007794 -0.00161354 0.0043956 0.00242351 -0.00165157 0.000606744 -0.00223439 0.00235393 -0.0044584 -0.00132826 -0.00217901 2.99762e-05 -0.00040561 0.00111353 0.00530289 0.00581867 0.00407837 0.00903195 0.00380468 0.00162953 0.0022196 0.0022826 0.00915207 -0.00168706 -0.00529627 -0.00613461 -0.0105733 0.00546671 0.00505685 -0.00152705 0.00476448 0.00414862 -0.00128206 0.00678837 0.000494271 -0.0046837 -0.00711756 -0.00313238 -0.0020194 -0.00464624 -0.00718767 -0.00661236 -0.00715048 -0.00535379 0.0034704 -0.00266014 0.0030102 0.00981937 -0.00348942 -0.00474516 -0.0035316 -0.00736294 -0.00797517 -0.00311395 -0.00750331 -0.00286283 -0.000788536 -0.00486121 0.00357364 -0.00241019 -0.00353279 -0.00721867 0.000146132 -0.00293284 -0.00405878 -0.00950985 -0.001317 0.00321088 -0.000144249 -0.00167955 0.00178493 -0.00095069 0.00662191 0.00031226 -0.00200588 0.00432838 -0.00354428 -0.00816059 -0.00577702 0.00641789 0.00900142 0.00238811 0.0107472 0.00416425 -0.00160231 0.000973203 0.00254731 0.00829351 0.00883532 0.00496271 0.00600794 -0.00666754 -0.00526647 -0.00193596 0.00559652 0.00884923 -0.00968377 -0.010605 -0.00249586 0.00391551 0.00316707 0.000356148 0.0043218 0.0082651 1.92697e-05 -0.002652 0.00120854 -0.00591374 -0.00281081 -0.00668322 -0.00191686 -0.00748085 -0.00326697 -0.00568621 -0.00936341 -0.00131545 0.00736918 -0.00168327 -0.00199866 0.00138385 0.00315591 0.00545636 0.00533165 0.00300426 0.0108536 0.000174027 -0.0028311 -0.00516584 0.000625002 0.000185481 -0.00438282 -0.00970755 -0.0140915 -0.000464138 -0.002187 0.000154673 0.00731034 0.00604129 0.001213 0.000475924 -0.00593334 0.000770132 -0.00724807 -0.00297029 -0.00164195 -0.00331214 0.00441571 0.0075326 0.00185436 -0.000175437 0.00200175 0.00767599 0.00941205 0.000789272 -0.00431234 0.00445602 -0.00299295 0.00410981 -0.000381075 0.00639238 0.00437036 0.00173958 0.00724665 0.00743533 0.00226834 -0.00295511 -0.00176869 -0.00238287 0.00266204 -0.000241779 0.000700928 0.0018582 0.000606229 0.00162879 -0.00108709 0.0040742 -0.00226852 0.00567509 0.00475702 0.00266233 0.00130052 -0.00313096 0.00152457 0.000878248 -0.000906231 0.00831747 0.00896892 0.00416074 0.00355875 -0.00265283 -0.00726358 -0.00121112 -0.000754147 -0.00929299 -0.0175522 -0.0102449 -0.00678134 0.000248318 -0.00110409 0.00213036 0.00774439 0.000575851 0.00942203 0.00256186 -0.000964276 -0.00238573 -0.000319889 0.000384956 -0.00351346 -0.000889077 -0.00404117 -0.00767034 -0.00499734 -0.00237274 -0.00321248 -0.000695629 -0.00119402 0.00022604 0.00227495 0.00132203 -0.00235136 -0.00765196 -0.00793723 -0.00368955 -0.000241007 -0.00244427 -0.000459516 -0.00524796 -0.00565699 -0.00302138 -0.00651861 0.00304209 0.0031509 0.000839709 -0.00444492 -0.00617183 0.00413679 -0.0002131 0.00460109 -0.00515172 0.00113369 0.00326557 0.0031195 -0.000563518 0.00322085 0.00258389 -0.0067826 -0.00719759 -0.00497586 0.00408954 7.8464e-05 0.00237801 0.00851332 0.000877088 0.0060972 0.00521444 -0.00094349 0.00456231 0.00910799 0.00369008 0.00715334 -0.00159636 -0.00237833 -0.00611713 0.00283953 -0.00151356 -0.00532445 -0.00346487 -0.00698458 0.00185586 0.00708113 -7.25865e-05 0.00305451 0.00282273 -0.0024294 0.00140206 -0.00790544 0.000115444 -0.0106476 -0.00652677 -0.00347295 -0.00083907 -0.0105314 -0.0042636 -0.00548332 0.00080495 0.00303233 0.0093076 0.00725424 0.0063083 0.00668019 0.0111476 0.00517086 0.00770533 0.00939999 0.00496401 -0.00329157 -0.011417 -0.00321337 0.000833002 -0.00465931 -0.0123596 -0.00622268 -0.00183827 -0.00167538 0.00459909 0.00505814 -0.000774525 -0.00844582 -0.00130119 0.000763137 -0.0100495 -0.00506317 -0.00188858 -7.67383e-05 0.00129557 0.00282586 0.00703099 0.0069432 -0.0010856 0.00445668 0.00717481 0.00987641 0.0017315 -0.00288298 -0.00577238 0.0159497 0.00227484 0.0045827 0.0024882 -0.00119678 0.00558648 0.00209725 0.00839519 0.00362041 0.000134031 -0.00324872 -0.00526874 0.00535167 0.00802257 0.002768 0.00102976 -0.00183449 -0.00265617 -0.000236987 -0.00570119 0.00115871 0.00268393 0.00442182 0.00520964 0.000854215 0.00234218 0.00232807 -0.000436209 0.00151985 0.00100342 0.00485018 0.0105919 0.00385157 0.000887607 -0.000723117 0.00312088 0.000323026 -0.0049265 -0.0100906 -0.0117241 -0.013141 0.00872742 0.00326166 0.000154286 0.00380875 0.00322612 0.00449451 0.00970646 -0.00295168 -0.000892108 0.000782399 0.0026769 -0.00770097 -0.00121142 0.00319917 -0.0054906 -0.00199702 -0.00183142 -0.00145782 -0.00132948 -0.000888705 -0.000799602 0.00916701 -0.00106696 0.00261026 -0.00298049 -0.00427534 0.00221672 0.00226217 0.000858687 0.00415026 0.00223467 -0.00372732 -0.00698649 -0.00672625 -0.00476991 -0.00278757 0.00149851 0.0018735 -0.00302428 -0.000169157 -0.00250849 0.000257422 -0.00608372 0.00464333 0.000835155 -0.000153436 -0.00194988 -0.00322661 -0.000242057 0.000472212 -0.00529391 -0.00851778 1.99922e-05 5.7022e-05 0.00307158 0.00418164 0.00426832 0.000918218 -4.24072e-05 -0.00183821 -0.00155668 -0.00197769 -0.00579627 0.000420868 -0.00382745 -0.00842687 -0.0082829 -0.00457032 -0.00702031 -0.00545609 0.00198325 -0.00575691 -0.00279761 -0.00367113 -0.000808608 -0.00190832 0.00364774 0.000669577 -0.00134558 -0.00755967 -0.00650709 -0.00810124 -0.00492569 -0.00383428 -0.00184348 -0.011456 -0.00824119 -0.00351886 0.000730838 0.00735972 0.00398059 0.00555519 0.00459341 -0.00288204 0.0074478 -0.000850375 -0.00291025 0.00499121 -4.23485e-05 -0.00216308 -0.00472532 -0.00541193 0.000515813 -0.0011289 -0.0164376 -0.00925466 -0.00414637 0.00236811 0.00452641 0.00361945 0.00203478 -0.00350786 -0.00443496 -0.00543229 -0.00789523 -0.00296468 -0.00319539 0.000382522 -0.00185474 -0.00092609 -0.0033963 0.000402655 -0.00203152 0.0105499 0.0106145 0.00420047 0.00358306 -0.00136773 -0.00193775 0.00692228 0.00519144 0.00369653 0.00291541 0.000677647 0.00820945 0.00423068 0.00148798 -0.00231046 0.00334492 -0.000481269 -0.00252979 -0.00166425 -0.0037677 0.001992 -0.00441431 -0.00310035 -0.0109244 -0.00291442 -0.00407457 0.00594082 0.00456938 -0.00302421 -0.00306536 0.00146451 0.00262619 0.00191079 -0.00148006 0.00540329 0.00153244 0.00555679 0.00549471 0.000944714 -0.00918268 -0.00422943 0.00489054 0.0020266 -0.00274703 -0.00902898 -0.00306987 -0.00424657 0.0026097 0.00557555 0.00232225 -0.000249074 0.00400714 0.00163845 0.00351841 -0.00182019 -0.00377262 0.00186793 0.000671998 0.00577509 0.00213292 -0.00201995 -0.00478547 -7.46741e-05 0.00179323 0.00121128 -0.00464407 -0.0015689 -0.000178704 0.00662556 0.00158667 0.00639966 0.00371063 -0.00267232 0.00233016 -0.000673771 0.000411063 0.000549491 0.00316399 -0.00501862 -0.00727797 -0.00595574 -0.00108359 -0.00317482 -0.00250283 -0.00481556 -0.00704176 -0.00398648 0.00379883 -0.00459832 -0.00153296 0.0107457 -0.00242912 -0.00720979 -0.00544021 -0.00192788 0.00407198 0.00464731 0.000587289 -0.00273157 0.00403439 0.00628505 -0.00241963 0.000843011 0.00113407 -0.000560448 0.00555418 0.00207996 -0.00286036 0.000386391 -0.00496978 -0.00259848 0.00242701 -0.00753761 -0.00626329 -0.00699378 -0.00747125 -0.00797958 -0.00525109 -0.0102621 -0.00267082 -0.00763688 -0.00421427 -0.0017715 -0.00426536 0.00387011 0.00459687 -0.00233911 -0.00374462 -0.00661792 -0.0107083 -0.00474017 -0.00452982 0.0016964 0.00212151 -0.00742415 0.000468605 0.00593966 0.00152026 0.000337013 0.0099292 0.00174034 0.00136138 0.00388787 0.00297937 0.00850699 0.00082785 -0.00388557 0.00573081 -0.000370316 -0.00310062 -0.00368014 -0.00903954 -0.00875297 -0.00249932 -0.00463731 0.00747642 0.00263115 0.00250399 -0.00620617 -0.0060302 -0.00592072 -0.00492375 -0.00864212 -0.00975717 -0.00775442 -0.00400751 0.00121386 -0.00455048 -0.000451791 -0.00142776 0.00162119 0.00406482 0.0071534 0.000287867 -0.00303871 -0.00797439 -0.00613977 -0.00121794 -0.00305797 -0.0010019 -0.000928415 0.00547513 0.00655802 -0.0028056 -0.00489111 0.00149314 -0.00287992 -0.0019972 -0.0020565 0.00156556 -0.000593487 0.00136056 -0.000952306 0.00147776 0.00654752 0.0056359 0.00421826 0.00244199 -0.00148414 -0.00442826 -0.006112 -0.00389185 0.000454955 0.00225102 0.00171052 -0.00330495 0.00412692 0.00825519 0.0059681 -0.00211241 -0.000179794 0.00172015 -0.00137701 -0.000991302 -0.00286921 -0.00439279 -9.91066e-05 -0.000262103 0.00135259 -0.00795797 0.0027018 0.00397659 0.00200731 0.0003305 -0.000499403 -0.00345099 0.00354034 0.0115859 0.000576457 -0.000761182 0.00122797 -0.00249768 -0.000681345 -0.00406681 0.000684965 -0.000348684 0.00040653 0.00347157 0.00226991 0.00177891 -0.00258077 0.00191987 0.00556948 0.00742358 0.00199486 0.00374279 0.00685105 0.0119577 -0.00266919 0.00224715 0.00057706 0.00430154 -0.00271524 0.00135373 -0.0111507 0.0026365 -0.00194709 -0.00113887 -0.00226411 -0.00199596 -0.000206734 -0.00146058 -0.00470983 -0.00198508 0.00297311 0.00417601 0.00509707 0.00804482 -0.00854196 0.000564467 0.00217717 -0.00121604 -0.000366896 -0.00181169 -0.00215552 0.000632887 -0.00357733 0.00137512 -0.00606475 -0.008709 0.00609955 0.00715516 -0.00330768 -0.0105446 -0.000912109 -0.00781288 -0.00344772 -0.000876629 0.00187799 -0.00374866 -0.0012175 -0.00190445 -0.00131385 -0.00396528 0.00267952 0.00772971 0.00969109 0.00270919 -0.00603002 -0.00636465 -0.00477568 0.00127746 -0.00102869 0.00294178 -0.00415325 -8.58104e-05 0.00444203 0.0022987 0.00641709 0.00841579 0.00377862 0.00920064 0.00705549 0.00460194 0.00216495 -0.00250675 0.00312748 -0.00520984 -0.000154171 -0.00678363 -0.00128355 -0.0139724 -0.0108647 -0.00114812 0.000644863 0.0107232 0.007111 -0.000671876 -0.00301388 -0.0048747 -0.00215406 -0.00796805 -0.0118921 -0.00719756 -0.012041 -0.002257 0.00449082 -0.00439407 0.00023679 0.00048741 0.000134902 0.0019186 0.000674988 0.00236038 0.00601288 0.00478473 0.00502301 0.00293176 -4.22767e-05 0.00158427 0.00240021 0.00349906 0.00251692 0.00329196 0.00446568 0.0021287 -0.00498003 -0.00471388 -0.00921927 -0.0018468 -0.000705314 0.00587361 0.00625731 0.00478047 0.00256819 0.0038964 0.00251311 0.00429431 0.00149576 -0.00122345 -0.00485747 0.000630453 0.00211141 -0.00297217 0.000427297 0.000346325 -0.00215302 0.00505327 0.0078095 -0.00388318 -0.00625974 -0.00129013 -0.00339253 -0.00170189 -0.0014302 -0.00221687 -0.00629638 -0.000667347 0.00116348 -0.00473104 -0.000764191 0.00273415 0.00629622 0.00232651 0.00350929 -0.00740542 -0.00601132 0.0046858 0.000193421 0.00318378 -0.000758841 -0.00643846 -0.00473566 -0.00529252 -0.00149262 -0.00160334 0.00210052 5.61205e-05 0.00964524 0.00348315 0.00115331 0.000838212 0.000333569 0.000495603 -0.000228412 -0.000614857 0.00317204 0.00535389 -0.00352337 0.00103163 -0.00480393 -0.00144174 0.00145796 -0.000893001 -0.00196706 -0.00536472 -0.000763509 0.00484126 0.00623645 0.00339747 0.00353967 -0.000723794 -0.00258604 -0.000956506 0.00225656 0.000582522 0.0039218 0.00448201 -0.00528593 0.00111083 -0.00253824 -0.00986335 -0.00617971 0.00306149 0.00293685 0.000108879 -0.00497517 -0.0044191 -0.0056069 -0.00542631 0.0036726 0.00188529 -0.00255112 -0.0042221 -0.0015993 -0.0117561 -0.000116472 0.000826187 0.000681216 0.00259382 0.00594723 0.00781361 0.00444617 0.00106176 0.0003113 0.00211074 0.00594942 0.00278613 -0.00373112 0.00363675 -0.0077532 0.0036024 0.00503544 -0.00174695 -0.00828815 0.00383837 0.00560783 0.00621562 0.00122146 -0.00136014 -0.00126928 -0.000163567 0.00417871 0.00321438 -0.00522104 0.000768688 0.00951264 0.00745952 0.00618888 -0.00630825 -0.00279194 -0.00356355 -0.00778979 0.00402135 0.00222284 0.010494 0.00888086 0.0105016 0.000996653 -0.00217461 0.00123156 -0.013134 -0.00837957 -0.0149944 -0.00527315 0.000283811 -0.00224373 -0.00531648 0.000155928 0.00181581 0.000383506 0.00467169 -0.000635271 0.00986698 0.000400608 0.00083535 0.00778354 -0.00414594 0.00208414 0.0048855 0.00115191 0.00620288 0.0051838 -0.000292262 0.00536858 0.00738051 0.000350695 -0.00857255 -0.00020069 0.000177586 -0.00149257 -0.000594179 0.00220904 0.00457026 0.00380479 0.00810306 0.00547227 -0.000209298 0.00704204 -0.00248869 -0.00987712 -0.00649901 -0.000142574 -0.00317878 0.00165507 -0.00269875 -0.00868235 -0.000946095 0.0057151 -0.00338043 -0.00436975 -0.00222857 -0.00562686 -0.0111307 -0.00708074 0.00215077 -0.00530827 -0.002362 0.000636031 -0.00279953 -0.00131099 0.000295676 0.00719225 0.00700272 0.00675082 -0.00205239 -0.000328422 0.00797983 0.00707647 0.00381902 0.00267308 -0.00458265 -0.00252929 2.52724e-05 0.000987799 -0.000687196 0.00211798 0.00196268 0.00444334 -0.000750067 0.00247638 -0.00143515 -0.00234933 -0.000788416 -0.000632461 0.00115311 0.00149134 0.00597435 -0.0033131 -0.00759802 -0.00592471 0.00258973 -0.00257731 0.00210377 -0.00251997 0.00142047 0.00539039 0.00487566 0.00305274 0.00130449 -0.000226658 -0.00435983 0.00263555 0.00390845 0.00776327 0.00353967 0.00542229 0.00332235 -0.00303096 0.00235993 -0.00305691 -0.00821687 -0.00483917 -0.000290902 -0.00586401 -0.0046111 -0.00814491 -0.000507809 -0.00308009 -0.00368006 -0.00129819 0.00267137 -0.00116158 -0.00564758 -0.00310898 -0.00370463 -0.0110185 -0.00760257 0.000416375 0.00097682 0.000718472 0.00313071 0.0012375 0.00334083 0.0093684 -0.00375592 -0.00140613 -0.000891321 -0.00596528 0.00435806 0.000373821 0.00194927 0.00256816 -0.00370715 -0.00687339 -0.00148013 0.0118444 0.0092707 0.00634621 0.00649706 0.0140654 0.00501348 0.00270754 -0.00151699 -0.00184814 -0.000887913 0.00766903 0.00342758 0.00186328 0.000676417 -0.00248437 -0.00416146 0.000764073 -0.00064576 0.00188706 0.00685769 -0.000336855 0.00557399 0.00125975 0.000591288 0.00520772 0.0019808 -0.00226897 -0.00982706 -0.00168927 -0.00161492 0.000513958 0.0025205 0.000713157 0.00339951 0.00234683 -0.00293886 -0.00386816 0.00802259 0.00633314 0.00343393 -0.00296864 -0.00360723 -0.00546796 -0.000254119 0.00370388 0.00611856 0.00466661 -0.00286543 -0.00235 0.00438531 0.000971541 -0.00295427 -0.00141808 0.000121497 0.00197698 -0.00431621 0.00026158 0.00182767 0.000638199 0.00935512 0.00441278 0.00271037 0.00243957 0.00404004 -0.00409295 -0.0062101 -0.00870388 -0.00356882 -0.00326943 -0.00604823 0.00102938 0.00204552 -0.00127545 -0.00426877 -0.00711354 0.000244102 -0.0109977 -0.00617466 -0.00378664 -0.00185858 -0.00877582 -0.00601778 -0.00445174 -0.00301506 -0.000382515 0.00296172 0.00303805 0.00639485 0.00563156 0.00272502 0.00314316 0.00374747 0.00960325 0.00344908 0.00087295 -0.0029583 -0.0035717 -0.00329279 -0.00138436 -0.00280782 0.0004152 0.00844982 0.00437322 0.000241454 0.0043131 0.00145002 0.00241992 -0.00435078 -0.0101648 -0.00128175 0.00184361 0.00331882 -0.0078811 -0.00973056 -0.00662457 0.00606478 0.00257761 -0.00245389 0.00156143 0.00185666 0.00548505 0.00578383 0.00558661 -0.00211087 0.00159993 -0.00183739 -0.0022781 0.00441001 -0.000904379 0.00596048 0.00786649 -0.000666382 -0.0045838 -0.00359545 -0.00265049 -0.00474296 -0.00677004 -0.00378443 -0.0039907 -0.0064448 -0.00708695 -0.00511613 -0.00895395 0.000225021 -0.000246722 0.000400684 0.00187624 -0.00610638 -0.00202953 -0.0095075 -0.0115029 -0.00675605 -0.00244397 -0.00368667 -0.00527427 0.00193807 0.00990348 0.00265855 0.00521471 0.00232015 0.000203809 -0.00192633 -0.0012928 0.0027056 0.00850612 0.00128556 -0.00204061 -0.000793258 -0.00662237 -0.00177246 0.00245564 -0.00584615 0.00244035 0.00582675 0.00612181 0.000612737 -0.00450143 -0.0071864 -0.00752687 -0.00424455 0.0057014 -0.00365391 0.00111404 -0.00061212 -0.000827892 -0.000927587 0.00692543 0.00232418 0.00392778 0.00399079 -0.00358254 0.00265908 0.00960905 0.00275626 -0.00180021 -0.000507232 -0.0068952 -0.00644925 -0.00366643 -0.00333286 0.000736788 -9.75989e-05 -0.00134064 -0.00302547 0.00157451 0.00508381 -0.00113805 0.00559295 -0.00263934 0.000336677 0.00241366 0.00287657 0.000469925 0.00447528 0.00112111 0.00763602 0.00522443 -0.000475045 -0.000821739 0.00143999 0.00331865 -0.00538196 -0.00424073 -0.00189769 0.00411073 0.00070698 0.00389749 -0.00331797 -0.00277415 0.00261385 0.00942819 0.00671056 0.006892 0.0086734 -0.0027461 -0.00984016 -0.00567166 -0.00779505 -0.00344418 -0.0023449 0.00258885 0.00339102 -0.0021174 0.00470116 -0.000803483 -9.46961e-06 -0.00359618 -0.00623192 -0.00279109 -0.011 -0.00509964 -0.00188756 -0.0077244 0.000311758 0.000427303 0.00884367 0.00420749 0.00295614 -0.00140113 -0.00228567 0.00390798 0.00479729 0.00508968 0.00839449 0.00201938 0.0046477 -5.72263e-05 0.00197675 -0.00990833 -9.44113e-05 0.00199811 0.0062769 0.00195956 0.00394198 0.0060215 0.00412201 0.00431944 -0.000721161 -0.00462593 -0.00225896 -0.00410657 -0.00209683 -0.00100069 -0.00404241 -0.0153509 -0.00171311 0.00317129 -0.00238651 0.0038827 -0.000903263 0.0078226 0.00465946 0.00465721 0.00473526 -0.00586516 -0.00484645 -0.00173571 0.00192742 0.000891894 0.00486327 0.0103723 0.0114107 0.00602953 -0.000608547 0.000207152 0.00084871 -0.00515858 -0.00588217 -0.00100821 -0.00370644 -0.000716383 -0.00206736 -0.00181356 0.00283464 -0.00194268 -0.00212609 -0.00093116 -0.00757448 -0.00384485 -0.00695336 -0.0135935 -0.0142255 -0.00182573 -0.00939007 -0.00155231 -0.003447 0.00583366 -0.00156113 0.00178088 -0.00542768 0.000993381 0.00655919 -0.000979654 0.0133101 0.00536977 0.00376509 -0.00278467 0.000872005 -0.00327669 -0.0031251 0.00199838 -0.0123488 -0.00161836 0.0018374 -0.00255901 -0.00504615 -0.00729766 -0.00810861 -0.0105007 0.000864973 0.00355788 -0.00169865 -0.00454454 -0.00566485 0.000161994 -0.00218831 0.0063924 0.00496632 0.00198828 -0.00057289 -0.00188014 -0.00279789 0.0054551 0.0044084 0.00733587 -0.00123492 -0.00219201 -0.0079016 -0.00607979 -0.00297669 0.00111018 -0.00857558 -0.00949505 -0.00674342 -0.00093504 0.00366226 -0.000937283 0.00148254 -0.00282328 0.0036221 0.00916894 0.0017236 0.0030579 0.00887831 0.0108996 0.00192228 0.00806045 0.00423065 -0.000845263 -0.00777736 0.00191165 -0.00258512 -0.00515746 0.000552952 -0.000782659 0.000246598 0.00549036 -0.000750329 0.00339893 0.00426164 0.0127849 0.0110023 0.00697923 0.00537934 0.00224642 -0.00667677 -0.0119391 -0.00653717 -0.00834922 -0.00599877 -0.00794151 -0.00290147 -0.00333407 0.00136252 0.00346616 0.00547027 0.00105967 -0.00207493 -0.00123781 0.0041559 -0.00521411 0.000496428 -0.000568345 -0.000792855 0.000446703 0.00317795 0.00584029 0.00297593 0.0105229 -0.00106628 0.0044342 0.00144589 0.00260076 0.0105414 0.000802114 -0.00349395 -0.00715996 -0.0012199 -0.00313302 -0.000130014 0.00135684 0.00415917 0.00403296 -0.00114062 0.00451412 -0.000344634 -0.00354986 0.00110643 -0.00525871 -0.0051191 -0.0011648 -0.000815637 -0.00576174 -0.00602567 -0.00364767 0.00180278 -0.00073711 -0.00426506 -0.00488098 -0.000790914 0.00522562 0.00752361 0.00374407 0.00268344 -0.00276358 -0.000692444 0.00268881 0.0123533 0.00423823 0.00434293 0.00648465 0.00668847 0.00178108 -0.0045197 -0.00278112 -0.00208813 -0.00468578 -0.00472434 -0.00182359 7.65241e-05 -0.00420508 0.00842993 0.00488128 -0.0015936 4.07701e-06 0.00524972 0.00414215 -0.00330708 -0.00317879 0.00210824 0.000446571 0.00393317 0.00113131 -0.0124606 -0.0015377 -0.00227133 -0.000698384 -0.00415112 0.000589712 -0.00180266 0.00241451 0.000322241 0.00040347 0.00538426 0.00190206 0.00291051 0.000376312 -0.00645551 -0.00989716 -0.00449883 -0.00876972 -0.00840654 -0.00402456 0.00020294 0.00420088 -0.00411578 -0.00665992 -0.00766156 -0.00167663 0.00542261 0.00615027 0.000346392 0.00052133 -0.00200102 0.00425358 -0.00312237 7.55481e-05 -0.00461066 -0.00374622 -0.00526569 -0.00227269 -0.00391483 0.00270405 0.00606429 0.00665981 -0.00275723 0.000391078 -0.0118817 -0.00364379 -0.00648268 -0.00437334 -0.00201426 -0.00340345 -0.00234077 -0.00271307 -0.00306421 -0.00387722 -0.00635029 -0.004741 0.00573228 0.0102231 0.00712017 0.00270643 0.00927202 0.00691377 0.00579059 -0.000283022 -0.00490506 -0.000872867 -0.00276468 -0.0005126 0.00392411 -0.00472734 -0.00789736 -0.00357855 -0.00348375 0.00241884 0.000118247 0.00497385 0.00742055 0.00378448 0.00622944 0.0040183 0.00324786 -0.00192122 -0.00776533 -0.00596647 -0.0112304 -0.00491382 -0.00861173 -0.00440782 -0.00339586 -0.00327893 -0.00390378 0.00218862 0.0073582 0.00678449 -0.00106955 0.00624821 -0.000977615 -0.00496384 0.000463225 -0.00366437 -0.00179025 -0.00796665 -0.000505925 0.00419546 0.0020561 0.00739544 0.00102094 0.00329039 0.00625801 0.0087891 0.00306238 -0.0061606 -0.0115911 -0.00101385 -0.000855925 -0.00207019 -0.00187759 0.00373198 0.00244869 0.00207762 -0.00467511 -0.00724049 -0.00668894 -0.00738557 -0.00257448 0.00184878 0.00650697 -0.00247025 0.0046922 -0.00361234 -0.00296215 -0.00435994 2.82057e-05 0.00608263 -0.00426451 -0.000765832 -0.00185787 0.00270593 0.0032723 0.0014277 -0.00535461 -0.00838391 -0.00163877 0.00265701 0.00113623 -0.000875414 -0.00504017 0.00371184 0.000763391 -0.00731374 -0.011866 -0.0135287 -0.00816962 -0.00169117 -0.0107758 -0.00536591 0.00191629 0.000402886 -7.98154e-05 -0.00124083 -0.00776889 0.00227656 0.00456289 -0.00275457 -0.00093233 -0.00323322 -0.00140817 0.00607145 0.00525998 0.0121967 -0.00370122 -0.00878454 0.000380783 0.00326536 -0.00247447 -0.00250469 -0.00621628 -0.00301415 -0.00466051 -0.00497376 0.00224312 0.00176815 -0.00135393 0.00618242 -0.00249379 -0.00840016 -0.00522952 -0.00850104 -0.00288979 -0.00176489 0.00852213 -0.000294561 -0.007246 -0.0024623 0.000925043 0.00679891 0.00702448 0.0159034 0.0127635 0.00245714 -0.00112817 -0.00473461 -0.00668574 -0.00608964 -0.00770125 -0.00841087 0.00100077 0.00154496 0.00439629 0.00267275 -0.0034202 -0.00536673 -0.0046049 -0.00234494 -0.00707157 -0.0105766 0.000913742 0.00471972 0.00247156 -0.000156159 -0.00347199 -0.00132646 -0.00456875 -0.00189059 -0.00651953 -0.00594586 0.00745982 0.0107654 0.00661804 -0.000258624 0.0130799 0.00688926 0.00495114 0.00686904 0.000846713 -0.00124963 0.0039724 -0.00557852 -0.000572778 -0.000270045 -0.0106444 -0.00587011 -0.00475562 0.00300165 0.00272738 0.00075087 -0.00242154 0.00730925 0.0107063 0.00566219 3.17038e-05 -0.000290371 -0.00723616 -0.00612107 -0.00741622 -0.00839184 -0.0102379 -0.001776 0.00049988 0.00215337 0.00532103 0.0088165 0.00791862 -0.000622742 -0.00179403 0.00614026 0.0045734 0.00406362 0.00453283 0.00438644 0.00224343 -0.00246765 -0.000194046 0.00347235 0.00199371 -0.00722045 -0.00225494 -0.00228649 -0.00181292 0.00624333 -0.00171348 -0.00658647 -0.0099702 -0.000740717 -0.00679822 -0.0079499 -0.0047997 0.00396155 -0.00229062 0.00372303 0.000531813 -0.00519123 0.00329568 -0.0036834 0.000253903 0.00160697 0.00394467 -0.000477715 0.00291927 -0.00103503 -0.00704458 -0.00713209 0.00429846 0.00118882 -0.00667973 0.00160795 -0.00321311 -0.00275662 -0.00405388 0.00350552 0.000280705 -6.78642e-05 -0.00422336 -0.0057412 -0.00127145 -0.00387922 -0.0100083 -0.0016199 0.00104952 -0.0035691 -0.0083255 -0.0131954 -0.00496651 -0.0102454 -0.0097079 -0.00970626 -0.0122544 -0.00914611 -0.00274015 -0.00562493 -0.00630635 -0.00329996 -0.00453685 0.00170717 -0.00486791 -0.00464828 -0.00320572 0.0105925 0.00508908 -0.00218999 -0.00246717 -0.00307026 -0.00044825 0.00081566 -0.00331035 -0.00433889 -0.00505201 -0.0034044 -0.00175498 0.00521702 0.00237542 0.00148467 0.000102067 -0.00186155 -0.000797275 -0.00671278 -0.00447552 -0.00679504 -0.0012806 0.000730976 -0.00214861 -0.00023018 -0.00103633 0.00219516 -0.0006103 -0.00183753 0.000625722 0.0112584 0.00450179 0.000593068 0.000470535 -0.00899291 -0.00743424 -0.00525502 -0.000939988 -0.00186784 -0.000376867 0.00589824 0.00934515 0.00177578 -0.00458212 -0.00288577 -0.0059911 -0.00967167 0.00268934 0.00316687 -0.00484992 -0.00340273 0.00199893 0.00822449 0.0101815 0.00199522 -0.001274 -0.00514711 -0.0111872 -0.00213014 0.00699872 0.00638856 0.00716981 -0.00479297 0.00816057 0.00494849 0.010552 0.0117677 0.00802131 0.0102083 0.000938667 0.00313281 0.00414073 0.00185118 -0.00641762 0.00583682 -0.000612322 0.00448485 0.00317273 -0.0029503 0.00340815 -0.000980497 0.003249 -0.00212256 0.00196003 -0.00385254 -0.00404717 0.00138713 -0.00706294 -0.00555612 0.00288877 0.000595876 0.000341507 -0.00383393 -0.00230427 0.00366727 0.00674875 -0.00233125 -0.00520455 0.00218342 0.00554029 0.00564156 0.00106852 0.00384528 0.00775931 0.00332614 0.00288098 0.00210013 0.00351585 -0.00705473 -0.00239608 0.00184736 0.000930755 0.00647527 0.0102974 0.00387831 0.00433907 0.00641529 0.000204252 -0.0020574 0.00280492 0.00480891 0.00690926 -0.00123752 0.00110607 -0.00153584 -0.00555159 -0.00132888 0.00246952 -0.00223367 0.00114144 0.0010606 0.00277244 -0.0040005 -0.00504905 -0.00175251 0.00301277 -0.00285535 -0.00858529 -0.00886392 -0.000523894 0.00137334 0.00179455 0.00292507 -0.00261485 -0.00969949 -0.00998594 -0.00575364 0.00408827 -0.00159692 -0.00643758 -0.00131237 0.00355725 -0.000460084 -0.00412414 -0.00304089 0.00184548 0.000395757 -0.00299299 0.00427617 -0.0013301 -0.00281037 -0.00329462 -0.00618049 0.00318587 -0.00600429 -0.0125003 -0.00715394 -0.00337211 -0.00372808 -0.0064161 -0.0025169 0.00577776 2.27981e-05 -0.00177035 0.000627066 -0.00135408 0.00361453 -0.00289565 -0.00960134 -0.00391143 -0.00303768 -0.00582115 -0.00276067 -0.00414583 0.0100114 0.00324313 0.00458545 0.00169139 -0.00552338 -0.00192755 -0.00110688 0.000715094 -0.00203801 0.0024376 0.00194561 0.000240012 0.00846702 -0.00381192 0.000181901 -0.00109992 0.00254153 0.00464601 -0.00335567 -0.00703825 -0.00102085 -0.00101565 -0.00851332 0.000223502 0.00122891 0.0079574 -0.00209468 -0.00248486 -0.00399501 -0.000324226 -0.00308069 -0.00873587 -0.00834613 -0.00565428 0.00242372 -0.00471421 -0.0022406 -0.00197535 0.00048438 0.00883962 0.00521321 0.00596589 -0.00300852 -0.00372484 -0.00925943 0.0036967 0.0023175 0.00390111 -0.0065959 0.00373338 0.00169513 0.00235102 0.00245386 0.00670807 -0.000664988 0.00142874 -0.00406701 0.00869068 0.00497598 -0.00109649 0.000271089 0.00312412 -0.00484223 0.000975773 -0.00481019 -0.00144197 -0.00441953 -0.01074 -0.00762008 -0.00567435 0.00481581 -0.00202776 -0.00656913 -0.00138252 -0.00535543 -0.00266101 -0.00361405 -0.00417358 -0.000531491 0.000922065 0.00293352 0.00565943 -0.00323433 0.000948799 -0.000981941 0.00274193 0.00124693 0.000602777 0.0034356 0.00618861 -0.00126975 -0.00258106 -0.000216322 0.00621863 0.000725904 -0.00833101 0.000348913 0.000309735 0.00319144 -0.000858689 0.000893207 0.00401408 0.00424839 0.00830722 0.00276942 0.000890449 0.00377755 0.00104911 0.0046685 0.00158169 -0.00301924 -0.00467867 0.00167669 0.00095419 0.00272655 0.00438158 0.00815663 0.000617571 -0.002491 -0.00160676 -0.0025004 -0.0052006 -0.00366528 -0.00875787 -0.00098835 -0.00284811 0.00212841 -0.00094663 -0.00326333 -0.00897179 -0.0131115 -0.00987448 -0.00748822 -0.0053561 0.00299969 -0.00557452 -0.000489148 0.00569427 0.00458113 -0.00220358 0.00527098 0.00891978 0.00474586 0.0014275 0.00187564 0.00391713 -0.00668956 -0.00377012 -0.000323332 -0.00077311 0.00124408 -0.00366312 -0.00964029 -0.00919769 0.00025224 -0.017465 -0.00695216 3.1857e-06 0.00370021 -0.000927347 0.00491643 0.0060706 0.00909012 -0.00155024 -0.00338473 0.00251732 0.000315265 0.000352315 0.00632984 0.00605022 0.00343677 0.00844095 0.0051582 0.00892145 -0.00360962 -0.00147595 -0.00146287 0.00374105 0.00902575 0.00568438 -0.00234832 0.00613855 0.00861026 -0.000791301 0.00100026 -0.00250967 0.00508905 0.00433287 -0.0039023 -0.00617014 -0.00242149 -0.000768078 -0.0006117 0.00371692 0.00463303 0.00317063 0.00509172 0.00455994 -0.00134873 0.00100434 0.00202238 0.000257601 -0.00330235 0.00460505 0.00347455 0.00541197 -0.00720968 0.00126218 -0.000595678 0.00468579 0.00196818 0.0027425 -0.000768248 -0.00419666 -0.0104713 0.00512061 0.00798027 0.00486755 -0.00529422 -0.000920484 -0.00323283 -0.000834952 0.00785435 0.00160473 0.00346656 0.00220592 -0.0037922 -0.00282771 -0.00446282 -0.00598347 0.00371503 0.00515137 0.00254627 0.00420914 -0.00134308 -0.00533764 0.0012169 0.00514295 0.000574441 -0.00508882 0.003165 0.00245938 -0.00540704 0.00069118 0.000174457 0.000628597 -0.0024719 -0.00161241 0.000799911 -0.000110387 0.00307978 0.00942676 0.00300944 0.00875303 0.000831629 -0.000468764 0.00256682 0.00801571 0.00796162 0.00345727 -0.00864351 -0.00402627 -0.000730547 0.00209473 0.00100183 -0.00542683 -0.00124742 -0.000913196 -0.00190473 -0.005552 -0.00779837 -0.00671802 0.00222716 0.00285678 0.00208578 -0.00615545 0.00519163 0.00250833 0.00988572 0.00768287 0.00390563 0.00149659 -0.000918722 0.00202348 0.00131595 0.0020115 0.00527004 2.25452e-05 0.000194992 -0.00330702 -0.00440451 -0.00202103 0.00346586 0.000766253 -0.00112484 -0.00826241 -0.00167936 -0.000968283 -0.00175485 -0.00327667 -0.0112741 -0.0123987 -0.00789245 -0.00390763 -0.00336623 -0.00935587 -0.00146777 0.00390716 0.00210166 0.00569608 -0.00601114 0.00335333 0.00369821 0.0120226 0.0172869 -0.000987505 0.00546688 0.00314806 -0.00228036 -0.001834 0.000150412 0.00589912 -0.00209195 -0.0106835 -0.00478575 -0.00854733 -0.00283392 0.00109354 -0.00012305 -0.00122348 0.00189788 -0.00177612 0.00530345 -0.000257342 0.000990249 -0.00475685 -0.000438184 -0.00116318 0.00537175 0.000166967 0.000554421 -0.00127667 -0.00202162 0.0033178 -0.000515499 0.00278208 -0.00313187 0.000955611 0.00257532 0.00264798 0.00812683 0.00444294 -0.0128087 -0.00291073 -0.0037643 0.002249 0.00430646 0.000223256 0.00406043 -0.00608816 0.00428729 -0.0031996 -0.00168646 0.00944585 -5.0688e-05 0.00356858 0.005589 0.00352535 0.00326668 0.00724257 0.00305872 -0.00241259 -0.0116493 -0.00516165 0.00110868 -0.00324295 -0.000454454 0.0127306 0.0100463 0.00175224 0.00199217 0.00122922 0.00279281 -0.00501978 -0.00606552 0.00626581 0.00412948 0.00436277 0.00130999 0.00286975 0.000445581 0.00300933 -0.00252886 -0.00470864 0.000781734 -0.000596938 0.00123313 0.000263314 0.0024565 -0.0015483 0.00418932 -0.00553386 0.00390883 -0.000962733 0.00263572 -0.000910171 0.00405965 0.00836767 0.00276217 0.00477155 0.00799844 -0.00146869 -0.00300081 -0.000723557 -0.00132131 -0.00180932 -0.00273232 -0.00407287 0.00212985 0.0033368 0.00668888 0.00748459 0.00629505 0.00319551 -0.00774692 -0.00304922 0.00713683 0.0067232 0.006733 0.00876979 -0.00249897 -0.00285801 -0.00431306 0.00236642 0.0091849 0.000466892 0.00272834 0.000485844 -0.00240093 -0.00352479 -0.00131751 -0.0038923 -0.00331499 -0.000542638 0.000418482 -0.00510384 5.78937e-05 0.0098255 0.0118327 0.00589407 0.0047741 0.0076283 0.00115235 -0.00167149 0.000377657 0.00440207 -0.00289963 0.000169461 0.000262392 -0.00191367 -0.00170746 0.000994034 0.00436079 0.00112188 -0.000324859 -0.00940031 -0.00731936 -0.00658677 -0.00762883 -0.0036868 -0.00241749 -0.00601559 -0.00527694 -0.00892897 -0.00429307 -0.0107604 -0.00529552 -0.000110215 0.000780201 -0.00197352 0.00433492 0.00327878 0.00371771 0.00968284 0.00672498 0.00351799 -0.000966754 0.00804792 -0.000463306 0.000237877 0.000905727 -0.00302099 -0.0106407 -0.0121375 -0.00749429 -0.00680623 -0.00214794 -0.000322271 0.00461168 0.00519395 -0.00382528 0.00187471 -0.0021801 -0.00199036 -0.00609003 -0.00880325 -0.00406193 0.00277037 0.00415514 0.000589301 0.00361049 0.00143862 0.00199216 0.000434412 -0.00305221 -0.00636294 -0.00490227 -0.00716215 0.00390924 0.00932631 0.00993094 0.00470982 -0.00290898 -0.00311479 -0.00125081 -0.00128992 0.000868994 0.000825566 -0.00748241 -0.00473765 0.00192962 -3.78519e-05 0.00500958 0.00481993 0.000168687 -0.00388086 -0.00115205 0.00763994 0.00435701 0.00329331 -0.00349908 0.00289817 -0.00178115 -0.00219089 -0.00282284 -0.00204001 0.00298905 -6.05927e-06 0.0127458 0.00934834 0.0151807 0.00470442 0.00500931 -0.00487027 -0.00262702 0.00247679 0.005196 0.00150993 0.00313683 0.00100316 -0.00204725 -0.00498756 0.00214281 -0.00069362 0.00379142 -0.00279537 0.00318038 0.00211136 0.00269614 0.000303819 -0.00118588 -0.00691565 -0.00609876 -0.00296491 -0.000977376 0.00177378 0.00354878 0.00846236 0.00520792 0.00392386 0.000129376 -0.00480948 0.000539582 -0.00417955 0.00274415 -0.00115999 0.00329905 -0.00221271 0.00705094 0.00296048 0.00102042 0.00682403 0.00726902 0.00319937 -0.00316066 0.0012225 -0.00381017 0.00325885 0.00535438 -0.000933632 -0.00171701 0.00112186 -0.00247467 0.00309281 0.00698527 0.00435236 -0.00215707 -0.00422155 -0.00142563 0.000716886 0.00139612 -0.0034073 0.00220081 0.00379355 0.00466177 -0.000840094 7.90712e-05 6.66261e-05 0.00870403 0.00982905 0.00738589 0.00823857 0.00502607 0.004946 0.00282021 -0.00325425 0.00149448 -0.00386106 0.00147301 -0.00627476 -0.00519768 -0.00616126 -0.00578699 0.00121833 -0.00217191 -0.00361958 -0.00432408 -0.00152286 -0.00242303 -2.33542e-05 -0.00101381 -0.00896307 -0.0114915 8.89064e-05 0.0039846 -0.000218038 -0.00797828 -0.00581032 0.00623094 0.00220302 0.00335306 0.0115403 0.0060829 0.00947887 0.00676224 0.00402098 0.00390624 0.00908412 -0.000592302 -0.00299786 0.00147588 0.002356 -0.00256802 -0.00768455 -0.00317893 -0.00529183 0.00373363 0.00538977 0.00379437 0.00220653 0.00537988 -3.9139e-05 0.00605463 0.0050733 -0.00586478 -0.0125356 0.00206369 0.00480968 -0.000321265 -0.00766485 0.00111943 0.0025696 -0.00231073 -0.00344875 -0.00122777 -0.00304044 -0.0102261 -0.00899215 0.00362279 0.00971455 0.00425513 0.00494596 0.000299694 -0.00507967 -0.00147747 -0.0034823 -0.00160785 -0.00243099 -0.00937357 -0.00308941 -0.00289726 -0.00351207 0.00132305 0.00628657 -3.73179e-05 -0.00116922 -0.00553096 -0.00192678 0.00682575 0.00332986 -0.00187563 0.00208105 -0.00299578 -0.000487283 0.00299624 0.00840142 0.00144908 0.00631108 0.00871563 0.0128904 0.010514 -0.00209826 -0.00111702 0.000429674 -0.00210351 -0.00434614 0.00773761 0.00388243 -0.00523338 0.00433985 0.00165157 0.00092017 0.00334612 0.000568138 0.00144003 -0.0020831 -0.00587564 0.000817344 0.00151941 0.00642794 0.0091187 0.000103327 0.000916589 0.00329413 -0.00219227 -0.000725562 0.0030789 0.0110812 0.0088505 0.00998862 0.000579136 -0.0020312 -0.00457839 -0.00825135 -0.00454438 0.00133925 -0.00202265 0.00502971 -0.00108245 -0.00651783 -0.00416027 -0.000206132 -0.00220817 -0.0071046 -0.0106459 -0.000142585 0.00066697 0.00546315 0.00901404 0.00811413 0.0023386 0.00646541 -0.00461366 0.00555749 0.00837298 0.00241072 -0.00050506 0.00541011 -0.00120218 -0.00101606 -0.00244439 -0.00704697 -0.000597157 0.000922362 0.00416969 -0.000351608 -0.0016313 0.00230249 0.00702325 0.00693575 0.00804438 0.0100775 0.00210385 -0.00105714 0.00430663 0.00355199 0.0047492 0.0016419 0.00431751 -0.00145511 -0.00595466 -0.00470888 -0.00272199 0.00312285 -0.0102143 -0.00580093 -0.00615997 -0.00178185 -0.00142468 0.00466814 0.00280275 -0.00177214 -0.00193685 0.00669212 0.00421819 0.00151144 -0.00238196 0.00015796 0.000526922 7.34944e-05 0.00321711 0.00465152 0.00380794 0.0043013 0.00335069 0.000893939 0.00283744 0.00353076 0.00784372 0.000976971 -0.00285216 0.00171756 0.00443775 0.00507452 -0.00241192 -0.00085683 0.00356282 0.00368155 -0.0045249 -0.00138923 -9.14571e-05 0.00192097 0.00925893 0.00363557 -0.00449758 0.00135945 0.00544687 0.000883608 0.00133728 0.00249634 -0.000813191 -0.00278642 -0.00278216 -0.00180847 -0.00421625 -0.007946 -0.0116934 -0.00324236 0.00104332 0.00594434 -0.000262491 0.000592084 0.00375163 -0.00195798 -0.00190794 -0.00844209 -0.00569655 -0.00944887 -0.0125468 -0.00379913 -0.00388958 0.00513394 0.00601076 0.00093503 -0.00199323 0.00187882 -0.00690053 0.000788976 0.00219168 0.00559333 0.00615659 -0.0012129 -0.00811578 -0.0059821 -0.00472747 0.00102353 0.00340217 0.015007 0.00971671 0.00648486 0.0042723 0.00157664 0.00834684 0.00786947 -0.00502944 -0.0042888 0.00259841 0.00369984 -0.00504307 -0.00266786 0.00017353 -0.00395395 0.00528122 0.00480129 0.0041204 0.00205077 -0.00505846 0.00453744 0.00660369 0.00515648 0.00602646 0.00497909 -0.000592973 0.00177032 -0.00202175 -0.00547743 -0.00140296 0.00539521 0.00731668 0.0132766 0.00643563 -0.000971854 -0.00309391 -0.00533544 -0.00239697 0.00127302 0.00111734 0.000172901 -0.00417844 -0.00533993 -0.00186436 0.000434264 -0.00769059 -0.00759989 -0.00592935 0.00307572 0.00898885 0.00171661 0.00221691 0.0102341 0.00322131 0.00206293 -0.00133113 -0.00473418 0.0066879 -0.000112115 0.00211643 0.00386868 0.000507354 0.00245269 0.00262943 -0.00206774 -0.00240085 0.000292394 0.00461735 0.00340259 0.0045394 0.00541869 0.00612132 0.00448588 0.00624805 0.0103309 0.000903992 0.000700511 0.00826336 0.00957855 0.0019285 0.00470355 0.00732254 0.00111045 -0.00115249 -0.00360801 -0.00665637 0.00548677 -0.00119432 -0.00324862 0.000436189 -7.84227e-05 -0.00360123 0.00263592 -0.00359362 -0.00486653 0.003213 0.00388087 0.00120721 -0.00282328 -0.00206703 0.00257706 -0.00121853 -0.00253688 0.000922045 0.0015477 0.00129757 0.00909526 0.0043099 0.000863885 0.00750795 0.00129619 0.00107678 0.00677358 0.00558155 -0.000335779 -0.000927732 0.00367482 0.00507282 0.00631913 -0.00112251 0.00164629 0.00323179 0.00330298 0.00346709 0.00890505 0.00240519 5.68676e-05 -0.00421007 -0.00450758 0.00362001 0.00623245 0.00570381 0.00447669 -0.00347572 0.000828149 -0.00311198 -0.000785064 -0.0143867 -0.0104974 -0.00131839 -0.00423503 0.00653337 0.0104896 0.00688095 0.00354159 0.000912921 0.000289667 -0.00589309 -0.00984541 -0.00996471 -0.00555917 -0.00478482 -0.00647307 0.00181138 0.00286158 -0.0019549 0.00100512 0.00431188 0.00448362 -0.00264387 0.0011333 0.00953146 0.0090735 0.00582694 0.000377726 -0.00579696 -0.00844662 -0.00706541 -0.00316538 0.00766711 0.0071636 -8.80782e-05 0.00900098 0.00498152 0.00619614 0.0033412 0.00649197 -0.00634821 -0.00237407 0.0037444 -0.00427207 -0.00567062 -0.00290401 -0.00316947 -0.00558072 7.21791e-06 0.00452279 8.93674e-05 0.000327894 -0.00706589 0.000467986 0.00478148 -0.00116489 -0.00395241 0.00212735 -0.0042069 -0.00295088 -0.0069416 -0.0101506 -0.00508164 0.00255612 0.00646647 0.0067569 0.00435844 0.0020254 0.0107638 -0.000583752 0.00782145 0.0037198 0.00123876 0.00557576 0.00267665 0.00355678 0.00140704 0.00562647 -0.00359381 -0.00493207 -0.00408363 -0.007394 -0.00109696 -0.00303815 0.00246542 0.00626625 0.00452301 0.00560427 0.000813073 0.00571219 0.00374741 -0.00130538 0.00599287 0.0007792 -0.00536995 0.00191447 0.00288387 -0.00473896 0.00196482 0.00138895 0.00320535 0.00321324 0.00585441 0.0042819 0.0111683 0.0027253 0.00912095 0.00246903 -0.00402091 -0.00221058 0.006116 0.000346887 0.000596296 0.00167648 0.00276512 0.00833071 -0.000434652 -0.00385859 -0.00842878 -0.0052083 0.000111726 -0.00259985 -3.54736e-05 0.000346934 -0.00184223 -0.00347073 -0.00255314 -0.00879282 -0.00144274 0.00562042 0.0019207 -0.00189866 -0.00219887 -0.00158539 0.00516268 0.00220308 0.00353911 0.00157499 0.00146473 0.0113117 0.00275489 -0.00169239 -0.00108021 -0.000150559 0.00677248 0.00795278 0.0117042 0.00252624 -0.000393912 -0.00305931 -0.00500184 0.000959744 0.00172666 0.004538 0.00642147 0.00726758 0.0110955 0.00415187 0.0037858 0.00614973 0.00329207 0.00231513 0.00258572 0.00562265 0.0027415 0.00145373 0.00158292 -0.00593033 -0.0012395 -0.00614265 -0.00808583 -0.00277784 0.00694835 0.00713513 0.00985216 0.0054943 0.0109436 0.00860197 -0.000518046 0.00366771 -0.00486181 -0.00617013 -0.00857411 -0.00136167 -0.00520552 0.00358523 -0.000303889 -0.00293382 0.00219185 0.000550108 -0.00126871 -0.00639497 -0.0150411 -0.00524494 -0.00199137 0.00617149 -0.00853501 -0.00350823 -0.00639286 -0.00906856 -0.00964631 0.00273223 0.00645204 0.000761634 0.00297989 0.00579778 -0.00341598 -0.0078037 0.00556034 0.000306389 -0.00402923 0.0029454 9.53714e-05 -0.00220169 -0.00457048 -0.00371711 -0.00366137 -0.00890284 0.000297832 -0.00565674 -0.00355979 0.0017636 -0.00624459 -0.00690652 -0.00184477 -0.00313045 -0.00349668 -2.49976e-05 0.00427034 0.00442699 0.000778422 -0.0011616 -0.00135794 -0.00462149 0.00367851 0.00208822 0.000206077 -0.000852784 -0.000303811 -0.00199623 0.00601781 0.0053152 0.00127236 -0.00169148 0.00132657 0.00369709 0.00341696 0.00349379 -0.000533658 0.00495916 0.00349714 0.00742517 0.00829864 0.00123647 0.00291642 0.00167869 0.00498977 0.00342317 0.000852054 0.00172519 -0.00340598 -0.00349336 -2.64941e-05 0.0059667 0.00223078 0.00310706 0.00592557 0.000306318 -0.00609341 -0.00416761 -0.00419865 -0.00162411 0.00824446 0.0113327 0.003657 0.00471967 0.00362822 0.00417795 -0.00429932 -0.00668395 -0.00509013 -0.00156221 -0.000720767 0.00107921 0.0015138 0.000637439 -0.0079427 -0.00452469 -0.00582316 -0.00328391 -0.00393482 0.00178056 0.000676558 0.000751409 -0.00181435 -0.00257615 0.00022955 0.00569582 -0.000290694 0.00212268 0.00281847 0.00181973 -0.00112366 -0.00138432 0.00587377 0.00093241 0.00504155 0.000893834 0.0015877 0.00431182 0.000747611 -0.00207206 0.00116299 -0.00594577 -0.000497022 -0.00271964 0.00618574 -0.000909901 -0.00225722 -0.0066255 -0.00350524 -8.26568e-05 0.00126019 -0.00370637 0.00721429 0.00464397 0.011231 0.00775959 0.00295401 0.00137373 0.0121692 0.00989178 0.00775024 0.00711667 0.00751726 0.00354838 0.000891371 -0.00627363 -0.00933296 -0.00729377 -0.00938435 -0.00452095 -0.00192144 0.00948955 0.0111061 0.00502978 0.0077011 0.00759941 0.0057625 -0.00148906 0.000243728 -0.00722095 -0.00299232 -0.0025475 -0.0075996 4.30292e-05 0.000814711 0.00175974 -0.00118874 -0.00117146 -0.00472935 -0.00900485 -0.0132871 -0.00945148 -0.00134648 -0.00467288 -0.00782157 -0.0130788 -0.0154184 -0.00338539 -0.00849538 4.80295e-05 -0.000969505 -0.0107666 6.40921e-05 0.00311614 -0.0078412 -0.00338232 -0.00255644 0.00820822 0.00614373 0.00565517 -4.41868e-05 -0.00794712 -0.00631609 -0.00475809 -0.00640187 -0.0110389 -0.00101616 -0.00339457 -0.00227261 0.00213901 -0.00319246 -0.00538911 -0.0131652 -0.00427488 -0.000317084 0.000101427 0.00571261 0.000429099 -0.00108715 0.00567718 -0.00643755 -0.000561248 0.00252835 -0.00116615 -0.00201314 0.00291996 -0.00148929 0.00347241 0.00450055 0.00325295 0.000690201 -0.00661146 -0.0107515 -0.00303964 0.000848694 0.00589627 -0.000406916 0.00472947 -0.00339782 -0.00551462 -0.00219169 0.00547521 -0.00439345 -0.00666667 0.00238919 -0.0046267 0.00449506 0.0018692 0.00698124 0.00145631 -0.00156045 0.00901448 0.00214962 0.00194168 0.00092518 -0.00464567 -0.00499464 -0.00875094 -0.00994302 -0.00219579 0.00318096 0.00384512 0.00638727 0.000965103 0.00185446 0.00493901 -0.00395508 -0.00344447 -0.000565994 0.00398687 -0.00316135 -0.00285941 -0.000860432 -0.00512437 -0.0106464 -0.00521781 0.00118891 0.00167658 -0.00119213 -0.0026664 -0.00270253 -0.00953031 -0.00896437 0.00123677 0.0103028 0.0050349 0.00373904 0.00585252 -0.00298962 0.00671102 0.00290718 -0.00214092 -0.00203813 0.000726692 -0.000813016 -0.00532424 0.00387799 0.00253345 0.00198565 0.00165199 -0.00825157 -0.00519557 -0.00325389 -0.000326193 0.0087613 0.00472845 -0.00284996 -0.00622045 -0.002519 -0.0018371 -0.00126458 -0.00708903 -0.0081306 0.00345625 0.00925578 0.0127732 0.00485953 0.00611412 0.009175 0.0063119 0.0117414 0.00839141 0.00541421 0.0026781 0.00226127 0.000253872 -0.000206341 -0.00583298 -0.0118082 -0.00600159 -0.000297893 0.00645993 0.00445242 0.00158167 0.00990768 0.000297611 0.00883018 1.66737e-05 0.00168124 -0.00955168 -0.003392 -0.00632742 -0.00246904 -0.00317853 -0.000970774 0.00230494 -0.00129639 -0.000872473 0.00217174 0.00237666 -0.00526576 -0.00301136 0.00571807 -0.000710636 -0.0136269 -0.00863061 -0.00904341 -0.00893932 -0.00881564 -0.0106548 -0.00944587 -0.00401123 -0.000351565 0.0026846 -0.00343461 -0.00303552 -0.00146194 0.000727081 0.00732483 0.0016512 0.00554366 -0.00192721 0.00074083 0.00132156 -0.00133297 -0.00917539 0.00275607 -0.000486651 0.00523185 0.00500081 -0.000578801 -0.0116671 -0.0137304 -0.0080768 0.00186484 0.0073819 0.00925529 0.003905 0.00184549 0.00319768 -0.00819959 -0.00538917 -0.00117486 0.00536242 0.00296595 0.00463901 -0.000220695 0.00694463 0.00548221 0.00600699 0.00270117 0.00295127 -0.00288727 -0.00313821 0.00179536 0.00434937 0.00795578 0.0017014 -0.00608309 -0.00104855 -0.00379682 -0.00384644 0.00143549 -0.00188087 -0.00458731 0.00263575 0.00681083 0.00686286 0.00741253 -0.0041063 -0.00260911 7.67768e-05 -0.00938654 -0.00148489 -1.88328e-05 -0.00592854 -0.0058411 -0.00113422 -0.000727685 -0.000232433 -0.00153475 0.000169625 0.00439284 4.56534e-05 0.00354046 0.00303723 0.000143429 -0.00705751 0.000213342 0.00463594 0.00281446 -0.00176674 -0.00470781 -0.000394098 -0.00424068 -0.00657198 -0.000982346 -0.00217719 0.00212534 -0.00592744 0.00441734 0.00164749 -0.00835424 0.00384295 0.00642716 0.00470051 -0.000429153 0.00547932 -0.000691269 0.00679085 0.00229115 0.00200479 0.00222849 -0.00155752 0.00556908 -0.00313367 0.00416928 -0.0018028 -0.00522949 -0.000664724 0.00101084 0.00124587 0.00272743 0.00194319 0.00299217 0.00673728 0.00115706 -0.00539413 0.00218632 0.00328003 -0.00324706 -0.00946959 -0.00369004 0.00437333 0.00885041 0.00797354 0.0100445 0.00373349 0.00174135 0.00244109 -0.00178216 -0.00613823 0.00133025 0.00185465 0.00518872 0.00720706 -0.00455228 -0.00701323 -0.00697714 0.00283009 0.00788166 0.00142944 -0.00541383 0.00136132 0.00785832 0.00739108 0.00437043 0.00588097 0.00435653 0.00409578 -0.000516683 -0.0127644 -0.00607929 0.000567622 0.00511491 0.00101024 -0.00307383 -0.00421338 0.00193936 -0.00829612 -0.0061996 -0.00141782 0.00228652 -0.00359937 -0.000676619 0.000712139 -0.00226438 0.00213376 -0.00743966 -0.00871747 -0.00568413 -0.00692486 -0.000607035 0.000190843 -0.000711629 -4.53598e-05 -0.00520537 8.83277e-05 0.00905233 0.00747537 0.00462391 0.0042856 0.00179463 0.00174422 -0.00098868 -0.00117941 -0.00669959 0.00117327 -0.000469094 0.00304698 -0.00887007 -0.00719844 -0.0162857 -0.00223669 -0.000947901 0.00297602 0.00601112 0.00162346 -0.00405867 0.00162846 -0.011668 -0.00552601 0.0025731 0.00647159 -0.00214576 -0.00086899 -0.00168689 -0.00128232 0.00287415 0.00122463 0.00260112 0.00297687 -0.00259518 -0.000856203 -0.00068731 0.00254308 0.000559349 0.00103044 -0.00313497 -0.00462726 -0.00747782 -0.00209809 -0.00472136 -0.00518745 -0.00283898 0.000648795 0.00590122 0.00419379 0.0119728 0.00291925 -0.00298289 0.00065516 -0.000339856 -6.76457e-05 0.00136963 -0.00421305 -0.00384045 0.00212706 0.00157036 0.00261821 -0.000387797 0.00177248 0.00311481 -0.0033308 -9.65389e-05 -0.003643 -0.00436391 -0.0071008 -0.0080559 -0.0055672 -0.00515325 -0.00273573 0.00204801 -0.000416501 -0.00670826 -0.000254637 0.00361141 0.00106161 -0.00131892 0.00518819 0.00495654 0.00787188 -0.00135189 0.00115658 -0.000328124 -0.00532864 -0.0024024 0.00896109 0.00798036 0.00631636 0.0063279 0.00348735 0.00367553 -0.000269473 0.000620932 -0.00756497 -0.000937969 0.00173063 -0.00353144 -0.0023913 0.00410659 0.00217118 0.0020124 -0.0045339 