-0.00439959 -0.00063681 -0.00121775 -0.00352832 -0.0123822 0.00242855 -0.00134049 -0.00410979 -0.0151047 -0.00924339 -0.00595341 0.00247495 0.00173621 -0.00961891 0.000104002 0.0137614 0.000907535 0.00278461 0.00617255 0.00710524 0.00326053 0.00791536 0.011737 0.00158518 -0.00263919 -0.0014731 0.00209648 -0.00339859 -0.00877761 0.00392189 0.000521279 0.00131736 0.000499016 0.000400051 0.00360628 0.00253054 -0.00174449 -0.000621987 0.0125453 0.00164504 -6.45853e-06 0.0149655 0.0156333 0.00719889 0.000555328 -0.00980426 -0.00500593 -0.0029379 -0.00894535 -0.0104913 -0.00889668 -0.00578137 -0.00746017 -0.00432349 0.00108709 0.00503802 0.000505056 -0.00104006 0.0027274 0.00269183 -0.00712711 -0.00546605 -0.00269282 -0.000140273 -0.00457672 0.00290286 0.00721439 -0.00356201 0.00139767 0.00744014 -0.00189061 -0.000459149 0.00229312 -0.000208806 -0.00716324 -0.00758314 -0.0144003 -0.00797413 -0.00799915 -0.0157016 -0.0090478 -0.00868527 -0.00977685 -0.0103127 -0.010814 -0.00248004 -0.00863137 0.00256121 0.0035264 0.00132047 0.00943869 0.010385 0.0145931 0.00624467 0.0115263 -0.00152641 -0.000654961 0.00526812 0.000830607 0.000440588 0.00372302 0.014046 0.00238476 0.0124711 0.010747 0.00889282 0.0178274 0.006779 0.00690604 -0.000968328 0.00285345 0.00777525 -0.00500274 -0.00689949 0.00536563 0.0089655 0.00682214 0.00919099 0.00539471 -0.00402619 -0.00164837 -0.00795781 -0.0114395 -0.00855205 -0.00100357 -0.00351315 -0.00270089 0.000146254 -0.000669345 -0.00334405 -0.00782294 -0.0062264 -0.00520052 0.00477942 -0.00614557 0.00224021 -0.002536 0.00144633 -0.00107458 0.00361085 0.000465865 0.0056618 0.00702331 0.00222247 -0.000506458 0.00835055 0.00437066 -0.00286437 -0.00431618 -0.00123733 0.00728427 -0.000238738 0.00156791 0.0020603 0.0132792 0.0113037 -0.0019809 -0.00224925 0.0122723 0.0105945 0.00538013 0.0109343 0.0123693 -0.00149 -0.000754195 -0.00151139 0.000574583 -0.00302668 0.00010943 -0.000243276 -0.000166293 -0.0015971 -0.00042846 3.71803e-05 -0.00977666 0.00442308 -0.00674104 -0.0171282 -0.0125236 -0.0112253 -0.0170575 -0.00439311 -0.000700121 -0.00368364 0.00117911 0.00140844 -0.000902964 -0.00419098 0.00471258 0.0102586 0.00644411 0.0124632 0.00512512 0.00370713 -0.00237373 -0.00359207 -0.0102756 -0.0071014 -0.00616181 -0.00427307 0.00551248 0.00221862 -0.00341725 -0.00393215 -0.000867323 -0.00189256 -0.00407134 0.000930049 0.00120876 -0.00218354 0.00381748 0.00368727 0.0118264 0.0078539 0.00349756 -0.00628552 -0.00182617 0.000598995 -0.00915164 -0.00328665 -0.00995503 -0.00350132 -0.008294 -0.00512805 0.000992698 0.00511861 0.000597295 -0.00821976 -0.00453578 0.00537455 -0.00134757 -0.00491291 -0.000729359 -0.000889329 -0.00295043 0.0135217 0.0057262 0.000331688 -0.00254448 -0.00523639 -0.00262172 -0.00743654 -0.00257945 -0.00549396 -0.00436106 -0.00464564 -0.0099994 -0.00815288 -0.00271663 -0.00928261 -0.00803357 -0.0112228 -0.0151714 -0.00783204 -0.00624951 -0.00546789 -0.000749129 -0.00269443 0.00781047 0.00521724 0.00454467 0.0164618 0.0156732 0.00616338 0.00536932 -0.00416509 -0.00213882 -0.00387949 -0.00251204 -0.00241269 -0.000159518 0.00748808 0.0106214 0.0151489 0.0106498 0.0115595 0.00635549 0.00570869 0.00360071 0.00443764 0.002645 0.0069777 -0.00445198 -0.0107377 0.000698511 0.0024037 -0.00250985 0.00299907 0.00222991 -0.00804176 -0.0120642 -0.00694137 -0.00111697 -0.00391223 -0.00302194 -0.0103525 -0.00188717 0.000225437 -0.00632597 -0.00422188 -0.00306077 -0.00648145 -0.00672595 0.000481276 0.00259097 -0.00200206 -0.00082351 0.00275155 0.000109558 0.00320067 0.000131839 0.00668681 0.010911 0.00566284 0.000140842 -0.00207384 -0.00602116 -0.00695461 -0.00761112 -0.00239824 -0.0100788 -0.00483752 0.00289081 -0.00100682 -0.000215738 0.00689667 -0.00139842 0.00516055 0.00781741 0.0112656 0.0122357 0.00600896 0.00744286 -0.0005378 -0.00784899 0.00141863 -0.00217771 -0.0101024 -0.00901672 0.00138988 0.00074169 0.000464637 0.0141003 0.00721974 -0.00730031 -0.000840703 -0.00361853 -0.00865483 -0.0101364 -0.0077099 -0.00679031 -0.00335858 -0.00474343 0.00031878 0.00263203 -0.00146514 0.00277367 0.00581805 0.00208003 0.00282706 -0.00401198 0.00943919 0.00608071 0.00351658 -0.00873266 -0.00509424 -0.0132576 -0.00728146 -0.00399657 0.00393047 -0.000662014 0.00107835 -0.00261827 -0.00931768 -0.00217404 0.00159082 -0.00726755 -0.000440659 -0.00480246 -0.00504329 -0.00161925 0.00197953 0.00392521 -0.00281724 -0.00370532 -6.37325e-05 0.00291441 0.00670579 -0.00816143 -0.005778 -0.00253266 -0.00803796 -0.0191974 -0.0102943 -0.00173902 0.00458033 0.00675512 -0.000857185 -0.00186543 0.00244926 -0.00321087 -0.00729577 -0.00373265 0.00265016 0.00760668 0.0113589 0.00820469 0.00102666 0.00108719 0.00354552 -0.0018154 -0.00448002 -0.00103754 -0.00725242 -0.0081641 -0.0087124 -0.00895007 -0.000586845 0.00204789 -0.000342544 -0.00121356 -0.0125605 -0.00889053 0.00318217 1.48494e-05 0.00277369 0.00693117 -0.00065071 0.00299348 0.00254678 0.00696997 0.00518399 0.0138942 0.00389374 -0.00102858 -0.00626902 -0.0071446 -0.00151176 -0.000690634 -0.00417974 -0.00401046 0.000617974 0.00165569 0.0108901 0.00294785 0.00112441 0.00141091 -2.41648e-05 0.00349113 0.00258782 0.00456497 -0.00403883 -0.0065801 -0.00763811 0.00532344 0.000412648 -0.00187889 -0.00140092 -0.00212421 -0.0117386 -0.0159337 -0.00799063 -0.00643726 -0.00329823 -0.00852778 -0.00426613 0.00307411 0.00335052 -0.00561447 -0.00258566 -0.00094727 -0.00349575 -0.00753545 0.00119215 0.00350327 0.00176621 -0.00332788 -9.79466e-05 -0.000891078 -0.000180138 0.00521528 0.00221024 0.00713905 -0.00169748 -0.000904482 -0.00810867 -0.00517401 -0.00733456 -0.01082 -0.00482482 -0.00957102 -0.00175708 0.00248874 0.000943767 0.00176998 0.00284234 0.0076927 0.00405963 0.0078516 0.00522081 0.0133811 0.000799967 -0.00102951 -0.00369477 -0.00220025 -0.00740925 -0.00634813 -0.0140852 -0.00777028 0.00646582 0.0139462 0.00366415 0.004686 0.00416307 -0.00759519 -0.000101834 0.00692715 0.0118509 -0.0102036 -0.00612176 -0.00644604 -0.000771118 0.00103961 -0.00876775 -0.00348446 0.00109697 -0.000428078 0.0090332 0.00818279 0.00342875 0.00907838 0.0093833 0.00589167 0.00159262 -0.000915742 -0.0106304 -0.0113189 -0.00808032 -0.00203739 0.00454252 0.0043945 -0.000112689 -0.000429275 -0.0102448 0.00171351 -0.0020005 -0.00346784 -0.00426299 -0.00158794 0.00339115 0.00016942 -0.00402097 0.00956965 -0.00221856 -0.000579061 -0.000394632 0.00286342 0.00318095 -0.00288048 -0.00938971 0.00380222 0.00353005 -0.00822367 0.00412469 0.00577463 0.0167404 0.0152352 0.0109204 0.00758685 0.00563102 0.00192881 -0.000362871 -0.00307415 -0.00219471 -0.000123546 0.00174316 0.0103511 -0.00200291 -0.00384119 -0.00245366 0.00168141 -0.00761851 -0.00160831 -0.0121612 -0.00129082 0.00706693 0.0074208 0.000650654 0.00242095 -0.0105592 0.00212677 -0.00447939 3.82442e-05 0.0042989 -0.00151861 -0.000428442 0.00408745 -0.00441137 0.000711587 -0.00509932 -0.00433293 0.00257541 0.00335467 0.0102934 -0.00114473 -0.00640311 -0.00404171 -0.00070684 0.000496681 -0.00254677 -0.00201264 -0.00249161 -0.00400658 0.00212544 0.000615682 -0.00135497 0.00334996 -0.0018839 0.00434571 0.00313093 -0.00991273 -0.00180796 -0.015232 -0.0113194 0.00166791 0.00119978 0.00299416 -0.00186566 -0.00458165 -0.00274761 -0.00175394 -0.00199059 -0.00726736 0.00103065 -0.00361245 -0.00724888 0.00376455 -0.00146123 -0.00996447 0.0022545 -0.00240122 -0.0031917 -0.0102297 0.00253137 0.00560956 0.00747074 0.00740694 0.00818893 0.00774166 0.00328129 0.00655094 0.00374381 0.00175678 -0.00295413 -0.000926698 -0.00299751 0.000499094 -2.20436e-05 -0.00849897 -0.00165943 -0.00344179 0.000380375 0.00412123 0.00178531 -0.00074827 -0.00165531 -0.00256345 0.00348291 0.00175113 -0.00133012 0.00978067 -0.00723446 -0.000983106 -0.00727637 -0.00540873 -0.00303722 -0.00356229 -0.00173454 -0.00472228 0.000629653 0.0132815 0.00477524 8.98102e-05 0.00278377 0.00282811 -0.000650866 -0.000993698 -0.00858699 -0.00790942 -0.00584273 -0.00453977 0.00284903 -0.000567516 -0.0108103 -0.00611687 0.00169871 0.000985806 0.0112392 0.0135361 0.00967354 0.00706894 0.0100205 0.0127717 0.00973164 -0.00394476 -0.00636168 -0.00420361 -0.0117046 -0.00190705 0.0032955 -0.00118897 -0.00225943 -0.00517876 -0.00194386 -0.00369436 -0.01037 -0.000601699 0.00117434 0.00435901 -0.0038574 -0.00170082 -0.0109378 -0.00341204 -0.0170742 -0.00590729 0.00224329 -0.00419744 -0.000768326 -0.00198142 -0.000671904 0.00386192 -0.00202396 -0.0121963 -0.00265818 0.00655944 0.0118723 0.00710309 0.00739985 0.00247794 -0.00241382 -0.000620031 0.000206341 -0.00106211 -0.00337921 -0.00422058 -0.00295839 0.00512067 0.00214813 0.00556404 -0.00342251 -0.00829932 -0.00433638 -0.00705995 -0.0098986 0.00228747 0.00595549 0.0107321 0.0142311 0.00132723 0.00364329 0.00276402 0.00253609 0.00495733 0.0095065 0.00165969 0.00348077 0.00150393 0.00339349 0.00715599 -0.0060384 0.00176138 0.00411092 -0.00555052 9.85565e-05 -0.00687595 -0.00366199 -0.00495757 -0.00518678 -0.00252379 -0.00231734 -0.00643763 -0.00832688 -0.00272382 0.00214488 0.00114206 -0.00671885 0.000359189 -0.00455707 0.00227364 -0.00232518 0.00512843 0.00434085 -0.0124574 -0.00425906 0.00262459 0.000814933 -0.00395593 0.00174013 -0.00528186 -0.00544091 -0.00604965 -0.00686951 0.00083378 -0.00256058 -0.00549075 -0.0115263 0.00488391 -0.00254403 -0.00405012 0.0018471 0.00213567 -0.00634659 0.000203621 0.00204982 0.00981852 0.00276892 0.00688578 0.0105218 -0.00254907 -0.00207521 0.0080318 0.0147374 0.00597086 0.000855491 -0.00689297 -0.0116006 -0.00397166 0.00268066 -0.00146926 -0.00708101 -0.00719136 0.000283433 0.00367773 0.00124102 -0.00111624 0.00312222 0.00465375 0.0037095 -0.00207662 -0.00749045 0.00417789 -0.000698798 -0.00890065 -0.00786633 -0.00827629 -0.00617654 0.000615441 0.00182127 -0.00974478 -0.00287512 0.0114048 0.00271918 0.00131218 0.00833718 0.000698615 -0.00822584 -0.00258747 0.00558869 -0.0021125 0.00360045 -0.0075927 -0.00381845 -0.00619977 -0.0139359 -0.00112993 0.0102996 0.000987526 -0.00384701 0.00838552 0.00830619 -0.000544147 0.00607378 0.00872009 0.00836292 0.00131665 0.000268147 -0.00678811 0.00145156 -0.00333804 0.000493971 -0.00313553 0.00312366 0.00227696 -0.0117164 -0.000452998 0.000497954 0.002773 -0.00606272 0.000917124 -0.00591379 -0.0100922 -0.00644775 -0.000962332 -0.0028391 0.00103847 0.0013178 0.00107716 -0.00495205 -0.00781051 -0.00216719 0.00226842 -0.00623075 -0.00577843 -0.00252596 0.00798676 0.00602117 0.00106006 -0.00209439 0.0049154 0.00724554 -0.000336915 0.00343839 0.00361345 -0.00236652 0.00516164 0.00253497 0.0107159 0.00770119 -0.00349063 -0.00580805 -0.000512069 0.00605433 -0.0029396 -0.0123504 0.000383116 0.00176284 -3.97495e-05 0.00244024 -0.00193496 -0.00844653 -0.00508641 0.00330885 0.00577113 0.00116451 -0.000570291 -0.00393678 0.00496218 -0.00207597 0.00195552 0.00425711 0.00564868 0.00646699 -0.00376672 -0.00175259 -0.00804112 -0.00987486 -0.00125257 -0.0018361 0.00374519 -0.0100563 -0.00957374 0.000297752 -0.00932129 0.00217235 -0.00126707 -0.00734243 -0.00711748 -0.00477958 0.011485 0.00899729 0.0115318 0.0171735 0.00313081 -0.00143115 0.00016054 0.00235708 0.00329507 0.00370547 -0.00669613 -0.00239394 -0.000204282 0.00234065 -0.00195955 0.000756982 -0.00551511 -0.00816459 -0.00235188 -0.000728375 -0.00460648 -0.000959883 -0.00899524 -0.00788655 -0.00195469 0.00112911 0.00255386 -0.000786361 0.00341324 0.00679161 0.00388217 0.000248204 0.00513553 0.0113136 0.00623736 0.000657764 -0.00239747 -0.000565776 0.00547151 -0.00437781 0.00150201 -0.0076674 -0.0024419 0.00524155 0.00160517 -0.00366727 0.00350938 -0.0032956 -0.00187336 -0.00697447 -0.00544468 -0.00751835 0.0024601 -0.00714973 -0.00697057 -0.00794611 -0.0124226 -0.0052672 -0.00454329 -0.00839952 -0.00803423 -0.00407325 0.00794156 0.00789848 0.00169167 0.000277275 -0.00509353 -0.00258686 0.00502991 0.0047965 -0.00211629 -0.000781815 -0.0032716 -0.0071404 -4.27739e-05 -0.00466786 -0.0103179 0.00315138 0.00191479 0.00281251 0.012882 0.0134205 0.0056095 0.00509415 0.0183439 0.0109035 -0.00216261 0.00580789 0.00553249 0.003786 0.00338306 0.00385173 -0.00176251 0.00574582 0.00196119 -0.00171655 -0.00123772 0.00124595 0.00513428 -0.00241459 -0.00220251 -0.00809236 -0.00496068 -0.00451498 -0.00044261 -0.00456726 0.00235819 -0.0025149 -0.00568396 -0.00571491 -0.00876339 -0.00178346 -0.0021139 0.0010661 -0.00503784 -0.00342759 0.000849936 0.00201246 -0.000237479 -0.00185946 -0.000644592 0.00775935 0.00472987 0.00172819 0.00149152 0.00132118 0.00367656 0.0014615 0.00512786 0.000690712 -0.00114 0.000838376 -0.00153612 0.00120002 -0.00111152 -0.0107716 0.00185699 -0.000912583 0.000497754 0.0061229 0.00171448 -0.00369377 0.00622701 0.0100166 0.00649221 0.00253991 -0.00297725 -0.00458302 -0.00271869 0.00431057 0.00368278 -0.00572839 -0.00123201 0.00506574 -0.0067474 -0.00645869 -0.00801313 -0.00640704 -0.00419192 -0.00827608 -0.00500584 -0.0130873 -0.0058023 0.00278223 0.000387818 0.00565928 0.00534488 -0.00226606 -0.00629291 -0.00619586 0.000872819 0.00349717 -0.00373266 0.00816204 -0.00180503 0.000619828 0.00789959 0.00467072 0.00555335 0.00708317 2.59152e-05 0.00751332 0.00320957 0.00120881 -0.00215954 0.00333613 -0.0137501 -0.00101465 0.00101996 -0.00160593 -0.000209399 -0.0111235 -0.00320402 -0.000952383 -0.00432533 -0.00128469 0.00628811 0.00225115 0.00763365 0.00970002 -0.00500261 -0.000601483 -0.00118123 -0.001801 -0.0107494 -0.00144715 -0.00439263 -0.00545437 -0.00512579 0.00320792 0.00132583 0.00101451 0.000157462 0.00239186 0.00269208 -0.000575747 -0.000318703 -0.00353977 6.17036e-05 -0.00810824 -0.0103248 -0.00747949 -0.00519644 -0.00906137 -0.00189894 -0.0056917 -4.45174e-05 -0.00480381 -0.010024 0.00365614 -0.00102606 0.00147147 0.00423758 -0.00172206 0.00121798 0.0070671 0.000709978 -0.00133112 0.00289241 0.0029618 0.00108571 -0.00447558 -0.0098968 -0.0155085 -0.00816594 -0.00803599 -0.0119825 -0.00245772 -0.00331821 0.0100031 0.00996493 0.00214246 0.00573085 0.00969106 0.00600356 0.00433519 0.0082619 0.00673249 0.00445655 0.00126808 -0.00587705 -0.0110071 0.00141467 0.00611781 0.00490282 0.00263034 -0.000510014 0.00327757 0.00353129 0.00267743 0.000128717 0.000782621 -0.00338095 -0.00413513 0.00173703 -0.00502978 0.00240775 0.00242684 -0.00825016 -0.0055636 -0.00293517 0.000480322 0.00709457 0.00601152 0.00808867 0.00551777 0.00569112 0.00335975 -0.00297014 -0.00778212 -0.0009605 0.00261169 -0.00203413 0.00249793 -0.000989033 0.00278936 0.000955471 0.00212781 0.000184488 -0.00790532 0.000361862 0.00492367 0.00425422 -0.00808673 -0.00466126 -0.00782952 -0.00705607 -0.00214515 -0.00492306 -0.00134533 -0.00303431 -0.00178416 0.00828959 0.00105219 0.00440077 0.00390626 -0.00392947 -0.00559391 -0.00408503 0.00288705 0.0033569 0.00826284 -0.00160877 -0.00631426 0.000515039 0.000998632 0.00217525 -0.00988863 -0.00916182 -0.00869013 -0.00448491 -0.011663 -0.00681407 0.00169736 0.000496329 -0.00427167 0.00720116 -0.00141143 -0.00117803 -0.00894298 -0.000183067 0.0027608 -0.00932309 -0.00565 -0.00756312 -0.0106251 0.00550381 0.00283894 0.00689827 0.0108729 0.00399995 0.00571261 0.0105419 0.00374571 0.0027613 0.00121897 -0.00156824 -0.000546703 0.000689633 -0.00189513 -0.00773305 -0.00626977 -0.003358 -0.00995269 -0.00942158 7.66264e-05 0.0138512 0.0129929 0.00241813 0.00538366 0.000359151 0.00314847 -0.000907292 0.00211892 -0.00399443 -0.00361601 -0.00682497 -0.00589096 -0.00772795 -0.00525253 0.00234082 0.00447524 0.00617811 0.00239033 0.000552162 -0.00375536 0.00251956 0.00463437 0.00207085 -0.00402435 -0.0165184 -0.00779305 -0.0017362 -0.00204748 -0.0054551 -0.00173868 -0.0019397 -0.00755651 -0.00442383 -0.00201432 0.0116108 0.00469207 0.00730956 0.00141185 0.0101053 0.00577127 -0.0040926 -0.00381001 0.000447177 -0.000979881 -0.00949658 -0.00661084 -0.0131158 -0.0116302 -0.00826062 -0.00445015 -0.0105825 0.00200434 -0.00514077 0.00354166 0.0121983 0.0019326 -0.00557334 0.000272297 0.00337928 -0.00373349 0.00300422 0.000812627 0.00103476 -0.00985504 -0.010987 -0.00989236 -0.0121991 0.00263978 -0.00367238 0.00260039 0.00498244 0.00425267 -0.00164701 0.00754108 0.00275035 0.00116209 -0.00498811 0.00469708 -0.00416722 -0.00614558 0.000409424 -0.000545509 -0.00780187 -0.0016607 0.00218406 -0.00346599 0.00808486 0.00779292 -0.00194397 0.00210521 0.00821172 0.003093 0.00458009 0.00358515 -0.00747997 0.000336364 -0.00356455 0.00151098 0.0099612 0.00327789 -0.00315811 -0.007995 -0.00740195 0.00239162 0.00337848 0.00246254 -0.00607722 -0.00508187 -0.00421937 -0.0131949 -0.00914489 -0.00512789 0.00292023 0.00579232 0.000490078 0.00204985 0.00899247 0.00303689 0.00327678 0.00263185 -0.000483535 -0.00893934 -0.00727265 -0.00779697 -0.00196768 0.00361234 -0.00719526 -0.00816808 -0.0118556 -0.000669241 -0.00485583 -0.00524279 4.68854e-05 -0.00569169 -0.00729226 -0.00522482 -0.00195502 -0.00472141 -0.00182442 0.000552744 0.00597402 0.00165439 -0.00649781 -0.00862634 -0.00834319 -0.00643728 -0.00714687 -0.0139622 -0.015799 -0.017968 -0.00846821 0.00158708 -0.00242372 0.00243308 0.00597707 -0.00173753 -0.00253174 -0.00220283 -0.00136189 0.00544279 0.00823419 2.02619e-05 0.00069442 -0.00260026 -0.00625397 -0.00144091 -0.00836731 -0.0128409 -0.0104067 0.0045574 0.0108588 0.0094765 0.00825623 0.00392998 -0.00124022 0.00464133 0.00310707 0.00396744 -0.00163021 0.00145792 -0.00639683 -0.00392185 -0.000588139 -0.0047134 -0.000150749 0.0060688 0.00720801 0.00681259 0.000307111 -0.00509453 0.0011033 0.00166667 0.002849 -0.00810529 -0.00873262 -0.00247146 -0.00609732 -0.00252981 -0.00216987 -0.00130207 0.000498796 -0.00474355 -0.00502074 -0.00100228 0.0102466 0.00505898 0.00106469 0.000527091 0.00550591 0.00203588 0.00283969 -0.00524812 -0.00638285 -0.00844398 -0.00994497 0.000289588 -0.00600639 -0.00797416 -0.00539774 0.000840427 -0.00478997 0.00117732 -0.00525491 -0.00327852 0.00697633 -0.00693752 0.00158323 0.00106713 0.0125863 0.0021331 0.00674531 0.000530262 -0.00115603 0.000163578 -0.00426463 0.00207272 -0.00345898 0.00450412 -0.00142754 0.000153908 0.00806886 0.0070518 0.00924305 -0.00142399 -0.00429588 0.00506646 0.00548939 0.00382507 0.0064107 -0.00683063 0.000384459 -0.00538926 -0.00167328 -0.00569113 0.00127264 -0.000619667 0.00527187 0.00868683 0.000299605 0.00569709 0.00560087 0.00250274 -0.0019186 0.00020472 0.00514798 0.00607316 0.00697076 0.00993646 0.00989615 0.00378121 0.00304396 0.00367796 -0.000972007 0.001894 0.00383017 0.00920589 -0.00170619 0.00170659 0.00112801 -0.00953523 -0.00936409 3.30762e-05 0.00764829 0.000810552 -0.00489827 -0.00459933 0.00908699 0.00455965 0.00764233 0.00108086 -0.0060887 -0.00815956 -0.0121101 -0.00679804 -0.0106081 -0.00487601 -0.00843426 -0.0102823 -0.00629553 -0.0163727 -0.00882059 -0.00387054 -0.000450875 0.000431803 -0.00850359 -0.00121826 0.00153751 -0.0022706 0.00428644 0.00517696 0.00224744 -0.00805214 -0.0118208 -0.00705769 -0.0030644 0.00563754 -0.00217493 -0.0057513 0.00165464 -0.00378083 0.00381106 -0.00256035 0.00523285 0.000848877 -0.00226217 -0.0028221 0.00170416 -0.00526232 -0.00581685 0.00211984 0.000736052 0.00304534 0.00140923 -0.00774871 -0.0101974 0.00170531 -0.0098692 -0.0144853 -0.00599393 0.00058144 0.00401428 0.0089749 -0.00164996 0.000748088 9.90203e-05 0.00565733 -0.000908022 0.00283057 -0.00167105 -2.72347e-05 -0.00286914 -0.00143167 -0.00424202 -0.00791387 -0.00273117 -0.00532741 0.00368732 0.00773377 0.000488778 0.00123977 -0.000416422 -0.000706051 0.00230099 -0.00923198 -0.00970061 -0.0010634 -0.00333992 -0.00149651 -0.00219155 -0.00202973 -0.00494904 -0.00355796 0.000476163 -0.00220292 0.00116604 0.00204408 0.00799857 0.00375087 0.0124405 0.010665 0.000395579 -0.00274254 -0.00592645 -0.0047573 -0.00222012 0.00107258 -0.00308818 -0.00583985 -0.00100256 0.000561773 -0.00515022 0.00198575 0.00480315 0.00137469 0.0090576 0.00954258 0.00226294 0.00865614 0.0126415 0.0100516 0.00262922 0.00609906 -0.00308741 0.00403277 0.000683159 -0.00138569 0.00351152 0.00417804 0.014877 0.000425015 0.00543013 0.00771457 0.00869857 0.00948329 0.00593642 0.00752295 0.00391713 0.000522562 -0.00561056 -0.00380337 -0.000699002 -0.00838311 -0.00194837 -0.0104484 -0.0114542 -0.00670101 0.00230275 0.0106465 0.00634705 0.00739521 0.00714161 0.00993785 -0.000988167 0.00371456 0.00333147 0.0109082 0.0117662 0.00826742 0.00181085 -0.00171909 0.00313914 0.00223181 -0.00165316 0.00912836 0.00611918 0.00348892 0.00911849 -0.00105011 0.00334598 -0.00591382 -0.00644659 -0.00456819 0.00113265 -0.00109547 -0.00016314 -0.00788708 0.00190752 0.00558962 0.00450811 -0.00162073 -0.00463185 -0.00659722 -0.00577065 -0.00161155 -0.00480843 -0.00904609 -0.010156 0.00231918 0.00284832 -0.00511017 -0.00427903 -0.00239596 -0.00423894 -0.00277235 -0.00088218 -0.0016463 0.00668694 0.00769922 0.00623333 0.00445639 0.00649292 -0.00631895 -0.0113341 -0.00266782 0.00207955 0.00136596 -0.00629821 -0.00457317 -0.00160325 -0.00690237 0.000467741 0.00166857 0.00385762 -0.00118822 0.00389635 0.00215089 0.00133248 0.000935498 0.0010482 0.00453512 -0.00628969 0.00264622 0.00857457 -0.000282761 0.00028642 -0.00241202 -0.00349962 -0.00349094 -0.00563345 0.00814184 0.00386875 0.00364023 0.00596307 0.00745314 -0.00239889 -0.00208171 -0.00449355 -0.00029069 0.00183872 0.00302812 -0.000331257 -0.00258254 0.00273831 -0.00174601 0.00396607 0.0019437 0.00533035 0.0110222 0.00303232 0.00688251 0.00204153 0.00526779 0.00578989 -0.00112233 -0.00701028 0.0043249 0.00591544 0.00184413 0.00407284 -0.00262418 -0.00721935 5.56855e-05 0.00298204 0.00451414 0.00437582 0.000970785 0.00372732 0.000877036 0.0105084 0.00238237 0.00617184 0.00228192 -0.00943181 -0.00726678 -0.00640844 -0.00493175 -0.00360314 -0.00230252 0.00838146 -0.000750388 -0.00423922 0.00538064 -0.00203498 0.00524037 0.000654311 0.00306966 0.00206133 0.0176442 0.0101939 0.0121803 0.00601911 0.0101911 0.00677142 0.00473642 0.004947 0.00941923 0.00500623 0.00451681 0.004137 -0.000503141 0.0125249 0.000327262 0.00535774 0.00775208 0.0096608 0.00215943 0.00157042 0.00503803 -0.00566135 -0.00469965 0.000478634 -0.00571226 -0.0114265 -0.00893044 -0.0112632 -0.00755709 -0.00588659 0.0126488 0.00186553 0.00173203 0.00567373 0.00470657 -0.00437987 0.00133491 0.0109344 0.0103447 0.00947667 0.00186144 0.00618283 0.00353644 0.000122971 -0.00119332 -0.00324598 -0.000793291 0.00154671 0.00519939 -0.00110957 0.00844608 0.0107673 0.00460976 4.31811e-05 -0.000995173 -0.00668351 -0.00713113 -0.0151248 -0.00865636 -0.00365811 0.00784764 0.00455329 0.00646871 -0.00195807 -0.0020119 0.00537314 -0.00173985 0.00288549 -0.00517968 -0.000164062 0.000943373 0.00950401 0.00489943 0.00304476 0.00509388 0.00195692 0.00214967 0.0106033 0.00615317 0.00888927 0.00392782 0.00158337 0.0104906 0.00124386 -0.015355 -0.0106846 0.000856748 0.00393876 -0.00425765 -0.00576188 -0.00546549 -0.0095085 -0.0101132 0.003708 0.00771051 0.00862807 0.00491185 0.0042121 -0.00146962 -0.00737718 0.00419008 0.0147667 0.00340844 -0.00171711 0.00313189 0.00852299 -0.00268578 0.00381007 0.0044657 -0.00143394 -0.00300627 0.00479682 0.00695667 0.00393229 0.00595478 0.00186176 0.00247497 -0.00526404 -0.00171045 3.72126e-06 0.00561452 -4.56639e-05 0.00970527 0.00200057 0.00195413 0.00080759 0.000668143 0.000123415 0.0045647 -0.00384955 0.00499131 0.00445274 -6.81795e-05 0.0046757 0.000287204 0.0045617 0.00140061 -0.000712049 0.00698641 0.00240306 0.0026644 -0.000214917 0.00413281 -0.00323796 0.00510698 -0.000624979 0.00490515 0.000789735 0.0112903 0.00109674 -0.00137936 -0.00104541 -0.00296289 -0.00129065 0.0029472 -0.00670628 -0.00958286 -0.00691564 -0.0110216 -0.00486161 -0.00168936 0.00816633 0.0103038 -0.00227132 0.00409252 0.00613563 0.000476403 -0.00834831 -0.00936826 -0.0131823 0.00551744 0.00814075 0.000822264 -0.00655001 -0.000878157 -0.00116201 0.000538389 0.00709952 0.00664085 0.00492851 0.00340714 0.00916335 0.00800623 0.00199445 0.00475278 0.00297375 -0.00368835 -0.0015149 0.000481057 0.00650805 0.00489638 -0.00122177 0.000466479 0.00374183 -0.00325427 -0.00851194 -0.0140269 -0.0115335 -0.00860274 -0.00200644 0.0182574 0.00472002 0.000376548 0.00513729 0.00313339 -0.00578509 0.00554107 0.0102196 0.00578307 0.00981166 0.00424209 -0.000633452 -0.00412027 -0.00327379 0.00448969 0.00602816 0.00232124 0.00627578 0.0103766 0.00777243 0.0125677 0.0161855 0.0127301 0.00458896 0.00239303 0.00691815 0.00609447 0.00558017 0.000109087 -0.000424695 0.000748305 0.00537033 0.000770738 -0.000189691 -0.00597511 -0.000424916 0.00344711 0.000859327 0.00142931 -0.00055417 0.00387497 -0.000410086 0.00454692 0.00927974 0.00274657 0.000299675 0.00410908 0.00592869 0.0145554 0.00931134 0.0115734 0.00563383 0.00843913 0.00174828 -0.00260358 0.00177642 0.00195172 0.0052768 0.00315722 0.000160293 -0.00265519 -0.00183734 0.0016335 -0.00392494 0.00154645 0.00328239 0.00474896 -0.00346172 0.000361346 1.2657e-06 -0.00210534 0.00634146 -0.000278695 0.00443229 -0.00205396 -0.00457992 -0.0102168 -0.000749359 -0.00217792 -0.000725665 0.00107614 0.00331256 0.00744228 0.000536982 0.00241439 0.00798809 0.00558384 0.00172031 0.000619858 -0.00258509 0.00135545 -0.0043582 0.00256005 0.00104745 -0.00187763 0.00260996 0.00481604 0.00451979 0.00233721 0.000152257 0.000323264 0.0059416 0.00282642 0.00672448 -0.00282854 -0.00340931 -0.000674654 -0.000286071 0.00461352 -0.00184557 0.00156618 0.00103252 0.00346946 -0.00254649 0.00152852 0.00394688 0.00246147 -0.00175202 0.0042292 0.00600024 -0.00177203 0.00546278 -0.00292582 -0.00246475 -4.89916e-05 0.000755129 0.00419842 0.00249192 3.4496e-05 -0.00150528 0.00719645 0.00317649 0.0113929 -0.00483371 0.00521602 -0.00047346 -0.0055263 -0.00653686 -0.00738306 -0.00762235 -0.00589327 0.00980038 0.000604877 -0.00309743 0.00693149 0.00908923 0.010341 0.00681148 0.0049725 0.00102941 0.0126095 0.00725301 0.00370242 0.00998905 0.00784608 0.000160273 -0.00438367 -0.00463691 -0.00548372 0.00123885 0.00210152 -0.00531104 -7.79143e-05 0.00684594 0.00267625 -0.00240863 -0.0101083 -0.00877662 -0.00980131 -1.36779e-05 -0.000530685 0.00256943 0.00276862 -0.00199854 -0.00114631 -0.00417755 0.00504098 -1.85646e-05 0.00388735 0.00188014 0.00426256 0.00286481 -0.00192435 -0.000336375 0.00275239 0.00575821 0.0129597 0.00113989 0.00789379 0.00397476 0.00756294 0.0170184 0.0156747 0.00336825 0.00231644 0.00464588 0.0108668 0.00478147 0.00471165 0.0117946 0.00570475 0.00629557 0.0076639 0.00181057 -0.000553761 0.00279311 0.00895456 0.00185757 0.00169102 0.00471317 0.00106202 0.00241105 0.00586963 0.00570648 0.00115317 0.00483613 0.00539262 0.00966195 0.00767115 0.00864194 0.00684093 -0.00159303 0.00207512 0.00244762 0.00428874 0.00786315 0.00379579 0.00997889 0.00956024 0.00541652 0.00144368 0.00231299 0.00261058 -0.00183264 0.00721141 -0.000277333 0.00485514 0.00338036 -0.000872936 -0.00145442 0.00111824 0.00331024 -9.5611e-05 0.000498733 0.00288261 0.00382679 -0.00361567 -0.00753669 0.000257388 -0.00270786 -0.00553939 0.00356754 0.0106196 0.000971675 -0.00152949 0.00300015 0.00723337 0.00106305 0.00132947 -0.00140835 0.00984657 -0.00132779 0.00676228 0.0055317 -0.00344999 0.00477207 -0.00119086 0.001651 0.0027112 0.00546949 0.00958241 0.00619445 -0.00537227 -0.00287375 0.00307567 -0.0029883 -0.00238475 0.00403486 0.00257938 -0.00325933 -0.00117433 0.0026786 0.00298295 -0.00206343 -0.00200678 0.00432067 0.00724105 -0.00301495 0.00502488 0.00900004 0.0108097 0.00584328 0.00374528 -0.00172065 -0.00352248 -0.00228939 -0.00278064 0.00154944 0.00352147 0.00454849 0.002061 0.00389118 0.0034483 -0.0123939 -0.00113654 0.00181052 -0.0032801 -0.00450525 -0.00622965 -0.00823541 -0.00267709 0.00424677 0.000545739 -0.0055979 -0.00133398 0.00166997 0.00212842 0.00455065 0.00190634 0.000993809 -0.00129612 0.0112156 0.00101349 0.00344711 -0.000967105 -0.00209097 -0.00846922 -0.00887945 -0.00876809 0.000667456 -0.000569566 -0.00681613 0.00324225 0.0030424 0.000731877 -0.013187 -0.00716918 -0.00626934 -0.0148071 -0.0114466 -0.00551929 -0.00267645 0.00422596 -0.00628998 -0.00803078 -0.00209528 0.00229462 -0.000693999 -0.00379674 -0.00242328 -0.00366003 -0.000555772 0.00158339 -0.00223882 -0.00372483 -0.000867349 0.00402372 0.000652966 0.0105807 0.00712732 0.0123038 0.0116553 0.00498759 0.00648424 -0.000637059 0.00375113 0.011459 0.00986522 6.19379e-05 0.000962566 0.00765837 0.00707029 0.0119062 0.0038875 0.00175961 0.000918095 0.00451886 -0.000585324 0.00078655 0.00329541 -0.00185888 -0.0039076 0.000807871 -0.000962832 0.000309136 -0.00120176 0.00222556 -0.00236439 -0.000573857 0.00475402 0.00191208 0.00315384 0.0020484 0.000674843 0.00285636 0.00175043 0.000676597 0.00723548 0.0095402 0.0108498 0.0116343 0.00600433 0.00569219 -0.000161174 0.00278049 -0.000921626 0.000715995 -0.0025502 -0.00268354 0.00089647 -0.00148048 -0.00347048 -0.00269946 -0.0060133 -0.000852321 0.0079387 -0.00143317 -0.00392427 -0.00153881 -0.00335849 -0.00264901 -0.000805723 0.00248035 0.00013439 0.002667 -0.00273216 -0.00414616 -0.00142662 0.00247865 -0.00408535 0.00380208 -0.00157762 0.000879013 0.00398416 0.0090317 0.00392878 -0.0007157 -0.000619931 0.0017691 -0.00220714 0.0152567 0.000134784 -0.000497233 0.000687229 -0.000837284 -0.00186797 -0.00049576 0.00181254 0.00144153 0.00179738 0.000131862 0.00391686 0.00527506 0.000641245 0.00142324 0.000335092 -0.000461968 -0.000926491 0.00593698 0.00970096 -0.00477836 0.0043939 0.0056917 -1.07639e-05 0.00248348 0.00368228 -0.0046402 -0.000331501 0.00328156 0.00110688 0.00195195 0.00666405 0.00185214 -0.0051171 -0.010228 -0.00156255 -0.00712645 -0.00841827 -0.00531478 -0.00996579 -0.00306334 0.00207805 0.00591008 -2.70567e-05 0.00572377 0.00792708 0.0044438 0.00800224 0.00506924 0.00991684 0.00748012 0.00245942 0.00163605 0.00104487 0.00258976 -0.00349284 -0.00364686 -0.012654 -0.00711812 -0.00136343 -0.0010429 -0.00388363 0.00505957 -0.00402773 -0.00540736 -0.0101859 -0.0103445 -0.00656553 -0.0140215 -0.0133367 -0.00626301 0.00445619 0.000685219 -0.00209405 0.000551305 0.0019415 0.00306955 0.00267492 -0.00247699 0.00200797 0.00373807 0.00478901 -0.0027834 -0.00308281 -0.0045308 0.00261857 0.0075824 0.0120306 0.0118403 0.00775724 0.00988052 0.0109168 -0.00117965 -0.00724101 2.7119e-05 0.00332421 0.00181317 0.00508187 -0.00420694 -0.000582564 0.000263072 0.0035119 0.00444667 0.00507552 0.00400339 0.0042105 -0.00489464 -0.00577172 -0.00940915 0.00354774 -0.00207867 -0.00838019 -0.0110677 -0.00468208 0.000408529 -0.00344926 0.00207627 0.00263303 -0.00281474 0.00423676 0.00132183 -0.00574876 -0.00407824 -0.000338383 -0.00115474 0.00221305 0.00624968 0.012392 0.00894758 0.00631218 0.0120482 0.0093162 0.00527568 -0.00449552 0.00195445 0.00225991 -0.000438498 -0.00842498 -0.00160421 0.0032815 0.00439466 0.00174722 -0.00548608 -0.00517282 -0.00432001 0.000204711 -0.0113224 -0.00556287 -0.00501601 0.000581502 0.00251049 -0.00322363 -0.00198703 0.0056847 0.00228506 0.00305829 0.00131165 0.00198484 0.00558272 -0.00479022 -0.00163246 0.000147732 0.0028286 0.00732019 0.000281596 0.00841911 0.00108442 0.000922483 0.00423799 0.00280466 0.0101982 -0.00320013 0.00139723 0.00388209 0.000883856 -0.00112506 -0.00147504 -0.00441426 -0.00239917 -0.00416055 -0.00241712 -0.00212612 0.00101115 -0.000775605 0.00423858 -0.000483345 -0.00154075 -0.00363981 4.63592e-05 0.00348809 -0.00202999 -0.00244141 -0.00293135 -0.00293314 -0.00327137 -0.00534173 -0.00638997 0.00326242 0.00298338 0.00530442 0.000915725 -0.00197658 0.00119407 -0.00448968 -0.00959683 -0.00310616 -0.00357395 -0.0076964 -0.00106198 -0.00821406 0.00215136 0.0119359 0.0109427 0.00567606 0.00432209 0.00598608 0.00261956 0.00577828 0.0128296 0.0114701 0.00602447 0.000528567 -0.00248219 0.00383143 0.00115781 -0.00197016 -0.00398103 -0.00360957 -0.00682137 -0.00496582 0.000299049 -0.000706873 0.00336926 -0.00798537 -0.00839633 -0.00631084 -0.0086981 -0.0116716 -0.00511074 -0.000807299 0.0052772 0.00121935 -0.00315294 -0.00415197 -0.000422072 0.00174136 0.00216076 -2.07194e-05 -0.00116016 0.0031418 0.00673689 0.00527265 0.00236484 0.000798713 -0.00736352 -0.00456761 0.00542269 0.0111584 0.0026169 0.00295548 0.00549952 0.00274945 0.00688793 -0.00303744 0.00924371 0.00750185 0.00362591 0.00447733 0.00427039 0.0040601 0.00377097 0.00344318 0.00448606 -0.000550234 0.00106268 -0.00539348 -0.00254364 -0.000181103 0.00126812 -0.00185487 0.000487529 -0.00345112 -0.00352203 -0.0023304 -0.00400379 -0.00294305 -0.00397958 4.57811e-05 -8.38446e-05 -0.00165353 -0.00531776 -0.00575812 -0.00326376 -0.0001152 -0.00365407 -0.00130069 0.00240731 0.00805969 0.00925795 0.012517 0.0157524 0.00765003 0.00674883 0.00041029 0.00559974 0.00448529 0.000375673 -0.00678625 -0.00389037 0.00129506 -0.000742493 -0.00563026 -0.00484991 -0.00502653 0.000641151 -0.00334339 -0.00710212 -0.0125036 -0.0070002 0.001552 0.00040364 0.00574104 -0.00279851 0.000540095 0.000719248 0.00317943 -0.000548793 7.17834e-05 0.00273677 -0.00258036 -0.0012799 -0.00442153 0.00107808 0.00445542 0.00639003 0.00457294 0.0026634 0.00536509 -0.0026383 0.00251235 0.000273641 -0.00291704 -0.00444234 -0.00747839 -0.00972294 -0.000100872 -0.00435495 -0.00227506 0.0015085 -0.00354475 -0.00675093 0.00221501 0.000899512 -0.00302857 0.00449234 -0.00345854 0.00112454 0.00197685 -0.000765105 -0.00238479 -0.00292941 0.00166266 0.00376321 0.000523652 -0.00303884 -0.00174165 -0.00399253 0.00699017 0.00695066 0.00148927 -7.72904e-07 0.00342595 0.000544167 -0.00499489 -0.0126967 -0.00260215 0.00139786 -0.00100995 0.00835613 0.00472796 0.00814096 0.00760689 0.0124339 0.0086297 0.00823946 0.00466462 0.00145741 0.00666276 0.0136174 0.0084661 0.00273701 0.000894944 0.00252414 0.0043944 0.00142747 0.00495871 0.00311467 0.000614588 -0.0037814 -0.00508137 -0.00180349 -0.00590768 -0.00217208 -0.00985846 -0.00813292 -0.00347341 -0.00729323 -0.00540464 -0.00192959 -0.00258657 -0.00736061 -0.0020625 -0.00174795 -0.00431766 -0.000827608 0.00122517 -0.00166461 -0.0042948 -0.0043503 0.00186106 0.00541888 -0.000981765 0.0016437 -0.00225467 0.000736304 -0.00035567 0.00589164 0.0066108 0.00951393 0.00350808 -0.00260051 0.000495383 0.00664782 0.00468136 0.00156465 -0.00182615 0.000824753 0.00561112 0.00210956 0.00540261 0.00448109 0.00111572 0.00725371 0.00340714 0.00188258 0.00237685 0.00417007 0.00355416 0.00351523 0.00713058 -8.66445e-05 -0.00132784 -0.00355447 0.00627568 0.00239454 -0.00408182 -0.00241984 0.0114122 0.00118421 0.00385578 0.00309478 0.00175126 0.00162422 -0.00132752 0.00688934 0.00536987 0.00419962 0.00804068 0.00641562 0.0129326 0.0109021 0.00159298 0.00156433 -0.00479442 -0.00640788 -0.00310342 0.0049611 0.0026862 0.00424247 0.00299255 -0.00113787 0.00220318 -0.00435766 -0.00535558 -0.0090687 -0.00199901 -0.00887548 -0.0120035 -0.00118963 -0.00354125 -0.00238811 0.00126982 -0.00101855 0.000445739 0.00334135 0.003179 0.000556384 0.00287833 0.000347598 -0.00296324 -0.00211682 -0.00214947 -0.000553171 -0.00227894 0.00466032 0.00371678 -0.00409889 -0.000665258 -0.00501703 -0.00709383 -0.00475635 -0.00557356 -0.00777356 -0.00634583 -0.00797134 -0.00319616 -0.00741524 -0.0104067 -0.00754456 -0.00942809 -0.00473651 -0.00511378 -0.00783277 -0.00474525 -0.000109554 0.00084583 -0.00184335 -0.000498243 0.00148644 -0.000814787 0.000345769 -0.000826767 0.000857739 -0.00217237 -0.0029132 -0.00498566 0.00103418 0.00327684 -0.00312838 -0.00232012 0.00321621 -0.000773327 0.00372053 -0.000882533 -0.00134395 0.00249695 0.00422896 0.00232462 0.00391645 0.00363705 0.00370329 0.0096473 0.00552278 0.00428591 0.00303314 0.00650661 0.00173889 0.00565529 0.0044174 0.00160935 0.00354135 -0.00457598 0.00358166 0.00601696 0.00141269 -0.000645306 0.00447673 -0.00394827 0.000160948 0.00456438 -0.0027697 -0.00212826 -0.00178638 0.000361437 -0.00720703 -0.00110895 -0.00149631 0.00269874 0.00529615 0.000134898 0.00112862 -0.00635272 -0.00532413 -0.00706046 -0.000532563 -0.00168783 0.000178309 -0.00375094 -0.000680896 0.000403774 0.00385787 0.00175148 0.00145786 0.00181015 -0.00457826 -0.00536088 -3.06957e-05 0.00309563 -0.000274522 -0.00137021 0.00415199 0.000544658 0.000391125 -0.00105439 -0.0048393 -0.00451202 0.00124574 -0.00124951 -0.00138928 0.00207444 0.00354842 -0.00540668 0.00749793 0.00824311 0.00708507 0.00938197 0.00868808 0.000496906 -0.00165646 0.00667602 0.00459561 -0.00119632 -0.00029728 -0.00449785 0.00128874 -0.00315282 -0.00680105 0.00199667 0.00788736 0.0069177 0.00527669 8.35156e-06 -0.0025244 0.000411681 0.00323724 -0.00215025 0.00363798 0.00337006 0.00523918 -0.00224621 0.00373677 0.00795097 -0.000202424 0.00483852 0.00820696 -0.00236315 0.00944729 0.0030117 0.00538824 0.00176866 0.000137861 0.00285856 0.0024414 -0.00481359 -0.00149761 -0.00655337 -0.00620556 -0.00568579 -0.000915731 -0.00342285 -0.00161363 0.000198927 -0.00221518 0.0055068 0.00541132 0.0105047 0.011148 0.00627758 0.00754831 -0.000524748 -0.00196819 0.00197754 -0.00667915 -0.00360038 0.00129852 -0.00127763 0.00268456 0.00443996 0.00186455 -6.29696e-05 -0.0088716 -0.00996989 -0.00818845 -0.00356685 -0.00249451 -0.00527309 -0.00487393 -0.00462327 -0.011623 -0.00652314 -0.007911 -0.00707514 -0.00749843 -0.0026236 0.00331234 -0.00350007 -0.000230666 -0.00112395 -0.00190268 -0.0100268 -0.00152914 0.0044677 0.00135162 -0.00462064 -0.00718387 -0.0103755 -0.00507471 0.00025137 0.000937843 0.00237073 -0.00187435 -2.66819e-05 0.00624384 -0.00901778 -0.00512759 0.00201297 -3.35342e-05 0.00649831 0.00911874 0.00258429 0.00403729 0.00524424 0.00724911 0.00498305 0.00427166 0.00354429 0.00987245 0.00886599 0.00322991 -0.00826592 -0.00420774 -0.000922624 -0.00259283 0.00515166 0.00468463 -0.00136962 -0.00217539 -0.00641602 -0.00802959 -0.00668685 0.00172598 -0.00198929 0.00194186 0.00324515 -0.00344122 -0.00592089 -0.0104592 0.00190237 0.00482211 0.00877609 0.00853655 0.00955667 -0.00490657 -0.0127264 -0.00679489 -0.00367854 -0.000538135 -0.00417915 0.000371745 0.0033123 -0.000253125 0.00160124 -0.0013266 -0.00177039 -0.00337475 -0.00886035 -0.00129433 0.00235308 0.000482764 0.00871681 0.0111952 0.00856642 0.00169277 -0.00156333 0.00313886 -0.00682115 -0.0119721 -0.0127523 0.000601956 -0.000741022 0.00225471 0.0016828 0.00972555 3.51324e-05 0.00544226 0.00908012 0.00451681 -0.00657343 -0.00793253 -0.00398111 0.00626238 0.00386027 -0.00157502 -0.000390109 -0.00272892 -0.00499891 -0.00867017 -0.0116198 -0.00388132 -0.00279184 -0.00505315 -0.00519684 -0.00651012 -0.00413761 0.000702721 -0.00386774 0.00559783 -0.00405838 -0.00220485 -0.00417944 -0.00268239 0.000357256 0.00573579 0.00643077 0.00109083 -0.0018601 -0.00212927 -0.001042 0.00091876 0.0069718 0.000499828 -0.00112923 -0.00264164 0.000907726 -0.00183959 -0.00150125 -0.00844421 -0.0078456 -0.00182838 -0.00900992 -0.0101413 -0.00375502 -0.00490462 0.00297258 0.00108127 -0.00135328 -0.00167824 0.00363663 -0.00125327 -0.00216889 -0.00930745 -0.00900057 -0.00415588 -0.0018297 0.00110016 -0.00121884 -0.000532181 -0.000603666 0.000929853 -0.00284094 -0.00281741 -0.0034829 -0.00437705 0.00114622 -0.00149571 -0.000322341 -0.0026081 -0.000499629 -0.00754562 -0.00991861 -0.00510195 -0.00430101 -0.00620222 -0.00319517 6.61854e-05 -0.00198901 0.00205639 -0.000801537 -0.00159861 -0.0054176 -0.00825934 -0.000524475 -0.00143336 0.00187082 0.000201374 -0.00613786 0.00381625 0.00279965 0.00476988 0.000639882 0.00154024 0.00845639 0.00722701 0.00201076 -0.00321279 0.00324636 0.0014088 5.13443e-05 0.00588052 -0.00281967 0.00561941 0.00700951 0.00397553 -0.0041104 -0.000839034 -1.3074e-05 0.00498406 0.00475173 -0.00251683 -0.00259406 0.00190655 -0.00240008 -0.0068425 -0.00582484 0.00737402 -0.0057547 0.00094044 0.000859965 0.000437121 -0.00274997 -0.000820812 0.00518623 0.000233128 0.00078485 0.00260835 -0.00302772 0.00442207 0.00684399 0.0109257 0.00500667 -0.00662154 0.00124268 0.00113242 -0.00812543 -0.0128544 -0.00355457 0.0096022 0.00388599 -0.000277959 0.000455757 -0.00113459 0.000133131 -0.00781344 -0.00485494 -0.00354968 -0.000724592 0.00412444 0.00297891 0.00725988 0.00743656 0.0096785 0.00457718 0.00337405 -0.00864834 -0.00695727 -0.00847072 -0.00675136 -0.0134021 -0.00338972 -0.000626919 0.00220375 -0.00631913 0.00201167 0.00253546 0.0102276 0.00338234 0.00236632 -0.00758342 -0.00667838 -0.00542122 0.00187573 -0.00897654 -0.00555316 -0.00469629 0.000540041 3.60023e-05 -0.00510073 -0.00150443 -0.00613258 -0.00208556 0.00124029 -0.0106112 -0.00723238 -0.00686608 0.000333037 -0.00639606 -0.00068057 0.00312716 -0.00302245 -0.000362975 -0.00291397 0.00178513 0.00402802 0.000623422 -0.00175047 -0.00451306 -0.00752865 -0.00623129 -0.00293328 -0.00195908 -0.00021678 0.00246158 -0.00195192 -0.00547451 0.000987863 -0.00443019 -0.00836927 -0.00918164 -0.005238 -0.00646261 0.00356805 0.00353631 -0.00220567 -0.00454208 -0.00341288 0.00369384 -0.00612272 3.15061e-05 -0.00540052 -0.00632688 -0.00835031 -0.00393539 0.000538506 -0.00193872 5.62335e-05 0.00284584 0.00421766 0.0023157 0.00140155 0.000650139 -0.00210714 -0.000888678 -0.000249884 -0.00429863 0.00218996 0.00592208 -0.00138971 0.00118734 -3.81871e-05 0.00368743 -0.0031465 -0.00394903 0.00248225 -0.00442552 0.000554379 0.00341346 0.00655918 0.00416268 0.00652382 -0.00227654 -0.0111078 -0.00735296 -0.00216486 -0.00215613 0.000421933 -0.0025003 0.000538709 0.00678181 0.00273099 0.0036065 0.00236822 0.00987828 0.00750013 -0.000463917 0.00796366 -0.000850385 0.000888675 -0.00197283 -0.00576324 -0.000191842 -0.0051104 0.000548859 -0.00414684 -0.0118155 -0.0104066 -0.00199784 0.00119995 0.0062714 -0.00359247 -0.00566125 0.00712542 -0.00143941 -0.00368334 -0.00128464 0.00151819 0.000497103 0.0031713 0.00287984 0.0068105 0.00546512 0.00104079 -0.00308107 0.0057055 0.00576313 0.0082228 0.00943481 0.0094338 0.00489663 0.00782075 0.00421744 -0.00223697 -0.00526452 -0.00815033 -0.00161914 -0.00973219 -0.0060621 -0.00042192 -0.000116959 0.00434293 -0.00144927 0.00201484 0.00384022 -0.00536793 -0.0034544 -0.00263689 0.00526313 0.00603601 0.00366774 0.000728104 0.00013918 0.00398225 0.00498013 0.00337351 -0.00729122 -0.00421222 -0.0120762 -0.0102578 -0.00866824 0.000176704 0.00402662 0.00151916 -0.00500599 0.00186006 0.00521149 0.00332505 0.000215332 0.0138372 0.00606574 -0.00309775 0.00338812 0.00450918 -0.000823055 0.000645722 0.000836524 -0.00199457 0.00371126 -0.0033426 -0.00568828 0.00167778 0.000654848 -0.00403785 -0.00301125 -0.00801347 -0.00222972 -0.00499033 -0.00857102 -0.00313655 -0.00094865 0.00505058 -0.000381287 -0.000945595 0.000300672 -0.00169848 -0.00105426 -0.00661584 -0.00754816 -0.00366036 -0.00219706 -0.00317138 -0.00481918 0.00211104 -0.00607021 0.000247341 0.00448112 0.00172831 -0.00257028 -0.00583228 -0.00193494 -0.0049743 -0.00335036 0.00400536 -0.00088458 -0.0028426 -0.00593695 0.00266484 0.0011237 -0.00316136 -0.00250999 -0.000336319 -0.00360322 0.00311355 -0.00257558 0.00298884 -0.00265396 -0.00778787 -0.00488474 -0.00617544 0.00133557 -0.00227995 -0.00107433 -0.00205484 -0.00173071 -0.000906086 -0.00157619 0.00522875 0.00848151 -0.00171115 0.00301383 -0.00417047 0.00366526 -0.00232593 0.00237914 -0.00178548 -0.00215343 0.000182445 0.00288596 0.00109599 0.000684901 -0.00124132 -0.0035883 -0.00541323 -0.000555662 -0.00356832 -0.00698929 0.00322373 0.00234354 0.0056867 0.00457884 -0.00373492 -0.000908764 0.00240406 0.00948055 0.00372998 0.00454179 -8.90352e-05 -0.000365828 -0.00378105 -0.00297371 -0.00745155 -0.00205301 -0.0022043 -0.00205734 -0.0145654 -0.0114751 -0.00871202 -0.00486334 -0.00355893 -0.00391582 -0.00194061 -0.00680883 -0.00117619 0.00741875 0.00336282 0.0067214 0.0108119 -0.00546981 0.00236727 0.00214243 0.00964893 0.00637617 0.00242768 0.00051684 -0.000943428 0.00778096 0.00683628 0.00352262 0.000790837 7.70157e-05 -0.000280117 0.00150449 -0.0077997 -0.00381637 0.00155356 -0.00438931 -0.0024828 0.00193504 0.00907423 0.00664319 0.00438518 0.00746485 0.000263248 0.00184719 -0.00289186 -0.00714338 -0.00247081 -0.000154975 -0.000958955 0.0073557 0.0025163 -0.000125074 0.000670648 0.00743639 0.00202304 0.00236402 -0.00363965 -0.00281782 -0.00149413 -0.000713999 -0.000224947 0.000453527 0.00254709 0.00515091 0.00665788 0.00103606 0.00373086 0.0111016 0.0062947 0.00188794 -0.00358419 -0.00215944 -0.00107381 -0.00044338 0.00424285 -0.000716905 0.00753116 0.00407956 -0.00153144 0.00322087 0.00219212 -0.00154682 -0.00541869 0.00349288 -0.000709795 0.000243188 -0.00560425 -0.00788008 -0.00594747 -0.0019393 -0.00270161 0.00381637 -0.00297108 -0.00385047 -0.00637648 -0.00646693 -0.00371498 0.000601464 3.68309e-05 0.00462125 -0.00177465 0.00379126 0.00434379 0.00340412 0.00160008 0.00383835 0.00821478 0.00443553 0.00299695 -0.00142416 -0.00104517 -0.000940498 0.00171468 0.00166471 0.000407394 -0.00151997 0.00474206 -0.00284393 -0.00572 0.00277724 -0.00708754 0.00171994 0.00644299 0.00190348 0.00224905 -0.000810051 -0.00894772 -0.00157255 -0.00207152 0.000148649 -0.00276816 -0.00247189 -0.000912 -0.00300528 -0.00502331 -0.00551684 0.00758937 0.0108904 -0.00525861 0.00567843 0.00124367 -0.00166869 0.00159516 -0.000143516 -0.00683908 -0.00439054 0.00196243 0.00600785 0.00614043 0.00417394 0.00265191 -0.00056733 -0.00642563 -0.0016193 -0.0048217 -0.00194191 0.000566709 0.00119986 0.00498778 0.00454937 -0.00347825 0.00568555 0.00200463 0.0120927 0.0145267 0.0119719 0.00624489 0.00572249 0.000148781 0.000759378 -0.00540748 -0.00057076 -0.00823545 -0.0060522 -0.00808713 -0.00577172 -0.00464317 -0.000244229 -0.00347241 -0.00282422 -0.000450007 0.00102514 0.00299053 0.00259352 0.00275262 0.00673184 -0.00472609 0.0070452 0.00636618 0.00245802 0.00556606 0.0108664 0.0062306 -4.71413e-05 4.89657e-05 0.00399309 0.00663869 0.00390105 0.0011957 -0.00568218 -0.00386205 -0.0039085 -0.00626946 -0.00474487 -0.00185256 -0.00175965 -0.00749907 -0.000437616 0.00214774 0.00260123 -0.00295823 0.0028469 -0.00398949 0.0030229 -0.00742945 -0.00156032 0.00281517 -0.00514579 -0.00260214 -0.00151336 0.00141519 0.00912916 0.00592884 0.00524892 0.00194836 -0.00114055 -0.00727409 -0.0115373 -0.00145865 -0.000705692 -0.00312368 0.00375431 0.000555424 0.000570129 0.00155332 -0.00429719 0.000318055 0.0074916 0.00227765 -0.00548758 -0.0027625 0.0041401 0.0118303 0.00761938 0.00766292 0.00722284 0.00890912 0.00427514 0.00697559 0.00522686 -0.00234377 -0.00449148 -0.0074864 0.00312266 -0.00736343 -0.00294303 -0.00785524 -0.0153898 -0.0108752 0.00063415 -0.0050855 -0.0108191 -0.0101673 -0.0118912 -0.00806376 -0.0118982 -0.0135596 -0.00213053 -0.00291087 -0.00126227 0.00183341 0.00681495 0.00266955 -0.0065099 0.000895373 -0.000135439 0.000729985 0.000414965 -0.00154759 -0.0030628 0.000295718 -0.00115227 0.00202668 -0.000243909 0.00368723 -0.000146543 0.00187168 0.00499155 0.00269248 0.000260285 -0.00156382 0.00689095 0.00302221 0.000426369 0.00185725 -0.0014943 -0.00444464 -0.00486683 0.00233994 -0.00286498 -0.00335257 -0.00768177 -0.00473483 -0.000740157 -0.00101573 -0.00489622 0.00222397 0.00679707 0.00269731 0.0047668 0.000671802 -0.00428735 0.00146685 0.000694413 -0.00729599 -0.000230164 -0.00328715 0.0083454 0.00361704 0.00521795 0.00494569 -0.000654369 -9.65807e-05 0.000812491 -0.000582841 -0.00170965 -0.00439542 0.00381727 0.00575692 0.00615938 0.004515 0.00252687 0.00250412 0.0107083 0.0147937 0.0118899 0.00379872 0.00881059 0.00522474 0.0103891 0.00552431 -0.00213906 -0.0118252 -0.00249018 0.00057307 -0.000971562 -0.00389352 -0.00727414 0.00158809 0.00281001 -0.00185845 -0.00230995 -0.00424543 0.00430404 0.00661444 0.00583296 0.00829172 0.0060395 -0.00230833 0.00853681 0.00648377 0.00494884 -0.00588396 -0.00766678 -0.00315451 -0.00390911 0.00328027 0.0018922 -0.00333533 -0.00212661 0.00350913 0.00650078 0.00215279 -0.00353305 4.07611e-05 -0.0036565 -0.00165442 0.00204836 0.00577651 0.00251851 0.00279843 -0.00337336 -0.00180445 0.0024425 -0.00459848 -0.00102348 0.0050617 -0.00152408 -0.00959171 -0.00501218 -0.000987644 0.003071 -0.00462014 -0.00038785 -4.71139e-05 -0.00265065 -0.0142378 -0.00640041 0.000112868 0.000739302 0.00441827 -0.00280769 -0.00255361 -0.00152851 0.00946426 0.00232858 -0.00496077 0.00397305 0.00241777 0.00242824 -0.00491385 0.00333073 0.00397797 0.00661946 0.00596608 0.00726942 0.0110818 0.00602066 0.00293791 0.00214873 0.00155678 -0.00438066 -0.0121537 -0.00161013 0.00109603 -0.00226395 -0.0076946 -0.0134017 -0.00589954 -0.00476791 -0.00474422 -0.0104392 -0.00973793 -0.011162 -0.00992454 -0.00861524 -0.00714797 -0.00978979 -0.00744573 0.0007529 0.00311941 0.0036797 0.002815 -0.000697311 -0.00206352 -0.00494685 -0.00348854 -0.0025594 -0.00274996 -0.00635217 0.00643379 0.00511345 0.00313991 -0.000353459 0.00326152 8.15511e-05 0.00843564 0.00668169 -0.00404355 0.00258965 0.00311131 0.0012516 0.00257527 -0.00230003 0.00287662 0.000613143 -0.00374968 0.00118328 0.00643988 0.00314393 0.00193027 -0.00298297 0.000144348 0.00135593 -0.000728857 -0.00175908 0.00538555 0.00171019 0.00121575 0.00634071 -0.00333215 -0.00985496 -0.00663193 0.000183276 -0.00204058 -0.00214627 -0.00325824 -0.00483542 0.00591606 0.000601177 0.00492502 -0.00436726 -0.00842034 -0.000706263 0.00456211 -0.00500055 0.00555614 0.00459392 -0.00188865 0.00858695 0.00562736 0.00368662 0.00157696 0.00628705 0.00933754 0.0123488 0.00735584 0.00748312 0.00680742 0.00404327 0.00442292 -0.000267812 -0.00750928 0.00264413 -0.00743906 -0.00218534 -0.00459077 -0.00442809 -0.00439342 -0.000997543 -0.00262336 -0.00505963 -0.00442735 0.00377992 0.00521139 0.00562713 0.00644727 0.00511298 0.00379319 0.00847751 0.00772334 0.000139222 -0.00175294 -0.00363113 -0.00127703 -0.000255507 0.00349157 0.00293803 0.00158191 -0.00143227 -0.00028048 -0.00881582 0.00269736 -0.0014506 0.00212496 -0.00281125 1.32503e-06 0.0066499 -0.000143435 0.00181274 0.00471527 0.00167859 -0.000203533 -0.00579024 -0.00595327 -0.00307706 0.000662464 0.00198754 -0.00192616 0.00142005 -0.00610449 -0.0110023 -0.0017159 0.00214721 0.00497934 0.000299296 -0.00752824 -0.00185825 -0.00288858 0.000603268 -0.00684717 -0.0105273 -0.00151516 0.00158191 0.0088305 0.00671453 -6.5611e-05 0.00622721 0.00474585 0.00169905 -0.00420668 0.000681135 0.0046977 0.00536213 0.00452223 0.00731432 0.0119864 0.0055864 0.00862343 0.00269628 -0.00371626 -0.00777255 -0.00707316 -0.00109734 -0.00549676 -0.00391901 -0.00223168 -0.00523236 -0.00369699 -0.00554876 -0.00054373 -0.00253365 -0.00898147 -0.00559922 -0.00154111 -0.00995535 -0.00677176 0.000345834 -0.00434791 -0.00232847 0.00025853 0.00671781 0.00775094 -0.00125951 -0.00306251 -0.0112971 -0.00447237 -0.00378357 -0.007249 -0.00773934 -0.00252303 -0.00405886 0.00335582 -0.00137523 -0.00553604 -0.00644354 0.00289925 0.00194163 0.00126686 -0.00285311 0.0056377 0.00199362 -0.00391284 0.000737756 3.26903e-05 -0.00338137 0.00109734 -0.00407574 -0.00396339 0.00292727 0.00379548 -0.00121877 -7.71661e-05 -0.00193678 -0.00248846 0.00237634 0.00489817 0.00235201 -0.00301182 8.64816e-05 -0.00671092 -0.0039205 -0.00386914 -0.00324244 -0.00611874 0.000700812 -0.00618481 -0.00246177 -0.000448909 0.00502175 0.00427711 -0.00287841 -0.0104125 -0.00138152 -0.00336581 -0.00645442 0.000372118 0.00054976 0.000563023 0.00802968 0.00664166 0.00244709 0.000981787 0.00263362 0.00913817 0.00714619 0.00348436 0.00771287 0.00904619 0.00493983 0.00357972 -0.00239745 -0.00942232 -0.00597808 0.00589861 -0.000129702 -0.000583677 -0.00246236 0.000579243 -0.00583813 -0.0108327 -0.00694548 -0.00325154 -0.00493213 0.0029965 0.00742947 0.00860028 0.00193396 0.00563625 0.00626788 0.00819494 0.00508493 0.00120522 0.00643595 0.000256025 -0.00286613 0.00602681 -0.0016736 0.00362693 -0.00255943 -0.00681527 -0.00534068 -0.000655081 -0.000593419 0.000917237 0.00319306 0.000915412 0.00326918 0.00474268 7.43266e-05 0.00807598 -0.000631619 -0.00304685 -0.00239748 -0.00359134 -0.00139911 -0.00278161 -0.00385128 0.00046186 -0.00289071 -0.00526964 -0.0103484 -0.0105736 -0.00429212 0.00126609 -0.00207298 -0.0038167 -0.00735508 -0.00734215 -0.000572222 -0.000522432 -0.00782952 0.00171413 0.00549782 0.00587783 -0.00591623 -0.00560305 -0.00274953 -0.00196014 0.00123606 -0.00163113 0.00219709 -3.74574e-05 -0.000871433 0.00176732 0.0034409 0.00983496 0.0125266 0.00569149 0.00891766 0.00242805 -0.00746198 -0.0103214 -0.00304782 -0.00480171 0.0054977 0.00518302 -6.32533e-05 -0.00270441 -0.000394712 0.00130315 0.00400964 0.0032555 -0.00406771 -0.00578077 -0.00648335 -0.0028415 -0.00811482 -0.00998198 -0.0082982 0.00131783 0.00196954 -0.0025276 -0.00184032 -0.00108534 -0.0055892 -0.0032248 -0.00397342 -0.00799349 -0.00713317 0.00116557 -0.0011108 -0.00117285 -0.00143808 -0.0034258 0.00585346 0.00259699 -0.00226945 0.00268276 0.00262539 0.0043612 -0.000619456 -0.00249862 -0.000773904 -0.00252386 -0.00530084 0.000168486 -0.00407773 -0.00858841 -0.00515894 -0.0019106 0.00321152 0.00342288 0.00244535 0.00441287 -0.00130964 0.00572784 0.00249781 -0.0047494 -0.000949782 -0.00489075 -0.00470739 -0.00425011 0.00138461 -0.0046118 0.00062234 -0.00512948 0.00120839 -0.00195027 0.00132585 0.0032922 0.00182286 -0.00297975 0.00325175 -0.00365368 -0.00993426 -0.00320114 -0.000864616 0.00112669 0.00189411 0.0065531 0.00360598 0.00405052 0.00290368 0.00218483 0.00181462 0.00332013 0.00514949 0.00477748 -0.00472274 0.00201819 -0.00518619 -0.00697134 -0.00684135 0.00240748 0.00489944 0.00294848 0.00220199 0.00188908 -0.00417633 -0.0119651 -0.00497719 -0.00311756 0.00329125 0.0057695 0.0125633 0.0107988 0.000776218 0.00405827 0.0099154 0.00622235 0.0101841 0.00253185 0.00283409 -0.00557859 -0.00547551 -0.00448367 0.00235536 0.00394756 -0.00690962 -0.00620823 -0.00412186 0.0123631 -0.00264811 0.00089687 0.00868581 0.0044761 0.0053386 0.0117743 0.0044384 0.00616722 -0.00142958 -0.00835647 -0.00456817 -0.00286795 0.00369871 -0.00566961 0.000688993 0.00626327 0.000664497 -0.00793303 -0.00964161 -0.0111427 -0.000709158 -0.00295699 -0.00108373 0.00437444 0.00766293 0.000237707 6.74084e-05 -0.00245769 -0.00164481 0.00482341 0.00941281 0.000574283 -0.00068104 -0.00401029 -0.00842399 -0.00994843 0.00593696 0.00665546 0.00207713 -0.00359091 0.0093798 -0.00169591 0.000280873 -0.000767677 0.0028487 0.000635411 0.00847861 0.00843642 -0.0070638 -0.0102485 -0.00660812 -0.00279461 0.00255301 -0.00132651 0.000432166 -0.00595725 -0.00292756 0.00514949 0.000256417 -0.00153218 0.00214573 0.00085815 0.00202278 -0.00335219 -0.00460437 -0.00732704 -0.00129636 0.00464744 0.00593387 0.000800769 -0.000674416 -0.000634425 0.00493299 0.00276729 -0.00110045 0.00147965 -0.000996989 0.00326528 -0.00349701 -0.00038744 -0.00113399 0.00048859 0.000110716 0.00212288 0.00641183 0.00657121 0.00473617 0.00951475 0.00420225 0.00194431 0.00216299 0.00197148 0.00888152 -0.00124477 -0.00469211 -0.00536206 -0.0103481 0.00540612 0.00468726 -0.00208302 0.00445982 0.00382966 -0.00142558 0.00671311 -0.000124717 -0.00541511 -0.00708659 -0.00212353 -0.00132353 -0.00462123 -0.0072243 -0.00653525 -0.00697417 -0.00469109 0.00388065 -0.00260045 0.0032235 0.0098149 -0.00346511 -0.00531954 -0.00438289 -0.00786514 -0.00828313 -0.00290228 -0.00748581 -0.00340616 -0.00149418 -0.00436887 0.00388039 -0.0015583 -0.0033229 -0.00691913 0.00059011 -0.00271864 -0.00356805 -0.0103498 -0.00171409 0.00308525 -0.000724878 -0.00201703 0.00104859 -0.00127506 0.00656739 0.00075069 -0.00153913 0.00400409 -0.00414406 -0.00843836 -0.00593401 0.00601436 0.00820986 0.00161894 0.0101732 0.00343414 -0.00202096 0.0004716 0.00202442 0.00820281 0.00839036 0.00508879 0.00572965 -0.00719964 -0.00508986 -0.00202506 0.00550956 0.00843109 -0.00940318 -0.00957516 -0.00189649 0.00481262 0.00420805 0.00152544 0.00494037 0.00849858 -0.000196125 -0.00244559 0.00196975 -0.00543557 -0.00256763 -0.00659929 -0.00215837 -0.0070514 -0.00308869 -0.00584405 -0.00984165 -0.00155838 0.00708065 -0.00163937 -0.00199457 0.000964256 0.00302272 0.00517485 0.00509271 0.00320379 0.010963 0.000628053 -0.00249779 -0.00483722 0.00121069 0.000109558 -0.00387599 -0.00903413 -0.0140444 -0.000111374 -0.00155501 0.000678457 0.00751614 0.00689097 0.00213182 0.00102752 -0.00543216 0.00131082 -0.0068163 -0.00244836 -0.00174702 -0.00254608 0.0048668 0.00803768 0.00278187 0.000140332 0.00198803 0.00721579 0.00912789 -0.00035845 -0.0044545 0.00395755 -0.0031353 0.00367521 -0.000968351 0.00575465 0.00321368 0.000653109 0.00690013 0.00729659 0.00172753 -0.00286467 -0.00187062 -0.0021626 0.00335252 0.000770954 0.00133924 0.00250761 0.000876404 0.00263464 -0.00044674 0.00503298 -0.00115428 0.0068638 0.00595411 0.00372603 0.00189695 -0.00200295 0.00220212 0.00171959 -9.32238e-05 0.00870046 0.00944244 0.00505897 0.00386705 -0.0021675 -0.00654733 -0.000859087 -0.000390667 -0.0082414 -0.0167592 -0.00969247 -0.00705926 -8.6075e-05 -0.00148037 0.00150331 0.00730871 -0.000123473 0.00855837 0.00202526 -0.00181629 -0.00280081 -0.000162151 0.000740582 -0.00269786 -0.000553085 -0.00375668 -0.00777295 -0.00465525 -0.00173283 -0.00280228 -0.000356801 -0.00134614 6.53293e-06 0.00202912 0.000824624 -0.00348872 -0.00796558 -0.00826462 -0.00330313 -0.000106641 -0.00277123 -0.00106838 -0.00453327 -0.00534736 -0.00237643 -0.00540848 0.00333956 0.00364789 0.00155764 -0.00396342 -0.00624872 0.00396233 0.000321453 0.00471245 -0.00549812 0.000871234 0.0034807 0.00295178 0.000110257 0.00288019 0.00186374 -0.00774978 -0.00790601 -0.00566521 0.0036691 -0.000462359 0.00181437 0.00802393 0.000705798 0.005347 0.00477898 -0.00195183 0.00405145 0.00896079 0.00378946 0.00735526 -0.00117589 -0.00183303 -0.00602722 0.00323291 -0.00124663 -0.00496769 -0.00233352 -0.00561526 0.00304697 0.00742184 0.000800572 0.00354386 0.0028925 -0.00228903 0.00181424 -0.00729647 0.000270258 -0.0101888 -0.00676972 -0.00320048 -0.000876399 -0.0104257 -0.00439989 -0.00596127 0.000116189 0.00260837 0.00901452 0.00692009 0.00656119 0.00675729 0.0108367 0.0056397 0.00797299 0.00961504 0.00514878 -0.0029768 -0.0114354 -0.00256992 0.000768536 -0.00413549 -0.0113709 -0.00550164 -0.00118444 -0.00120143 0.00466237 0.00532041 -0.000536491 -0.00759648 -0.000945838 0.00120369 -0.0087093 -0.00475632 -0.00145167 -0.000282409 0.00121159 0.0027349 0.00713415 0.00735752 -0.000569548 0.00416404 0.00706885 0.00948214 0.00115674 -0.00294785 -0.00623079 0.0157539 0.00216919 0.00338695 0.00180635 -0.00222445 0.00467999 0.0016464 0.00792648 0.0032253 9.70182e-05 -0.00353985 -0.00460968 0.00559123 0.00850035 0.00370269 0.00136559 -0.00132859 -0.00178304 0.000385082 -0.00453378 0.00203381 0.00392005 0.0053918 0.00658044 0.00198808 0.00311089 0.00274479 0.000559435 0.00201728 0.00154157 0.00530172 0.0109483 0.00380103 0.00113539 -0.000281845 0.00352575 0.00121089 -0.00410447 -0.00890784 -0.0106577 -0.0127787 0.00856363 0.00257837 -0.000466979 0.00282833 0.00218345 0.00374626 0.00885749 -0.0035677 -0.00108674 0.000521929 0.00328377 -0.00726174 -0.00108887 0.00352372 -0.00604091 -0.00175645 -0.00160908 -0.00146919 -0.00133913 -0.00123347 -0.000915298 0.00917904 -0.00114347 0.00250791 -0.00345782 -0.00492932 0.00226591 0.00208548 0.00110236 0.00357438 0.00204076 -0.00343156 -0.00658396 -0.00620349 -0.00458785 -0.00336479 0.00184803 0.00209567 -0.00298996 0.000309981 -0.0019269 0.000468452 -0.005679 0.00490823 0.000928184 -0.000761831 -0.00158125 -0.00306015 -0.000420286 -3.28297e-05 -0.00593439 -0.00890131 -0.000602708 -0.000863212 0.00232411 0.00421675 0.00382854 0.000141643 -0.0010157 -0.00275531 -0.00194708 -0.00199108 -0.00628642 0.000224265 -0.00322975 -0.00814082 -0.00830903 -0.00413545 -0.00653249 -0.00509515 0.00316086 -0.00424485 -0.00164736 -0.0027092 -0.000304089 -0.00129926 0.00373048 0.000612125 -0.00102318 -0.00700692 -0.00618869 -0.00752808 -0.00403384 -0.00272468 -0.00117715 -0.0108795 -0.00804391 -0.0035028 9.38331e-05 0.00662106 0.00338575 0.00493488 0.00467153 -0.00323859 0.00699925 -0.00104861 -0.00265412 0.0048754 0.000126881 -0.00179443 -0.00477834 -0.00531041 0.00075191 -0.000501523 -0.0153864 -0.00811842 -0.00361979 0.00248388 0.004447 0.00344058 0.00292481 -0.00292441 -0.00359477 -0.00551286 -0.00781311 -0.00290634 -0.0027874 -0.000553512 -0.00254929 -0.00105356 -0.00287485 0.000134276 -0.0018343 0.0099556 0.0099797 0.00370009 0.0027789 -0.00168919 -0.00263774 0.00637917 0.00420895 0.00265745 0.00191872 -0.00011959 0.00717213 0.00424487 0.00226277 -0.00184069 0.00385822 -0.00010803 -0.00238952 -0.00140996 -0.00318355 0.00257508 -0.0034483 -0.00284683 -0.0102528 -0.00200742 -0.00333839 0.00668922 0.00554265 -0.0020646 -0.00194127 0.00236169 0.00315299 0.00252259 -0.001273 0.00568039 0.00185932 0.0049545 0.00553817 0.00127992 -0.00854628 -0.00403137 0.0049268 0.00194975 -0.00237497 -0.00806044 -0.00276603 -0.00432349 0.00302765 0.00547012 0.00184457 -0.000781001 0.00294866 0.000437525 0.00260155 -0.00268329 -0.00433905 0.00155547 0.000336597 0.00605624 0.00234517 -0.00209436 -0.00461662 0.000144821 0.0023315 0.00102799 -0.00439026 -0.00186945 -0.000266083 0.00653276 0.00128391 0.00649616 0.00369023 -0.00242795 0.00266996 -0.000449013 0.000675223 0.000870249 0.00365277 -0.00382093 -0.00650664 -0.00531074 -0.000697618 -0.0032258 -0.00209989 -0.00443037 -0.00663812 -0.00323242 0.00418904 -0.004508 -0.00140336 0.0101453 -0.00311737 -0.00804211 -0.00538421 -0.00167077 0.00381021 0.00386821 0.000202107 -0.00335839 0.00367548 0.00571833 -0.002714 0.000503032 0.000195335 -0.000864753 0.00497652 0.00147553 -0.00258613 0.000614111 -0.00525112 -0.00257514 0.0027951 -0.00800292 -0.00643525 -0.00633726 -0.00709347 -0.00692798 -0.00388836 -0.00906054 -0.00180709 -0.00675618 -0.00348761 -0.00168964 -0.00407656 0.00352753 0.00452618 -0.0023901 -0.00365922 -0.00589803 -0.0102983 -0.0038275 -0.00380122 0.00228084 0.00178893 -0.00790349 3.9459e-05 0.00503785 0.000929914 0.000176328 0.00988881 0.00165094 0.00143509 0.00356866 0.00319915 0.00852741 0.000520683 -0.00426928 0.00547537 -0.00034344 -0.00317244 -0.0025178 -0.00786149 -0.00785246 -0.00187981 -0.00453046 0.00763852 0.00289025 0.00321562 -0.00616556 -0.00525974 -0.00540258 -0.00414206 -0.00808172 -0.00963225 -0.00811499 -0.00421701 0.00109554 -0.00500856 -0.000372835 -0.00170784 0.000863326 0.00330721 0.00692044 -0.000205759 -0.00302819 -0.00778885 -0.00633905 -0.00154263 -0.00308193 -0.0014273 -0.00148045 0.00504593 0.00666874 -0.00257078 -0.00495508 0.001141 -0.00251692 -0.00136829 -0.00101009 0.00274916 0.000765735 0.00203004 -0.000282702 0.00237851 0.00729293 0.00608359 0.00485214 0.00317764 -0.000429651 -0.0030534 -0.0052949 -0.00316111 0.0013059 0.00235995 0.00137025 -0.00359468 0.00372973 0.00853414 0.006273 -0.00189743 -0.000213429 0.00154763 -0.00109937 -0.000846597 -0.00234592 -0.00365882 -0.000110276 -0.000362098 0.00106075 -0.00866327 0.00197763 0.00296706 0.000890141 -0.000536951 -0.00128934 -0.0041485 0.00298425 0.0113278 0.000640332 -0.000723584 0.0013651 -0.00221826 -0.000417676 -0.0035568 0.00179122 -0.000136923 0.000845236 0.00387565 0.00282392 0.00233294 -0.00211331 0.00154596 0.00535108 0.00720889 0.00214237 0.00464654 0.00709638 0.0125426 -0.00242643 0.00270589 0.00063568 0.00491323 -0.00331892 0.00135504 -0.0112463 0.00288566 -0.00198311 -0.00096739 -0.0024578 -0.00247849 -0.000533639 -0.00227881 -0.00568497 -0.0017834 0.00302476 0.00448206 0.00462389 0.00764739 -0.00874266 0.000177469 0.00131139 -0.00170617 -0.000796386 -0.00270038 -0.00273061 0.000169414 -0.0040369 0.00110313 -0.00584911 -0.00890867 0.00629217 0.00719106 -0.0030874 -0.0100203 -0.000274856 -0.00647203 -0.0026687 -8.59887e-05 0.00272533 -0.00278054 -0.000233268 -0.000777105 -0.000128945 -0.00356332 0.00231321 0.00797453 0.009643 0.00316987 -0.00560944 -0.00621473 -0.00395808 0.00196484 -0.000282611 0.00270309 -0.00497621 -0.000966267 0.0037942 0.00201385 0.00541714 0.0082379 0.00351229 0.00964358 0.00706595 0.00432 0.00188527 -0.00298946 0.00266 -0.00552849 -0.000264169 -0.0070795 -0.00153589 -0.0137683 -0.0109332 -0.00108269 0.000516227 0.011156 0.00749711 0.000139905 -0.0022808 -0.00475723 -0.00209505 -0.0078411 -0.0116655 -0.00718176 -0.0121323 -0.00285193 0.00397594 -0.00440339 0.000498833 0.000399104 -3.41821e-05 0.00137024 6.04402e-05 0.00129506 0.00503879 0.00332666 0.00410552 0.00191472 -0.00106087 0.000810234 0.00140633 0.00217519 0.00204524 0.00291938 0.004121 0.00213631 -0.00475361 -0.00419657 -0.0085223 -0.000671002 6.42412e-05 0.00593373 0.00626653 0.00500675 0.00293727 0.00417065 0.003948 0.00506899 0.00208994 -0.000578127 -0.00438413 0.00132501 0.00233126 -0.00252286 0.000657043 7.18124e-06 -0.00212549 0.00487714 0.00730341 -0.00341652 -0.00628706 -0.00123068 -0.00374098 -0.00164408 -0.000603233 -0.00166822 -0.00593247 -0.000368877 0.00104439 -0.00541997 -0.00149538 0.00191569 0.0055467 0.00146525 0.00322518 -0.00800708 -0.00638895 0.00468802 0.000118597 0.00335256 -0.000684768 -0.0063413 -0.0040431 -0.00455716 -0.000562002 -0.00149602 0.00234364 0.000462804 0.00917567 0.00324841 0.00163329 0.00133184 0.00012904 0.000526371 9.37693e-05 -4.11038e-05 0.00387101 0.00507042 -0.00249603 0.0016205 -0.00460882 -0.00115327 0.000922787 -0.000778901 -0.00162471 -0.00550826 -0.00061085 0.0047444 0.00606855 0.00249658 0.00231411 -0.00148007 -0.002738 -0.000775607 0.00225416 0.000410844 0.00308983 0.00395952 -0.00536641 0.00110827 -0.00290407 -0.00997197 -0.00649105 0.00288352 0.00293957 -0.000645608 -0.00552423 -0.00449342 -0.0052761 -0.00496023 0.00385242 0.00252586 -0.0026074 -0.00352257 -0.00073202 -0.0109209 0.000440772 0.00159313 0.00139613 0.00365971 0.00697443 0.0087159 0.00484219 0.00152159 -0.000175585 0.00237641 0.00618656 0.00332963 -0.00317357 0.00462031 -0.00701298 0.0045408 0.00501624 -0.0017186 -0.00864142 0.00314609 0.00466117 0.0051209 0.000667504 -0.00180491 -0.00256328 -0.000250793 0.00403514 0.00283656 -0.00505203 0.000520712 0.00885414 0.00662293 0.00589865 -0.00667225 -0.00292623 -0.00304688 -0.00769982 0.00357388 0.00222675 0.0104773 0.00883134 0.011446 0.0018881 -0.00174902 0.00114863 -0.0130816 -0.00827915 -0.0144999 -0.00597107 0.000482016 -0.00255294 -0.00508431 -2.5665e-05 0.00162411 -0.00044453 0.00391013 -0.00151154 0.00868094 -0.000639459 0.00030572 0.00658607 -0.00450195 0.00119127 0.00436442 -4.14277e-05 0.00504966 0.00462504 -0.0010408 0.00490805 0.00704997 0.000306163 -0.00810451 0.000616372 0.000780804 -0.00136123 -2.64694e-05 0.00263672 0.00568552 0.00467592 0.00925956 0.00611326 0.000579104 0.00759406 -0.00189735 -0.0095175 -0.00615171 -0.000142166 -0.00259431 0.00180065 -0.00238587 -0.00829579 -0.0011475 0.00554261 -0.00324583 -0.00410489 -0.0021655 -0.00521752 -0.0110165 -0.00609488 0.00255188 -0.0045505 -0.00177294 0.000366992 -0.0033778 -0.0016084 5.46358e-05 0.00666585 0.00683776 0.0059248 -0.00298253 -0.00111394 0.00799462 0.0071173 0.00408294 0.00269169 -0.00388016 -0.0012121 0.0013767 0.00272161 0.000458612 0.00252409 0.00231858 0.00442899 -0.00106978 0.00242536 -0.00173751 -0.00294534 -0.00102399 -0.000477993 0.00126631 0.00193538 0.00585983 -0.0027815 -0.00655654 -0.00560558 0.00281406 -0.00318623 0.00183279 -0.002796 0.000688911 0.00566241 0.00445735 0.00328402 0.000489341 -0.000796913 -0.00463938 0.00248187 0.00387616 0.00806756 0.0034569 0.0046686 0.00348476 -0.00287207 0.00180935 -0.00301295 -0.00785186 -0.00504651 -0.00013757 -0.00553809 -0.00460424 -0.00805736 -8.55412e-05 -0.00241009 -0.00335629 -0.000477231 0.00299005 -0.00031476 -0.00460004 -0.00169711 -0.00253271 -0.00978706 -0.00657166 0.00129821 0.00162208 0.00115352 0.00378249 0.00127313 0.0034862 0.00976031 -0.00305944 -0.00124067 -0.000649395 -0.00561 0.00461706 0.000833455 0.00233324 0.00258488 -0.00310086 -0.00661045 -0.00132559 0.0111238 0.00852092 0.00521945 0.00577184 0.0131579 0.00460123 0.0024179 -0.00172957 -0.00240511 -0.00113226 0.0070363 0.00305501 0.00133589 0.000940949 -0.00210021 -0.00437746 0.00163005 -0.000882848 0.00185355 0.00696657 -9.09539e-05 0.00579058 0.00177184 0.000874376 0.00568218 0.00223911 -0.00238436 -0.00964028 -0.00215232 -0.00171335 0.000163989 0.00252829 0.000666503 0.00320334 0.00148691 -0.00382727 -0.0049272 0.0068959 0.00531761 0.00258915 -0.00372124 -0.00461773 -0.00613163 -0.00121596 0.00319941 0.00571436 0.00394669 -0.0035675 -0.00286123 0.00411183 0.000737147 -0.00287305 -0.00120559 0.000376427 0.00246718 -0.00398905 0.000901441 0.00278747 0.00128458 0.00979893 0.00477182 0.00352683 0.00300635 0.00418387 -0.00372251 -0.00598841 -0.00790282 -0.00326796 -0.00285359 -0.00555258 0.00118498 0.00232964 -0.00135715 -0.00408598 -0.00722826 -6.30897e-05 -0.0109863 -0.00628807 -0.00300879 -0.00195802 -0.00857889 -0.00597644 -0.00512036 -0.00355948 3.90032e-05 0.00243167 0.00251843 0.0061766 0.00503508 0.00194675 0.00225936 0.00341331 0.00913272 0.00331944 0.00078136 -0.00169905 -0.00236273 -0.0021562 -0.000124034 -0.0016649 0.000807358 0.00958476 0.00445856 -0.000224823 0.0040699 0.00144676 0.00205768 -0.00486916 -0.00954232 -0.00067228 0.00211408 0.00354843 -0.00774742 -0.00937492 -0.0060966 0.00557991 0.00234152 -0.00311662 0.00152231 0.00130248 0.00584434 0.00566652 0.00588 -0.00227392 0.00141304 -0.00212301 -0.00270645 0.00357874 -0.00165533 0.00602441 0.00725453 -0.000936089 -0.00426976 -0.00383039 -0.00225661 -0.00401316 -0.00657809 -0.00317681 -0.00320859 -0.00608253 -0.00697743 -0.00477921 -0.00896002 0.000494735 -0.000379377 0.00112161 0.00269261 -0.00492715 -0.000907185 -0.00867556 -0.0107642 -0.00580449 -0.00153089 -0.00255067 -0.00447953 0.00248682 0.00988266 0.00217587 0.00514202 0.00181619 9.29914e-05 -0.00214807 -0.00129852 0.00246948 0.00842449 0.00108708 -0.00237876 -0.00097126 -0.00717147 -0.00252738 0.00139043 -0.00650907 0.00145779 0.00504893 0.00481186 -0.000332182 -0.00490067 -0.00757962 -0.0073118 -0.00446377 0.00505656 -0.00378789 0.00133775 0.000381582 9.33137e-05 1.18333e-05 0.00690356 0.00300224 0.00422752 0.0045014 -0.00262984 0.00308756 0.0103528 0.00299486 -0.00157467 -0.000327751 -0.00662166 -0.00635265 -0.00411624 -0.00413139 0.000155617 -0.000365194 -0.00176151 -0.00339305 0.000627174 0.00426804 -0.00221545 0.00458443 -0.00363884 -0.000640476 0.00145981 0.0020719 -6.00488e-05 0.00365815 5.90747e-05 0.00668982 0.00455786 -0.00113341 -0.00115613 0.0012684 0.0028483 -0.00497131 -0.00400804 -0.00161185 0.00464417 0.00149379 0.00438713 -0.0021926 -0.00251563 0.0032633 0.010113 0.00724911 0.00702435 0.00918799 -0.00234078 -0.00933311 -0.00569298 -0.00782565 -0.00291221 -0.00171591 0.00298803 0.00329885 -0.00173499 0.0049409 -0.000962928 -0.00021059 -0.00356312 -0.00633605 -0.00235879 -0.0104495 -0.00489546 -0.00177441 -0.0083008 -0.000304107 0.000367864 0.00887524 0.00419142 0.00255552 -0.00142522 -0.00262937 0.00328259 0.00443304 0.00527851 0.00862137 0.00282334 0.00545365 0.000685003 0.00251464 -0.00852975 0.00132633 0.00250114 0.00703158 0.00274277 0.00371193 0.00599152 0.00363617 0.0034638 -0.000971462 -0.00477432 -0.00237676 -0.00446051 -0.00227891 -0.00116593 -0.00313571 -0.0141039 -0.00206297 0.0028354 -0.00277519 0.00359191 -0.00114968 0.00805876 0.00483475 0.00506106 0.00423868 -0.00630736 -0.00527667 -0.00236968 0.00114843 0.000411078 0.00514844 0.00957221 0.011465 0.00535486 -0.00118634 1.66771e-05 0.000996135 -0.00466795 -0.00562734 -0.000346274 -0.00336923 -0.000760469 -0.00195537 -0.00147317 0.00321321 -0.00184049 -0.00164793 -0.000229458 -0.00658574 -0.0033996 -0.00601201 -0.0123525 -0.0130038 -0.000621909 -0.00831451 -0.000625664 -0.00286405 0.00608399 -0.00162703 0.00187019 -0.0052591 0.00158148 0.00574885 -0.000916473 0.0133458 0.005735 0.00318013 -0.00322733 0.00031395 -0.00382855 -0.00384534 0.000745037 -0.0130505 -0.00211554 0.00104118 -0.0028846 -0.00536153 -0.00804798 -0.00842152 -0.0105348 0.000779382 0.00325256 -0.00214552 -0.00438582 -0.00458634 0.00118091 -0.00153972 0.00692534 0.00520666 0.0025709 -0.000270575 -0.00177243 -0.00227781 0.00575971 0.00457722 0.00706634 -0.00133938 -0.00210447 -0.00788155 -0.00587164 -0.0033466 0.000513377 -0.00894589 -0.00957203 -0.00628344 -0.00149106 0.00295511 -0.00207039 0.000924041 -0.00343899 0.00258428 0.0082818 0.000734994 0.0022912 0.00819632 0.00986029 0.00134434 0.0077033 0.00378006 -0.00122507 -0.00854492 0.00183715 -0.00278374 -0.00504968 0.000539355 -0.00016789 0.000982851 0.00582022 -0.00046831 0.00360728 0.00497707 0.0128918 0.0118507 0.00743725 0.00584773 0.00259873 -0.00636028 -0.0111132 -0.00591591 -0.00740614 -0.00488118 -0.00729149 -0.00254608 -0.00329506 0.00145862 0.00392269 0.00560231 0.00142187 -0.000997577 -0.000765925 0.00458603 -0.0046011 0.00115762 -0.000606127 -0.00126139 -2.59235e-06 0.00293493 0.0053786 0.00262659 0.0100605 -0.00153527 0.00370766 0.00123804 0.00292425 0.0106995 0.00119072 -0.00322396 -0.00681674 -0.00108039 -0.00222087 0.00144739 0.00250772 0.00521542 0.00414796 -0.00173424 0.00484736 -0.000637938 -0.00360662 0.000365534 -0.00581504 -0.00509897 -0.00121657 -0.000966513 -0.00566941 -0.00562187 -0.00323557 0.00263689 -0.00144746 -0.00463282 -0.00510718 -0.00100872 0.00501386 0.00755737 0.00380228 0.00206699 -0.0034258 -0.00171417 0.00271646 0.0112245 0.00396532 0.0048096 0.00602344 0.00652112 0.00134697 -0.0049094 -0.00250303 -0.00213574 -0.00428692 -0.00474946 -0.00142904 0.0011012 -0.00444627 0.00852313 0.00520525 -0.00127142 -0.000194549 0.00570325 0.00485264 -0.00278202 -0.00280864 0.00313272 0.00148486 0.00454002 0.00146863 -0.0113153 -0.00149503 -0.00153315 -0.000384514 -0.00412163 0.000757427 -0.00205098 0.00228236 9.68779e-05 0.000204402 0.0048255 0.000913969 0.00276564 9.22683e-06 -0.00778855 -0.0104261 -0.00501067 -0.00989414 -0.00945652 -0.00510399 -0.000658476 0.00390026 -0.00505278 -0.00732873 -0.00799938 -0.00190421 0.0044752 0.00547453 0.000644662 0.00132234 -0.00128669 0.00549158 -0.00168721 0.000721729 -0.00480311 -0.00345987 -0.00505557 -0.00203027 -0.0035585 0.00258264 0.00621401 0.00574472 -0.00344952 0.000435772 -0.0121453 -0.00360556 -0.00668515 -0.00464936 -0.00305382 -0.00396179 -0.00305785 -0.00352902 -0.00358153 -0.00448354 -0.00698075 -0.00492873 0.00516977 0.00944151 0.00683305 0.00224125 0.0089227 0.0064608 0.00476155 -0.000892492 -0.00499171 -0.00127283 -0.00312961 -0.000569484 0.00436793 -0.00434525 -0.00705501 -0.00263189 -0.0025734 0.00354683 0.000794495 0.00512053 0.00683157 0.0040242 0.0065468 0.00380867 0.00392967 -0.00125746 -0.00793365 -0.00569834 -0.0102148 -0.00436791 -0.00789779 -0.00456168 -0.00266212 -0.00313886 -0.00321471 0.00269005 0.00769499 0.00721661 -0.000263501 0.00644508 -0.000905549 -0.00425473 0.000752116 -0.0038393 -0.00221745 -0.00848834 -0.000990007 0.00396241 0.00193146 0.00668722 6.70202e-05 0.00263802 0.00600931 0.00868006 0.00343982 -0.00541101 -0.0108332 -0.000789339 -0.000559684 -0.00120972 -0.000806561 0.0041925 0.00307561 0.00219152 -0.00517769 -0.00720718 -0.00633189 -0.00746959 -0.00361242 0.00120288 0.00567395 -0.00251462 0.00494438 -0.00375932 -0.00262239 -0.00376295 -4.83163e-05 0.00579274 -0.00496116 -0.000920981 -0.00205373 0.00212229 0.00308458 0.000929771 -0.00539315 -0.00877013 -0.00173253 0.00281473 0.00111547 -0.000958401 -0.00500585 0.00329434 0.000610846 -0.00791134 -0.0125225 -0.0127528 -0.00801585 -0.00186551 -0.0113715 -0.00527429 0.00268843 -3.66994e-05 -0.000157893 -0.00145879 -0.00760444 0.00279343 0.00460925 -0.00153126 0.000428485 -0.00219544 -0.000804386 0.00751616 0.00569611 0.013078 -0.00274309 -0.00878837 0.000877435 0.00324436 -0.00257876 -0.00247479 -0.00579396 -0.00288329 -0.00451321 -0.004826 0.00247927 0.00136639 -0.0018196 0.00590276 -0.0031881 -0.00905693 -0.0061342 -0.0100167 -0.00395248 -0.00244207 0.00798502 -0.00124161 -0.00789481 -0.0037392 0.000458957 0.00661542 0.00690901 0.0152641 0.0130115 0.00417408 8.6689e-05 -0.00331239 -0.00551765 -0.00557397 -0.00807426 -0.0078673 0.00144201 0.00205892 0.00504415 0.002628 -0.00409213 -0.00600173 -0.00464603 -0.00258338 -0.00703728 -0.010919 0.000933746 0.00449098 0.00224432 -0.00098956 -0.00387499 -0.00244111 -0.00599747 -0.00305256 -0.00702553 -0.00668926 0.00700955 0.00983884 0.00599838 -4.29275e-05 0.0130207 0.00690065 0.00526397 0.00623696 0.00116045 -0.00081105 0.00380847 -0.00515333 -0.000219411 0.000248225 -0.00996302 -0.00610886 -0.00448683 0.00373314 0.00323904 0.000971006 -0.00220089 0.00692261 0.0109297 0.00599206 0.000647682 0.000402647 -0.00604207 -0.00557726 -0.00756114 -0.00821067 -0.0101413 -0.00184081 0.000685018 0.00221114 0.00555433 0.00958945 0.00835288 0.000182389 -0.00129757 0.00665526 0.00503809 0.00402154 0.00520462 0.00434103 0.00205651 -0.0028946 -0.00043265 0.0031635 0.00108155 -0.00815342 -0.00342812 -0.00344627 -0.00238534 0.00594643 -0.00146697 -0.00625668 -0.00947308 -0.000530325 -0.00671519 -0.00755998 -0.00402753 0.00392868 -0.0019318 0.00491182 0.00102354 -0.00497637 0.00353586 -0.00353402 -0.000692814 0.00122406 0.00353232 -0.000370779 0.00289603 -0.000776826 -0.00702752 -0.00679589 0.00471147 0.000982524 -0.00680505 0.00111259 -0.00369464 -0.00304894 -0.00408757 0.00309666 9.5968e-05 -0.000480815 -0.00458095 -0.00567719 -0.00123916 -0.00427314 -0.00995312 -0.0017168 0.000725432 -0.00399988 -0.00837404 -0.0127522 -0.00503976 -0.0103043 -0.00952127 -0.00886495 -0.0113826 -0.00877878 -0.00253259 -0.00499627 -0.00574414 -0.00282723 -0.00406253 0.002272 -0.00395384 -0.0035677 -0.00189406 0.0118375 0.00572904 -0.00138628 -0.00132166 -0.00264954 0.000220459 0.000823054 -0.00368952 -0.00462143 -0.00512196 -0.00306553 -0.00133157 0.00537404 0.0027029 0.000849403 -0.00089583 -0.00237954 -0.00194374 -0.00769305 -0.00494612 -0.00786113 -0.00183773 0.000474999 -0.00312896 -0.00104426 -0.00150114 0.00149986 -0.00156974 -0.00186694 0.000625537 0.0117341 0.00559469 0.00240649 0.0015222 -0.00804826 -0.00683254 -0.00481634 -0.00132687 -0.00199815 2.20646e-05 0.0073327 0.0104708 0.00178416 -0.0048278 -0.00286157 -0.0064484 -0.00967249 0.00221648 0.00308683 -0.00517446 -0.00355749 0.001471 0.00742833 0.00909757 0.00106757 -0.00264901 -0.00620594 -0.0120954 -0.00274661 0.00626882 0.00625237 0.00647213 -0.00520699 0.00807025 0.00511755 0.0104998 0.0114876 0.00748055 0.010076 0.00100087 0.00374615 0.00478321 0.00200206 -0.00583457 0.00634876 -3.18385e-05 0.00486878 0.00376317 -0.00221911 0.00384659 -0.000514485 0.00382953 -0.00183283 0.00270116 -0.0028345 -0.00332482 0.00148047 -0.00730672 -0.00519298 0.00325538 0.000428383 0.000680735 -0.00339487 -0.00206279 0.00420209 0.00762339 -0.00114833 -0.00448159 0.00294369 0.00584182 0.00569186 0.00169438 0.00412538 0.00763688 0.00277184 0.00245356 0.00135978 0.00275777 -0.00784575 -0.00328019 0.000836902 0.00036954 0.00615596 0.0103687 0.00391855 0.00436569 0.00670963 0.000317499 -0.00172314 0.0028384 0.00521581 0.00742952 -0.000640125 0.00142838 -0.0014226 -0.00515993 -0.00128085 0.00268411 -0.00259961 0.000751226 0.000796962 0.00302413 -0.00430575 -0.00562254 -0.00132506 0.00313512 -0.00246502 -0.00858551 -0.0091421 -0.000753735 0.00105953 0.00156359 0.0027799 -0.00290106 -0.0103917 -0.0101564 -0.00560758 0.00433764 -0.00208275 -0.00723404 -0.00225006 0.00356235 -0.000718697 -0.00421904 -0.00222728 0.00172668 0.000417203 -0.00264682 0.00509204 -0.00128153 -0.00275522 -0.00329034 -0.00615862 0.00325119 -0.00521785 -0.0116373 -0.00644222 -0.0024165 -0.0034308 -0.00556709 -0.0020043 0.00630112 0.00106106 -0.00131291 0.000479113 -0.00101079 0.00366766 -0.00342679 -0.0106086 -0.00412503 -0.00293822 -0.00574179 -0.00176599 -0.00339448 0.00966618 0.00279925 0.00403383 0.000913569 -0.00584317 -0.00216237 -0.00113773 0.000555241 -0.00244264 0.00278076 0.00214384 -0.00035678 0.00795418 -0.00490094 -0.000671462 -0.00196289 0.00237815 0.00501934 -0.00277881 -0.00641746 -0.000931368 -0.00070497 -0.00767841 2.78475e-06 0.00172038 0.00878562 -0.000740213 -0.00159647 -0.00324853 -0.000144299 -0.00284468 -0.00910561 -0.00829171 -0.00598567 0.00210213 -0.00524459 -0.00272555 -0.00161575 0.000648743 0.00849819 0.00458044 0.00521406 -0.00452105 -0.00433876 -0.0100468 0.00339969 0.00225088 0.00362696 -0.00716423 0.00347949 0.00180011 0.00271812 0.00236237 0.00611593 -0.00113662 0.00162602 -0.00345986 0.00945566 0.00528591 -0.000306629 0.000991071 0.00406501 -0.00372578 0.0022462 -0.00389575 -0.00067318 -0.00457054 -0.0102505 -0.00698804 -0.00476901 0.00577137 -0.00176182 -0.00617196 -0.000946466 -0.00495167 -0.00280872 -0.00334775 -0.00391736 -0.000501137 0.000990422 0.00284359 0.0057256 -0.00294744 0.00144516 -0.00117276 0.00250973 0.00151718 0.000826274 0.00312828 0.00592642 -0.00170747 -0.0030465 -0.00106743 0.00527299 -0.000390999 -0.00907411 -0.000710541 -9.31254e-05 0.00317519 -0.00121133 0.000814947 0.0038535 0.00433898 0.00828407 0.00286899 0.00106309 0.00368176 0.00136622 0.00541898 0.00202476 -0.00308987 -0.00450662 0.00135784 0.00108424 0.00208128 0.00409036 0.0082758 0.000688225 -0.00263181 -0.00203106 -0.00214986 -0.00477441 -0.00327119 -0.00851778 -0.00114798 -0.003377 0.00117038 -0.00127283 -0.00328085 -0.00884509 -0.0142222 -0.0101206 -0.00760286 -0.00575725 0.00247523 -0.00611985 -0.000198037 0.00529915 0.00476519 -0.0019111 0.00543902 0.00870487 0.00506815 0.00134749 0.00227988 0.00329756 -0.00557932 -0.00373116 -0.000111878 -4.86132e-05 0.00221408 -0.00249087 -0.0088929 -0.00853217 0.000942211 -0.0163896 -0.0069477 0.000957229 0.00457105 -0.000104123 0.00505837 0.00625658 0.00900594 -0.00236543 -0.00447617 0.00154701 0.00053703 0.00138693 0.00647928 0.00684317 0.00329089 0.00774986 0.00480368 0.00869308 -0.00351588 -0.00141559 -0.00156301 0.00455391 0.0093293 0.00569615 -0.00291173 0.00524702 0.00776534 -0.00141194 -0.000217091 -0.00332534 0.00493702 0.00429247 -0.00370647 -0.00510319 -0.00220387 -0.00015759 -0.000230314 0.00358542 0.00445239 0.00382046 0.0060999 0.00485154 -0.00119035 0.00092796 0.00176886 -0.000359381 -0.00285431 0.00474379 0.00406374 0.0061564 -0.00692223 0.00169948 -0.000432764 0.00486898 0.00182375 0.00257987 -0.00219238 -0.00521446 -0.0103163 0.0050022 0.00745941 0.00455539 -0.00572758 -0.000590925 -0.00294874 -0.00095102 0.00762169 0.00153856 0.00294719 0.00195392 -0.00374085 -0.00294609 -0.00415184 -0.00643549 0.00408725 0.00546955 0.00321606 0.00538731 -0.000399694 -0.00485822 0.00140873 0.00484135 0.000981405 -0.00391135 0.00385519 0.00272203 -0.00569523 0.00073794 0.000595464 0.00147609 -0.00219977 -0.00116065 0.00096857 0.000133224 0.00296555 0.00976667 0.00347614 0.00935518 0.00103271 -0.000332828 0.002994 0.00791823 0.00785376 0.00311077 -0.00932556 -0.00451513 -0.00148971 0.00101028 -0.000590801 -0.00656828 -0.00248616 -0.00108331 -0.00189351 -0.00562251 -0.00777787 -0.00694888 0.00201684 0.00242188 0.00182848 -0.00631386 0.00486664 0.0022693 0.0102176 0.00783428 0.00441692 0.00201976 -0.00162921 0.00145638 0.00093653 0.00207448 0.00510888 -0.000195201 -0.000151664 -0.00332077 -0.00450356 -0.00194975 0.00349017 0.000418511 -0.00180708 -0.00899989 -0.00266086 -0.00153698 -0.00199946 -0.00395872 -0.0125999 -0.0130251 -0.00882766 -0.00419803 -0.00378505 -0.00917974 -0.00116828 0.00309002 0.00194964 0.00537011 -0.00561316 0.00328608 0.0040228 0.0119633 0.0171826 -0.0010226 0.00591419 0.00365045 -0.00161076 -0.00117677 0.00075057 0.00640516 -0.00127879 -0.0102719 -0.00450045 -0.00820932 -0.00272012 0.000982594 -0.00018285 -0.000710292 0.00199803 -0.00169841 0.00498004 -0.000939097 0.000112252 -0.00459498 0.000482692 -5.98184e-05 0.00586543 0.00118156 0.000190931 -0.00142992 -0.00276167 0.00307731 -0.00116574 0.00291445 -0.00300899 0.00150519 0.00281907 0.00235253 0.00701043 0.00384823 -0.0134575 -0.0032966 -0.00441146 0.0013013 0.00390668 0.000135221 0.00392749 -0.00642217 0.00380456 -0.00357149 -0.00162565 0.00963653 0.000251219 0.00373562 0.00551053 0.0038887 0.00402301 0.00765801 0.00309255 -0.00221795 -0.0108102 -0.00398906 0.00194716 -0.00202417 0.000765852 0.0132225 0.0106717 0.00228041 0.00223073 0.00145285 0.00245192 -0.00529936 -0.00607731 0.00593217 0.00392514 0.00405002 0.000417683 0.00275703 0.000323701 0.00305138 -0.00250994 -0.0048989 0.000204548 -0.00116985 0.000984012 0.000311373 0.00205365 -0.00213089 0.00407295 -0.0059564 0.00409328 0.000229116 0.00386942 0.000327953 0.00441212 0.00811685 0.00299639 0.00495462 0.00853323 -0.0018132 -0.00383335 -0.000847809 -0.00130721 -0.00191572 -0.00190553 -0.00304585 0.00218668 0.00385716 0.00720378 0.00767897 0.0066523 0.00370399 -0.00757465 -0.00290386 0.00726776 0.00635023 0.00622867 0.00794269 -0.00261489 -0.00331159 -0.00473856 0.00176874 0.00797755 -0.000475888 0.00192539 0.000165386 -0.0022762 -0.00367893 -0.00117171 -0.00395119 -0.00343483 -0.00103385 0.000701234 -0.0048367 -0.000482313 0.0100598 0.0119392 0.00608912 0.00563752 0.00798724 0.00107606 -0.001672 -5.98493e-05 0.00378359 -0.00355772 -0.000539464 -0.000198507 -0.00171118 -0.00141278 0.000804316 0.00450927 0.000395886 -0.00133844 -0.010297 -0.00827181 -0.0073716 -0.00846345 -0.00483907 -0.00412569 -0.00681872 -0.00592179 -0.0093697 -0.00483078 -0.0107212 -0.00493302 -0.000573658 0.000300436 -0.00244025 0.00483042 0.00360461 0.00359947 0.00983777 0.00648205 0.00395047 -0.000615349 0.00892805 -5.04828e-05 0.000984747 0.00123557 -0.00219989 -0.00961113 -0.0112847 -0.00645399 -0.00650226 -0.00228145 -0.000184597 0.00429958 0.00534323 -0.00375671 0.00131237 -0.00220801 -0.00221029 -0.00659276 -0.00816117 -0.00312858 0.0038405 0.00487353 0.00133017 0.00357011 0.00181574 0.00235963 0.000510813 -0.0025458 -0.0060874 -0.00430038 -0.00707402 0.00404669 0.00938746 0.00932314 0.00406619 -0.00382796 -0.00381992 -0.00201379 -0.0022624 0.000466165 0.000546627 -0.00845136 -0.00551724 0.00121343 -0.000543374 0.00478207 0.00444876 -0.00015137 -0.00397059 -0.0015002 0.00730513 0.00435385 0.00321227 -0.0024736 0.00352779 -0.00077594 -0.0014585 -0.00169567 -0.000968357 0.0040275 0.00112063 0.0132722 0.0101964 0.015753 0.00500362 0.00477192 -0.00484052 -0.00230546 0.00230928 0.00490001 0.00111505 0.0031186 0.00124826 -0.00149 -0.0052053 0.00181108 -0.00148708 0.00356782 -0.00241965 0.00349307 0.0022056 0.00253018 0.000581594 -0.00105991 -0.00675101 -0.00504575 -0.00231704 -0.000273377 0.00237008 0.00377298 0.00821388 0.00569581 0.00423525 0.00069576 -0.00457689 -0.000470417 -0.00460891 0.00270671 -0.00105856 0.00366828 -0.00217962 0.0069092 0.00258617 0.00141013 0.00682535 0.00723758 0.00329976 -0.00339621 0.00150321 -0.00402608 0.0025844 0.00469768 -0.00170683 -0.00235393 0.000702081 -0.00296914 0.00281029 0.00625927 0.00292927 -0.00297149 -0.00489554 -0.00134547 0.000574592 0.00168974 -0.00363241 0.00218228 0.00372378 0.0049943 -0.00073487 -0.000359604 0.000219542 0.00907785 0.0100385 0.0076682 0.00801737 0.004624 0.0050828 0.00291913 -0.00343413 0.00162725 -0.00433275 0.000889058 -0.00622798 -0.00528719 -0.00587943 -0.00591123 0.000712088 -0.00267782 -0.00442212 -0.00505663 -0.00169151 -0.00341209 -0.0012793 -0.00233197 -0.0102625 -0.0117108 0.000169268 0.00357724 -0.00068066 -0.00793983 -0.00684548 0.00522378 0.00163747 0.0034575 0.0117999 0.00523838 0.00874579 0.00660263 0.00375196 0.0043715 0.00922362 -0.000590679 -0.00228266 0.00195817 0.00295318 -0.00161648 -0.00715247 -0.00283085 -0.00467678 0.00385359 0.00563554 0.00378318 0.00202279 0.00498353 -0.000148704 0.0059675 0.00474803 -0.00575315 -0.0117722 0.00312264 0.0055531 0.000123937 -0.0074003 0.00109195 0.00269663 -0.00222712 -0.00331743 -0.000925556 -0.00303586 -0.0103916 -0.00920354 0.00380115 0.00948885 0.00404539 0.00448771 -0.000718546 -0.00583732 -0.00215494 -0.00405363 -0.00273459 -0.00295453 -0.0100815 -0.00460548 -0.00409292 -0.00432694 0.000840506 0.00619934 1.36684e-06 -0.00134918 -0.00526298 -0.00166266 0.00696855 0.00382329 -0.00138286 0.00310556 -0.00202296 0.00046827 0.0042662 0.00914458 0.00230475 0.00687432 0.00881228 0.0135483 0.0112701 -0.00175213 -0.000522089 0.000638356 -0.00199537 -0.00461392 0.00773293 0.00463997 -0.00528165 0.0043812 0.00177229 0.00176266 0.00382274 0.00154789 0.00187538 -0.00151183 -0.00551093 0.000689608 0.00163547 0.00644871 0.00933365 0.000822407 0.00128996 0.00419875 -0.00156327 -0.000164033 0.00307769 0.0111914 0.00917346 0.0102364 0.00164957 -0.00174896 -0.00473653 -0.00834657 -0.00483491 0.00116978 -0.00213908 0.00490123 -0.0011502 -0.00614306 -0.00380262 0.000243226 -0.002111 -0.00667357 -0.0105091 -7.49888e-05 0.000352584 0.00494351 0.00895777 0.00756284 0.0016307 0.00617848 -0.00469178 0.00531618 0.00807653 0.00142101 -0.00125355 0.0049469 -0.00169767 -0.000810273 -0.00194884 -0.00679827 -0.000582545 0.000844588 0.00416798 -0.000128288 -0.00192085 0.00257597 0.00801202 0.00688822 0.00804547 0.0109428 0.00137947 -0.00081276 0.00422761 0.00340968 0.00473204 0.0020995 0.00389186 -0.0014603 -0.00624098 -0.00494569 -0.00311908 0.00269675 -0.0105788 -0.00678995 -0.0066945 -0.00231392 -0.00179225 0.00382569 0.00132787 -0.0026383 -0.00210585 0.00693539 0.00373343 0.001476 -0.00217762 -0.000607585 -0.000653314 -0.000696442 0.00279311 0.00512997 0.00339362 0.00429742 0.00292021 0.000582133 0.00309074 0.00403414 0.00822304 0.00162413 -0.00224444 0.00264874 0.00502418 0.00544987 -0.00249574 -0.000467009 0.00330945 0.00293491 -0.00440183 -0.00160544 -0.000350025 0.0016232 0.00933484 0.00333911 -0.00427345 0.00228271 0.0059696 0.0017817 0.00132304 0.00220669 -5.46713e-05 -0.00275675 -0.00236159 -0.000985156 -0.00437391 -0.00796232 -0.011777 -0.00298775 0.00119632 0.00581289 0.000239414 0.000625464 0.00274939 -0.00274531 -0.00226829 -0.00956319 -0.00649228 -0.0104548 -0.0130301 -0.00459427 -0.00536034 0.0041226 0.00538009 0.000490608 -0.0022218 0.00148907 -0.00749492 0.000736341 0.00221107 0.00563293 0.0064678 -0.000486618 -0.00770301 -0.00558054 -0.00377952 0.000986019 0.00391376 0.015284 0.0102072 0.00690326 0.00446688 0.00162152 0.0076721 0.00734278 -0.00513647 -0.00388701 0.00275374 0.00377522 -0.00442766 -0.00166471 0.000605418 -0.00325725 0.00554701 0.00533546 0.00473984 0.00186854 -0.00531545 0.00412176 0.00605283 0.00532591 0.00663566 0.0053371 -0.000144859 0.00248265 -0.00155642 -0.00494317 -0.00106189 0.00623016 0.00742953 0.0132103 0.00660977 -0.000600931 -0.00300153 -0.00546364 -0.00267479 0.00150761 0.00132083 0.000397804 -0.00438837 -0.00539463 -0.00183204 0.00143074 -0.00673717 -0.00701973 -0.00629119 0.00242894 0.00873715 0.00129428 0.00226663 0.00990541 0.00286613 0.00124308 -0.00161471 -0.00485746 0.00620294 -0.000960971 0.00161703 0.00315995 7.90361e-05 0.00260799 0.00282608 -0.00207149 -0.00267205 0.000339693 0.00467996 0.00341934 0.00473174 0.00585679 0.00652462 0.00488197 0.00666244 0.0108428 0.000255835 0.000777172 0.00909347 0.00920558 0.0015802 0.00455387 0.00770721 0.000901381 -0.00133208 -0.0038904 -0.0065364 0.00465355 -0.00159461 -0.00361575 -0.000258939 -0.000863172 -0.00484975 0.00216064 -0.00438822 -0.00531528 0.00302704 0.00448981 0.00130587 -0.00286907 -0.00208072 0.00192834 -0.00197174 -0.00288222 0.00119727 0.00168007 0.00141986 0.00918016 0.00453699 0.00149686 0.00780994 0.00196412 0.0018257 0.00725087 0.00664238 -0.000211753 -0.000507086 0.00401465 0.00490255 0.00638574 -0.00144157 0.00131254 0.00335463 0.00270371 0.00321203 0.00816471 0.00189409 -0.000408092 -0.00390077 -0.00435 0.00399291 0.00676426 0.00549842 0.00461371 -0.00341071 0.000719269 -0.00302731 -0.00068342 -0.0149028 -0.0109753 -0.00128892 -0.00405533 0.00614 0.00988991 0.00626913 0.00243022 0.000810518 -0.000147934 -0.00579366 -0.010188 -0.0104743 -0.00613389 -0.00541171 -0.00708214 0.000461619 0.00219302 -0.00286564 0.000637524 0.00381826 0.00334414 -0.00363972 0.000431711 0.00940346 0.00896987 0.00605586 0.00118517 -0.00484969 -0.0074676 -0.00637877 -0.00306322 0.00798736 0.00743567 0.000507851 0.00909931 0.00546747 0.00609678 0.00350705 0.00647871 -0.00646651 -0.00203461 0.00439858 -0.00407438 -0.00540244 -0.0032011 -0.00281098 -0.00543715 0.000412214 0.00456601 0.000183771 0.000647752 -0.00676575 0.000575232 0.00488558 -0.000813785 -0.00350894 0.00266871 -0.00336429 -0.0020606 -0.00708407 -0.00967038 -0.00428312 0.00289149 0.0064104 0.00723054 0.00436607 0.00271607 0.0112221 -0.000240291 0.00774944 0.00369012 0.000922083 0.00539812 0.00280122 0.00386633 0.00210294 0.00582299 -0.0033006 -0.0046159 -0.00419725 -0.00762469 -0.0012976 -0.0035965 0.00170393 0.00541852 0.0041895 0.00447421 -0.000423818 0.00483348 0.00324418 -0.0020795 0.0055619 0.000352764 -0.00614678 0.00179967 0.00271552 -0.00497436 0.00145113 0.000909567 0.00309072 0.00319536 0.00593132 0.00491729 0.0113514 0.0023148 0.00949406 0.00294268 -0.00431169 -0.00230481 0.006714 0.000697221 0.000286797 0.00153104 0.00314716 0.008068 -0.000618593 -0.00420145 -0.00851812 -0.00538522 -0.000651467 -0.00338298 -0.000824472 -0.000280194 -0.00239006 -0.00388993 -0.00380708 -0.0100795 -0.00204504 0.00575177 0.00205407 -0.00205848 -0.00236528 -0.00193743 0.00444364 0.00213654 0.00355586 0.00157218 0.00159752 0.011411 0.0033887 -0.000436735 -0.00065029 0.000452013 0.00721954 0.00803194 0.0119606 0.00286274 -0.000318361 -0.00258125 -0.00540937 0.000842914 0.00154255 0.00396095 0.00559401 0.00660637 0.0105391 0.00381572 0.00317789 0.00576739 0.00290295 0.00186512 0.00270309 0.00623071 0.00255275 0.0020822 0.00175603 -0.00546092 -0.00159326 -0.00634903 -0.00834498 -0.00274468 0.00716767 0.00731537 0.00981107 0.00524949 0.0100886 0.00798276 -0.00126745 0.00353171 -0.00535641 -0.00687831 -0.00875234 -0.00218227 -0.00590195 0.0031587 -0.000842561 -0.00348777 0.00151149 -0.000117513 -0.0017252 -0.0070404 -0.0153471 -0.00542973 -0.0026962 0.00571992 -0.00811192 -0.00292591 -0.00541744 -0.00837628 -0.00893269 0.00279387 0.00597908 0.000983535 0.00333036 0.00566609 -0.00318625 -0.00754058 0.00618215 0.000770054 -0.00349046 0.00381263 0.00053268 -0.00213377 -0.00383087 -0.0032339 -0.00293057 -0.00861308 0.000964059 -0.00551775 -0.00342923 0.00144999 -0.00657329 -0.00680314 -0.00185855 -0.00322327 -0.0036548 0.00011157 0.00521242 0.00539774 0.00136239 -0.000647859 -0.000238136 -0.00399456 0.00378874 0.00241159 0.000442784 -0.000672407 5.10813e-05 -0.00134642 0.00658465 0.00530773 0.00114277 -0.00188324 0.00145678 0.00378781 0.00373891 0.00330796 -0.000531532 0.0050017 0.00347999 0.00705081 0.00771887 0.000209106 0.0025352 0.000842618 0.00440356 0.00265225 -0.000555295 0.00137978 -0.00340292 -0.00389061 -0.000137275 0.00573335 0.00206857 0.00316237 0.00616278 0.000360261 -0.00668277 -0.00459063 -0.00444024 -0.00160392 0.00864911 0.0117278 0.0034534 0.00471598 0.00404886 0.00429006 -0.00411333 -0.00679896 -0.00451951 -0.00129947 -0.00134839 0.0011981 0.00158059 0.000405837 -0.0076583 -0.00489859 -0.00585612 -0.00329494 -0.00447195 0.000585656 -0.000573187 0.000246482 -0.00206268 -0.00308614 -0.00089972 0.00462769 -0.000778019 0.00227813 0.00245687 0.00139838 -0.00126968 -0.00148173 0.00550266 0.000832737 0.00555921 0.00153327 0.00210277 0.00422399 0.000884163 -0.00198347 0.00175972 -0.00539564 0.000722294 -0.00214036 0.00654735 -0.000251766 -0.00153689 -0.00606765 -0.00315183 5.53337e-05 0.000856059 -0.00467846 0.00620985 0.00381658 0.0100587 0.00691822 0.00257519 0.00141927 0.0113574 0.00969856 0.00755177 0.00737202 0.00750034 0.00316002 0.000825574 -0.00624829 -0.0095619 -0.00698943 -0.00916611 -0.00363471 -0.00135101 0.0101909 0.0115464 0.00531726 0.00640561 0.00656221 0.00467085 -0.00172225 -0.000462291 -0.00731855 -0.00329441 -0.00315799 -0.00824045 -0.000891626 0.00028478 0.00159874 -0.00150657 -0.00129258 -0.00472972 -0.00956233 -0.0136072 -0.00955979 -0.00131353 -0.00454005 -0.00812799 -0.0133527 -0.0148393 -0.00234497 -0.00788132 -0.000876394 -0.00100139 -0.0101657 0.000653739 0.00279401 -0.00747675 -0.00273685 -0.002119 0.00888664 0.00652428 0.00643507 0.000547228 -0.00717207 -0.00550853 -0.00423728 -0.00571297 -0.0105425 -0.00095628 -0.0034959 -0.00158526 0.00210547 -0.00333969 -0.0055805 -0.0134481 -0.00466857 -0.000530667 0.000733791 0.00650008 0.00111693 -6.10623e-05 0.00600693 -0.00582045 -7.60761e-05 0.00287212 -0.000672461 -0.0020407 0.00277901 -0.00158162 0.00382965 0.00433998 0.00263008 0.000486659 -0.00699422 -0.010731 -0.00259735 0.000831448 0.005658 -7.3917e-05 0.00459725 -0.00348323 -0.0055877 -0.00256427 0.00511625 -0.00482353 -0.00652449 0.0024142 -0.00520337 0.00355875 0.00162836 0.00613124 0.00115053 -0.00151696 0.00851689 0.00162666 0.00165582 0.000901459 -0.00504964 -0.00568067 -0.00855573 -0.0100668 -0.00291926 0.00308805 0.00418106 0.00647957 0.000578937 0.00135686 0.00493464 -0.00353598 -0.00366007 -0.000485748 0.00412026 -0.00360917 -0.00342343 -0.000622239 -0.00598453 -0.0103516 -0.00554803 0.000945719 0.00163277 -0.00195943 -0.00332712 -0.00338117 -0.0100124 -0.00982066 0.000337044 0.00983098 0.00435923 0.00309744 0.00563794 -0.00276601 0.00661098 0.00277991 -0.00187442 -0.00233453 0.00113959 -0.000436449 -0.00422446 0.00472822 0.00260161 0.00273899 0.00170946 -0.00781264 -0.00472669 -0.00292254 0.000317498 0.00890184 0.00480718 -0.00217625 -0.0057212 -0.00241957 -0.00122533 -0.00146017 -0.00730356 -0.00853851 0.00338106 0.0082511 0.012226 0.00401999 0.00627233 0.00924174 0.00614958 0.0114796 0.00807294 0.00507543 0.00216183 0.00212726 0.000178987 -0.000596521 -0.00643291 -0.0118933 -0.0059447 0.000221633 0.00687359 0.0048782 0.00173792 0.00935429 -0.000484033 0.00742295 -0.00104816 0.000988339 -0.00999862 -0.00350188 -0.00677614 -0.00348322 -0.00374843 -0.00130411 0.00208922 -0.00166709 -0.000593793 0.00191565 0.00232401 -0.00587259 -0.00357297 0.00505086 -0.00085489 -0.0139117 -0.00892968 -0.00845271 -0.00892427 -0.00904277 -0.0107506 -0.00884093 -0.00316464 0.000186331 0.00334187 -0.00283792 -0.00281521 -0.000825889 0.000921243 0.00745456 0.00215305 0.00595201 -0.000860917 0.00102091 0.00106167 -0.000872363 -0.00878854 0.00268348 -0.00076689 0.00541281 0.00463022 -0.000705152 -0.0115074 -0.0138926 -0.00790064 0.00160839 0.00751844 0.0102171 0.00462658 0.00185071 0.00329048 -0.00788845 -0.00501876 -0.000805245 0.00566548 0.00331066 0.00435292 3.20837e-05 0.00708253 0.00549432 0.00626381 0.00255292 0.00287434 -0.00281476 -0.00293001 0.00176523 0.00477362 0.00878791 0.001656 -0.00617114 -0.000862396 -0.00355752 -0.00376358 0.00161004 -0.0019198 -0.00446035 0.00222366 0.00614768 0.006338 0.00731815 -0.00402341 -0.00274191 -0.000239254 -0.0095394 -0.00181668 0.000599625 -0.00570241 -0.00586535 -0.00173448 -0.00116256 -0.000493581 -0.00177802 0.00047705 0.00442982 -0.000407451 0.00382411 0.00278931 0.000607749 -0.00747281 0.000319652 0.00476742 0.00245546 -0.00280281 -0.00556569 -0.000996507 -0.00428646 -0.0066906 -0.00158263 -0.00202751 0.0020344 -0.0063029 0.00394391 0.00133323 -0.00889692 0.00302738 0.00599687 0.00394248 -0.000453667 0.00534354 -0.00102969 0.00661794 0.00218884 0.0017456 0.00180762 -0.00140186 0.00599733 -0.00226585 0.00517859 -0.00179994 -0.00475925 -0.000615613 0.00139106 0.00193011 0.00315753 0.00217489 0.00276973 0.00696668 0.0011469 -0.00532944 0.00229444 0.00322089 -0.00343289 -0.00963396 -0.00392887 0.00353992 0.00835913 0.00751882 0.00996114 0.00373886 0.00147475 0.00216315 -0.00222009 -0.00637625 0.00120004 0.00200726 0.00507385 0.00680457 -0.00485599 -0.00786513 -0.00789045 0.00237282 0.00826443 0.00170123 -0.00602957 -0.000263398 0.00698825 0.00675703 0.00330841 0.00487495 0.00316158 0.00301913 -0.00151777 -0.0134377 -0.00722485 -2.73532e-05 0.00455729 0.000832503 -0.00279318 -0.00480259 0.00163809 -0.00859413 -0.00654794 -0.00151777 0.00203754 -0.00402507 -0.00159373 -2.63717e-05 -0.00260969 0.00218551 -0.00805251 -0.00916655 -0.00618451 -0.00626911 -2.92456e-05 0.000476945 -0.000332028 0.000481317 -0.00475572 0.000458115 0.0093462 0.00795553 0.00528917 0.00431193 0.0018904 0.00185664 -0.000271567 -0.000449934 -0.00677737 0.00128613 -0.000306052 0.00308047 -0.00903403 -0.00742289 -0.0166993 -0.00260951 -0.000940161 0.00318136 0.00663481 0.0018233 -0.00364905 0.00223691 -0.0112055 -0.00534998 0.0028995 0.00694678 -0.00160816 -0.000760545 -0.00150457 -0.00115929 0.00332651 0.00158438 0.00285893 0.00323099 -0.0024392 -0.000475379 3.37583e-05 0.00251981 0.000377313 0.000931287 -0.00324825 -0.00445777 -0.00686789 -0.00227206 -0.00446488 -0.00521096 -0.00246013 0.000781218 0.00590675 0.00445701 0.0116407 0.00296074 -0.00344785 0.00053725 -0.000935198 -0.000428191 0.00156559 -0.00385665 -0.00400304 0.00250767 0.00146218 0.00229982 -0.000696088 0.00212903 0.00284013 -0.00367055 0.000386828 -0.00320538 -0.00425159 -0.00752862 -0.00799793 -0.0057963 -0.00562642 -0.00385745 0.00119581 -0.00139091 -0.00659017 -0.000104331 0.00327881 0.00124923 -0.000813609 0.00526494 0.00442893 0.00779188 -0.00246628 0.000403979 -0.000500259 -0.00608472 -0.00277388 0.00871637 0.00782119 0.00518015 0.00579826 0.00288953 0.00293859 -0.000613861 0.000705192 -0.00707823 -0.000382899 0.00214918 -0.00319052 -0.00198529 0.00410142 0.00230735 0.00253571 