-0.00437225 -0.0012547 -0.00115691 -0.00436621 -0.0129877 0.00190731 -0.00192271 -0.00458285 -0.0161934 -0.0101316 -0.00715636 0.00193864 0.00209282 -0.00980563 -8.62888e-05 0.0132254 -0.000230543 0.00178027 0.00460253 0.00641495 0.00202132 0.0060526 0.0108394 0.00174268 -0.00360509 -0.00261928 0.00172475 -0.00384893 -0.00904405 0.0024184 0.000136038 0.000950603 2.8045e-05 -0.000785125 0.00213929 0.00181832 -0.00124744 0.000221943 0.0135692 0.00307731 0.000358715 0.015991 0.0163578 0.00755466 0.000791649 -0.0104853 -0.00515364 -0.0035328 -0.00870503 -0.00972743 -0.00933867 -0.00598195 -0.00740606 -0.00465077 0.00140043 0.00451558 -0.000292312 -0.000991327 0.00247602 0.0027726 -0.00729802 -0.00595944 -0.00313977 -0.000354638 -0.00511477 0.00210158 0.0067663 -0.0035653 0.00100839 0.00658001 -0.00250726 -0.00141458 0.00119861 -0.00123906 -0.00861928 -0.00868188 -0.0146644 -0.00828987 -0.0079593 -0.0153591 -0.00823174 -0.00755218 -0.00895828 -0.00981647 -0.0104956 -0.000726961 -0.00729256 0.00354818 0.00454366 0.00185804 0.0100968 0.0105711 0.0144388 0.00597967 0.011171 -0.00195275 -0.000414456 0.00509954 0.000849214 0.000418723 0.00317181 0.0143414 0.00323803 0.0133962 0.0113284 0.00859422 0.0176798 0.00664779 0.00633225 -0.002242 0.00259801 0.00752759 -0.00502881 -0.00751989 0.00498289 0.00907358 0.00706249 0.00936086 0.00599458 -0.00399836 -0.001642 -0.00819007 -0.0122852 -0.0093654 -0.00117107 -0.00360216 -0.00359216 -0.000756624 -0.00161154 -0.00446195 -0.00976148 -0.00791959 -0.00588208 0.0051119 -0.00588002 0.00163496 -0.00295475 0.00111283 -0.00155112 0.00249745 -0.000276908 0.00529052 0.00613527 0.0011189 -0.00154346 0.00791837 0.00371245 -0.00364855 -0.00530992 -0.00220174 0.00549913 -0.0017983 0.00013887 0.00147259 0.0139047 0.0127213 -0.00172397 -0.00238789 0.0128262 0.0112162 0.00589144 0.0114834 0.0133192 -0.00105331 -0.000246071 -0.000852564 0.000556068 -0.00324074 0.000824194 -0.000119143 -0.000610564 -0.00200152 -0.000399681 -0.00068592 -0.0101758 0.00410813 -0.00699907 -0.0175947 -0.0136589 -0.0119611 -0.0177305 -0.0045435 -0.000958419 -0.00422172 0.00109994 0.00112644 -0.0015923 -0.00569661 0.00280571 0.00843463 0.00483977 0.010724 0.00450638 0.00347409 -0.00319529 -0.00436509 -0.0107152 -0.00723577 -0.0067168 -0.00565741 0.00502885 0.00196567 -0.0037908 -0.00492682 -0.00211591 -0.00276674 -0.00403415 0.00158986 0.00159192 -0.0010194 0.00470723 0.00487163 0.012835 0.00870737 0.0041437 -0.00658416 -0.00229336 -0.000365756 -0.00914295 -0.00293657 -0.0102429 -0.00365062 -0.00855358 -0.00508545 0.00129593 0.00461763 6.18749e-05 -0.00817791 -0.00441296 0.00577338 -0.00118332 -0.00577139 -0.000818265 -0.000614923 -0.00276624 0.0131836 0.00542813 0.000275501 -0.00305102 -0.00568423 -0.00351004 -0.00904126 -0.00357234 -0.00659051 -0.00582951 -0.00558265 -0.0104799 -0.00884533 -0.00254808 -0.00925901 -0.00786694 -0.0106917 -0.0148876 -0.00677461 -0.00499872 -0.00374817 0.00112246 -0.00130689 0.00928374 0.00542321 0.00474448 0.0159769 0.0157751 0.00598548 0.00522106 -0.00459144 -0.00202589 -0.00361824 -0.00206507 -0.00187008 -0.000627972 0.00741072 0.0115903 0.0168446 0.0109217 0.0114884 0.00612886 0.00519583 0.00247256 0.00385406 0.00229864 0.00686216 -0.00442386 -0.0109649 0.000808831 0.00232051 -0.00298051 0.00355823 0.00297591 -0.00762813 -0.0123688 -0.00678821 -0.00191788 -0.00499921 -0.00329869 -0.0104273 -0.0020453 -0.000264121 -0.00742608 -0.0052814 -0.0042456 -0.00727481 -0.00691691 0.000231583 0.00253559 -0.00317922 -0.000981162 0.00257288 -0.000849418 0.00221893 -0.000120746 0.00657988 0.0106787 0.00543563 -0.000626548 -0.00247721 -0.00681053 -0.00769313 -0.00853135 -0.00304216 -0.0114913 -0.00585039 0.00232133 -0.000880448 -4.72027e-05 0.0076493 -0.000716439 0.00595371 0.00829019 0.0115987 0.0124341 0.00637824 0.00796798 0.000257487 -0.00770614 0.00250015 -0.0021446 -0.00988841 -0.00795114 0.00141987 0.000922779 0.000515829 0.0143301 0.00695795 -0.00756284 -0.00178213 -0.00402643 -0.00952911 -0.0101053 -0.00883025 -0.00729426 -0.00424754 -0.00477255 0.000120789 0.00221046 -0.00249907 0.00157605 0.00403532 0.000266769 0.00103341 -0.00548124 0.00806026 0.00515973 0.00277215 -0.00932967 -0.00584499 -0.0142329 -0.00797768 -0.00474891 0.00230404 -0.001476 0.000560975 -0.00247483 -0.00989567 -0.00232388 0.00124744 -0.00719118 4.49642e-05 -0.00443544 -0.00416699 -0.00136482 0.00335328 0.0046839 -0.00256956 -0.00338955 -0.000294616 0.00315405 0.00610179 -0.00800155 -0.00549 -0.00227153 -0.00916548 -0.0194397 -0.0106156 -0.00190709 0.00464416 0.00588412 -0.00141679 -0.00192473 0.00304869 -0.00287492 -0.0076644 -0.0037865 0.00302317 0.0077318 0.0115617 0.00753519 0.000345103 0.000317848 0.0022305 -0.00318411 -0.00583052 -0.00244463 -0.00819441 -0.00895118 -0.00884174 -0.00958658 -0.000989094 0.00258949 -0.000382003 -0.000977305 -0.0126381 -0.0084953 0.00354251 0.000638055 0.00436237 0.00824538 -5.49656e-05 0.00390712 0.00288635 0.00664541 0.00459922 0.0143838 0.00388417 -0.000935368 -0.00658348 -0.00700023 -0.000676267 0.000564769 -0.003452 -0.00409547 0.000676363 0.00290378 0.0122775 0.00402899 0.00133655 0.00146777 0.000108315 0.00283648 0.00151165 0.00423356 -0.00493525 -0.00688094 -0.00832508 0.00469142 0.000420296 -0.00226785 -0.00138797 -0.00128699 -0.0115388 -0.0161115 -0.00833314 -0.00693084 -0.00388641 -0.00858896 -0.00454632 0.00256537 0.00278355 -0.00663276 -0.00401241 -0.00278461 -0.00426188 -0.00854457 -4.61039e-05 0.00344941 0.000366729 -0.00428267 -0.00138008 -0.00107721 -0.000280876 0.00468679 0.00195026 0.0069425 -0.0017798 -0.00120498 -0.00823486 -0.00564157 -0.00682329 -0.0105741 -0.00441806 -0.00987957 -0.00208143 0.00243762 0.00107845 0.00179817 0.00362818 0.00873019 0.00452872 0.00830618 0.00602818 0.0137281 0.00093974 -0.000530969 -0.00319735 -0.00184961 -0.00679102 -0.00647358 -0.0134531 -0.00683772 0.00648666 0.0136454 0.0033596 0.00449019 0.00442159 -0.00745662 -5.79971e-05 0.00615773 0.0111791 -0.0107906 -0.00671939 -0.00683829 -0.000868514 0.000586045 -0.00910363 -0.00396276 -0.000109088 -0.00118147 0.00733899 0.00627214 0.00175988 0.00830096 0.00891696 0.00547465 0.0010287 -0.0011407 -0.0107136 -0.0120159 -0.00878672 -0.00278173 0.00340128 0.00326503 -0.000314179 0.000101676 -0.0101169 0.000894031 -0.00205203 -0.00371053 -0.00342096 -0.00106357 0.00387461 4.73809e-05 -0.00432087 0.0099482 -0.0021288 -0.000317333 -0.000687098 0.00297813 0.00270539 -0.00250904 -0.00846096 0.00391038 0.00376029 -0.00830218 0.00473123 0.00581864 0.0164804 0.0150123 0.0104892 0.0071808 0.00537187 0.00186655 -0.000255049 -0.00353276 -0.00256148 -0.000549073 0.00051002 0.00951077 -0.00335927 -0.00556123 -0.00467965 -0.000421026 -0.0101441 -0.00291729 -0.0133507 -0.00216398 0.0063571 0.00707696 2.53789e-05 0.00238013 -0.0113954 0.00168672 -0.00416767 0.000579119 0.00479398 -0.000877135 0.000865834 0.00481765 -0.00421922 0.000727454 -0.00503268 -0.0048724 0.00212906 0.0032868 0.0104297 -0.00111918 -0.00612728 -0.00339275 0.000138311 0.00168112 -0.00132663 -0.00135843 -0.0021764 -0.00273653 0.0035251 0.00159449 -0.000837596 0.00379765 -0.00257222 0.00320487 0.0020855 -0.0103244 -0.002204 -0.0158013 -0.0112771 0.00153414 0.000542002 0.00254728 -0.00204455 -0.00317388 -0.00164928 -0.000895021 -0.00196607 -0.00737584 0.000827138 -0.00334005 -0.00750731 0.00390685 -0.00208126 -0.0113442 0.000508584 -0.00386373 -0.00402709 -0.0112597 0.00151623 0.00396968 0.0069411 0.00710225 0.00797071 0.00810026 0.00376719 0.00612378 0.0038107 0.00211008 -0.00340093 -0.00138505 -0.00267513 9.08905e-05 -0.00054804 -0.00877336 -0.00195995 -0.00384169 -0.000393437 0.00389768 0.00171878 -0.00110947 -0.000694414 -0.00196901 0.00422404 0.00278323 -0.000808208 0.0100823 -0.00703008 -0.000239852 -0.00700866 -0.00484495 -0.00236085 -0.00304488 -0.00079497 -0.00366885 0.00140008 0.0131839 0.00449658 -0.00065317 0.00270782 0.00293686 -0.00107792 -0.00166898 -0.00893447 -0.0086807 -0.00687515 -0.00465831 0.00243659 -0.000434366 -0.010809 -0.0068341 0.000983843 0.000204043 0.0100192 0.0116884 0.00847383 0.00648603 0.00924541 0.0123815 0.00941658 -0.00472154 -0.00721668 -0.00478843 -0.012149 -0.00330117 0.00233632 -0.00116801 -0.00193289 -0.00475387 -0.00196859 -0.00386811 -0.0101062 -0.00132256 0.00160268 0.00519588 -0.00329867 -0.00164093 -0.0107914 -0.00279403 -0.0175474 -0.00622539 0.00251563 -0.00415287 -0.000255109 -0.000935043 0.000843691 0.00490531 -0.00159224 -0.0117483 -0.00175777 0.00728127 0.0123585 0.0065052 0.00662659 0.00119783 -0.00289193 -0.000821956 1.70063e-05 -0.00201945 -0.00383633 -0.00509704 -0.00393215 0.00452535 0.00137828 0.00434131 -0.00589892 -0.0101426 -0.00588192 -0.00907726 -0.0114002 0.00138954 0.00509303 0.0106137 0.0148062 0.00149612 0.00369769 0.00330781 0.00341234 0.00625726 0.0104529 0.00226739 0.00454152 0.00284515 0.00376401 0.00740099 -0.0061559 0.00124726 0.00362156 -0.00646021 -0.000393229 -0.00769444 -0.00395903 -0.00453568 -0.00477032 -0.0015371 -0.00161076 -0.00648931 -0.00820433 -0.00174146 0.00372775 0.00201526 -0.0064599 0.0001292 -0.0050428 0.00153435 -0.00256342 0.00480053 0.00409967 -0.0129305 -0.00415334 0.00211916 0.000136323 -0.00411056 0.00128321 -0.00437929 -0.00439996 -0.00571692 -0.00577675 0.00169363 -0.00216179 -0.00629762 -0.0122068 0.00487945 -0.00383502 -0.00469179 3.4004e-05 0.00153277 -0.00674188 0.000345244 0.00137239 0.0094425 0.00189769 0.00660449 0.0102947 -0.00280571 -0.00299268 0.00811267 0.0151071 0.00607018 0.000607216 -0.00678796 -0.0116447 -0.00425325 0.00204725 -0.00176308 -0.00732937 -0.00796643 -0.000184317 0.00399658 0.00145249 -0.00105604 0.00371312 0.00534149 0.00420061 -0.00167429 -0.00761188 0.00418494 -0.000672195 -0.00845899 -0.0072889 -0.00758937 -0.00593241 0.00104603 0.00298864 -0.00843264 -0.00189089 0.0113138 0.00218355 0.00039999 0.00797318 0.000493971 -0.00864858 -0.00299247 0.00544603 -0.00299277 0.00225191 -0.00823126 -0.0036322 -0.00639015 -0.0141012 -0.0022857 0.00978131 0.000800007 -0.00418784 0.00772079 0.00728678 -0.00178066 0.00532738 0.00846031 0.00819737 6.99933e-05 -0.000687046 -0.00762743 0.000937065 -0.0047647 -0.000981805 -0.00356713 0.00347344 0.00217386 -0.0119477 -0.000967391 0.000630521 0.00264977 -0.00601934 0.00203106 -0.00571518 -0.0105467 -0.00632282 -0.000863837 -0.00269351 0.000594769 0.00150396 0.00209903 -0.00433987 -0.00650798 -0.0003759 0.00372387 -0.00509788 -0.00444184 -0.00121078 0.00882558 0.00630896 0.000489664 -0.00293653 0.0040706 0.00752417 -0.000278323 0.00377837 0.0032524 -0.00302077 0.00472429 0.00132764 0.0100081 0.00666718 -0.00483416 -0.00745565 -0.00169651 0.00471389 -0.0038894 -0.0134898 -0.000315643 0.00138317 -0.000465822 0.00269042 -0.00149753 -0.00816646 -0.00424645 0.00415665 0.00658282 0.00163958 0.000534116 -0.00211146 0.00652933 -0.00136962 0.00250696 0.00404617 0.00598641 0.00560783 -0.00398627 -0.00195798 -0.00839882 -0.00994682 -0.00065694 -0.00100518 0.0040354 -0.0105504 -0.00960924 0.000230948 -0.0083583 0.00413759 -0.000779362 -0.00698729 -0.00769202 -0.00603571 0.01134 0.00939841 0.0114766 0.0167949 0.00316831 -0.00140084 2.20882e-05 0.00185485 0.00274062 0.00316847 -0.00625705 -0.00213801 0.000473435 0.00389382 -0.00121061 0.00148355 -0.00549695 -0.00843648 -0.00247628 -0.00234069 -0.00620164 -0.00314774 -0.0114572 -0.00931654 -0.00258998 0.000140928 0.001863 -0.0026516 0.0032866 0.0070934 0.00381181 0.000186684 0.00532131 0.0110472 0.00573525 0.000853804 -0.0015446 -0.00085745 0.00537216 -0.00435318 0.00181374 -0.00807731 -0.00320437 0.00470789 0.0022827 -0.00351295 0.00377924 -0.00279923 -0.00173334 -0.00763 -0.00588644 -0.00805938 0.00221606 -0.0071467 -0.00644456 -0.00770764 -0.0122046 -0.00449311 -0.00395547 -0.00766611 -0.00651798 -0.00287952 0.00745672 0.00746748 0.00165167 -3.89606e-05 -0.00504998 -0.00259007 0.0048425 0.00476765 -0.00271919 -0.00180542 -0.00376199 -0.00740622 -0.000477247 -0.00442023 -0.01023 0.00309545 0.00166331 0.00312776 0.0119995 0.0129413 0.00516631 0.00470457 0.0177034 0.0113395 -0.00260069 0.00585569 0.00454556 0.00269669 0.00260285 0.00265842 -0.00239546 0.00618994 0.00185713 -0.00193452 -0.00120417 0.00143337 0.00544036 -0.00204897 -0.000880099 -0.00715112 -0.00452783 -0.00471228 5.73512e-05 -0.00444717 0.00259779 -0.00119464 -0.00383667 -0.00436751 -0.00657276 0.000704915 -0.000133411 0.00214403 -0.00371891 -0.00233512 0.00153953 0.00180921 -0.000692058 -0.00250781 -0.0020501 0.0082644 0.00547315 0.0018421 0.000759693 0.00122315 0.00295877 0.000370547 0.00325513 -0.00132532 -0.0020749 -0.00139529 -0.00321886 0.000336753 -0.00211769 -0.0114706 0.00193793 -0.00136422 0.000520756 0.00590543 0.00208064 -0.0019752 0.00694616 0.0108639 0.00683038 0.00279248 -0.00244151 -0.00310318 -0.000603463 0.00551887 0.00451415 -0.00574339 -0.00103876 0.00529392 -0.00705173 -0.00659645 -0.00784854 -0.0061486 -0.00337903 -0.00744872 -0.00484609 -0.0140241 -0.00610363 0.00265823 0.00136553 0.0072987 0.00538209 -0.00306309 -0.00693451 -0.00674875 0.000945678 0.00384384 -0.0034891 0.00849851 -0.002312 0.000894183 0.00787075 0.00496732 0.00585692 0.00729869 0.000862183 0.00801121 0.00380402 0.00290804 -0.0013354 0.00408219 -0.0134339 -0.00123146 0.000554659 -0.00233837 -0.000600279 -0.0137989 -0.00572223 -0.00195153 -0.00528476 -0.00180241 0.00598352 0.00149961 0.00702777 0.00919537 -0.00494288 -2.0928e-05 -0.00106202 -0.00219809 -0.0110993 -0.0022698 -0.00511275 -0.00592776 -0.00571879 0.0030832 0.00159727 0.00117461 -5.12296e-05 0.00207219 0.00331159 -0.000124469 -0.000108439 -0.00314164 0.000592208 -0.00877594 -0.010639 -0.00711962 -0.00515004 -0.00901949 -0.00132455 -0.00528779 0.000569822 -0.00437438 -0.00956488 0.00556287 0.000648325 0.00290604 0.00376995 -0.0020378 0.00104806 0.00713559 0.0010228 -0.00105462 0.00280691 0.0029851 0.000834813 -0.00493353 -0.0102917 -0.0160954 -0.00738956 -0.00751129 -0.0120157 -0.00199273 -0.0034729 0.00996565 0.0094292 0.00100073 0.00506146 0.00982231 0.00561998 0.00411281 0.00734419 0.00671322 0.00368248 -0.000545069 -0.00705276 -0.0116013 0.00159928 0.00697322 0.00551378 0.00258378 -0.000704983 0.003233 0.0038968 0.00296827 0.000924349 0.00145948 -0.00339896 -0.00364905 0.00263396 -0.00434557 0.00329269 0.00299315 -0.00673773 -0.00397484 -0.00056009 0.00284196 0.00891807 0.00694029 0.0088422 0.00597293 0.00588411 0.00312598 -0.00304079 -0.0084348 -0.00193246 0.00369097 -0.00155164 0.00222173 -0.0013027 0.0022169 -8.98028e-05 0.000848231 -0.00195661 -0.00993425 -0.00133857 0.00218103 0.00145282 -0.00978955 -0.00572488 -0.00848429 -0.00748252 -0.00229819 -0.00486232 -0.00118001 -0.00222259 -0.00093342 0.00837038 0.00112103 0.00457104 0.00399289 -0.00266819 -0.00389518 -0.00240881 0.00393892 0.0041685 0.00915907 -0.00158741 -0.00656085 0.000407561 0.0010644 0.00165294 -0.0107192 -0.00979313 -0.00899643 -0.00575588 -0.0132174 -0.00750866 0.000823517 0.000486798 -0.00470345 0.00658541 -0.00212167 -0.00117378 -0.00875622 -0.000148472 0.00338316 -0.00924608 -0.0056226 -0.00826993 -0.0108584 0.00534554 0.00314556 0.00715202 0.0107933 0.00434992 0.00621198 0.0112877 0.00474115 0.00360745 0.00260042 -0.000523362 5.53869e-05 0.000449098 -0.00209631 -0.0085694 -0.00760214 -0.00467116 -0.010952 -0.00988295 -0.000127701 0.0138811 0.0126389 0.00182998 0.00437969 0.000447382 0.00360743 -0.000549953 0.00265429 -0.00406767 -0.00426441 -0.00811031 -0.0070455 -0.00858605 -0.00624533 0.00240611 0.00516441 0.00695864 0.00307171 0.000829453 -0.00332185 0.00232262 0.00524281 0.00273524 -0.00418175 -0.0165725 -0.00787173 -0.00176906 -0.0021603 -0.00444719 -0.00147986 -0.000702879 -0.00677531 -0.00361633 -0.000228181 0.0137336 0.00674405 0.00627501 0.000770916 0.00972076 0.0054373 -0.00390949 -0.00310932 0.000544439 -0.000674501 -0.00982633 -0.00733301 -0.0140629 -0.0122362 -0.00816821 -0.00377244 -0.0102688 0.00240075 -0.00463438 0.00418023 0.0112173 0.000692859 -0.00684303 0.000468296 0.00282628 -0.00359862 0.00316771 0.000160761 0.000317333 -0.0110557 -0.0114977 -0.0103483 -0.0119687 0.00339642 -0.00347805 0.00246585 0.00515352 0.00422674 -0.0015447 0.00808626 0.00383338 0.00171634 -0.00466015 0.00578605 -0.0031026 -0.0048346 0.00152673 0.000524085 -0.00670429 -0.000341172 0.00473619 -0.000627282 0.0100754 0.00878571 -0.0013552 0.00298641 0.00900109 0.00374137 0.00535322 0.00258128 -0.00848664 0.000834307 -0.00313704 0.00124132 0.00991367 0.00325324 -0.00402991 -0.00966697 -0.00960859 7.72946e-05 0.00136512 -0.000636325 -0.00859375 -0.00772611 -0.00646572 -0.014563 -0.00972114 -0.00543873 0.00283571 0.00565413 0.00120459 0.0034978 0.0088635 0.00302812 0.00329114 0.00248015 -0.00037917 -0.00813136 -0.00610098 -0.00655419 -0.00226355 0.00406985 -0.00755519 -0.00849082 -0.0124624 -0.000896815 -0.0053972 -0.00534666 -0.0008787 -0.00695605 -0.00835972 -0.00687391 -0.0029558 -0.00573687 -0.00284543 -0.000920108 0.00525912 0.000973333 -0.00758719 -0.00933954 -0.00821092 -0.00644491 -0.00677078 -0.0141781 -0.0165861 -0.0182239 -0.00872828 0.00188294 -0.00235774 0.00244388 0.00605852 -0.00109785 -0.00201422 -0.000836923 0.000116043 0.00710737 0.00945672 0.00022312 0.000116192 -0.002834 -0.006758 -0.00197566 -0.00831984 -0.012147 -0.00981766 0.00455501 0.0106081 0.00900859 0.0081774 0.00367489 -0.00107565 0.00473671 0.00309193 0.00397771 -0.00221715 0.000953445 -0.0070921 -0.00481712 -0.00168348 -0.00544591 -0.000674489 0.00647261 0.00809173 0.00779813 0.00104193 -0.00438892 0.00125218 0.00162307 0.00397805 -0.00835094 -0.00866832 -0.00253229 -0.00615361 -0.0029074 -0.00167932 -0.000492375 0.00223481 -0.00346628 -0.00317548 0.000814312 0.0125559 0.00703924 0.00103522 0.000242436 0.00521459 0.00287429 0.00225456 -0.00493332 -0.00648677 -0.00793266 -0.0100781 -0.000399252 -0.00716876 -0.00880928 -0.00484535 0.00133321 -0.00385242 0.00231069 -0.0036843 -0.00229251 0.00720686 -0.00796258 0.000908089 0.000689442 0.0120067 0.00247737 0.00679734 0.000163658 -0.00154687 -0.00118518 -0.00535078 0.0017754 -0.00349118 0.00567783 -0.000295882 -0.000119825 0.00817844 0.00663192 0.0100376 -0.00158334 -0.00377487 0.00607258 0.00646711 0.00460434 0.0073535 -0.00557476 0.00189997 -0.00449022 -0.00103601 -0.00470075 0.00353313 0.0015996 0.00647712 0.00966882 0.00132695 0.00675574 0.00639932 0.00367453 -0.00155293 -2.82858e-05 0.00562811 0.00751358 0.00803771 0.0108604 0.0103238 0.00386406 0.00324015 0.00257661 -0.00299662 0.000355555 0.00202813 0.00612792 -0.00459486 -0.00121283 -0.00186762 -0.0121013 -0.011072 -0.000983015 0.00690592 -3.42814e-05 -0.00502451 -0.00318838 0.00937718 0.00471209 0.00786767 0.00153304 -0.00654449 -0.00773638 -0.0115563 -0.00645986 -0.0109111 -0.00488926 -0.00846681 -0.010535 -0.00589044 -0.0166153 -0.00869761 -0.00457889 -0.0014604 -0.000371272 -0.010043 -0.0024074 -0.000161288 -0.00295314 0.0025177 0.0046828 0.00173382 -0.00910481 -0.0125492 -0.00841708 -0.00370786 0.00579124 -0.00186327 -0.00568061 0.00195296 -0.00371399 0.00423798 -0.00246384 0.00544721 0.000946692 -0.00249988 -0.00237463 0.00260036 -0.00531893 -0.00575318 0.00288361 0.0011013 0.00338095 0.000919726 -0.00823075 -0.0100895 0.00184029 -0.00951626 -0.0128927 -0.00482812 0.000934105 0.00375222 0.00881631 -0.00190563 0.00137757 0.000616444 0.00588278 -0.00115938 0.00257171 -0.00181697 -0.000700905 -0.00354362 -0.00170958 -0.00598523 -0.00869189 -0.00311396 -0.00518491 0.00472555 0.00835028 0.00114281 0.00201154 0.000842501 -0.000439761 0.00336667 -0.00998087 -0.00896373 -0.000667741 -0.00317667 -0.00152251 -0.00130127 -0.00129914 -0.00360892 -0.00234505 0.00222275 -3.82501e-05 0.00346991 0.00384081 0.00786852 0.00402333 0.0122322 0.0108228 0.00012689 -0.00274223 -0.00607398 -0.00418594 -0.00148842 0.0011675 -0.00339646 -0.00593696 -0.000329895 0.00122522 -0.00454424 0.00274586 0.00584467 0.00211452 0.00937749 0.00913042 0.00251163 0.00888809 0.0123717 0.0110355 0.00206932 0.00575918 -0.00411046 0.00332962 -8.70363e-05 -0.00209175 0.00354252 0.00472736 0.0160549 0.000574553 0.00498118 0.00724273 0.00894616 0.0101647 0.00631126 0.00825519 0.00450074 0.00195074 -0.00466444 -0.00243608 0.00100605 -0.007681 -0.000679798 -0.00919235 -0.00989842 -0.00468664 0.00343309 0.0113054 0.00696037 0.00938471 0.0078577 0.0106658 -0.000575464 0.0043379 0.0043238 0.0120198 0.0126533 0.00850622 0.001733 -0.00206594 0.00315861 0.00172443 -0.00330905 0.00743961 0.00452611 0.00127613 0.00650088 -0.00418713 0.00026972 -0.00839169 -0.00776435 -0.00569922 -0.000130881 -0.0018289 0.000376149 -0.00645956 0.00207025 0.00567336 0.0045318 -0.00172286 -0.00464412 -0.00625646 -0.00476565 -0.000889779 -0.00444515 -0.00894255 -0.0107477 0.00160611 0.00322771 -0.00500202 -0.00442133 -0.00280373 -0.00432708 -0.00423664 -0.00274299 -0.00263787 0.00575823 0.00635628 0.00504391 0.00326729 0.0055302 -0.00743505 -0.0129354 -0.00404724 0.00143326 0.00143375 -0.00652541 -0.00467197 -0.00147657 -0.00697332 0.000350848 0.00172726 0.00405659 -0.000895504 0.00452517 0.00249547 0.00153513 0.000644833 0.00129372 0.00515074 -0.00646551 0.00253566 0.00789483 -0.000397906 -0.000644052 -0.00212711 -0.00268726 -0.00172138 -0.00421571 0.00964289 0.00491375 0.00381858 0.00669239 0.00830714 -0.00108366 -0.00193265 -0.00331597 -0.000423698 0.00204101 0.00244557 -0.000518912 -0.00317366 0.00245216 -0.00221259 0.00440719 0.00213858 0.00565779 0.0116355 0.00390638 0.00805897 0.00289165 0.00549417 0.0063496 -0.000633652 -0.00620159 0.00511787 0.00629216 0.00241036 0.00499365 -0.00181722 -0.00662461 0.00112387 0.0048008 0.00636952 0.00663595 0.00294043 0.00333447 0.000699099 0.0107183 0.00276239 0.00600042 0.0023246 -0.00934861 -0.00724048 -0.00640357 -0.00456371 -0.00344541 -0.00221097 0.0091047 -0.000810727 -0.00386663 0.00548702 -0.00189114 0.00617266 0.000172762 0.00293933 0.00177942 0.0177389 0.0101911 0.0120103 0.00582274 0.00927738 0.00608001 0.00381781 0.00457712 0.00947036 0.00480951 0.00517329 0.0047347 -0.000916916 0.0124318 -0.000132529 0.00560447 0.00837136 0.00980215 0.00220051 0.00179742 0.00598752 -0.00424148 -0.00348803 0.00133231 -0.00477341 -0.0100328 -0.00811574 -0.00995155 -0.00559956 -0.00447336 0.0135289 0.00260506 0.00284659 0.00660425 0.00500784 -0.00372197 0.00255453 0.0120738 0.0107189 0.00972278 0.00168259 0.00574772 0.00299383 -0.000431097 -0.00175512 -0.00529993 -0.00198668 1.22522e-05 0.00323109 -0.00368867 0.00661983 0.00924762 0.00323588 -0.00226209 -0.00300467 -0.0077919 -0.00808518 -0.0154397 -0.0088368 -0.00396421 0.00731831 0.00462391 0.00660665 -0.00245475 -0.00159933 0.00636544 -0.00158073 0.00286133 -0.00586194 -0.00086509 0.000861354 0.00963815 0.00511428 0.00302814 0.00465049 0.00092803 0.000752329 0.00878179 0.00472725 0.0077846 0.00258916 0.00101124 0.00965739 9.13065e-05 -0.0166819 -0.012421 -0.000303283 0.00301253 -0.00484148 -0.00581251 -0.00533487 -0.00959305 -0.0101932 0.00294412 0.00687095 0.00800916 0.00471707 0.00448918 -0.000439982 -0.0063724 0.00440005 0.0157651 0.0031539 -0.00221107 0.00258051 0.00810032 -0.00363787 0.00358044 0.00495616 -0.00137581 -0.00158599 0.0060402 0.00780145 0.00503471 0.0066408 0.00307651 0.00341699 -0.00422096 -0.00112285 0.00113093 0.00638008 0.00108047 0.0101535 0.00232096 0.00223792 0.000973093 0.000842107 5.92305e-05 0.00487183 -0.0031126 0.00553832 0.0054645 0.000615659 0.0055853 0.00167171 0.00507133 0.00152027 -0.00033345 0.00777382 0.00348495 0.00291543 0.000276165 0.00521647 -0.00120008 0.00609824 0.000294646 0.00608722 0.00231425 0.0132605 0.000829142 -0.00168409 -0.0010884 -0.00252461 -0.0011515 0.0032821 -0.00630747 -0.00963615 -0.00709755 -0.0113261 -0.00472259 -0.0015156 0.00891168 0.0121324 -0.00116019 0.00418351 0.00623519 0.000290853 -0.00892295 -0.010444 -0.0140954 0.00487837 0.00732566 -0.00024923 -0.00849408 -0.00163287 -0.00253504 -0.000181354 0.00698704 0.00631131 0.00455477 0.00430619 0.00950875 0.00763004 0.000868693 0.00420386 0.00223148 -0.0039697 -0.00128523 0.0013872 0.00690061 0.00568594 -0.000339821 0.00217915 0.00476958 -0.00139438 -0.00732331 -0.0127641 -0.0101585 -0.00662933 -0.000671711 0.019509 0.00593963 0.00137401 0.00608254 0.00415286 -0.00514673 0.00642501 0.011476 0.00689289 0.0104647 0.0033499 -0.000845815 -0.00483473 -0.00360109 0.00401599 0.00475518 0.00137999 0.00421128 0.00867999 0.00578752 0.0116054 0.0152323 0.011242 0.00234402 0.000620056 0.00564787 0.00491197 0.00354588 -1.58393e-05 -0.000396592 6.52653e-05 0.00480521 0.000206436 -0.000522974 -0.00618452 -0.000116104 0.00326025 0.00126839 0.00171611 -0.000604919 0.00487316 0.000436217 0.00471635 0.00904173 0.00140201 -0.0007037 0.00355622 0.00432696 0.0143198 0.00872847 0.0100795 0.00387115 0.00727252 0.00112266 -0.0046401 0.000218964 0.000520539 0.0044818 0.00225416 -0.000392678 -0.00295026 -0.00194636 0.000909442 -0.00492803 0.00104159 0.00325544 0.00449064 -0.00340096 0.0012639 0.00118065 -0.00156222 0.00660333 -0.000291681 0.00409134 -0.0025395 -0.00528039 -0.0110302 -0.00168827 -0.00297379 -0.00115908 0.0011779 0.00459181 0.00808843 0.00120584 0.00312247 0.00978447 0.00667563 0.00268787 0.0010753 -0.00128178 0.00196787 -0.00311676 0.0035851 0.00211239 -0.00112413 0.00317907 0.0060029 0.00483359 0.00341658 0.00146746 0.000957028 0.00726793 0.00387785 0.00794365 -0.00182175 -0.00251561 -0.00105114 0.000324617 0.00546343 -0.000524462 0.00286321 0.00246621 0.00484931 -0.00112146 0.00251997 0.00485773 0.00371249 -0.000533467 0.00575322 0.00515883 -0.00185608 0.00509258 -0.00225902 -0.00243933 -0.000188356 0.0010088 0.00436555 0.00208945 -0.000578479 -0.00237812 0.00712262 0.0023836 0.0121911 -0.00448597 0.00529859 -0.000187754 -0.00557531 -0.00748543 -0.00775812 -0.00887438 -0.00672343 0.00863349 -0.000104297 -0.00409311 0.00601345 0.00744825 0.00941842 0.00662746 0.00459156 0.000822001 0.0136493 0.00815205 0.00250646 0.00889551 0.00686136 -0.00082066 -0.00487878 -0.00447251 -0.00432687 0.00126838 0.00287771 -0.00347992 0.00105278 0.00871985 0.00389921 -0.00118145 -0.00929152 -0.00782422 -0.00752908 0.00154321 0.000742841 0.00403199 0.00418713 -0.000690481 -0.000587099 -0.00345764 0.00579857 0.00138621 0.0051752 0.00237246 0.0042162 0.00298832 -0.00235621 -0.000935484 0.00198357 0.00408947 0.0117786 -0.000332788 0.0066104 0.00207428 0.00647555 0.0162591 0.0141301 0.00128723 0.000656385 0.0031512 0.0101499 0.00269275 0.00323104 0.0119576 0.00525182 0.00589064 0.00755027 0.00102663 -0.000628298 0.00318377 0.00849962 0.00180506 0.0020492 0.00553883 0.00139634 0.00257615 0.00598119 0.00555843 0.000423277 0.00393781 0.00504146 0.00864196 0.00719986 0.00756436 0.00573435 -0.00337038 0.00115326 0.00169715 0.00329266 0.00665838 0.00266855 0.0093633 0.00897895 0.00470551 0.000774435 0.00144328 0.00157279 -0.00258424 0.00701165 0.000251604 0.0055261 0.0043042 0.00113239 6.15498e-05 0.00209984 0.00357685 -0.000393035 -0.000200261 0.00301848 0.00415623 -0.00400335 -0.00796773 -0.00055999 -0.00278325 -0.00475952 0.0043651 0.0112853 0.00199251 -0.000966743 0.00365979 0.00857381 0.00200733 0.00172167 -0.00148207 0.0095585 -0.00106485 0.00772966 0.00668984 -0.00253941 0.00593221 -0.000901826 0.00214738 0.00360076 0.00645432 0.0107077 0.00743611 -0.00471982 -0.00142854 0.00444759 -0.00112056 -0.00120788 0.00544674 0.00396426 -0.00190418 8.82934e-06 0.00468236 0.00442504 -0.000794367 -0.00110351 0.0051307 0.00808764 -0.00202415 0.00672708 0.00906547 0.0111762 0.00559175 0.00286342 -0.00277497 -0.00438264 -0.0032119 -0.00340064 0.000584037 0.00309918 0.00381094 0.00135516 0.00365911 0.00423294 -0.0120333 -0.00122071 0.0018224 -0.00312855 -0.00548493 -0.00740619 -0.00951115 -0.00399943 0.00343368 -0.000689317 -0.0065731 -0.00161095 0.000660832 0.00151685 0.00410689 0.00134878 0.000468881 -0.000376846 0.0119492 0.00133575 0.00245596 -0.00126172 -0.0031883 -0.00836171 -0.00890646 -0.00833591 0.00108893 -0.000265182 -0.00556427 0.0048065 0.00466298 0.00205047 -0.0119508 -0.0061361 -0.00502002 -0.0129871 -0.00992651 -0.00359454 -0.0016379 0.00574084 -0.00542197 -0.00786459 -0.000993465 0.0027317 -4.90203e-06 -0.00305571 -0.00141602 -0.00289284 5.31195e-05 0.00204042 -0.00220191 -0.00392689 -0.00205086 0.00324352 -0.000373702 0.00967145 0.00622175 0.0119972 0.0113957 0.00404612 0.00566688 -0.00207284 0.00267632 0.00930827 0.00798217 -0.00227538 -0.000378099 0.00696606 0.00683619 0.0114262 0.00337081 0.00140953 0.00149406 0.00444184 -0.000542762 0.000190374 0.00310314 -0.00184476 -0.00427232 0.000234618 -0.00103436 -0.00029625 -0.00206274 0.00153797 -0.00289734 -0.00164959 0.00316699 -0.000440403 0.00130608 0.000590694 -0.00090129 0.00127073 0.000218042 -0.000504312 0.00628428 0.00856637 0.0103619 0.0112467 0.00536704 0.00480683 -0.00122475 0.00167164 -0.00101305 0.00079602 -0.00160886 -0.00202383 0.00216134 -0.000482834 -0.00351508 -0.00296818 -0.00616472 -0.00140614 0.00793554 -0.00132196 -0.00401637 -0.00140738 -0.00314144 -0.00224457 2.74167e-05 0.00350137 0.000603477 0.00274193 -0.001686 -0.00363367 -0.000759017 0.0030567 -0.00412561 0.00417317 -0.00131169 0.00125671 0.00410816 0.0104569 0.00518761 0.000961234 0.000587983 0.00290807 -0.00223349 0.0159986 0.000230029 0.000192789 0.000907895 -0.000289538 -0.000874339 0.000200558 0.00288609 0.00236645 0.00352795 0.00155483 0.0052334 0.00697356 0.00234009 0.00243496 0.00113109 0.000857351 0.00037918 0.0071916 0.00855448 -0.00508349 0.00392 0.00509602 -0.000649493 0.00232005 0.00213984 -0.00576734 -0.00145068 0.00292393 8.84512e-05 0.00207806 0.00648809 0.00282514 -0.00454204 -0.0107378 -0.0013456 -0.00735964 -0.00954421 -0.00677714 -0.0110335 -0.00391114 0.00120064 0.00451265 -0.00121857 0.00539785 0.00633419 0.00364133 0.00782936 0.00485736 0.0103525 0.00805206 0.00341728 0.00140404 0.000275305 0.00239873 -0.0044169 -0.00326703 -0.012993 -0.00627776 -0.00028286 -0.00100598 -0.00348219 0.00612422 -0.00212358 -0.00445681 -0.00927656 -0.00999146 -0.00575074 -0.0128389 -0.0122721 -0.00576465 0.00541111 0.00188867 -0.000578945 0.00161917 0.0027361 0.00307747 0.00293586 -0.00198852 0.00239452 0.00455536 0.00503866 -0.00277724 -0.00248816 -0.00436673 0.00186556 0.0068807 0.0115006 0.0118012 0.00719442 0.00926258 0.0104171 -0.00167872 -0.0083609 -0.000807092 0.00198002 -0.000407691 0.0037242 -0.00649807 -0.00267046 -0.00243908 0.00243361 0.00341991 0.00473444 0.00392436 0.00461785 -0.00473636 -0.00639584 -0.0105362 0.00326431 -0.00221923 -0.00912025 -0.0117836 -0.00486124 -0.000708843 -0.00337145 0.00210638 0.00200236 -0.00367323 0.00288862 -6.57425e-05 -0.00735508 -0.0054142 -0.00191935 -0.00308691 0.00106342 0.00572878 0.0118197 0.00789754 0.00538021 0.0113626 0.00870798 0.00499854 -0.00477125 0.00160443 0.0021624 0.000671302 -0.00772333 -0.000808197 0.00427167 0.00544676 0.00175864 -0.00542778 -0.00554241 -0.00417682 0.000499233 -0.0110983 -0.00543067 -0.00500661 0.000992806 0.00335259 -0.00350628 -0.00183026 0.00595369 0.0020633 0.003266 0.00147889 0.00284239 0.00613896 -0.00483274 -0.00163515 0.000321267 0.00274706 0.00711983 0.00125063 0.0101368 0.00314543 0.00337357 0.00691241 0.00325415 0.0101045 -0.00274546 0.00247074 0.00517444 0.00154855 0.000678269 -0.000830657 -0.00344239 -0.00163317 -0.00361112 -0.00200414 -0.00148991 0.00239783 0.000843279 0.00517626 0.000937347 0.000138953 -0.00251769 0.00101715 0.00264053 -0.00191406 -0.0027755 -0.00316183 -0.00359179 -0.00381831 -0.00633678 -0.00709695 0.00199088 0.00216365 0.00458837 -7.4893e-05 -0.00283786 0.00147177 -0.00401468 -0.00881733 -0.00252553 -0.00388189 -0.0091985 -0.00223642 -0.00893777 0.00168696 0.0107456 0.00999422 0.00481729 0.00340968 0.00483696 0.00217395 0.00610834 0.0129553 0.0123327 0.00661383 0.00122245 -0.00315256 0.00351634 0.00142422 -0.00278448 -0.00349871 -0.00297138 -0.00621376 -0.00491178 0.0018605 0.000292583 0.00416599 -0.00716518 -0.00812703 -0.00581758 -0.00831124 -0.0118565 -0.00374643 0.000273472 0.00567519 0.00172276 -0.00314165 -0.00345025 0.000440131 0.00230243 0.00250769 -0.000494404 -0.000427623 0.00387053 0.0067768 0.0062894 0.00271307 0.00156485 -0.0072799 -0.00537854 0.00628325 0.0109822 0.00184442 0.00170493 0.00482407 0.00185677 0.00618787 -0.00385615 0.0086588 0.0062033 0.00244747 0.00277059 0.00153673 0.00241885 0.00155843 0.000980033 0.00417814 5.00326e-05 0.000867643 -0.00501378 -0.00323643 -0.000827916 0.000373068 -0.00217455 0.000129052 -0.00364921 -0.0042454 -0.00318558 -0.00438445 -0.0034167 -0.00423706 -0.000110785 -0.000104155 -0.00248182 -0.00665222 -0.0072859 -0.00400191 -0.00133336 -0.00456722 -0.00281259 0.000849809 0.00752104 0.00833626 0.0118811 0.0149642 0.00743665 0.00623808 -0.000366948 0.00566815 0.00461611 0.00129293 -0.00584844 -0.00356087 0.00135387 0.000198339 -0.00487559 -0.00452897 -0.00509398 -8.01274e-05 -0.00343278 -0.00714981 -0.0114562 -0.00575901 0.00278153 0.00231917 0.00755486 -0.00267175 0.000912615 0.000911916 0.00338363 -0.000728054 0.000245203 0.00293502 -0.00235239 -0.000972112 -0.0046861 0.00093695 0.0058748 0.00766155 0.00586948 0.00426222 0.0078032 -0.000598796 0.00417313 -9.8962e-05 -0.00257764 -0.00396927 -0.00724484 -0.00933669 0.000737235 -0.00380254 -0.000472928 0.00273622 -0.00222898 -0.00584326 0.00380485 0.0025058 -0.00166308 0.00555227 -0.00198388 0.00286121 0.00329638 -0.000126437 -0.00283598 -0.00270719 0.00110543 0.00357413 -0.000109796 -0.00341108 -0.00231745 -0.00498608 0.00623373 0.00651036 0.000491259 -0.0015005 0.0028158 0.000850683 -0.00489102 -0.0124073 -0.00217563 0.00131376 -0.0027327 0.00697754 0.00520142 0.00694698 0.00650633 0.0110875 0.00782587 0.00751727 0.0036455 0.000639815 0.00676784 0.0139418 0.0088604 0.00423705 0.00145567 0.00271327 0.00487244 0.00128595 0.00505607 0.00374811 0.00103823 -0.00299345 -0.00534255 -0.0019383 -0.00563149 -0.00175165 -0.00921231 -0.00738417 -0.00301194 -0.00779469 -0.00560352 -0.00143935 -0.00151627 -0.00697729 -0.00155712 -0.00197617 -0.00346182 -0.000116157 0.00154625 -0.00166702 -0.00426782 -0.00443255 0.00243016 0.00548491 -3.37775e-05 0.00250633 -0.00209701 0.000816299 -0.000654986 0.00720163 0.00734769 0.00933748 0.00272009 -0.00318697 8.9377e-06 0.00558001 0.00392913 0.00137471 -0.00320963 -0.00050964 0.00338067 -7.36357e-05 0.00403618 0.0029705 -0.000541227 0.00675396 0.00423699 0.00226764 0.00329049 0.00429993 0.00328166 0.00338433 0.00652776 -0.000423346 -0.00128186 -0.00379503 0.00618153 0.00227126 -0.00466875 -0.00284069 0.0104142 5.48386e-05 0.00259421 0.00209566 0.000880042 0.00136798 -0.00189814 0.00659453 0.00434029 0.00375569 0.00759398 0.00560927 0.0127262 0.0106697 0.00107318 0.00148571 -0.00501064 -0.00671385 -0.00235569 0.00588788 0.00268242 0.00436488 0.00364353 2.47206e-05 0.00172577 -0.00410474 -0.00485466 -0.00903796 -0.00193331 -0.00820044 -0.010439 0.000925612 -0.00181687 -0.00102468 0.0022081 0.000247492 0.000787564 0.00327532 0.00336363 0.000428757 0.0030097 0.000674647 -0.00300628 -0.0019452 -0.00242607 -0.000673558 -0.00237372 0.0053285 0.00520863 -0.00446967 0.00129826 -0.00261237 -0.00472841 -0.00426887 -0.0054939 -0.00732092 -0.00644972 -0.0084213 -0.00214692 -0.00620355 -0.00831894 -0.00648858 -0.00871088 -0.00373703 -0.00370652 -0.00619563 -0.00312209 0.00113664 0.0017811 -0.000996295 0.00077608 0.00334336 -0.00177279 0.000259807 -0.00219429 6.08413e-05 -0.00351498 -0.00324176 -0.00513223 0.000210891 0.00356117 -0.00377552 -0.00270969 0.00223987 -0.00113603 0.00379387 -0.000287023 -0.000692675 0.0030576 0.00470118 0.00158307 0.00374597 0.0043524 0.0029421 0.00877461 0.00401982 0.00358845 0.00221806 0.00579772 0.000618892 0.0048428 0.00349356 0.00165465 0.00481218 -0.00355231 0.00381627 0.00641068 0.00186078 -0.00108548 0.00468275 -0.00405237 0.000112041 0.00478239 -0.00328656 -0.00291339 -0.000382552 0.00121868 -0.00729452 -0.00168132 -0.00139132 0.00221631 0.00537011 0.00136756 0.00187225 -0.00561201 -0.00468768 -0.00656531 -0.000148859 -0.00122238 0.000447214 -0.00415756 -0.000267266 0.000403939 0.00399482 0.00197991 0.0012627 0.00126417 -0.00530877 -0.00655176 0.000627053 0.00350704 0.000827006 -0.00120203 0.00389818 0.000423124 -0.000556863 -0.00220723 -0.00514909 -0.00521543 -7.60095e-06 -0.00293954 -0.00291858 0.000516714 0.00282118 -0.00571311 0.00762309 0.00861024 0.00786606 0.00947894 0.00875961 0.000143356 -0.00234981 0.00570449 0.00425459 -0.00140415 -0.000789998 -0.00522593 0.000718541 -0.00391747 -0.00776803 0.00130926 0.00651844 0.00594555 0.00492253 6.18094e-05 -0.00301343 -0.000145653 0.00272872 -0.00245755 0.00306371 0.00337365 0.00533918 -0.00208914 0.00371494 0.0082275 0.000117064 0.00498904 0.00921013 -0.00227647 0.0100189 0.00316618 0.00589426 0.00201773 4.18444e-05 0.0021011 0.00127696 -0.00546198 -0.00159235 -0.006177 -0.00531956 -0.00465684 -0.000796122 -0.0034407 -0.00030455 0.000689051 -0.00207362 0.0048573 0.00445766 0.0102483 0.0108989 0.00636597 0.00879676 -0.000274083 -0.00207141 0.00204507 -0.00789704 -0.00452058 0.000958933 -0.00104623 0.00291307 0.00609818 0.00401317 0.00226118 -0.00826665 -0.00895487 -0.00748462 -0.00259364 -0.00237461 -0.00592553 -0.0042071 -0.00277733 -0.010006 -0.00568211 -0.00640675 -0.00588169 -0.00581137 -0.000996393 0.00446379 -0.00197845 0.00100996 0.000200305 3.10578e-05 -0.0107879 -0.00182844 0.00319816 0.000750969 -0.00621003 -0.00822123 -0.0107301 -0.00574798 2.27255e-05 0.000221491 0.00187909 -0.00220892 -0.00139752 0.00601333 -0.00942857 -0.00484506 0.00227704 0.00105994 0.00686728 0.00941802 0.00233662 0.00348245 0.00408878 0.00611883 0.00439024 0.00382685 0.0030927 0.00875347 0.00927775 0.00245232 -0.00879708 -0.00318618 -0.000249069 -0.00188931 0.00551535 0.00435906 -0.00204026 -0.00158587 -0.00573395 -0.00781361 -0.00662714 0.000950086 -0.00264184 0.00141487 0.00331577 -0.00357206 -0.00650028 -0.0105964 0.000554631 0.00582898 0.00974178 0.00872165 0.00971778 -0.00450232 -0.0120204 -0.00677313 -0.00376448 -0.000441591 -0.00491902 0.00055037 0.00378056 -0.000649196 0.00218306 -0.0012016 -0.00191372 -0.00424374 -0.00920017 -0.00167555 0.00297895 0.00171902 0.00967904 0.0104512 0.00799692 0.000404329 -0.00277562 0.00240497 -0.00711142 -0.0124884 -0.0142397 -0.000265245 -0.0017964 0.0013008 0.000489412 0.00913247 -0.000747754 0.00547216 0.00954217 0.00414854 -0.00780651 -0.00842155 -0.0048116 0.00580113 0.00395459 -0.00191218 -0.000642308 -0.00271406 -0.00553279 -0.00984891 -0.0130214 -0.00470751 -0.00276774 -0.00584988 -0.00506156 -0.00612153 -0.00415337 0.00012131 -0.00448091 0.0050856 -0.00447983 -0.0021856 -0.00370771 -0.00240541 0.000728853 0.00582929 0.00694788 0.00105732 -0.00198864 -0.0020779 -0.00143439 0.00138907 0.00670163 0.000263304 -0.00182082 -0.00288316 0.00103799 -0.001757 -0.000652234 -0.00668108 -0.00683108 -0.0018113 -0.00893728 -0.0106015 -0.00417219 -0.00565536 0.00262098 0.000372494 -0.0017285 -0.00198224 0.00354031 -0.000445501 -0.00200339 -0.00959797 -0.00974655 -0.00466829 -0.0024683 0.000721074 -0.00106613 0.0003816 -0.000841773 0.0028942 -0.00150206 -0.00232782 -0.00282563 -0.00362405 0.00206877 -0.00180924 -0.000272897 -0.00232852 0.00067237 -0.00568605 -0.00824718 -0.00373004 -0.0032702 -0.00532137 -0.00188944 0.00137188 -0.00044516 0.0038464 0.000766418 0.000354997 -0.00637042 -0.00869887 -0.0014541 -0.00222929 -0.000340329 -0.00178407 -0.00648709 0.00270939 0.00271958 0.00470338 -0.000304186 0.000981587 0.00718894 0.00719296 0.00225289 -0.00184001 0.00286438 0.00207637 0.000685962 0.00623243 -0.00294435 0.00551134 0.00614757 0.00309742 -0.0049471 -0.00235426 -0.000828276 0.00379436 0.00438575 -0.00284593 -0.00303645 0.00281655 -0.00167684 -0.00671141 -0.00590395 0.00739754 -0.00609211 0.00118068 0.00131039 0.000610194 -0.00328356 -0.00209251 0.00407699 0.000278339 0.000464335 0.00142975 -0.00388493 0.00341499 0.00567011 0.0115089 0.00500328 -0.00669954 0.00126689 0.00021638 -0.00851557 -0.012609 -0.00357876 0.0101046 0.00494955 0.000339116 0.00116821 -0.00100539 0.000856406 -0.00782022 -0.00415744 -0.00367292 -0.000554049 0.00490495 0.00322375 0.00751762 0.00745819 0.00916575 0.00336448 0.00242485 -0.00924047 -0.00736376 -0.00919951 -0.006782 -0.014162 -0.00406663 -0.0014945 0.00180484 -0.00701554 0.00259151 0.00340844 0.00994521 0.00304373 0.0029589 -0.00822787 -0.00724508 -0.00523942 0.00136339 -0.00836449 -0.00535783 -0.00458923 0.00121168 -0.00029255 -0.00607757 -0.002922 -0.00682952 -0.00268464 0.000841775 -0.0112375 -0.0075756 -0.00700664 0.000382672 -0.00649773 -0.00122527 0.00318574 -0.00315314 -0.000859027 -0.00359599 0.00145707 0.00435246 0.00121855 -0.00220869 -0.00509261 -0.00847645 -0.00712736 -0.00359405 -0.00243331 -0.000832934 0.00199979 -0.00246129 -0.00537581 0.000830117 -0.00338659 -0.00747537 -0.00776253 -0.00348173 -0.00545919 0.00535869 0.00454705 -0.00253652 -0.00550357 -0.0036658 0.0032512 -0.00686057 -0.000376023 -0.00540741 -0.00653419 -0.00897045 -0.00464333 -0.000185801 -0.00262931 -0.000185788 0.00334733 0.00411528 0.00225118 0.00263765 0.00110796 -0.00137499 -4.72942e-05 0.00128164 -0.00369356 0.00251427 0.00566711 -0.00137665 0.00229394 0.00126267 0.00534107 -0.0018586 -0.00262089 0.00335626 -0.00336417 0.00142672 0.003828 0.00750988 0.00525345 0.00803422 -0.00303839 -0.0112143 -0.00912859 -0.00391064 -0.00411972 -0.000113623 -0.00209352 -0.000684435 0.00630304 0.00169884 0.00307543 0.00168532 0.0091585 0.00734222 -0.000450272 0.00931709 -0.000463681 0.000803662 -0.00150724 -0.00556986 -0.000280067 -0.00619042 0.000219544 -0.00553908 -0.0127923 -0.0112242 -0.00308365 0.000109436 0.00528413 -0.0041927 -0.00665541 0.0077736 -0.000276308 -0.00384048 -0.00152734 0.00153858 0.00049341 0.00441796 0.0042227 0.0081263 0.00477672 0.00080615 -0.00300857 0.0060492 0.00545139 0.00783883 0.00781005 0.00761355 0.00298752 0.00787846 0.00348385 -0.00254858 -0.00527379 -0.00842698 -0.00235217 -0.00984882 -0.00593373 -0.000781039 0.00048359 0.00572617 -0.000662925 0.00208585 0.00420467 -0.00468323 -0.00287168 -0.00214598 0.00567472 0.00688658 0.00393529 0.000782366 -0.000445931 0.003559 0.00419774 0.00285721 -0.00823416 -0.00458026 -0.0121719 -0.0103872 -0.00930694 -0.000918099 0.00285396 0.00121079 -0.00559228 0.00212945 0.00518527 0.00299375 -0.00016929 0.0143088 0.00619538 -0.00322663 0.00355368 0.00437972 -0.000319462 0.000393859 0.00219393 -0.00153568 0.00387542 -0.00385668 -0.00683958 0.000946681 0.000222058 -0.00432799 -0.00322436 -0.00891746 -0.00232024 -0.00579932 -0.00868714 -0.00355505 -0.00110743 0.00512742 -0.000750863 -0.000960323 0.00116805 -0.000927884 -0.000512265 -0.00715501 -0.0075473 -0.00397178 -0.00224407 -0.00361208 -0.00548485 0.00199423 -0.00623037 -0.000222214 0.00426395 0.00122477 -0.00123488 -0.00481759 -0.000979233 -0.00395187 -0.00279857 0.00384998 -0.000827648 -0.00374895 -0.00746857 0.000870377 0.000528206 -0.00341985 -0.00202827 0.000915929 -0.00307359 0.00399083 -0.00228846 0.00291341 -0.00263914 -0.00844198 -0.00524507 -0.00697894 0.000990204 -0.00280131 -0.000502476 -0.00238029 -0.00191518 -0.00145197 -0.0020415 0.00526598 0.00866048 -0.00173776 0.00325635 -0.00307921 0.00509331 -0.000597871 0.00372823 -0.000466908 -0.000977704 0.000913863 0.00354108 0.00199583 0.00166274 -0.000536146 -0.00415836 -0.00537993 -0.00170508 -0.00490279 -0.00801021 0.00297376 0.00252495 0.00458194 0.00369857 -0.00445283 -0.00112291 0.00180007 0.00936732 0.00395576 0.00469431 0.000117277 -7.87445e-05 -0.00373939 -0.00292404 -0.00729586 -0.00100588 -0.00298213 -0.00315029 -0.0163056 -0.0123811 -0.00984963 -0.00603166 -0.00413896 -0.00440697 -0.00326235 -0.00710614 -0.000695532 0.00867394 0.00391945 0.00717541 0.0109424 -0.0051231 0.00315978 0.00248726 0.0108426 0.00675282 0.00356779 0.000228199 -0.000916835 0.00673955 0.00614481 0.00172649 -0.00138013 -0.00187605 -0.000714213 0.00207889 -0.00764868 -0.00378207 0.00208163 -0.00398419 -0.00316954 0.0027021 0.0086663 0.00796386 0.00516744 0.00896702 0.00126863 0.00193329 -0.00339268 -0.00713444 -0.00222949 -7.37761e-05 -0.000177241 0.00855831 0.00284834 0.000167964 0.000461962 0.00667926 0.00106574 0.00241343 -0.00318094 -0.00302621 -0.00212018 -0.00142276 -0.0014701 -0.00112722 0.000903238 0.00430476 0.00663409 0.000478662 0.00215375 0.0105289 0.00661199 0.00224274 -0.0037851 -0.00226345 -0.00206016 -0.000861459 0.00485443 -0.000462189 0.00777512 0.00290594 -0.00209647 0.00293182 0.00069444 -0.00192523 -0.0057587 0.00297001 -0.000666216 0.000311397 -0.00619462 -0.00761467 -0.00648223 -0.00176775 -0.00269527 0.00426745 -0.00297736 -0.00340811 -0.006841 -0.00689654 -0.00442722 0.00112951 0.000416298 0.00507171 -0.00165557 0.00445224 0.00463641 0.00315049 0.0013423 0.0031644 0.0080606 0.00534363 0.00390803 -0.000824828 -0.000468995 -0.000587352 0.00149761 0.00133149 -0.000888327 -0.00334723 0.00248162 -0.00478881 -0.00738845 0.00258937 -0.00623549 0.00172922 0.00673202 0.0016368 0.00316297 -0.000970912 -0.00977414 -0.00190332 -0.00240887 0.000346386 -0.00307828 -0.00359805 -0.00203509 -0.00424178 -0.00597337 -0.00659018 0.00760434 0.0108585 -0.00578532 0.00613663 0.00165141 -0.000727168 0.00279532 0.000294926 -0.00618589 -0.00406411 0.00272099 0.00656601 0.0073659 0.00538933 0.00384117 -0.00108924 -0.00677836 -0.00275903 -0.00505577 -0.00251742 -0.000452016 0.00144622 0.00463683 0.00372228 -0.0043996 0.0051284 0.0012977 0.0114626 0.0137316 0.0123569 0.00683875 0.00542887 -0.000204299 0.000332906 -0.00577041 -0.000178658 -0.00968 -0.00635538 -0.00964699 -0.00739965 -0.00600672 -0.00151032 -0.0053073 -0.0045049 -0.00147724 0.00107118 0.00331896 0.00373784 0.00293693 0.00731787 -0.00472154 0.00731095 0.00774568 0.00287145 0.00681427 0.0112113 0.00647214 -0.000536503 -0.000133434 0.00365978 0.00596036 0.00201628 -0.00100842 -0.00697277 -0.00404628 -0.0035875 -0.00557136 -0.00497052 -0.00141585 -0.0014671 -0.00792312 0.000263874 0.00208376 0.00376332 -0.00314087 0.00330729 -0.00332955 0.00322303 -0.00749379 -0.00179287 0.00227906 -0.00512415 -0.00226739 -0.00139847 0.00157345 0.00899264 0.00530818 0.00523563 0.00194941 -0.00127684 -0.00731794 -0.0124325 -0.00216183 -0.00133526 -0.00359322 0.00397047 0.000554056 0.000271298 0.00057367 -0.00533021 -0.00172398 0.00672134 0.00259041 -0.00434851 -0.00231861 0.0042896 0.0120189 0.00802167 0.00779685 0.00697451 0.00881843 0.00350393 0.00648679 0.00438053 -0.00318946 -0.00472899 -0.00793847 0.00236775 -0.00820136 -0.00299634 -0.00836181 -0.0151861 -0.0114994 0.00118435 -0.00508247 -0.0102076 -0.00978282 -0.0115812 -0.00840491 -0.0122425 -0.0142858 -0.00247926 -0.00286911 -0.000994038 0.0022014 0.00710607 0.00306024 -0.00646179 0.000147518 -0.000670016 0.00100065 0.00138927 -0.000799473 -0.00293873 0.000960944 -0.000422313 0.00208508 -0.00059946 0.00230184 -0.00268983 -0.000757049 0.00241433 0.000647073 -0.000243357 -0.000938523 0.00703338 0.00376045 0.00106199 0.00197589 -0.000993949 -0.00517302 -0.00558905 0.00211162 -0.00310705 -0.00312852 -0.00884913 -0.00487444 -0.00155628 -0.00180637 -0.00585586 0.00211088 0.00683335 0.00232961 0.00472003 0.000773281 -0.00391001 0.00282316 0.00103952 -0.00690675 0.000123192 -0.00296757 0.00886691 0.00417176 0.0063984 0.00636014 -0.00132609 -0.00133232 0.00138818 -0.000980693 -0.00312527 -0.00473431 0.00407071 0.00533167 0.00529642 0.0028556 0.00130659 0.00134635 0.0104415 0.0145442 0.0113344 0.00267431 0.00897771 0.00492542 0.0100819 0.00513911 -0.00317934 -0.0136055 -0.00341501 -0.000352021 -0.00219087 -0.0059484 -0.00890549 0.000387161 0.00109557 -0.00315577 -0.00333147 -0.00442401 0.00475882 0.00636405 0.0062212 0.0082227 0.00654916 -0.00224657 0.00869844 0.00726641 0.00555882 -0.00431531 -0.00678964 -0.0033626 -0.00405818 0.00212197 0.00119267 -0.0052096 -0.00330831 0.00390835 0.00793558 0.00293882 -0.00324762 -0.000369467 -0.00354108 -0.00127333 0.00203173 0.00595774 0.00224135 0.00311434 -0.00357281 -0.00158251 0.00248602 -0.0039657 -0.000733439 0.00561828 -0.00143993 -0.00941126 -0.00499627 -0.0014061 0.00288816 -0.00503116 -0.000838957 2.96021e-05 -0.00319017 -0.0144363 -0.00508415 0.000753114 0.000180034 0.00451386 -0.00258207 -0.00199148 -0.00173526 0.00942658 0.00204719 -0.00621398 0.00328749 0.00218103 0.00382721 -0.00391539 0.00324943 0.00389484 0.00671865 0.00609019 0.00759688 0.011671 0.0058333 0.00249768 0.00175451 0.00155902 -0.00519502 -0.0128052 -0.00220503 0.000496137 -0.00183311 -0.00754674 -0.012928 -0.00573732 -0.00443327 -0.00449791 -0.0106024 -0.00981581 -0.0108635 -0.00859523 -0.00872446 -0.00777454 -0.00968242 -0.00795041 0.0015186 0.00371052 0.00333617 0.00297218 -0.00101806 -0.00252153 -0.00480128 -0.00310393 -0.0020756 -0.00216729 -0.00608839 0.00655326 0.00507907 0.00381276 -0.000344813 0.00166568 -0.00162084 0.00724928 0.00483841 -0.00545829 0.00227736 0.00369119 0.00226776 0.00413746 -0.00147951 0.00335705 0.000829575 -0.00437482 0.00128096 0.00653761 0.00361967 0.00228396 -0.00312182 0.000343502 0.00197894 -0.00033525 -0.00080994 0.00566716 0.00177663 0.000484613 0.00648279 -0.00332835 -0.0095382 -0.0057539 0.000253949 -0.00183699 -0.00197769 -0.00355264 -0.00483824 0.0061494 0.00210185 0.00608681 -0.0050644 -0.00909287 -0.000259801 0.00452951 -0.00616564 0.00470778 0.00432366 -0.0023328 0.00781551 0.00447036 0.00340284 0.000869294 0.00628091 0.00915568 0.0124687 0.00775128 0.00762795 0.00635972 0.00345235 0.00351025 -0.00136391 -0.00949583 0.000992606 -0.00927298 -0.00437193 -0.00745926 -0.0069465 -0.00613839 -0.00258768 -0.0043113 -0.00669741 -0.0043417 0.00370893 0.00506832 0.00630076 0.0063925 0.00533063 0.0039186 0.0087999 0.0085487 0.00169948 -0.000510743 -0.00267309 -0.00108078 -0.00113331 0.00353786 0.00158564 4.16908e-05 -0.00285228 0.000272637 -0.00847779 0.00291081 -0.000833991 0.00139435 -0.00273946 0.000342626 0.00720993 -0.00033105 0.00111882 0.00450621 0.00127549 -0.000452068 -0.00599466 -0.00596428 -0.00348745 0.00132236 0.00235935 -0.00103349 0.000986408 -0.0069488 -0.0116602 -0.00242874 0.00242413 0.00540278 0.000820589 -0.00637519 -0.000340169 -0.00206875 0.00122766 -0.00652456 -0.00952192 -0.000895848 0.00149972 0.00925669 0.00670387 -0.00107452 0.00569699 0.00442955 0.00315765 -0.00338792 0.000474135 0.00456285 0.00458631 0.00385607 0.0077978 0.013228 0.00650629 0.00879747 0.00299224 -0.00424652 -0.00789393 -0.00691863 -0.00104965 -0.00499111 -0.00266095 -0.00191366 -0.00481173 -0.0023279 -0.00495419 -0.000146332 -0.00191605 -0.00851377 -0.00524795 -0.000635999 -0.00975732 -0.00746099 0.000258364 -0.00451615 -0.0011896 0.00132036 0.00716624 0.00837712 -0.00120785 -0.00298389 -0.0118678 -0.00391717 -0.00278509 -0.00677659 -0.00772157 -0.00217281 -0.00372433 0.00382661 -0.00195212 -0.00663945 -0.00810074 0.00204636 0.00101502 -0.000286245 -0.00349988 0.00638059 0.00225179 -0.00349192 0.00176213 0.00026896 -0.00297277 0.000657705 -0.00403188 -0.0030186 0.00429593 0.00463015 -0.000944293 0.000447569 -0.00147781 -0.00167004 0.00285791 0.0044822 0.00192582 -0.00337138 0.000607694 -0.00701964 -0.00437087 -0.00321262 -0.00229959 -0.00577476 0.000529021 -0.00631648 -0.00179962 -0.000856782 0.00595634 0.00532716 -0.00374398 -0.0109649 -0.00108985 -0.00358619 -0.00738151 -0.00103339 -8.53138e-05 0.000394415 0.00669467 0.00507836 0.00161276 4.90686e-05 0.00186382 0.00852202 0.00616831 0.00310846 0.00744988 0.00812127 0.00400724 0.00184242 -0.00431967 -0.0123345 -0.00820108 0.00398609 -0.00240438 -0.00402586 -0.00451364 -0.00106106 -0.0074739 -0.0122316 -0.00767675 -0.00334958 -0.00431914 0.00319892 0.00725735 0.00881989 0.00166221 0.00594654 0.0061141 0.00876143 0.00690312 0.00152505 0.00645415 -3.25939e-05 -0.00461239 0.00479035 -0.00309777 0.00317616 -0.00320628 -0.00599044 -0.00520731 -0.000458139 -0.00167614 0.00110413 0.00306601 0.000604364 0.00350181 0.00514105 -0.000495318 0.00774617 -0.00141513 -0.00376949 -0.00253499 -0.00334883 -0.000476251 -0.00238727 -0.00337929 0.000817793 -0.00386903 -0.00583414 -0.0108565 -0.0117659 -0.00497435 0.000946391 -0.00157888 -0.00336604 -0.0059522 -0.00669542 0.000395022 0.0014668 -0.00708715 0.0024326 0.00537463 0.00604529 -0.00586778 -0.00660629 -0.00302636 -0.00229494 0.00268016 -0.00111048 0.00314516 0.000167015 -0.00142731 0.00139557 0.00353545 0.0106392 0.0131235 0.00553948 0.00908131 0.00299386 -0.00715068 -0.0100257 -0.00239718 -0.00458679 0.0061147 0.00587205 0.000735476 -0.00175255 0.00038947 0.00212058 0.00443334 0.003478 -0.00387883 -0.00524225 -0.00733903 -0.00272083 -0.00784865 -0.0107664 -0.0076765 0.00241436 0.00238766 -0.00233994 -0.00192917 -0.00109114 -0.00580443 -0.00281985 -0.00307364 -0.00730858 -0.00664215 0.00159531 -0.000521646 -0.00097956 -0.00161287 -0.0042619 0.00477001 0.00225949 -0.00290637 0.00306338 0.00265415 0.00462264 -0.000229238 -0.00160345 0.000181936 -0.00199511 -0.00478366 -3.42545e-05 -0.00368903 -0.00845383 -0.00459567 -0.00102244 0.0039068 0.00456766 0.00294581 0.00395349 -0.00142197 0.00490358 0.00137782 -0.00574666 -0.000669397 -0.00469204 -0.0050696 -0.00376759 0.0017746 -0.0042882 0.000737066 -0.00513375 0.00196896 -0.00144884 0.00231321 0.00459542 0.00143049 -0.00289511 0.00343255 -0.0048211 -0.0109183 -0.00487452 -0.00261395 0.000637146 0.000388602 0.00563186 0.00226914 0.00352844 0.00243351 0.00144728 0.000647024 0.00236009 0.0036408 0.00389927 -0.00639676 0.00065082 -0.00658142 -0.00917623 -0.00856362 0.000566941 0.0027432 0.00036956 0.000127946 0.000471821 -0.00574254 -0.013769 -0.00588628 -0.00315924 0.00325514 0.00600001 0.0125479 0.010459 0.00233055 0.0045007 0.0105044 0.00721766 0.00993252 0.00268164 0.00265156 -0.00574723 -0.00673598 -0.00480395 0.0011026 0.00272899 -0.0071237 -0.00650536 -0.00360278 0.0125292 -0.00433407 -0.00031353 0.00850342 0.00416983 0.00424433 0.0114254 0.00371797 0.00487309 -0.0017494 -0.00980749 -0.0044589 -0.00157889 0.00419686 -0.00550416 0.00144801 0.00595425 0.000451847 -0.00935907 -0.0106921 -0.0113829 -9.28381e-05 -0.00282803 -0.000928631 0.00484546 0.00867975 0.00210004 0.00170843 -0.000745368 -0.0011733 0.0053455 0.00943504 0.000903466 0.000128166 -0.00397823 -0.00879153 -0.0105679 0.00561879 0.00710902 0.00248917 -0.00356897 0.00911975 -0.00190956 0.000351356 0.000108365 0.00407279 0.00105012 0.00935593 0.00941512 -0.00683494 -0.010345 -0.00630881 -0.00271408 0.00269469 -0.00100585 0.00147654 -0.00580408 -0.00221508 0.00598433 0.000464131 -0.00165323 0.00271343 0.00164709 0.00153457 -0.00302943 -0.00453759 -0.00816542 -0.000975449 0.00548406 0.00627924 0.000705888 -0.000431157 -0.00110939 0.00549086 0.00271628 -0.00034959 0.00239667 -0.000701993 0.00373204 -0.00335653 -7.17081e-05 -0.000637213 0.000589698 -3.43119e-05 0.00215378 0.00686782 0.0062547 0.00499319 0.0106381 0.00444479 0.00375957 0.00520446 0.00424965 0.0101539 -0.000522623 -0.00440346 -0.0044833 -0.00901369 0.00674957 0.00553965 -0.00114631 0.0045694 0.00410289 -0.00153052 0.00606243 -0.00136299 -0.00648211 -0.00690344 -0.00216799 -0.00189233 -0.00401254 -0.00693305 -0.00607232 -0.00744754 -0.00537689 0.0037689 -0.0021941 0.00422844 0.0109812 -0.00454679 -0.00603074 -0.00544992 -0.00925364 -0.00914413 -0.00423974 -0.00896673 -0.00392033 -0.00172149 -0.00581674 0.00307795 -0.00313991 -0.00453394 -0.00859226 7.36876e-05 -0.00334652 -0.00442412 -0.0111922 -0.00319238 0.0016337 -0.00172571 -0.00409803 -0.000672272 -0.00189171 0.0049173 -0.000812402 -0.00334887 0.00309312 -0.00460124 -0.00943746 -0.00712878 0.00634051 0.00778401 0.00140624 0.0106045 0.00347714 -0.00112701 0.00191457 0.00299018 0.00883908 0.00824388 0.00477423 0.00573957 -0.00750633 -0.0055923 -0.00363411 0.00428197 0.00806064 -0.0100027 -0.00930477 -0.00123742 0.00412217 0.00276166 0.000534535 0.00340708 0.00708047 -0.00159039 -0.0044137 -0.00039933 -0.0063216 -0.00223691 -0.00641322 -0.000299181 -0.006522 -0.00303389 -0.00533599 -0.010636 -0.00268743 0.00616496 -0.00250722 -0.00310077 0.00111089 0.00347893 0.00509328 0.00475966 0.00420979 0.0119357 0.00143483 -0.00182781 -0.00333135 0.00213461 0.00135152 -0.00339019 -0.00925999 -0.0135195 -2.94368e-05 -0.00195635 0.000416455 0.00693933 0.00714956 0.00284613 0.00110459 -0.00539681 0.000981179 -0.00762706 -0.00127231 -0.00100929 -0.00175071 0.00588712 0.00933159 0.00380111 0.000678123 0.00251453 0.00832766 0.00995144 -9.26115e-05 -0.0035553 0.00437933 -0.00236508 0.00456065 -0.000427318 0.00613585 0.00405631 0.00182319 0.00732053 0.00783023 0.00290582 -0.00234833 -0.00151549 -0.000694965 0.00323271 0.000427816 0.000473688 0.00220934 0.000962026 0.00299292 -0.000984356 0.00486248 -0.00137354 0.00689981 0.00664564 0.00460633 0.00282792 -0.00263464 0.00271502 0.00215564 0.000146597 0.0100605 0.0100735 0.00688411 0.00511271 -0.000660475 -0.00470968 0.00135796 0.00159455 -0.00680288 -0.0162302 -0.00876598 -0.00560107 0.00135444 -0.000184845 0.00224639 0.00793192 0.000245454 0.00935131 0.00158427 -0.00311364 -0.00413249 -0.0010683 0.00027089 -0.0032829 -4.35741e-05 -0.00348565 -0.00731224 -0.0043721 -0.00255276 -0.00299449 0.000231358 3.56778e-05 0.00135616 0.00120626 -0.00011283 -0.00374692 -0.00878955 -0.00947489 -0.00517607 -0.00142624 -0.00323229 -0.00173406 -0.00594839 -0.00626592 -0.00348201 -0.0059691 0.00177307 0.00295256 0.00126004 -0.00529702 -0.00710316 0.00188656 -0.00139161 0.00336571 -0.00720329 -0.000894063 0.00314147 0.0017364 -0.00125314 0.00249708 0.00111742 -0.00833956 -0.00827388 -0.00717853 0.00316867 -0.000296105 0.00170682 0.00830412 0.000264971 0.00607226 0.00522613 -0.00209953 0.00409387 0.00873774 0.00293346 0.00645894 -0.00222337 -0.0031603 -0.00748919 0.00215396 -0.00265399 -0.00571377 -0.00205683 -0.00504908 0.00297032 0.00657003 -0.00137129 0.00149028 0.000719096 -0.00424967 0.000235773 -0.00907304 0.000111878 -0.00999896 -0.00675352 -0.00199255 -5.43285e-05 -0.0103502 -0.00396837 -0.00620529 -0.000430984 0.00228229 0.00827348 0.00599761 0.00661767 0.00739201 0.0104549 0.00591797 0.0087365 0.0100609 0.00606303 -0.00164796 -0.00965948 -0.00145692 0.00137714 -0.00366615 -0.0114776 -0.00486123 -0.000937636 -0.00147407 0.00506961 0.00485591 -0.000381193 -0.00741883 -0.000553677 0.00150711 -0.00947287 -0.00466943 -0.00109175 0.00126462 0.00219744 0.00484543 0.00892081 0.00867301 -9.15665e-05 0.00517532 0.00707633 0.0099329 0.000947367 -0.00246099 -0.00624221 0.0166487 0.00325121 0.00484589 0.0025791 -0.00192651 0.00665292 0.00251755 0.00864008 0.00376544 0.000707384 -0.00350714 -0.00484091 0.00530495 0.00855315 0.00329367 0.00162697 -0.00153557 -0.00229531 0.000448214 -0.0045001 0.00199362 0.00401155 0.00621795 0.00770273 0.00301599 0.00352508 0.00362358 -0.000272348 0.00280183 0.00180255 0.00624673 0.0126933 0.0050381 0.00251202 0.00110461 0.00502488 0.00333218 -0.00166162 -0.00793375 -0.00888775 -0.0108311 0.0102578 0.00428151 -1.17262e-05 0.00391691 0.00304198 0.00482054 0.00884463 -0.00407406 -0.00236917 3.72627e-05 0.00312537 -0.00793072 -0.000804848 0.00399124 -0.00536216 -0.00134228 -0.0022694 -0.00169716 -0.000563103 8.68822e-05 0.000548724 0.00876367 -0.00128455 0.0028433 -0.00340426 -0.00523506 0.00144428 0.00104678 0.000943682 0.00378644 0.00203091 -0.00431686 -0.0071591 -0.00692071 -0.00429013 -0.00325156 0.00164363 0.00174791 -0.00383771 -0.000927875 -0.0030871 -0.000358811 -0.00703669 0.00379529 0.000181852 -0.00128372 -0.00159689 -0.0031985 -0.00123921 -0.000192149 -0.00698251 -0.010294 -0.00155337 -0.00114219 0.00244749 0.00511975 0.00520517 -9.79675e-05 -0.000514123 -0.00227617 -0.00144421 -0.00151628 -0.00690824 -0.000220237 -0.00383943 -0.00946885 -0.00914457 -0.0047649 -0.00661714 -0.00474656 0.00324931 -0.00422528 -0.00146104 -0.00348711 -0.00193892 -0.0031024 0.00240902 -0.000922932 -0.00388365 -0.00863704 -0.00692175 -0.0083735 -0.00480001 -0.00210141 -0.000993578 -0.0102714 -0.00865698 -0.00423629 -0.000997373 0.00593667 0.00255206 0.00439683 0.00376219 -0.00368177 0.00633209 -0.0016215 -0.00315877 0.0049419 0.00173895 -0.000444364 -0.00281204 -0.0037825 0.00163412 -0.000299112 -0.0153498 -0.0076618 -0.0039779 0.003014 0.00429167 0.00320222 0.00305813 -0.00235553 -0.00269884 -0.00496919 -0.00796273 -0.00138718 -0.00186848 0.00134326 -0.00155612 -0.000422447 -0.00208637 0.00177838 -0.000876228 0.0111716 0.00992767 0.0034052 0.00255761 -0.00181258 -0.0030962 0.0069245 0.00548036 0.00406526 0.00243822 -0.000161724 0.00917093 0.00507018 0.0020207 -0.0019531 0.00401763 -0.000397879 -0.00275541 -0.00191864 -0.00366749 0.00334013 -0.00294904 -0.00285163 -0.0108433 -0.00210089 -0.00278744 0.00690892 0.00558441 -0.0023177 -0.000813851 0.00368854 0.00340873 0.0029476 -0.00142877 0.00587633 0.00321066 0.00647269 0.00719024 0.00251135 -0.00762066 -0.00267256 0.00679771 0.00430068 -0.000601801 -0.00770726 -0.00196825 -0.0027148 0.00384338 0.00662381 0.0028605 0.000196204 0.00394088 0.00142921 0.00284099 -0.00280934 -0.00519288 0.00125482 0.000248937 0.00587642 0.00264572 -0.00108069 -0.00377246 0.00127486 0.00243155 0.00138479 -0.00396058 -0.00130815 0.000677738 0.00630634 0.0018217 0.00711943 0.00373932 -0.00208134 0.00262178 -0.000896866 -0.000238939 0.00052478 0.00298826 -0.00519136 -0.0071882 -0.00620178 -0.00154344 -0.00252077 -0.0016232 -0.00490986 -0.00748427 -0.0037919 0.00408606 -0.00504744 -0.00187645 0.0103204 -0.0028701 -0.0074091 -0.00625554 -0.00247576 0.00374485 0.00291539 -0.000513523 -0.00381514 0.00305795 0.00573909 -0.00260316 0.000680676 0.000169707 -0.00106962 0.0054542 0.00160987 -0.00161414 0.000315589 -0.00520675 -0.00264486 0.00241186 -0.00870432 -0.00645762 -0.00660366 -0.00686101 -0.00717346 -0.0038302 -0.00880062 -0.00184152 -0.00801365 -0.00475828 -0.00392636 -0.00586065 0.00263848 0.00277008 -0.00309498 -0.00423786 -0.00609036 -0.00934757 -0.0036987 -0.00434218 0.00205124 0.00191887 -0.00799753 -0.000653715 0.00451848 0.000324896 -0.000323979 0.010537 0.00173219 0.0008463 0.00286395 0.00312317 0.00860267 0.00192141 -0.00279118 0.00703371 0.000411635 -0.00250547 -0.00245775 -0.00785506 -0.00744534 -0.00176788 -0.00462558 0.00771848 0.00314224 0.00321577 -0.00494378 -0.00468309 -0.00485772 -0.00392304 -0.00776021 -0.00967306 -0.00749255 -0.00424215 0.00178876 -0.00426537 0.000329247 -0.00123671 0.000798415 0.00271298 0.00608966 -0.000165362 -0.00341783 -0.00883998 -0.00579504 -0.000606576 -0.00348591 -0.000989533 -0.000988395 0.0052577 0.00607848 -0.0042693 -0.00615927 0.000369574 -0.00330528 -0.00136599 -0.000827684 0.00276375 0.00125774 0.00253626 -0.000861505 0.00155321 0.00671476 0.00666626 0.00599692 0.00339798 -8.18177e-05 -0.00278999 -0.00534333 -0.00311704 0.00110825 0.00342388 0.00278745 -0.00160338 0.00561932 0.0101206 0.00796492 -0.000321587 0.00161719 0.0026511 0.000646105 0.00104549 -0.00250311 -0.00383956 0.000662547 0.000393108 0.00207046 -0.0077253 0.00285986 0.00298294 0.00182883 -0.000751097 -0.00160155 -0.0044449 0.00319967 0.0115054 0.000141067 0.00027214 0.00218687 -0.000788932 0.000555824 -0.00324353 0.00239459 0.000838915 0.00187914 0.00458909 0.00346972 0.00334755 -0.001841 0.00243033 0.00599408 0.00748023 0.00208718 0.00448768 0.00733355 0.0123728 -0.00228717 0.00224293 0.000279994 0.00484545 -0.0017808 0.00283488 -0.0100028 0.00347335 -0.00194787 -0.000675001 -0.00293758 -0.00253482 -0.000563619 -0.0022553 -0.00554387 -0.00245756 0.0029451 0.00434616 0.00457129 0.00686593 -0.00959449 -0.000121716 0.00164743 -0.00219964 -0.00055713 -0.00299335 -0.00207094 0.000390941 -0.00349759 0.00243997 -0.0059075 -0.00913957 0.00481904 0.00572957 -0.00335314 -0.0100853 0.000675751 -0.00706416 -0.00226841 -8.19526e-05 0.00359104 -0.00285563 -0.00108723 -0.00155929 -0.00204247 -0.00469671 0.00125433 0.00767978 0.009511 0.00286977 -0.00665962 -0.00687513 -0.00442137 0.000982457 -0.00127213 0.00239256 -0.00543186 -0.00187425 0.00312917 0.00150569 0.00430198 0.00731911 0.00305492 0.00949267 0.00714227 0.00430611 0.00254248 -0.00232398 0.00443996 -0.00370514 0.00161161 -0.0063473 -0.000524461 -0.0138948 -0.0112609 -0.000632429 0.000447069 0.0116208 0.00797151 0.000743245 -0.00175579 -0.00499411 -0.00208336 -0.00741999 -0.0111135 -0.00650808 -0.012461 -0.00283967 0.00421301 -0.00396498 0.00043195 0.00030393 -0.000834364 0.000295804 -0.0011707 -0.000391275 0.00355212 0.00299676 0.00411413 0.00183662 -0.00174382 -0.000412663 0.000436007 0.00309615 0.00155729 0.00152731 0.00270329 0.000923071 -0.00641833 -0.00505419 -0.0084109 -0.000923994 -0.000736663 0.00614959 0.00590841 0.00415953 0.00234123 0.00447797 0.00478881 0.00537171 0.00193216 6.44661e-05 -0.00420904 0.000975494 0.00271487 -0.00218692 0.00238158 0.00180998 -0.000531532 0.00669422 0.00908131 -0.00167885 -0.0047184 0.000235733 -0.00159647 -0.000182944 -0.000627989 -0.00149149 -0.0053695 0.000188569 0.00238696 -0.00457468 -0.000297282 0.0036613 0.00569168 0.00241456 0.00260797 -0.00837542 -0.006618 0.00460976 -4.74744e-05 0.00425779 -0.000716475 -0.00529028 -0.00362978 -0.00372696 -0.000156745 -0.00049217 0.0037097 0.000885806 0.00958785 0.00418127 0.00213243 0.00153755 0.000326953 0.000759174 0.00021153 -0.00083506 0.00342665 0.00451108 -0.00334795 0.00079615 -0.00513981 -0.000988756 0.00307065 0.000845196 -0.000303244 -0.0049271 -0.000349773 0.00581024 0.00703988 0.0023707 0.0022696 -0.00105944 -0.00270873 -0.00157853 0.00138633 2.43971e-05 0.00192531 0.00380061 -0.00655072 0.000902922 -0.00310101 -0.0109233 -0.00661633 0.00217959 0.00382705 0.000688649 -0.00539767 -0.00408434 -0.00492026 -0.00434955 0.0039491 0.00206085 -0.00212609 -0.0032062 -0.000778721 -0.0114029 0.000787003 0.00241554 0.00165317 0.00388384 0.00703742 0.00801693 0.00400339 -0.0005144 -0.000191355 0.000681145 0.00559777 0.00287035 -0.00365391 0.0034167 -0.00728889 0.00368613 0.00516457 -0.00213549 -0.00912096 0.00209594 0.0032765 0.00379341 -0.000875779 -0.00315677 -0.00354816 -0.000680011 0.00368684 0.00266231 -0.00559915 0.0014138 0.0112117 0.00848728 0.00725877 -0.00667147 -0.0026973 -0.0029992 -0.00802557 0.00353298 0.00188445 0.0105546 0.00938204 0.0124253 0.00137281 -0.00206251 0.00151355 -0.0132214 -0.00729157 -0.0138044 -0.00501447 0.000896775 -0.00345707 -0.0050752 -0.000498246 0.00150041 -0.000934082 0.00209397 -0.00352821 0.00729824 -0.00202834 -0.000495407 0.00611851 -0.00539472 0.000163512 0.00220227 -0.00151499 0.00572696 0.00402008 -0.0019308 0.00397748 0.00543238 -0.00217214 -0.00867015 0.000537262 0.00051234 -0.00164164 -0.000435039 0.00223173 0.00592012 0.00515873 0.0102348 0.00782561 0.000793597 0.00757781 -0.0023804 -0.010157 -0.00665365 0.000400398 -0.0023353 0.00315859 -0.00164731 -0.00700778 -2.5923e-06 0.00706963 -0.00124083 -0.00249463 -0.000667326 -0.00455954 -0.0103469 -0.00683921 0.00291714 -0.00457873 -0.00144764 0.000875379 -0.0025199 0.000202151 0.00198243 0.00777719 0.00725902 0.00587617 -0.00308715 -0.00117493 0.00932006 0.00733302 0.00449803 0.00264073 -0.00301132 -0.000449708 0.000983485 0.00302226 0.00103216 0.00365008 0.00281055 0.00427545 -6.43417e-05 0.00320607 -0.00107271 -0.00192864 -0.000631487 -0.000457805 0.0011284 0.00154952 0.00614047 -0.00319224 -0.0072614 -0.00563226 0.00324842 -0.00105231 0.00325969 -0.00127348 0.00225456 0.00581111 0.00546161 0.00351015 0.00102974 -0.000566522 -0.00462976 0.00259163 0.00368242 0.00824768 0.00324376 0.00362697 0.00276369 -0.00445529 0.000942471 -0.00354464 -0.00863229 -0.00584726 -0.00122227 -0.00645793 -0.00441374 -0.00706167 -0.000154371 -0.00208383 -0.00420251 -0.000765473 0.00284171 -0.000732894 -0.00533599 -0.00254902 -0.00298443 -0.0100587 -0.00624907 0.00176072 0.00169137 0.00053335 0.00320723 0.000293998 0.00283379 0.00832021 -0.00382399 -0.00125201 -0.000598614 -0.00589054 0.00374986 0.000314681 0.00143096 0.00191089 -0.00352462 -0.00729736 -0.00283337 0.0102203 0.00730538 0.0035252 0.00452991 0.0121566 0.00419289 0.00103492 -0.00266986 -0.00307835 -0.000544994 0.00823673 0.00453164 0.00227581 0.00083885 -0.00150292 -0.00449925 0.00145916 -0.00138686 0.00134319 0.00591065 -0.000515901 0.00633703 0.00186506 0.000190712 0.00511027 0.00254532 -0.00208204 -0.00893055 -0.00187429 -0.00185997 -0.000972314 0.00152691 -0.0011898 0.00214292 -0.000668773 -0.00714436 -0.00698675 0.00444404 0.0043504 0.00140602 -0.00480979 -0.00529531 -0.00666761 -0.00203256 0.00219589 0.00468102 0.00260024 -0.00549056 -0.00368651 0.00248466 -0.00096284 -0.00363118 -0.00161313 0.000400103 0.00198047 -0.00411768 0.00018051 0.00359203 0.00183064 0.0100555 0.00576808 0.00351941 0.00300266 0.00489032 -0.00428547 -0.00577487 -0.00815398 -0.00252857 -0.0025648 -0.00590122 0.00183986 0.00267809 -0.000459563 -0.00340848 -0.00649878 0.00105921 -0.0116054 -0.00690065 -0.0042872 -0.00232455 -0.00854192 -0.0052613 -0.00407088 -0.00222411 0.00188006 0.00467509 0.00354553 0.00693298 0.00532924 0.00127346 0.00252078 0.00417545 0.00934592 0.00385398 0.000567435 -0.00106202 -0.00126266 -0.0016568 0.000377143 -0.00186101 0.00120316 0.0096503 0.00469692 0.000495645 0.0054948 0.00228276 0.00303613 -0.00437172 -0.00990344 -0.000487767 0.00260938 0.00431994 -0.00733417 -0.00922215 -0.00627072 0.00629339 0.00352506 -0.00172794 0.00305444 0.00278123 0.0062597 0.00644121 0.00584009 -0.00236499 0.00118969 -0.00206706 -0.00211894 0.0044323 -0.00212541 0.00620828 0.00678022 -0.0012862 -0.00582678 -0.00540369 -0.00291691 -0.00475892 -0.00686068 -0.00408951 -0.00338256 -0.00621981 -0.00708586 -0.00443899 -0.0087428 -1.13002e-05 -0.000696159 0.00134975 0.00296606 -0.00535934 -0.0013935 -0.00941076 -0.011781 -0.00702069 -0.00208028 -0.00313505 -0.00585824 0.00153026 0.0105864 0.00294533 0.00573135 0.00115193 -0.000316537 -0.00181126 -0.00154185 0.0022243 0.00754924 0.000901677 -0.00358818 -0.00155305 -0.00818221 -0.00384302 0.000313264 -0.00853922 -0.00119256 0.00381325 0.00373877 -0.00121234 -0.00524933 -0.00820101 -0.00835289 -0.00492497 0.0059 -0.00391555 0.00211914 0.000150383 0.000211759 -0.000596599 0.00696086 0.0012127 0.003031 0.0031734 -0.00289399 0.00246065 0.00933882 0.00220382 -0.00212638 -0.000233091 -0.00704187 -0.0058683 -0.00532416 -0.00479572 -0.00188766 -0.00214084 -0.00345742 -0.00450471 -0.000545611 0.00223918 -0.00302834 0.00335124 -0.00482352 -0.00160804 0.000204667 0.00141183 -0.000999437 0.00231448 -0.00105791 0.00439539 0.00254049 -0.00340349 -0.002311 -0.000319223 0.00175509 -0.00671594 -0.00438097 -0.00202291 0.00470274 0.0013793 0.00462259 -0.00254936 -0.00184226 0.00396916 0.0100952 0.007427 0.00754246 0.00884269 -0.00259959 -0.00939283 -0.00553571 -0.00761718 -0.00240763 -0.00151558 0.00311494 0.00289689 -0.00189979 0.00575117 -0.00126134 -7.78704e-06 -0.0040424 -0.00694219 -0.00249185 -0.0111567 -0.00454307 -0.00101514 -0.00684824 0.00117263 0.00173304 0.0101809 0.00494878 0.00327952 -0.00108869 -0.00297725 0.00348864 0.00393433 0.00554823 0.00898113 0.00300526 0.00601713 0.000765664 0.00304613 -0.00870018 0.00152866 0.00324937 0.00741081 0.00233616 0.00397655 0.00717372 0.0045023 0.00464079 -0.00049831 -0.00436682 -0.00198718 -0.0039832 -0.00168762 -0.000721099 -0.0024905 -0.0143772 -0.00171552 0.00390563 -0.00148873 0.00526456 -0.000211961 0.00902317 0.00531715 0.00531711 0.00427767 -0.00690782 -0.00512279 -0.00178647 0.00184935 0.00115056 0.00526362 0.00957998 0.0107003 0.00535922 -0.00235315 -0.000167754 0.000533172 -0.00627816 -0.0068843 -0.000917815 -0.00462964 -0.000730698 -0.0015549 -0.00172321 0.00284497 -0.000869875 -0.00179216 0.000681958 -0.00673474 -0.00287983 -0.00627613 -0.0124441 -0.0145473 -0.00140324 -0.00872874 -0.00118171 -0.00327534 0.00653602 -0.00064109 0.00346977 -0.00573787 0.00105903 0.0062304 5.86353e-05 0.0131415 0.00438552 0.00277437 -0.00380345 0.000384958 -0.00501373 -0.00523012 -0.000508027 -0.014873 -0.00359645 -0.000459699 -0.00386329 -0.00582544 -0.00871722 -0.00951723 -0.0112115 0.00113711 0.00390281 -0.00239543 -0.0040641 -0.00473131 0.00112877 -0.0022341 0.00632045 0.00431695 0.00121718 -0.00104743 -0.00283474 -0.00258756 0.00437425 0.00353203 0.00667963 -0.00105687 -0.0027277 -0.00914047 -0.0078381 -0.0044945 -0.00093714 -0.0107189 -0.0107648 -0.00780291 -0.00328792 0.00187983 -0.00266994 -0.000690894 -0.00396635 0.0020456 0.0071607 -0.000746222 0.00078566 0.00654786 0.00775582 -0.00103442 0.00616857 0.00217765 -0.00195959 -0.00885751 0.00135648 -0.00325669 -0.00550963 0.00107416 0.000338747 0.00137214 0.00602467 -0.000638019 0.00390388 0.0049223 0.0138871 0.0125478 0.00757058 0.00581835 0.0027006 -0.00630661 -0.0122413 -0.00627391 -0.00797138 -0.0053079 -0.00817704 -0.0030536 -0.00408426 0.00115568 0.00377028 0.00587673 0.0013505 -0.00210959 -0.00109343 0.00485379 -0.00417657 0.0019232 0.000279097 0.00020809 0.00158701 0.00397748 0.00620458 0.00303786 0.0109002 -0.00165206 0.00400414 0.00178492 0.00382042 0.0121818 0.0016189 -0.00339804 -0.00667706 -0.000820675 -0.00225169 0.00118201 0.00267503 0.00535723 0.00374359 -0.00128862 0.00521867 -0.00045299 -0.00396583 0.000900814 -0.00503099 -0.00427537 -0.000113192 -2.51282e-06 -0.00631103 -0.00607102 -0.00426923 0.0023943 -0.00108551 -0.00317469 -0.00447943 -0.000152457 0.00618431 0.00799461 0.00466292 0.00211257 -0.0034682 -0.0013023 0.00356623 0.010994 0.00350592 0.00464381 0.00568649 0.00560297 0.000566265 -0.00540344 -0.00313918 -0.00269513 -0.00416398 -0.00510277 -0.00241472 -0.00010789 -0.00502282 0.00861536 0.00504131 -0.00112007 0.000286777 0.0069332 0.006809 -0.00122817 -0.00262797 0.00328837 0.00133442 0.00337985 0.00107124 -0.0106288 -0.0022462 -0.000871175 0.000234607 -0.00371014 0.00242098 -0.0006607 0.00240024 0.000731635 0.000331163 0.00525529 0.00110902 0.0020753 -0.000894408 -0.00874611 -0.0108348 -0.00553602 -0.0098548 -0.00945617 -0.00530893 -0.000817011 0.00223223 -0.00691626 -0.00755678 -0.00680898 -0.00189488 0.00447868 0.00623307 0.000461601 0.00085614 -0.00146408 0.00499656 -0.00202817 -0.0001435 -0.00579534 -0.0049317 -0.00641497 -0.00372396 -0.00498966 0.00108449 0.00451087 0.00518439 -0.00412731 0.000124125 -0.0125983 -0.00437363 -0.00810108 -0.00588879 -0.0032098 -0.00464361 -0.0044115 -0.00432947 -0.00542496 -0.00641583 -0.00807727 -0.00570091 0.00431442 0.00873407 0.00654152 0.00137993 0.00773243 0.0054858 0.0043814 -0.00284432 -0.00579781 -0.00198826 -0.00382839 -0.0015202 0.0037049 -0.00580394 -0.0067201 -0.00290728 -0.0034027 0.00241226 0.000292134 0.00537775 0.00813745 0.00495236 0.00632904 0.00409095 0.00383404 -0.00139864 -0.00731836 -0.00615588 -0.0112156 -0.00532454 -0.008864 -0.0055306 -0.00246497 -0.00307216 -0.0026993 0.0032074 0.0083221 0.00851407 -0.000355688 0.00702475 -1.47769e-05 -0.00286704 0.00177112 -0.00321927 -0.00137478 -0.00823531 -0.000397964 0.00451174 0.00270103 0.0073142 0.000555594 0.00305578 0.00678539 0.00973684 0.00468738 -0.00538901 -0.0104672 -8.0427e-05 0.000199049 -0.00135228 -0.00105663 0.0047621 0.00352805 0.00252045 -0.00400852 -0.00601238 -0.00633614 -0.00802959 -0.00332347 0.00263132 0.00653567 -0.0017417 0.00601951 -0.00323895 -0.00377552 -0.00483947 -0.000521522 0.00648258 -0.00431196 0.000296993 -0.000946721 0.0033778 0.00285579 0.000975193 -0.00456395 -0.00895423 -0.00141319 0.00419027 0.00151448 -0.000670668 -0.00514772 0.00225754 -0.000118038 -0.00897978 -0.0135945 -0.0135269 -0.00827219 -0.00142251 -0.0107709 -0.00450448 0.00283403 5.41834e-05 -0.00014604 -0.00174763 -0.00773 0.00332056 0.00562358 -0.000767605 0.000701934 -0.00184482 -0.000576857 0.00727462 0.00497694 0.0131288 -0.00433731 -0.0103227 0.00165317 0.00389412 -0.0024811 -0.00119301 -0.0049116 -0.00239457 -0.00374989 -0.00466339 0.0024782 0.00154281 -0.00242331 0.00543565 -0.0034329 -0.00997404 -0.00649946 -0.0109742 -0.00452511 -0.00141782 0.00836508 -0.00189661 -0.00929641 -0.00466022 0.00241828 0.00829756 0.00761049 0.0168775 0.0137801 0.00368866 -0.000111321 -0.00356939 -0.00561869 -0.0063091 -0.00872756 -0.00868462 -0.000347722 0.00103499 0.00403511 0.00118629 -0.00560608 -0.00668311 -0.00546458 -0.00297931 -0.00842358 -0.0120761 0.000383352 0.00297859 0.00148344 -0.00103291 -0.00496319 -0.00268192 -0.00582541 -0.00474127 -0.00882451 -0.00720431 0.00602123 0.00992734 0.00558456 6.40593e-05 0.012768 0.00666821 0.00450255 0.00545865 0.000858256 -0.00156278 0.00280776 -0.00625547 -0.00137916 5.76243e-06 -0.0102684 -0.00611462 -0.00478781 0.00351106 0.00315423 0.0017952 -0.00121368 0.00753878 0.0121084 0.00728296 0.00129576 0.001391 -0.00561602 -0.00542792 -0.0078064 -0.00926082 -0.0103737 -0.00163924 5.52905e-05 0.00214761 0.00585523 0.0100943 0.00927402 0.00107394 -0.000354227 0.00821796 0.00610658 0.00577449 0.0068679 0.00604376 0.00342774 -0.00184597 0.000448566 0.00406542 0.00220055 -0.00789604 -0.00266041 -0.00280591 -0.00136237 0.00673986 -0.000741917 -0.00514977 -0.008909 7.12677e-05 -0.00572624 -0.00726834 -0.00376113 0.00494361 -0.00145145 0.00496442 0.00186912 -0.00396261 0.00331207 -0.00376633 0.000538544 0.00203476 0.0047091 0.000437439 0.00308104 -0.00121544 -0.00681517 -0.00763665 0.00509823 0.00158361 -0.00607544 0.00172655 -0.00281887 -0.00249227 -0.00326524 0.00425173 0.000792343 -0.000909083 -0.00404024 -0.00557037 -0.00129574 -0.00449684 -0.00963097 -0.00166347 0.000876052 -0.00450699 -0.00903172 -0.012577 -0.0052533 -0.00935019 -0.00911307 -0.00906748 -0.0116911 -0.00989841 -0.00296092 -0.00494038 -0.00498346 -0.00226857 -0.00275395 0.00301333 -0.00372586 -0.00400563 -0.00279744 0.0127883 0.00515699 -0.00150733 -0.00208456 -0.00418133 0.000228013 0.000737927 -0.00380691 -0.00467784 -0.0045839 -0.00284671 -0.00141089 0.00582526 0.00349952 0.00176112 -0.00109199 -0.00170699 -0.00204399 -0.00730027 -0.00529246 -0.00932687 -0.00282614 -5.00717e-05 -0.00355233 -0.000744044 -0.00240573 0.00155389 -6.31179e-05 -0.000315815 0.0024105 0.014107 0.00796252 0.00259103 0.00167696 -0.00877006 -0.00779319 -0.00640277 -0.0028679 -0.00240674 -0.000896767 0.00551276 0.00921993 3.50534e-05 -0.00628796 -0.00388369 -0.00766824 -0.0120182 0.00120917 0.0015833 -0.00642561 -0.00425047 0.00218001 0.0087826 0.0102771 0.00184783 -0.00312211 -0.00711724 -0.0128648 -0.00175484 0.00639284 0.00605534 0.00644962 -0.00622992 0.00802455 0.00422767 0.00952573 0.0113345 0.00707636 0.00967815 -0.00080167 0.00329114 0.00480625 0.0016204 -0.0062983 0.00663053 -0.000616903 0.00437401 0.00433302 -0.00205459 0.00399955 -0.000143618 0.00508603 -0.00164333 0.00275508 -0.00246402 -0.0030345 0.00112434 -0.00693062 -0.00582638 0.00312926 -0.000352537 -0.000523648 -0.0044948 -0.00309148 0.00379307 0.00690261 -0.00236149 -0.00448689 0.00300376 0.00655342 0.00710599 0.00230979 0.00413555 0.00908037 0.00347064 0.0038042 0.00274438 0.00362962 -0.00723532 -0.00211182 0.00137994 0.00171668 0.00693048 0.011857 0.00536408 0.00467134 0.00783398 0.000888996 -0.000913003 0.00444954 0.00585601 0.00834464 -0.000884411 0.00165239 -0.00106458 -0.00435168 -0.00117335 0.00340349 -0.00168692 0.00191645 0.00212266 0.00384556 -0.00480025 -0.00556314 -0.0015575 0.00320547 -0.00340198 -0.00813785 -0.0086866 -0.000557508 0.00132329 0.00284949 0.00341653 -0.00221123 -0.00994199 -0.00947695 -0.00455208 0.00431751 -0.00241064 -0.00687728 -0.00174497 0.00309043 -0.00158274 -0.00537184 -0.00226316 0.00233011 0.000509354 -0.00382812 0.0044112 -0.0017473 -0.00396922 -0.0036733 -0.00645027 0.00342466 -0.00540156 -0.012039 -0.00608744 -0.00188186 -0.00328935 -0.00550492 -0.00312114 0.00605075 0.000626667 -0.00150992 -0.000548709 -0.00103869 0.00423367 -0.003334 -0.00987368 -0.00382806 -0.00185322 -0.0052319 -0.00111129 -0.00265242 0.0103279 0.00332733 0.00487357 0.00113134 -0.00693233 -0.00190658 -0.00140885 -0.000188908 -0.00286637 0.00272915 0.0018134 -0.000754212 0.00756659 -0.00523075 0.00122183 0.000307337 0.00512212 0.00681245 -0.00263628 -0.00659502 -0.0017052 -0.00297186 -0.00944295 -4.63095e-05 0.000503556 0.00794626 -0.00319446 -0.00323595 -0.00492762 -0.00158189 -0.00433185 -0.0105805 -0.0102402 -0.00677198 0.00207686 -0.00586734 -0.00218918 -0.000695355 0.00205906 0.00973005 0.00503126 0.00564831 -0.00430536 -0.00287648 -0.00909095 0.00414557 0.00305846 0.00284728 -0.00802363 0.0037315 0.00125005 0.00225425 0.00219892 0.00640283 -1.00912e-05 0.00134484 -0.00467832 0.00908009 0.00508658 -0.000980411 0.000656764 0.0036218 -0.00432603 0.00195332 -0.00407672 -0.00154611 -0.00412142 -0.00983025 -0.00690787 -0.00486974 0.00495312 -0.00128255 -0.00633069 -0.00223243 -0.00619293 -0.00314189 -0.00392343 -0.00430164 -0.00157765 0.000479194 0.00264256 0.00571396 -0.00312358 0.00210118 -5.43405e-05 0.00382413 0.0021917 0.00156938 0.00352453 0.00612985 -0.00172766 -0.00182183 0.000184168 0.00648282 0.000297436 -0.00909655 -0.000567265 0.000659206 0.00427449 3.18779e-05 0.00207586 0.00464905 0.00541711 0.0100683 0.00340005 0.00176146 0.00468761 0.00280185 0.00545428 0.00264901 -0.00286675 -0.00314998 0.00192583 0.000895086 0.00294733 0.00559789 0.00863355 0.000178382 -0.00321278 -0.00243725 -0.00216184 -0.00514705 -0.00387609 -0.00806632 -0.000681972 -0.00297568 0.00189395 -0.000621644 -0.00286213 -0.00834698 -0.0147319 -0.0103427 -0.00735801 -0.00574369 0.00269785 -0.00588251 -0.000173082 0.00439272 0.003672 -0.00293439 0.00469852 0.00902369 0.0056971 0.00133728 0.0028103 0.00278383 -0.00712459 -0.00521438 -0.000296013 9.6227e-05 0.00205412 -0.00285079 -0.00860332 -0.00831434 0.000935678 -0.0164037 -0.00686719 0.00106172 0.00395451 -0.00157378 0.00512411 0.006099 0.0101099 -0.00176815 -0.00326932 0.00252382 0.00156146 0.0015597 0.007739 0.00764649 0.00377519 0.00871569 0.00503678 0.00849514 -0.00482124 -0.00253087 -0.00283956 0.00339916 0.0090326 0.00544094 -0.00215457 0.00542534 0.00736741 -0.00121456 0.00123908 -0.00164822 0.00613814 0.00578089 -0.00310818 -0.00421451 -0.00256524 -0.000464827 -0.00182873 0.00341334 0.00298928 0.00389059 0.0041506 0.0034027 -0.0023384 0.000342188 0.000183766 -0.000993023 -0.00364099 0.00456754 0.00329984 0.00628798 -0.00710446 0.002403 0.000681729 0.00612554 0.00229353 0.00353254 -0.00170925 -0.00417454 -0.0090934 0.00591809 0.0080899 0.00451526 -0.00671106 -0.00114008 -0.00367201 -0.00226335 0.00765394 0.00188373 0.00355472 0.00167469 -0.00344894 -0.00305229 -0.00529081 -0.00655381 0.00377527 0.0056409 0.00327622 0.0045635 -0.000851423 -0.00535871 0.001047 0.00578828 0.0015832 -0.00418044 0.00343632 0.00244214 -0.00550981 0.000642296 -0.000334888 0.000505059 -0.00303086 -0.00155047 0.000377542 0.000202985 0.00302637 0.00921366 0.00348264 0.00979119 0.00186676 0.000255149 0.00388812 0.00880979 0.00838201 0.00379339 -0.00867915 -0.00305756 0.00049443 0.00253908 0.000174846 -0.00649491 -0.00168043 -0.00126154 -0.00117337 -0.00431606 -0.00600764 -0.00576962 0.00368636 0.00327409 0.00285719 -0.00520242 0.00580249 0.00298384 0.0100219 0.00805483 0.00430495 0.00192233 -0.0017071 0.00158482 0.00144023 0.00221728 0.00480954 -0.000433102 -0.000601911 -0.00424841 -0.00440745 -0.00171401 0.00372986 0.00169911 -0.00108075 -0.00815777 -0.00200341 -0.00100348 -0.00167338 -0.00352891 -0.013578 -0.0133489 -0.00827441 -0.00399946 -0.00397182 -0.00888653 -0.00152887 0.00247748 0.00124507 0.00416153 -0.0063747 0.00247259 0.00336563 0.0112893 0.0176175 -0.00173046 0.00460834 0.0024487 -0.00105194 -0.000761538 0.000712215 0.00617255 -0.00105146 -0.0101814 -0.00507381 -0.00829006 -0.00155412 0.00131444 -0.0007225 -0.00105094 0.00169203 -0.00166513 0.00654784 -0.000407667 0.000536741 -0.00430382 0.00115419 -0.000541624 0.00740615 0.00232242 0.000395505 -0.00122414 -0.00214561 0.00291419 -0.00208409 0.00131728 -0.00448372 0.000297302 0.00241864 0.00211009 0.0069238 0.00491723 -0.0140541 -0.00357949 -0.00335757 0.00366391 0.00555921 0.00139093 0.00505215 -0.00593974 0.0046463 -0.00385717 -0.00199084 0.00980093 -0.00112582 0.00321034 0.00378038 0.00212005 0.00149516 0.00541836 0.000505414 -0.00402835 -0.0131121 -0.00585467 0.000644782 -0.00230879 0.00050382 0.0131876 0.0114362 0.00246217 0.0027169 0.002085 0.00293828 -0.00551798 -0.00508287 0.00542007 0.00391622 0.00338107 0.00021968 0.00179911 0.000218478 0.00350554 -0.00265789 -0.00538778 0.000619247 -0.000382712 0.00152987 -0.00042853 0.00168252 -0.00324973 0.00299008 -0.00662742 0.0027729 -0.00090696 0.00162721 -0.000617767 0.00415105 0.00843731 0.00272813 0.00478643 0.00818896 -0.00176073 -0.00397253 -0.000665951 -0.0022472 -0.00226667 -0.00287528 -0.00356116 0.00200613 0.00389319 0.00750284 0.00723976 0.00570431 0.00332996 -0.00812398 -0.00287422 0.0074 0.0067166 0.00715664 0.00813202 -0.00166885 -0.00161238 -0.003532 0.00261554 0.00889046 -0.00045497 0.00255391 0.000905299 -0.00114645 -0.00215765 0.000803166 -0.00221626 -0.00216174 -0.000144085 0.00137199 -0.00512916 0.000280061 0.0111632 0.0120526 0.00587276 0.00495398 0.00865447 0.0010489 -0.00160349 4.4557e-05 0.00366795 -0.00309286 -0.000272019 -0.00147359 -0.00290059 -0.00176384 0.000819386 0.0041049 0.00130076 -0.00104518 -0.00950742 -0.00726447 -0.00694802 -0.0081169 -0.00420669 -0.0043182 -0.00672021 -0.0061973 -0.00875534 -0.00450318 -0.0104105 -0.00417035 -0.000405637 -0.000716884 -0.00368492 0.00449206 0.00291108 0.00269463 0.00942776 0.00562009 0.00284275 -0.00138606 0.00960715 0.000508655 0.000704157 0.00240461 -0.00104964 -0.0090594 -0.0110103 -0.00682775 -0.00614328 -0.00127773 0.000486094 0.00246476 0.00440456 -0.0041679 0.00215958 -0.00119626 -0.00203483 -0.00666382 -0.00881147 -0.00329212 0.00371387 0.00494784 0.00152767 0.0038621 0.00264337 0.00320212 0.00133029 -0.00277917 -0.00782623 -0.00573694 -0.0095983 0.00277639 0.00784588 0.0099587 0.00516367 -0.00292566 -0.0038541 -9.55967e-05 -0.000411472 0.0023316 0.00134379 -0.00722181 -0.00502433 0.00156958 -0.000612787 0.00321142 0.00394738 -0.00091956 -0.00455555 -0.00309201 0.00614777 0.00242353 0.000658332 -0.00496524 0.00108111 -0.00186035 -0.00216527 -0.0028268 -0.0020248 0.0033443 -6.96067e-05 0.0128362 0.00944175 0.0167135 0.00627893 0.00541951 -0.0044846 -0.00227062 0.0013124 0.00442215 0.00105962 0.00278978 0.000520761 -0.00172832 -0.00468694 0.00154647 -0.00088264 0.00391468 -0.00200473 0.00411427 0.00226889 0.00206979 0.000190829 -0.00214543 -0.0080236 -0.00656558 -0.00396635 -0.00153982 0.00103135 0.00315796 0.00799061 0.00559225 0.00383604 4.00583e-05 -0.00446808 -0.000419197 -0.00501088 0.00285209 -0.000812536 0.00341812 -0.00208284 0.00641351 0.00269364 0.00199473 0.00669673 0.00638089 0.00237626 -0.00312118 0.00217157 -0.00398502 0.00229598 0.00575089 0.000124823 -0.000954865 0.00229583 -0.00197376 0.00327243 0.00712271 0.00391233 -0.0018859 -0.00300217 -0.000513272 0.002447 0.00318151 -0.00216894 0.00313892 0.00414769 0.00559207 -0.00105314 -0.00021486 0.000601085 0.00901676 0.0106418 0.00807934 0.00888055 0.00532613 0.00465986 0.00247456 -0.00461201 0.00112526 -0.00480132 -7.61944e-05 -0.00719234 -0.00558043 -0.00611402 -0.00577546 0.00207824 -0.00220492 -0.00330346 -0.00449712 -0.000923869 -0.00242973 -0.00106755 -0.00253085 -0.0103593 -0.012084 0.000192041 0.00317221 -0.000219132 -0.00875819 -0.00753471 0.00421982 0.000263018 0.00269075 0.0112389 0.00533689 0.00874398 0.00665706 0.00420413 0.0046051 0.0106541 0.000414577 -0.00198652 0.00250666 0.00345817 -0.00153672 -0.0083721 -0.0027376 -0.00509561 0.00483545 0.00529244 0.00336214 0.00214899 0.0053922 -0.000308232 0.0066478 0.00610515 -0.00499957 -0.0115084 0.00312456 0.00572537 0.000461215 -0.00707014 0.00101625 0.00322043 -0.00179464 -0.00289124 -0.00108449 -0.00418756 -0.0120058 -0.0114283 0.00222162 0.00911831 0.00477851 0.00532748 0.000431689 -0.00496841 -0.00105288 -0.00161212 -0.00108222 -0.00173202 -0.00974511 -0.00426722 -0.00379603 -0.00421634 0.000361382 0.00552921 0.000484492 -0.0030401 -0.00796784 -0.00347066 0.00556651 0.000912138 -0.00343727 0.000136543 -0.00399665 -0.000911122 0.00343584 0.00881531 0.000798469 0.00632025 0.00840043 0.0141003 0.0106948 -0.000480521 -0.000462999 0.000296112 -0.00215321 -0.00467236 0.00776814 0.0052019 -0.00463606 0.00502589 0.0014454 0.00197544 0.00398554 0.000558994 0.00157556 -0.00187548 -0.00498666 0.00102807 0.00174805 0.0058983 0.00813014 -0.000171651 0.000884409 0.00316047 -0.0019623 -0.000835372 0.00174974 0.0106979 0.00817519 0.00979103 0.00164631 -0.00180813 -0.00540244 -0.00850978 -0.0054224 0.0011986 -0.00266413 0.00381774 -0.00171947 -0.00620152 -0.00394518 -0.000500631 -0.00221967 -0.0067673 -0.0109422 -0.000529792 -6.81441e-05 0.00451557 0.00956693 0.00764666 0.00272668 0.00686203 -0.00427476 0.00583923 0.00965954 0.00266701 0.000865045 0.00736974 0.000219022 0.000657387 -0.000893477 -0.00609267 0.00068285 0.00211866 0.00583308 -0.000144083 -0.00100839 0.00310733 0.00723685 0.00696774 0.00829914 0.0108266 0.0016029 -0.00143006 0.00346053 0.00281509 0.00369134 0.00109373 0.00350319 -0.00217849 -0.00585545 -0.00450168 -0.0026926 0.00384454 -0.0101136 -0.00553498 -0.00561271 -0.00185161 -0.00115262 0.00428502 0.000779648 -0.00223722 -0.00168688 0.00619903 0.00286804 0.00154957 -0.00263592 -0.00192711 -0.00240019 -0.0020898 0.0026665 0.00475919 0.00320707 0.00417961 0.00258928 0.000261661 0.00275035 0.00427234 0.00923526 0.00237162 -0.0023566 0.00276976 0.00497464 0.00493346 -0.00264219 -0.000368812 0.00334273 0.00230371 -0.00512903 -0.00189743 -0.00113867 0.00125984 0.0097165 0.00397435 -0.00417767 0.00276806 0.00634556 0.00141029 0.00186946 0.00243132 -5.83969e-05 -0.00262188 -0.00254882 -0.00108546 -0.0052587 -0.00990473 -0.0141548 -0.00505361 -0.000833681 0.0055368 0.000154034 0.000952881 0.00367225 -0.0016726 -0.000531931 -0.00737044 -0.00469633 -0.0104015 -0.0127902 -0.00453113 -0.00339898 0.00522783 0.00525309 0.000122752 -0.00337756 -0.000338886 -0.00971726 -0.000346286 -0.000371264 0.00348315 0.00474308 -0.00286746 -0.00898007 -0.00748016 -0.00456892 0.000505781 0.00272501 0.014207 0.0107118 0.00756757 0.00448484 0.00165205 0.00779487 0.00756268 -0.00556502 -0.00445684 0.00311977 0.00423146 -0.00344378 -0.0011669 -8.58755e-05 -0.00327481 0.00551627 0.00407181 0.00451532 0.00176587 -0.00533276 0.00417869 0.00575407 0.00439452 0.00530705 0.00442268 -0.00011535 0.00201232 -0.00252675 -0.00619354 -0.00171718 0.00503109 0.00652582 0.0130396 0.00656776 -0.000729132 -0.00236875 -0.00536357 -0.0027278 0.00119402 0.000951279 -0.000581558 -0.00444735 -0.00627485 -0.00291118 8.05242e-05 -0.00805505 -0.00732477 -0.00599489 0.00274082 0.00822098 0.00218995 0.00335435 0.0104442 0.00456447 0.000857822 -0.0011949 -0.00412356 0.00694761 0.000125669 0.00390156 0.00518939 0.00126177 0.00479984 0.00487681 -0.000493579 -0.000717312 0.00129619 0.00661079 0.00484423 0.00571331 0.00703143 0.00690998 0.00565754 0.00681667 0.0107057 -6.42083e-05 0.000251809 0.0080863 0.00772457 0.000675119 0.00335232 0.00698118 0.000781971 -0.0003107 -0.00334413 -0.00588629 0.00588033 -0.000999521 -0.0026808 0.00101188 0.000556831 -0.00378328 0.00169636 -0.0040072 -0.00442128 0.00342628 0.00303716 0.000462737 -0.00326212 -0.00249787 0.000925211 -0.00429239 -0.0047955 -0.000403648 0.000434058 0.000851848 0.00898946 0.0041163 0.00087844 0.00819777 0.00181241 0.00368162 0.0082354 0.00741072 -0.000510097 -0.000779831 0.00421427 0.00495932 0.00644585 -0.00167345 0.00113955 0.00285031 0.00182006 0.00184203 0.00894712 0.00175572 -0.000375407 -0.00335626 -0.00422676 0.00423885 0.00700483 0.0055832 0.00486553 -0.00355092 0.000585766 -0.0033584 -0.00129848 -0.0162541 -0.0136466 -0.00434311 -0.00658087 0.00384613 0.00872492 0.00572208 0.00264923 0.000916356 0.000595657 -0.00508592 -0.00929272 -0.00951691 -0.00549654 -0.00425644 -0.00580616 0.00196846 0.00286942 -0.00324777 -0.000286292 0.00327619 0.00308205 -0.00622693 -0.00116194 0.00761809 0.00775974 0.00389045 -0.000591437 -0.00729162 -0.00831922 -0.00766572 -0.00457402 0.0064563 0.00649108 0.00108403 0.00934302 0.00386941 0.00449513 0.00268884 0.00693567 -0.00625743 -0.00190733 0.00535127 -0.00431184 -0.00544638 -0.00343152 -0.0036255 -0.00617014 -0.000317406 0.00460675 -0.000337717 0.000386322 -0.00655564 0.000214408 0.00363543 -0.00194888 -0.00402801 0.00199121 -0.00395986 -0.00346062 -0.00868195 -0.0111341 -0.00626331 0.00158091 0.00536065 0.00698359 0.00418482 0.00174427 0.0118452 -0.000296448 0.00774525 0.00289771 0.000567623 0.00481738 0.00272252 0.00325652 0.000639623 0.00437073 -0.00410491 -0.00516335 -0.00424589 -0.00780413 -0.00126492 -0.00242597 0.00256476 0.00672695 0.0046998 0.00497919 -5.4257e-05 0.00558741 0.00395946 -0.0015043 0.0073555 0.0021867 -0.00445932 0.00323116 0.00431654 -0.00324726 0.00348984 0.00209945 0.00475118 0.00462606 0.00686342 0.00565373 0.0118533 0.00348499 0.0101213 0.00266867 -0.00386783 -0.00299984 0.00539065 -0.000557072 -0.00123687 0.000453863 0.00151822 0.0077163 -0.000605304 -0.00436213 -0.0082155 -0.00447607 0.000350371 -0.00302717 -0.000200159 0.00050677 -0.00166957 -0.00292195 -0.00299713 -0.00913591 -0.00132414 0.00541888 0.00180529 -0.00235611 -0.00325065 -0.00305666 0.00300782 0.000641243 0.00143204 -3.70865e-05 0.000590719 0.0102978 0.00260583 -0.000498633 -1.5203e-05 0.00169307 0.00884732 0.00951589 0.0126476 0.00240439 -0.000744739 -0.00249644 -0.00505713 0.000228115 0.00121885 0.00405571 0.00567927 0.00481611 0.0100697 0.00310969 0.00282911 0.00632862 0.00295861 0.00168142 0.00366068 0.00679567 0.00274602 0.00236711 0.00143034 -0.00539666 -0.00169951 -0.00787534 -0.00992039 -0.00513818 0.00445596 0.00522343 0.0070616 0.00341096 0.0092611 0.00738598 -0.00169299 0.00245784 -0.00471494 -0.00649688 -0.00858897 -0.00175048 -0.0052085 0.00439601 0.000432568 -0.00387264 0.000695867 -0.00169227 -0.00349078 -0.00791516 -0.0173336 -0.007832 -0.00530786 0.00414855 -0.00992805 -0.00487012 -0.00733446 -0.0100183 -0.0101789 0.00252091 0.0057764 0.000930735 0.00356083 0.00565113 -0.00370116 -0.00763508 0.00644303 0.000499918 -0.00249757 0.00404478 0.000305704 -0.0018869 -0.00494585 -0.00432303 -0.00387083 -0.00949262 0.000650497 -0.00609256 -0.00361295 0.00156536 -0.00733084 -0.0074839 -0.00280749 -0.00399676 -0.00550137 -0.00171924 0.00404838 0.00396661 -8.81401e-05 -0.00217576 -0.00284912 -0.00567363 0.00290491 0.00235031 -0.000191588 -0.00183568 -0.00045924 -0.00142597 0.0063275 0.00480412 0.000341383 -0.002618 0.000289883 0.00338213 0.0027072 0.00267989 -0.000803792 0.00511087 0.00381112 0.00810754 0.00893037 0.00228233 0.00358938 0.00191038 0.00547422 0.00255374 1.77025e-05 0.00106024 -0.00363549 -0.00427704 0.00126822 0.00742549 0.00403099 0.00506818 0.00764965 0.00178246 -0.00468375 -0.00304351 -0.00282235 -0.000181311 0.00899706 0.0124862 0.00377699 0.00491538 0.00464652 0.00442168 -0.00478226 -0.0073706 -0.00577986 -0.00300927 -0.00262718 -0.000495072 -0.000112779 6.56899e-05 -0.0079264 -0.00508141 -0.00606842 -0.00341199 -0.00359637 0.00190212 0.000293211 0.000851268 -0.00170711 -0.00203804 -7.66809e-05 0.00569592 -0.000732812 0.00220528 0.00251234 0.0011918 -0.00144166 -0.00231759 0.00453309 -0.000710042 0.00379822 0.000226035 0.000348291 0.00313093 -0.000490276 -0.0029928 0.00148903 -0.00487273 0.00149541 -0.00189204 0.00677479 -0.00109829 -0.00212006 -0.00704193 -0.0031211 0.000801695 0.00108158 -0.00456017 0.00543522 0.00203538 0.00903778 0.00547312 0.00265899 0.0017419 0.0123924 0.00964712 0.00743955 0.0081959 0.00873098 0.00303499 0.000823587 -0.00678155 -0.0109818 -0.00861926 -0.0094136 -0.00459051 -0.00340652 0.00846378 0.0103094 0.00365235 0.00606853 0.00570031 0.00424873 -0.00245084 -0.000286863 -0.00724921 -0.003967 -0.00287663 -0.00782724 -0.000477016 0.000561429 0.00134318 -0.00162473 -0.00247947 -0.00746441 -0.0117813 -0.015562 -0.0115162 -0.00276472 -0.00561068 -0.0100938 -0.014877 -0.0159823 -0.00330023 -0.00798289 0.000215762 -0.00119243 -0.00951874 0.00071076 0.00218394 -0.0075964 -0.00275669 -0.00204223 0.00891743 0.0070596 0.00626789 0.00026448 -0.00851676 -0.00682008 -0.00529616 -0.00629943 -0.0120034 -0.00179711 -0.00420876 -0.00192532 0.00194221 -0.00421471 -0.00624227 -0.0148721 -0.00604034 -0.00222465 -0.00159504 0.00487645 -0.000484599 -0.00152364 0.00416316 -0.0070704 -0.00104992 0.00218381 -0.00161606 -0.00236344 0.00222084 -0.00236736 0.00312876 0.00402374 0.00175506 -0.000175057 -0.00747021 -0.0114289 -0.00289748 0.000913995 0.00577343 -0.000418021 0.00567248 -0.00217748 -0.00400061 -0.00168957 0.00612983 -0.00550936 -0.00653361 0.00281845 -0.00498678 0.00340777 5.76336e-05 0.00569239 -6.83684e-05 -0.00114003 0.00914011 0.00282311 0.00295924 0.00304686 -0.00363821 -0.00433624 -0.00756299 -0.008876 -0.00161189 0.0037095 0.00442706 0.00694794 0.00151966 0.00179303 0.00513331 -0.00376569 -0.00387772 -0.00196172 0.00216158 -0.00488986 -0.0049416 -0.00223465 -0.00696915 -0.0105382 -0.00610274 0.000905512 0.00255473 -0.00213317 -0.00278989 -0.00277972 -0.00974554 -0.0094543 0.00136905 0.0101268 0.00500392 0.00416337 0.00630084 -0.00351347 0.00689156 0.00310003 -0.00365357 -0.00422727 -0.000338838 -0.00191557 -0.00611784 0.00270666 0.000947 0.000591092 0.000696476 -0.00876055 -0.0039953 -0.00285644 0.000292447 0.00885574 0.00371745 -0.00309554 -0.0064514 -0.00242734 -8.50931e-05 -0.0011005 -0.00665627 -0.00948965 0.00340945 0.00841244 0.0119221 0.00411996 0.00644771 0.00976987 0.0065112 0.0119722 0.00857548 0.00609844 0.00261145 0.00142204 -0.000755684 -0.00222753 -0.00714002 -0.0124693 -0.00680709 -0.000957965 0.00594879 0.00304269 0.000872669 0.00801147 -0.00187627 0.00687551 -0.00129902 0.00111717 -0.00991931 -0.00440497 -0.00690396 -0.00359432 -0.0028618 -0.00123304 0.00222709 -0.00175125 -0.00143987 0.000393825 0.000266259 -0.0081953 -0.00529746 0.00371225 -0.00186443 -0.0145665 -0.0100629 -0.00891065 -0.00923791 -0.00830041 -0.0111979 -0.00886155 -0.00341979 -8.33281e-05 0.00211952 -0.00371817 -0.00326513 -0.00101308 -0.000479167 0.00674129 0.00197055 0.0058543 -0.00215798 0.000765613 0.000732429 -0.00168667 -0.00966673 0.00168215 -0.00109581 0.00463566 0.00446449 -0.000908786 -0.0125037 -0.0144709 -0.00875794 6.21503e-05 0.00586598 0.00942041 0.0034383 0.00102371 0.00230394 -0.00834397 -0.00530346 -0.00131684 0.0049775 0.00299801 0.0041974 -0.000685238 0.0065644 0.00510395 0.00570944 0.001613 0.00186206 -0.00444406 -0.00270236 0.000855913 0.00358712 0.00830391 0.00210519 -0.00551985 0.000190166 -0.00265064 -0.00244296 0.00180599 -0.00245412 -0.00501666 0.00192717 0.00581207 0.00584268 0.00646893 -0.005861 -0.00358735 -0.000544447 -0.00951994 -0.00191624 0.0012114 -0.00518463 -0.00436465 -0.000493689 0.00053289 0.000692772 -0.00153041 0.000560009 0.00597053 0.000515629 0.00423576 0.00282995 -0.000103611 -0.00821203 -0.000943628 0.00303524 0.000478924 -0.00412853 -0.00645516 -0.00170946 -0.00532174 -0.00720206 -0.001201 -0.00208842 0.00273067 -0.00674629 0.0044762 0.00198081 -0.00879942 0.00318618 0.00613833 0.00426081 -0.000147509 0.00597795 -0.00099143 0.00702995 0.00164503 0.00114563 0.00101711 -0.00189005 0.00516668 -0.0037768 0.00357201 -0.00411407 -0.00641247 -0.00172649 0.00082233 0.00191104 0.00363082 0.00145822 0.00192785 0.00656257 0.000278038 -0.00628711 0.00253141 0.00394588 -0.00185061 -0.00923955 -0.00288187 0.00376801 0.00975519 0.00714768 0.00975234 0.00435343 0.00235635 0.00311315 -0.00204748 -0.00602166 0.0016212 0.00239047 0.0051897 0.006279 -0.00559771 -0.00842409 -0.00824848 0.00181449 0.00753189 0.000717628 -0.00736469 -0.000247357 0.00652145 0.00506787 0.00235655 0.00458419 0.00395437 0.00341751 -0.00115448 -0.0132869 -0.00703655 7.70907e-06 0.00444592 0.00109936 -0.00408971 -0.00670974 0.000812743 -0.00970676 -0.00885496 -0.00333011 0.00118216 -0.0037713 -0.00121244 0.000948176 -0.00281567 0.00272515 -0.00775591 -0.00822552 -0.00593676 -0.00548242 -0.000398832 -0.000120246 -0.000255179 0.000252532 -0.00569835 -0.000326746 0.00839937 0.00759282 0.0054162 0.00461503 0.0011499 0.00198539 -0.000947249 -0.00198859 -0.00747057 0.000716839 -0.00115094 0.00342818 -0.00946696 -0.00790411 -0.0168987 -0.00331467 -0.00230982 0.001046 0.00566693 0.00113804 -0.00554377 0.00101452 -0.0121024 -0.00584137 0.00216808 0.00637003 -0.00308811 -0.00154817 -0.00139205 -0.00133745 0.00224106 0.000791867 0.00193498 0.00332735 -0.00306044 -0.000253364 -0.00023674 0.00151018 0.000667833 0.00203671 -0.00353427 -0.00427049 -0.00694033 -0.00163027 -0.00380174 -0.00488115 -0.00283008 4.42344e-05 0.00566824 0.00425604 0.0114881 0.00121169 -0.00413976 0.000482926 -0.000174572 -0.00010125 0.00257602 -0.00343478 -0.0034493 0.00375868 0.00225084 0.00335575 -0.000156052 0.00266988 0.00360934 -0.00367378 0.000132983 -0.00321101 -0.00497842 -0.00885037 -0.0088735 -0.007047 -0.00673597 -0.00439185 0.000669353 -0.00168515 -0.00752619 -0.000595698 0.00358004 0.00118502 -0.000248258 0.00577251 0.00470209 0.00804344 -0.00143749 0.00044368 -0.00135321 -0.00598925 -0.00179809 0.0100138 0.00819775 0.00561161 0.00582116 0.00255372 0.00208291 -0.00165625 -0.000129663 -0.00770612 -0.0012846 0.00164935 -0.00484896 -0.00329174 0.00330793 0.00173352 0.00286757 -0.003655 -0.00139657 