-0.00468145 -0.00112769 -0.00186494 -0.00400408 -0.0133155 0.00170189 -0.00244534 -0.00563954 -0.0164873 -0.0110746 -0.00701753 0.00154164 0.00101121 -0.0110774 -0.0018336 0.0126444 -0.00180559 0.00082039 0.0046231 0.00611711 0.00163406 0.00577359 0.00997033 0.000941352 -0.00368008 -0.00262186 0.00181635 -0.00394868 -0.00804652 0.00373748 0.0006884 0.00176761 0.000894593 0.000160282 0.00183798 0.000460714 -0.00304141 -0.00150685 0.0122806 0.000971049 -0.00116705 0.0138491 0.0138121 0.00528141 -0.00069276 -0.0115677 -0.00568838 -0.0039982 -0.00997219 -0.0113557 -0.00870394 -0.00621375 -0.00809411 -0.00495784 0.000626559 0.00508856 3.95904e-05 -0.000600682 0.00233589 0.00315123 -0.00727885 -0.00559168 -0.0031055 -0.000366928 -0.0055484 0.00195932 0.00560249 -0.00589172 -0.000809954 0.00545017 -0.00412892 -0.00247592 0.000268014 -0.00168948 -0.00905677 -0.00873389 -0.0158243 -0.00925627 -0.00921847 -0.0174144 -0.0106826 -0.0100685 -0.0111063 -0.0121778 -0.0126925 -0.00414124 -0.0102813 0.00172518 0.00298224 -0.000381276 0.00736959 0.00823365 0.0126408 0.00418866 0.0102148 -0.00250837 -0.00126221 0.00418952 0.000776771 8.88371e-06 0.00279112 0.0142354 0.00181936 0.0120793 0.0109653 0.00889136 0.0183393 0.0072289 0.00707243 -0.000621516 0.00322261 0.00745019 -0.00442601 -0.00668825 0.00556196 0.00942029 0.00706997 0.00900607 0.00522967 -0.00507863 -0.00267027 -0.00896461 -0.0126751 -0.00945837 -0.000933296 -0.00388789 -0.00438322 -0.00160901 -0.00292516 -0.00518269 -0.00994369 -0.00817174 -0.00697545 0.00339445 -0.00746667 0.000991938 -0.00378605 -0.000157175 -0.00262698 0.00200996 -0.000469636 0.00391041 0.00640496 0.0012089 -0.00137002 0.00811628 0.00426201 -0.00343877 -0.00515446 -0.00217525 0.00528281 -0.00238389 -0.000176552 0.000211039 0.0120644 0.0101034 -0.00403167 -0.00372627 0.0119515 0.0102033 0.00460061 0.0109064 0.0121757 -0.00222324 -0.000812674 -0.00142946 0.000536305 -0.00397133 0.00023743 -0.000177512 -0.000639872 -0.00206829 -0.000630528 -0.000116462 -0.0105157 0.00424414 -0.00756503 -0.018602 -0.0145396 -0.0125696 -0.0190304 -0.00490706 -0.00178685 -0.00492048 -0.000674773 0.000782918 -0.0027151 -0.00584751 0.00336267 0.00914802 0.00578614 0.0110241 0.00353837 0.0019589 -0.00335819 -0.00436901 -0.0106386 -0.00715022 -0.00562364 -0.00497865 0.00602092 0.00216207 -0.00420123 -0.00568773 -0.00335681 -0.00469964 -0.00549258 -0.000172736 5.14333e-05 -0.00315599 0.00291796 0.00241819 0.010147 0.00663026 0.00247146 -0.007829 -0.00336006 -0.000169096 -0.00987932 -0.00357582 -0.0105694 -0.00378731 -0.00889412 -0.00507273 0.000531452 0.00411563 0.000435642 -0.00824396 -0.00420272 0.00566566 -0.00184127 -0.00518405 -6.7294e-05 -0.00115988 -0.00435844 0.0117625 0.00371902 -0.00137039 -0.00478831 -0.00731357 -0.00501332 -0.00989775 -0.00429331 -0.00687788 -0.00632102 -0.00593458 -0.011648 -0.00896626 -0.00370709 -0.0115017 -0.010196 -0.0129016 -0.017055 -0.00982345 -0.00820426 -0.0072581 -0.00186568 -0.00355622 0.00666087 0.00344577 0.00269868 0.0147903 0.0139709 0.00496444 0.00402782 -0.00501926 -0.00275842 -0.00439932 -0.00321736 -0.00268251 -0.000366243 0.00810397 0.0107248 0.0167101 0.0115148 0.0120311 0.00663041 0.00574687 0.00285434 0.00471552 0.00243343 0.00753148 -0.00459285 -0.0102237 0.00076216 0.00246782 -0.0028494 0.0037941 0.0023474 -0.00826707 -0.0129034 -0.00775136 -0.00206549 -0.00533479 -0.00334154 -0.0106148 -0.0029356 -0.00080383 -0.00782132 -0.00558973 -0.00445094 -0.00736701 -0.00808691 -0.000465931 0.000942253 -0.00410077 -0.00325212 0.00123571 -0.000899946 0.00230011 -0.00107364 0.0053864 0.00982366 0.00446179 -0.000847599 -0.00236125 -0.00653253 -0.00689319 -0.00844007 -0.00311328 -0.0115654 -0.00637401 0.00132324 -0.00253459 -0.00159241 0.0055832 -0.0029895 0.00409867 0.00719342 0.0107754 0.0115497 0.00592772 0.00710576 -0.000639564 -0.0079915 0.00204638 -0.00210419 -0.0102959 -0.00921805 0.00125363 0.000894651 -0.000194246 0.0149249 0.00744195 -0.0071075 -0.00122557 -0.00449687 -0.0099782 -0.0111643 -0.00939212 -0.00701433 -0.00333908 -0.0062655 -0.00129712 0.000771139 -0.00324472 0.000843837 0.00426705 0.000432204 0.000642067 -0.00526103 0.00854228 0.00505027 0.00244621 -0.00944489 -0.00506819 -0.0130354 -0.00708118 -0.00361317 0.0040658 -0.000533977 0.0011428 -0.00296446 -0.0112393 -0.00288148 0.000432202 -0.00816235 -0.00120805 -0.00607823 -0.00643263 -0.0024387 0.00226723 0.00254022 -0.00406042 -0.00411445 -0.001 0.00276337 0.00694937 -0.00814543 -0.00596418 -0.00262419 -0.00830795 -0.0197763 -0.0106422 -0.00229341 0.00414315 0.00713078 1.80154e-05 -0.000973741 0.00318103 -0.00282894 -0.00705351 -0.00404923 0.00319409 0.00778661 0.0108417 0.00612151 -0.00116996 -0.000975372 0.00131624 -0.00431753 -0.00619281 -0.00246283 -0.00876374 -0.00965103 -0.0088871 -0.00992392 -0.00115916 0.00113931 -0.00228657 -0.0028189 -0.0141439 -0.00968026 0.001794 -0.000949476 0.00219132 0.00613623 -0.00192419 0.0023926 0.000748038 0.0055138 0.00348974 0.0129947 0.00293341 -0.00108668 -0.00656725 -0.00678184 -0.00156986 -0.000931761 -0.00466407 -0.00464366 0.00067121 0.0021603 0.012239 0.00360098 0.00241962 0.00161586 0.000395134 0.00374633 0.00233906 0.00558216 -0.00356119 -0.00596112 -0.00782578 0.00512437 0.000533607 -0.00217086 -0.00185923 -0.00125327 -0.0122336 -0.0167382 -0.00868813 -0.00600694 -0.00384867 -0.00857128 -0.00424429 0.00214362 0.00208197 -0.00728037 -0.00419399 -0.00258609 -0.00473997 -0.00909784 -0.000328776 0.00207943 3.80626e-05 -0.00503083 -0.00161176 -0.00130683 -0.00126884 0.00367136 0.000989406 0.00594328 -0.0029002 -0.00140597 -0.00809487 -0.00507395 -0.00707382 -0.0104669 -0.00516592 -0.0102449 -0.00269072 0.00121814 -0.0003963 0.00117343 0.00163064 0.00688665 0.00383429 0.00813524 0.00510904 0.0136061 0.000642906 -0.00193226 -0.00348172 -0.00235069 -0.00729251 -0.00671409 -0.0144588 -0.0077463 0.00711376 0.0144176 0.003271 0.00500881 0.00423553 -0.00775422 0.000795535 0.00704237 0.0112456 -0.00996298 -0.00680807 -0.00701589 -0.000711441 -0.000495497 -0.0106755 -0.00539931 -0.000429425 -0.00167151 0.00740388 0.00675095 0.00200015 0.00837468 0.00926899 0.00488207 0.000268517 -0.00128893 -0.0102033 -0.0110884 -0.00795567 -0.00170696 0.00460326 0.00439022 -0.00108358 -0.000418596 -0.0111458 0.00022857 -0.00297699 -0.00463408 -0.00378927 -0.00232332 0.00317045 -0.000761277 -0.00449567 0.00966508 -0.00277813 -0.000699302 -0.00031249 0.00305277 0.00299002 -0.00269086 -0.0090971 0.00358712 0.00445433 -0.00694062 0.00466153 0.00544935 0.0166823 0.0160145 0.0112482 0.0077377 0.00568432 0.00178554 -3.40413e-05 -0.00325214 -0.00261291 -0.00158888 -2.19523e-05 0.00859777 -0.0041169 -0.00677007 -0.00485025 -0.0011061 -0.0101042 -0.00306687 -0.0139669 -0.00242841 0.00749784 0.00762012 0.000144863 0.00139204 -0.0126514 0.0010494 -0.00490377 -0.000458934 0.00393684 -0.0019498 -0.00036489 0.00405781 -0.00488783 -4.35626e-05 -0.00592359 -0.00519494 0.00159416 0.00263819 0.00958787 -0.00150642 -0.00568474 -0.00315045 -0.000202842 0.000315261 -0.00207072 -0.00172139 -0.00237671 -0.00337358 0.00316546 0.000949298 -0.000148181 0.0052325 -0.000102357 0.00413513 0.00331353 -0.00955185 -0.00161936 -0.0152944 -0.0109891 0.00190703 0.00125781 0.00237417 -0.0029162 -0.00409122 -0.00217348 -0.00103336 -0.00162815 -0.00701038 0.000503312 -0.00305779 -0.00782576 0.00247097 -0.00268784 -0.0124119 0.000448901 -0.00397973 -0.00496953 -0.0114619 0.00110214 0.00382797 0.00520965 0.005982 0.00782855 0.00784299 0.0024759 0.00554441 0.00318774 0.000678824 -0.0039816 -0.00202836 -0.00353636 0.000443722 0.000946299 -0.00870586 -0.00182438 -0.00487081 -0.000779501 0.00293969 0.000310951 -0.00206313 -0.00223078 -0.0032366 0.00373585 0.00230982 -0.00107136 0.00966515 -0.00713722 -0.00153447 -0.00809295 -0.00604919 -0.00239817 -0.00345999 -0.00170405 -0.00455257 0.0019024 0.0139477 0.00480532 -0.000263083 0.00259487 0.00322088 -0.00093077 -0.00201992 -0.00951438 -0.00904425 -0.00802845 -0.00542637 0.00229677 -0.0023226 -0.0118199 -0.0068283 0.000298086 0.00014037 0.00973286 0.0123976 0.00793706 0.00656625 0.00917861 0.0115463 0.00952151 -0.00542689 -0.0057329 -0.00392034 -0.0110579 -0.00193885 0.0038983 -0.00109616 -0.00314217 -0.00509931 -0.00305472 -0.00461098 -0.0115411 -0.00205415 0.001379 0.0041122 -0.00325453 -0.00218835 -0.0117558 -0.00310381 -0.0180383 -0.00650645 0.00244877 -0.00482827 -0.000287928 -0.00153679 4.36201e-06 0.00367158 -0.000869952 -0.0119209 -0.00138504 0.00672177 0.012985 0.00796846 0.0077845 0.00219106 -0.00213523 -0.00143417 -2.42526e-06 -0.00121764 -0.004327 -0.00558796 -0.0041229 0.00358392 0.000569 0.00346364 -0.00639778 -0.0109666 -0.00582607 -0.00930975 -0.0120133 0.00157392 0.00605909 0.0109854 0.0148386 0.00106706 0.00249371 0.00183263 0.00274223 0.00541164 0.00980659 0.00216241 0.00393639 0.0010991 0.00237127 0.00649109 -0.00677536 0.00170993 0.00408583 -0.00687115 -0.000385438 -0.00738549 -0.00304362 -0.00364167 -0.00516238 -0.00249234 -0.00237836 -0.00642696 -0.00777205 -0.00270238 0.00331139 0.00177046 -0.0062933 0.000777747 -0.00443133 0.00370525 -0.00203833 0.00584672 0.00439026 -0.0126967 -0.00406368 0.0023072 -2.41566e-05 -0.00513146 0.000792235 -0.00600053 -0.00466645 -0.00574057 -0.00651126 0.00131742 -0.00260621 -0.00609676 -0.0126589 0.00402139 -0.00438949 -0.00538632 0.000500705 0.000856944 -0.00778353 -0.000280922 0.00111035 0.00838015 0.00149191 0.00598464 0.00874059 -0.00298891 -0.00306234 0.00722714 0.0138574 0.00513477 -0.000794638 -0.00777645 -0.011955 -0.00391189 0.00251494 -0.000862949 -0.00681106 -0.0083682 -0.000786211 0.00326257 0.00100552 -0.00172809 0.00264084 0.00430246 0.00419944 -0.00214465 -0.00856684 0.00318114 -0.00169117 -0.00943232 -0.00753056 -0.00810739 -0.00655747 0.00145215 0.00267973 -0.00918648 -0.00183716 0.0107599 0.00247099 0.00117328 0.00811838 0.000415883 -0.0085646 -0.00342696 0.00510524 -0.00318941 0.00233082 -0.00846657 -0.00387507 -0.00790736 -0.0160633 -0.00262277 0.00940157 0.000429459 -0.00521599 0.00793927 0.00761998 -0.00121348 0.00583127 0.00809198 0.0075275 0.000501883 0.000670329 -0.00631652 0.00228129 -0.00303177 0.000938883 -0.00322385 0.00273873 0.0018661 -0.0126539 -0.00103252 -0.000227764 0.00299042 -0.00622751 0.00103767 -0.00565357 -0.0104226 -0.00649799 -0.00162936 -0.00304731 -3.78538e-05 0.000904716 0.00125915 -0.0048483 -0.00726002 -0.0012503 0.00319664 -0.00509928 -0.00413976 -0.00101331 0.00929573 0.00673767 0.00163021 -0.00123861 0.00565461 0.00786691 -6.54925e-05 0.00406336 0.00279141 -0.00343553 0.0044118 0.00189948 0.00902198 0.00625154 -0.00521992 -0.00718812 -0.00149088 0.00505618 -0.00411914 -0.0133513 0.000510276 0.00164432 0.00085943 0.00278515 -0.00190668 -0.00940058 -0.0057935 0.00324909 0.00600876 0.00122392 -0.00103753 -0.0042958 0.00390504 -0.00255837 0.00142834 0.0035486 0.00531956 0.00558425 -0.00451404 -0.00220235 -0.008397 -0.00906116 -0.000320568 -0.00204159 0.0036503 -0.0103218 -0.00977907 0.000489664 -0.00922271 0.00243798 -0.00138617 -0.00772402 -0.0070149 -0.00473054 0.0130195 0.0102899 0.0117587 0.017374 0.00225668 -0.00253187 -0.000672944 0.00231358 0.0025466 0.00230695 -0.00866808 -0.00274003 0.000387848 0.00333259 -0.00174585 0.000961975 -0.00559008 -0.00839681 -0.00302133 -0.00220313 -0.00567667 -0.00238075 -0.0110042 -0.00912635 -0.00343362 0.000288478 0.00209963 -0.00315675 0.00163904 0.00570397 0.00269893 -0.000332815 0.0041273 0.0108102 0.00548904 -7.97346e-05 -0.00258736 -0.000615997 0.00592677 -0.0038791 0.00168758 -0.00726818 -0.00296068 0.0049141 0.00201664 -0.00408313 0.00335769 -0.00354124 -0.00338016 -0.0079661 -0.00641133 -0.00879932 0.00115851 -0.00770309 -0.00690419 -0.00769454 -0.012418 -0.00449011 -0.00353314 -0.00784694 -0.00759939 -0.00281341 0.00800503 0.00696038 0.00187899 -0.000208167 -0.0050648 -0.00261402 0.00429849 0.00515513 -0.00306101 -0.00114427 -0.00414976 -0.00779209 -0.00109195 -0.00633597 -0.0109879 0.00294923 0.00132612 0.00207352 0.0115128 0.0121956 0.00388994 0.00422972 0.0182444 0.0103051 -0.00312354 0.00718694 0.00654545 0.0037886 0.00356609 0.00419865 -0.00242836 0.00548143 0.00174968 -0.00157609 -0.000906973 0.000873827 0.00455003 -0.0018375 -0.00180905 -0.00804637 -0.0050131 -0.00512375 -0.00050403 -0.00479367 0.00211945 -0.00261654 -0.00597934 -0.00588306 -0.0083706 -0.000574638 -0.000610367 0.00195103 -0.00326693 -0.00206842 0.00217397 0.00303581 0.00115012 -0.000843236 -0.000321436 0.00819238 0.00513711 0.00138596 0.000951633 0.00150687 0.00402274 0.00131099 0.00372635 -0.00115091 -0.00247678 -0.000466403 -0.00311285 0.000570019 -0.00196307 -0.0118471 0.00236848 -0.000600835 0.0014192 0.00603285 0.00109028 -0.0042739 0.00537773 0.00967856 0.00575627 0.00169783 -0.00320912 -0.00527667 -0.00357937 0.00383308 0.00350383 -0.00613232 -0.00143875 0.00496411 -0.00749955 -0.00682616 -0.00829638 -0.0059661 -0.00377179 -0.00807039 -0.0048519 -0.0139848 -0.00649032 0.00183013 0.000230425 0.00546582 0.00497955 -0.0027617 -0.00681528 -0.00675981 0.000782083 0.00393282 -0.00369474 0.00811401 -0.00314823 7.72419e-05 0.00778367 0.00389476 0.00548207 0.00697212 -0.000679869 0.00636071 0.00301656 0.00180748 -0.00254 0.00323901 -0.0133217 -0.00120875 2.30301e-05 -0.00231819 -0.000701808 -0.0128843 -0.0040411 -0.00189744 -0.00567472 -0.00225024 0.00566455 0.000693745 0.00568776 0.00851996 -0.00572588 -0.00120824 -0.00290931 -0.00304429 -0.0125883 -0.00255397 -0.00518042 -0.00559494 -0.00547212 0.00367148 0.00145376 0.000660401 -0.000386728 0.00219042 0.00283193 -0.000743463 -0.00119752 -0.00460144 -0.00123558 -0.00936687 -0.0111785 -0.00849368 -0.00586984 -0.00939161 -0.00185752 -0.00601745 0.000129911 -0.00431766 -0.00941347 0.00439566 -0.00066282 0.00281879 0.00425289 -0.00182251 0.00170522 0.00706434 0.000385095 -0.00121675 0.00303489 0.00279185 0.000581918 -0.00480948 -0.0100759 -0.0164633 -0.00927598 -0.0082737 -0.0122994 -0.00388279 -0.0046108 0.00937047 0.00942543 0.000934674 0.00483062 0.00978425 0.00586011 0.0037922 0.00747034 0.00676148 0.00482955 0.000224533 -0.00601349 -0.0114385 0.00135581 0.00617827 0.00542561 0.00267684 -2.78588e-05 0.00377579 0.00416765 0.00267477 0.000276487 0.00125973 -0.0035493 -0.00436036 0.00219017 -0.00487564 0.00262146 0.00241249 -0.0091943 -0.00621756 -0.00250644 0.0011839 0.0075234 0.00715973 0.0094086 0.00653398 0.00684353 0.0039366 -0.00153524 -0.00717139 0.000469794 0.00372976 -0.0014758 0.00258512 -0.000920409 0.00327176 0.00121349 0.00133281 -0.000422049 -0.00940837 -0.00175255 0.00283458 0.00206776 -0.0092128 -0.00523631 -0.00822162 -0.00634906 -0.000868633 -0.00431778 -0.00126821 -0.0034084 -0.00225602 0.00733348 0.000433176 0.00377453 0.00261378 -0.00399921 -0.00530914 -0.00490781 0.00261043 0.00264364 0.0086097 -0.0012714 -0.0065625 -0.00017519 0.000665 0.0017904 -0.0109577 -0.0102062 -0.00957413 -0.0053439 -0.0126262 -0.00785685 0.000319893 -0.000438489 -0.00563999 0.00534268 -0.00283203 -0.00201308 -0.0101827 -0.00183456 0.00160511 -0.00960556 -0.00585106 -0.00827362 -0.0110078 0.00474056 0.00245489 0.00618093 0.00986219 0.00328649 0.00486815 0.00995636 0.00328436 0.00206372 0.00127407 -0.00120069 -0.000718915 -4.38678e-05 -0.00273594 -0.00835127 -0.0075684 -0.00509779 -0.0117159 -0.0100908 -0.00082891 0.0127996 0.0116453 0.000972206 0.00409234 -0.000629198 0.00253771 -0.0022112 0.00096862 -0.00579973 -0.0052691 -0.00847575 -0.00691715 -0.00860567 -0.00511355 0.00251297 0.00493837 0.0068035 0.00220639 8.24067e-06 -0.00420449 0.00162311 0.0037713 0.00116311 -0.0055153 -0.0176815 -0.00776269 -0.00213113 -0.00248483 -0.00493808 -0.00185287 -0.00133161 -0.00681989 -0.00315712 -0.00147482 0.0126169 0.00634934 0.00713244 0.000871613 0.010332 0.00568936 -0.0031197 -0.00331701 0.000115798 -0.000777662 -0.00957022 -0.00746485 -0.0141465 -0.0120399 -0.00849333 -0.00452618 -0.0104418 0.00167697 -0.00575097 0.0030753 0.0113443 0.000910821 -0.0066714 -3.6567e-05 0.00324743 -0.00425435 0.00274588 0.000368348 0.000981689 -0.00981662 -0.0113872 -0.0108579 -0.0125341 0.00241857 -0.00344255 0.00252788 0.00511938 0.00482114 -0.000732099 0.0073401 0.00309967 0.00121259 -0.00617129 0.00464951 -0.00420688 -0.00612909 0.00139819 -6.29179e-05 -0.00756663 -0.00217076 0.00318299 -0.00315622 0.00879178 0.00866176 -0.00133033 0.00321721 0.00939032 0.00427337 0.00609577 0.00408604 -0.00667944 0.00115014 -0.00342411 0.00168628 0.0099911 0.00374914 -0.00295092 -0.0082294 -0.0079658 0.000727403 0.00193974 0.000132818 -0.00771134 -0.00617209 -0.0054105 -0.0146142 -0.00906316 -0.00413678 0.00283795 0.00548561 0.000671096 0.00242343 0.00870827 0.00245341 0.00236769 0.00218195 -0.000772489 -0.00891845 -0.0073754 -0.00854431 -0.00323058 0.00403806 -0.00734931 -0.00854071 -0.012772 -0.00098992 -0.00537275 -0.00588804 -0.00197429 -0.00754676 -0.00933276 -0.00724194 -0.00394721 -0.00674137 -0.00322685 -0.00179024 0.00392362 -0.000358734 -0.00858171 -0.0115722 -0.00959881 -0.00866146 -0.00844409 -0.0146606 -0.0173355 -0.0187985 -0.00950425 0.00160918 -0.00329376 0.00191759 0.00529413 -0.00290657 -0.00375855 -0.00290388 -0.00139463 0.0060423 0.00894795 -0.000585567 -0.0002663 -0.00379786 -0.00663122 -0.00164156 -0.00975952 -0.0138275 -0.0116576 0.00325969 0.0100124 0.0080633 0.00734995 0.00327193 -0.00167766 0.00425881 0.00234277 0.00282169 -0.00319162 0.000224944 -0.00708645 -0.00453502 -0.000925483 -0.00473271 -0.00011416 0.00606221 0.00659408 0.00631553 -0.000180059 -0.00550284 -0.000124642 0.00104634 0.00262804 -0.00827006 -0.00832441 -0.00216083 -0.00650426 -0.00210651 -0.00147308 -0.000940229 0.0013382 -0.00384238 -0.00419941 -0.000270528 0.0118256 0.00641812 0.00153618 0.00073416 0.00605701 0.0025747 0.00306385 -0.00521362 -0.00636185 -0.00898157 -0.0100593 -8.76322e-05 -0.00638915 -0.00829776 -0.00534667 0.0011529 -0.00434204 0.00165609 -0.00471328 -0.00371432 0.00716105 -0.00746522 0.00111883 -0.000239783 0.0127508 0.00109383 0.00653729 0.000847453 -0.00165793 -0.000506494 -0.00502628 0.00202402 -0.00313666 0.00467214 -0.00195151 -0.000515631 0.00859654 0.00657471 0.0100416 -0.00134288 -0.0041821 0.00525776 0.00558844 0.0036161 0.00645887 -0.00660828 0.00122618 -0.00495314 -0.00204438 -0.00585105 0.0015745 -6.25523e-05 0.00567044 0.00969568 0.00118758 0.0074305 0.00712689 0.00470868 -0.0009243 0.000673964 0.00540176 0.00666002 0.00765925 0.0109148 0.0102813 0.00428734 0.00385343 0.00397692 -0.00168976 0.00078038 0.00320648 0.00756194 -0.00338875 0.00111468 -0.000500076 -0.0106773 -0.00970711 4.69981e-05 0.00699067 -0.000265416 -0.00535039 -0.00405835 0.00940026 0.0040956 0.00744223 0.00039522 -0.00721643 -0.00864192 -0.0134083 -0.00794257 -0.011992 -0.00508046 -0.00859949 -0.010517 -0.00575382 -0.0168067 -0.00855067 -0.00531511 -0.00163918 -0.00100918 -0.0112179 -0.00317817 -0.000425632 -0.00380893 0.0020839 0.00356263 0.000125295 -0.0105253 -0.0140882 -0.00927866 -0.00472497 0.0041421 -0.00340949 -0.00772773 0.00117047 -0.00436601 0.00408216 -0.00322909 0.00451954 0.00023878 -0.00324071 -0.00322674 0.00146769 -0.00620501 -0.00635761 0.00127666 0.000541761 0.00297111 -7.45566e-05 -0.00857576 -0.011298 0.00107483 -0.0102125 -0.0151837 -0.00683433 -0.000663158 0.00298476 0.00854549 -0.00242093 0.000737191 0.000550268 0.00652447 -0.00134669 0.00278915 -0.00229504 -0.00118221 -0.00389624 -0.00138007 -0.00480315 -0.00769364 -0.0030671 -0.00571656 0.00327502 0.007047 -4.46658e-05 0.000630833 -0.00108558 -0.00140249 0.00196219 -0.00952875 -0.0087728 -0.000201176 -0.00325025 -0.000971079 -0.00171001 -0.00188731 -0.00366458 -0.00233652 0.00170833 -0.00107072 0.00264871 0.0031951 0.0086477 0.0047851 0.0127793 0.0108206 0.000666787 -0.00237215 -0.00595543 -0.00493097 -0.00149484 0.000913488 -0.00300753 -0.00532274 -4.28343e-05 0.00124045 -0.00456045 0.00343983 0.00543871 0.0013865 0.00876138 0.00962393 0.00201614 0.00797333 0.0131676 0.0101383 0.00228788 0.00710482 -0.00347335 0.00385345 3.18991e-05 -0.00186417 0.0040703 0.00387342 0.0148348 -0.000280449 0.00522252 0.00693699 0.00800387 0.00999327 0.00637936 0.0072766 0.00411636 0.000563997 -0.00540648 -0.00346606 0.000276649 -0.00743233 -0.00101836 -0.010018 -0.0112706 -0.00628838 0.00253794 0.0108495 0.0071798 0.00960248 0.00863045 0.012045 -0.000122987 0.00399606 0.00376482 0.0113546 0.0124317 0.00843735 0.00190796 -0.0018481 0.00408565 0.0032906 -0.00235674 0.00766003 0.00451394 0.00211325 0.00792172 -0.00225877 0.0024735 -0.00706453 -0.00679259 -0.00433653 0.000611444 -0.00176998 -0.000584579 -0.00720281 0.00208319 0.0051802 0.00392825 -0.00185727 -0.00487101 -0.00744548 -0.00655337 -0.00223324 -0.00487715 -0.00945304 -0.0115548 0.00159008 0.00304676 -0.00476479 -0.00438871 -0.00334215 -0.00489719 -0.00494073 -0.00333503 -0.00399212 0.00497057 0.00533731 0.00445643 0.00252659 0.00456284 -0.00819728 -0.0140242 -0.0052004 -0.000169341 -0.000524935 -0.00913842 -0.00713669 -0.00301614 -0.00763696 -7.14551e-05 0.00145716 0.00266187 -0.00238222 0.00327115 0.0012627 0.00103399 -0.000307113 -0.00020113 0.0039731 -0.00592861 0.00214228 0.00743623 -0.00162236 -0.000625027 -0.00317953 -0.00393196 -0.00376966 -0.00588864 0.00814939 0.004195 0.00331932 0.0064905 0.00821554 -0.00120151 -0.00172906 -0.003451 0.000607211 0.00254628 0.00238646 -0.00117506 -0.00336698 0.0027567 -0.00165569 0.00411014 0.00136664 0.0039183 0.0100368 0.00236361 0.00617368 0.00152382 0.0042862 0.00591798 1.3242e-05 -0.00595854 0.00525224 0.00652817 0.00264845 0.00504506 -0.00202098 -0.00637776 0.00142376 0.00458396 0.0055001 0.00545295 0.00273498 0.00391621 0.00141121 0.0111306 0.00276796 0.00609401 0.00296966 -0.00948061 -0.00751198 -0.00701493 -0.00437632 -0.00286114 -0.00199366 0.00925737 0.000395445 -0.00261937 0.00659074 -0.00170591 0.00605078 0.000469019 0.00305906 0.00239657 0.0174942 0.0103281 0.011892 0.00538467 0.00896166 0.0057038 0.00328133 0.00425354 0.00888933 0.00505836 0.00412342 0.00316105 -0.00170591 0.0128022 -0.000240333 0.00543246 0.00800593 0.00989401 0.00199254 0.00281881 0.00582304 -0.00522612 -0.00387209 0.000963912 -0.0050786 -0.0110708 -0.00863573 -0.01134 -0.00702177 -0.00578621 0.0132096 0.00235321 0.00278279 0.00725734 0.00569034 -0.00289379 0.00269348 0.0116343 0.0102648 0.0103141 0.00220123 0.00623857 0.00382341 0.000237935 -0.000955707 -0.00398906 -0.00177362 0.000724377 0.00402304 -0.00240312 0.00815392 0.0102496 0.00405239 -0.000420406 -0.00156687 -0.00683216 -0.00783788 -0.0159192 -0.00967139 -0.00419502 0.00718873 0.00412852 0.00569495 -0.00240996 -0.00211735 0.00556394 -0.00259323 0.003364 -0.00601764 -0.0008814 0.000942188 0.0100768 0.0055515 0.00331916 0.00474834 0.00114207 -0.000194828 0.00805795 0.00382863 0.00691879 0.00195442 0.000183522 0.00824617 -0.000891967 -0.0174567 -0.0132348 -0.0012868 0.00153075 -0.0073446 -0.00804705 -0.00753083 -0.0114246 -0.0106026 0.00244197 0.00628478 0.00690193 0.00230605 0.00268004 -0.00228254 -0.00773073 0.00363759 0.0150793 0.00228176 -0.00243867 0.00211417 0.00837678 -0.004132 0.00360815 0.00474741 -0.00179303 -0.00314195 0.00492016 0.00756088 0.00487867 0.00591211 0.00234348 0.00253325 -0.00395147 -0.00103782 0.000906808 0.0067862 0.00130023 0.00997504 0.00186911 0.0018131 0.000252627 -0.000215721 -0.00107989 0.00322622 -0.00509764 0.00332345 0.00327103 -0.00115618 0.00389168 -0.000342204 0.00438057 0.00227884 0.000396826 0.00845291 0.00341096 0.0035792 0.00070677 0.0048791 -0.00167647 0.00673448 0.000714337 0.00545287 0.00123916 0.0135501 0.00212212 -0.00094006 -0.000254658 -0.00242358 -0.000845859 0.00339924 -0.00599637 -0.0097608 -0.00706638 -0.0111233 -0.00368794 -0.00113891 0.00859371 0.0115176 -0.000574416 0.00607722 0.0065861 0.000494147 -0.00866993 -0.0095152 -0.0136998 0.00511222 0.00787264 0.000241465 -0.00844116 -0.00234153 -0.00343235 -0.00101834 0.00687842 0.00546097 0.00485546 0.00366426 0.00965613 0.00712406 0.00153941 0.00434319 0.00282097 -0.00377407 -0.00171557 0.000794805 0.00640635 0.0049618 -0.000530016 0.0012708 0.00442309 -0.00208862 -0.00777259 -0.0133898 -0.0112437 -0.00821272 -0.0017885 0.0186883 0.00567178 0.00124854 0.00614553 0.00436456 -0.00533805 0.00675412 0.011294 0.00656732 0.0105929 0.00456908 -0.000831883 -0.00402841 -0.00347493 0.00402261 0.00526826 0.00114623 0.0047928 0.00944328 0.0070644 0.0129953 0.0156476 0.0120177 0.00400718 0.00180828 0.0059873 0.00573915 0.00481576 -0.000342022 -0.000993089 0.000339068 0.00492239 -0.000313071 -0.000952762 -0.0067065 -0.00100804 0.00339084 0.0011117 0.00140398 -0.000723777 0.00398056 -0.000363424 0.00459967 0.00887043 0.0011185 -0.0011891 0.00231748 0.0038062 0.0138528 0.00790396 0.0093015 0.00328588 0.00610153 0.000353885 -0.00540978 -0.0006126 -0.000649189 0.00348265 0.00114249 -0.00214693 -0.00436523 -0.00338086 0.00056931 -0.0057298 0.000496367 0.00267324 0.00287168 -0.00498414 -0.000344109 0.000359986 -0.00219746 0.00626762 -0.000784814 0.00305662 -0.00274091 -0.005303 -0.0110244 -0.00171518 -0.00332177 -0.00132631 0.000998437 0.00413785 0.0079352 0.00116025 0.00292152 0.00838025 0.00565155 0.00152151 -8.60726e-05 -0.00313302 0.00156394 -0.0037497 0.00310117 0.0015482 -0.00205656 0.00223656 0.00473417 0.00298957 0.000590694 -0.00194038 -0.000949599 0.00461236 0.0017652 0.00585437 -0.00392784 -0.00454049 -0.000250162 0.000848818 0.00608686 -0.000610282 0.00248784 0.00152959 0.0037436 -0.00161571 0.00258372 0.00489113 0.00294675 -0.00149394 0.00608882 0.00594723 -0.00195518 0.00494099 -0.00265342 -0.00141619 0.000168055 0.0013672 0.00407001 0.0022373 -0.000406388 -0.00132646 0.00770292 0.00343282 0.0122558 -0.00340263 0.00735652 0.000938124 -0.0047121 -0.00565645 -0.00701115 -0.0076334 -0.00631817 0.00954186 -0.000385079 -0.00469335 0.00440269 0.00771034 0.00954831 0.00599962 0.0041229 0.00108119 0.013475 0.00794368 0.00254106 0.00851868 0.00626167 -0.000957929 -0.00416707 -0.00469463 -0.00484371 0.00128896 0.00235464 -0.00484365 -0.000193816 0.00797148 0.00323648 -0.0014494 -0.00946752 -0.00865698 -0.00955522 0.000253958 -0.000289613 0.00331778 0.00342877 -0.000867407 0.000254814 -0.00367314 0.00605628 0.00110883 0.00483222 0.00215964 0.00435618 0.0025176 -0.00180772 -0.000276173 0.0028918 0.00465019 0.0115879 -0.000424279 0.00595162 0.00322402 0.00721743 0.0166517 0.0150057 0.00235647 0.00221037 0.00384759 0.0104075 0.00373863 0.00345637 0.0120044 0.00552114 0.00582696 0.00680948 0.000695577 -0.00121645 0.00212653 0.00785081 0.00116647 0.0013098 0.00484994 0.000648541 0.00240056 0.00589819 0.00559278 -0.000158623 0.00330814 0.00399277 0.00796064 0.00577668 0.0067344 0.00491231 -0.00408674 -0.000238077 0.000439948 0.0023038 0.00566958 0.00182124 0.0082228 0.00703929 0.00308829 -0.00089998 8.39907e-05 0.00130718 -0.00368195 0.00657571 -0.000376922 0.00424614 0.0025347 -0.0012656 -0.00183539 0.00129525 0.00271117 -0.000546176 -0.00112395 0.00240496 0.00378432 -0.00434647 -0.00836702 -0.000550177 -0.00265388 -0.00591337 0.00389931 0.010764 0.0016732 -0.000879199 0.0026503 0.0078665 0.0006238 -0.000237322 -0.00270807 0.00855744 -0.00183483 0.00618238 0.00633848 -0.00332001 0.005869 -0.00086841 0.00104667 0.00165041 0.00431838 0.00899729 0.00513899 -0.00647429 -0.00362529 0.00247893 -0.00366242 -0.00162335 0.0050613 0.00428612 -0.00195791 -0.000311175 0.00351056 0.00405574 -0.00110642 -0.000691574 0.00568993 0.00757363 -0.00251452 0.00615341 0.00959548 0.0117996 0.00614039 0.0035473 -0.00198685 -0.00363901 -0.0023172 -0.00342771 0.00152749 0.00406124 0.00497921 0.00247611 0.00526394 0.00413304 -0.0112121 0.000341864 0.00283685 -0.00278447 -0.0049667 -0.00526909 -0.00829487 -0.00318155 0.00299942 -0.00107312 -0.00823055 -0.00332616 0.000825867 0.00107437 0.00387697 0.00198244 0.000742017 -0.000831522 0.0110678 0.00123138 0.00197549 -0.00250417 -0.00368752 -0.0101268 -0.00840261 -0.00907623 0.000953217 0.000145981 -0.00594305 0.00330528 0.00399776 0.00118096 -0.0129915 -0.00695431 -0.00615717 -0.0150853 -0.0113411 -0.00497439 -0.00251094 0.00530563 -0.00528172 -0.00732443 -0.000694561 0.00313619 0.000339049 -0.00365568 -0.00149366 -0.00234024 -0.000578991 0.00145867 -0.00235013 -0.0036989 -0.00180943 0.0025207 -0.000923179 0.00898392 0.00634774 0.0124345 0.0117139 0.0048583 0.00635492 -0.00114504 0.00322211 0.0108347 0.00910354 -0.000992739 0.000829245 0.00714044 0.00598797 0.0107298 0.00345485 0.000630904 7.24134e-05 0.00319228 -0.0014638 -9.18995e-05 0.00291135 -0.00235348 -0.00438713 0.00042245 -0.000669128 -5.07062e-05 -0.00257185 0.000938412 -0.00401008 -0.00294607 0.00144035 -0.00122702 0.000482036 -0.000442852 -0.00199104 0.000950332 1.61262e-05 -0.00070576 0.00492329 0.00731638 0.0086662 0.00995858 0.00473022 0.00392513 -0.00168794 0.00143318 -0.00121089 -0.00042794 -0.00334441 -0.00280967 0.00147712 -0.000539053 -0.00332163 -0.00302009 -0.00715725 -0.00170431 0.00742191 -0.00251943 -0.00491887 -0.00231371 -0.0033753 -0.00387951 -0.000820397 0.00260712 0.000223427 0.00215259 -0.00324448 -0.00429223 -0.00100101 0.00213534 -0.00535881 0.00233319 -0.0027779 0.00015886 0.00367289 0.00980637 0.00459399 -0.000716937 -0.000933042 0.00122224 -0.00278376 0.0145537 -0.000914186 -0.00126656 -2.69561e-05 -0.00172535 -0.00195712 0.000131418 0.003534 0.00313034 0.00272414 0.000699493 0.00453856 0.00666352 0.00220537 0.00189871 0.000526578 7.34506e-05 -0.000166986 0.00659175 0.00989389 -0.00445673 0.00440491 0.0058665 0.000830872 0.00220534 0.00375466 -0.00572913 -0.000713845 0.00337408 0.00232617 0.00281268 0.00805519 0.00379264 -0.00361309 -0.00910268 -0.000483114 -0.00728817 -0.00887137 -0.00550652 -0.0101279 -0.00365057 0.000502938 0.00497197 -0.00301339 0.00322358 0.00661011 0.00350741 0.00717409 0.00509549 0.010376 0.00792117 0.00242839 0.000980166 0.000294435 0.00117844 -0.00433521 -0.00379536 -0.0137309 -0.0071084 -0.000976521 -0.00110856 -0.00324521 0.00545378 -0.00344134 -0.00473869 -0.00884995 -0.00976377 -0.00621195 -0.013983 -0.0128847 -0.0061188 0.00448087 0.0009753 -0.000825088 0.00192246 0.00317661 0.00391306 0.00361156 -0.00168372 0.00248044 0.00437389 0.00506275 -0.00267107 -0.00315686 -0.00450094 0.00233085 0.00524847 0.0102124 0.00986294 0.00706054 0.00998388 0.010778 -0.00108573 -0.00767492 -0.000127109 0.00286457 0.00129321 0.00447591 -0.00558359 -0.00171623 -0.00224435 0.00228373 0.00331644 0.00485631 0.00288644 0.00312613 -0.00597941 -0.00707061 -0.0105755 0.00258267 -0.00320715 -0.00989289 -0.0119159 -0.00458966 -0.000508201 -0.00376728 0.00073073 0.00141282 -0.00523266 0.00181902 -0.00069321 -0.00796615 -0.00678771 -0.00315754 -0.00326629 0.000936212 0.00561792 0.0110491 0.00645952 0.00363073 0.00993368 0.00854786 0.00473837 -0.00455868 0.00147194 0.00145732 -0.00091199 -0.00891427 -0.0012177 0.0037672 0.00554809 0.00118419 -0.00620976 -0.00662321 -0.00554796 -0.000628429 -0.0124606 -0.00716161 -0.00599197 -5.44192e-05 0.00174063 -0.00385895 -0.00251042 0.00502377 0.00170773 0.00267143 0.00118565 0.00267079 0.00515538 -0.0056699 -0.00269815 -0.000815123 0.00226875 0.0069606 0.000451456 0.00864544 0.00164107 0.00190037 0.00448646 0.0023729 0.00948079 -0.00358297 0.000788324 0.00299011 0.0004325 -0.000835138 0.000182012 -0.0031177 -0.00105163 -0.00355813 -0.00185088 -0.001151 0.00190143 4.0392e-05 0.00498577 0.000294904 -0.00133117 -0.00311877 0.000214182 0.00400762 -0.00106026 -0.0026754 -0.00338667 -0.00313321 -0.00306422 -0.00539562 -0.00636187 0.00248419 0.00295773 0.00682366 0.00172285 -0.000554438 0.00254484 -0.00276731 -0.00726858 -0.00174401 -0.0025832 -0.00721145 -0.000958879 -0.0086038 0.00243744 0.0114126 0.00981412 0.00344045 0.00226304 0.00534584 0.00161263 0.00604932 0.0131373 0.0116477 0.00612379 0.000660815 -0.00284505 0.00342857 1.86083e-05 -0.00332749 -0.00491484 -0.00453041 -0.00762693 -0.00620936 0.00063239 -8.89192e-05 0.00400746 -0.00688261 -0.00748251 -0.00499165 -0.00857572 -0.0112971 -0.00550432 -0.000488197 0.00517888 0.000671536 -0.00339396 -0.00322317 0.000773059 0.00320612 0.00305408 0.000272268 -0.00042994 0.00424735 0.00732767 0.00532375 0.0018338 0.00020009 -0.00860389 -0.00676233 0.00325901 0.00877477 0.000121936 0.0013173 0.00449938 0.00156763 0.00676856 -0.00279492 0.0104417 0.00802071 0.00414157 0.0040772 0.00241523 0.00337649 0.0025844 0.00237816 0.00384013 -0.0017283 0.000201834 -0.00694501 -0.00447001 -0.00201369 -0.00057046 -0.00408214 -0.000874679 -0.0045975 -0.00522601 -0.00327214 -0.00448822 -0.00378674 -0.00525532 -0.000444848 -0.00118139 -0.00278163 -0.00593574 -0.00676762 -0.00414658 -0.00104567 -0.00435698 -0.00309359 0.00109102 0.00785288 0.00764408 0.011436 0.014561 0.00704563 0.00584868 -0.000481399 0.00484746 0.00436507 5.80199e-05 -0.00706951 -0.00380597 0.000734145 -0.000761573 -0.00639698 -0.0064283 -0.00640594 -0.00113753 -0.00506244 -0.00908707 -0.014601 -0.00793338 0.000660623 -0.000948753 0.00505965 -0.00414009 -4.86588e-05 0.00128778 0.00301164 -0.000543195 -0.000179654 0.00230785 -0.00347327 -0.00167083 -0.00475328 0.000563893 0.00440567 0.00617742 0.00474781 0.00337315 0.00694707 -0.00145455 0.00338386 -0.000895248 -0.00254808 -0.00441727 -0.00769414 -0.00937342 0.000489542 -0.00286261 -0.000570812 0.00273806 -0.00203831 -0.00641111 0.00336072 0.00205688 -0.0023517 0.00558781 -0.00201317 0.00198539 0.00310066 -7.33208e-05 -0.0017074 -0.00225391 0.000973865 0.00294776 0.000415411 -0.00275806 -0.0010055 -0.00404598 0.00706157 0.00823294 0.00291774 -5.06064e-05 0.00436782 0.00111746 -0.00425396 -0.0110136 -0.00155908 0.00193639 -0.00123655 0.00852898 0.00549225 0.00760591 0.00601368 0.0112368 0.00677969 0.00579192 0.00408383 9.30089e-05 0.00633978 0.0138096 0.00835093 0.00288376 0.000896035 0.00253229 0.00449056 0.00124897 0.00383929 0.00162279 -0.00145753 -0.00397939 -0.00651498 -0.00237688 -0.00622986 -0.00211702 -0.00887454 -0.0071242 -0.00327272 -0.0074474 -0.00547442 -0.00212136 -0.00295334 -0.00746545 -0.0024706 -0.00157771 -0.00276991 0.000641316 0.00253069 -0.000736072 -0.00394984 -0.00421685 0.00270101 0.00545586 -0.000974655 0.00112241 -0.00378715 -0.00165805 -0.00243497 0.00382636 0.0047562 0.00698186 0.00217544 -0.00384152 -0.000293933 0.00669787 0.00465956 0.0028742 -0.000839197 0.00136765 0.00452442 0.000890351 0.00451046 0.00419819 0.000551968 0.006908 0.00269994 0.00138576 0.00121373 0.00322834 0.00183156 0.0016375 0.00498712 -0.00203349 -0.00308892 -0.00543696 0.0049378 0.00112886 -0.00623519 -0.00429805 0.0102382 0.000403921 0.00270427 0.00248467 0.00136065 0.00142659 -0.00155487 0.00701853 0.00399584 0.00331568 0.00781138 0.00577527 0.0132515 0.0103653 0.000189505 0.00119647 -0.00535045 -0.0071891 -0.00352096 0.00493896 0.00198508 0.00414248 0.00343635 -0.000767144 0.00159021 -0.00538292 -0.00666355 -0.0105917 -0.00364758 -0.0105816 -0.0138782 -0.00227807 -0.00471208 -0.00360023 0.000149423 -0.001065 -0.000345941 0.00293009 0.00303196 0.000787298 0.0035617 0.000953303 -0.0031563 -0.00155599 -0.00285482 -0.00102382 -0.00362103 0.00460496 0.00481214 -0.0036473 0.000562158 -0.00375124 -0.00599533 -0.00454789 -0.00614226 -0.00766243 -0.00626827 -0.00788223 -0.00240818 -0.00594676 -0.00905337 -0.00638518 -0.00830398 -0.00367911 -0.00425364 -0.00686433 -0.00371486 0.0015501 0.00215074 -0.00198752 0.000158971 0.00312913 -0.000338144 0.00112744 -0.00137853 0.000546227 -0.00248912 -0.00278317 -0.00404011 0.00214706 0.00343995 -0.00341585 -0.0020655 0.00321479 0.000353109 0.00393909 0.000285864 0.000128062 0.00256609 0.0040748 0.00221947 0.00438603 0.00371805 0.0027345 0.00818197 0.00432345 0.00273895 0.00140154 0.00599034 0.00135278 0.00490707 0.00412192 0.00204336 0.00428548 -0.00393563 0.00315104 0.00643886 0.00150631 -0.00108952 0.00306664 -0.00507683 -0.000951462 0.00296856 -0.00375021 -0.00359803 -0.00269621 3.30206e-05 -0.00710659 -0.00169223 -0.00146397 0.00249638 0.00485388 -0.0002957 0.000513344 -0.00699181 -0.00494367 -0.00619582 0.00018316 -0.000186726 0.00122017 -0.00371921 -0.000890322 0.000349616 0.0033069 0.000547997 -0.00057065 -0.000537353 -0.00635597 -0.00776266 -0.0013706 0.0011987 -0.00141213 -0.00220929 0.00328249 -0.000290083 0.000362006 -0.00139326 -0.00369374 -0.00427935 0.00216093 -0.00170335 -0.00203786 0.00140363 0.00342971 -0.0060966 0.0067985 0.00772671 0.00639753 0.0087373 0.0076829 -0.00111745 -0.00338373 0.00435102 0.0027329 -0.00322831 -0.00202911 -0.00675646 -0.000520187 -0.00419233 -0.00870331 0.00203853 0.00784146 0.0058896 0.00462761 -0.000111542 -0.00306105 0.000302043 0.00304198 -0.00208358 0.0030895 0.00308693 0.00540967 -0.00207725 0.00360934 0.00762934 -0.000317887 0.00453904 0.00849568 -0.00217268 0.0097823 0.00376645 0.00535782 0.00183053 -0.000386453 0.00176843 0.00155991 -0.00570671 -0.00214278 -0.00729606 -0.00784361 -0.0074299 -0.00296589 -0.00545845 -0.00280382 -0.00138462 -0.00224883 0.00524518 0.00495487 0.0103973 0.0115248 0.00665798 0.00880274 3.06508e-05 -0.00219144 0.0022838 -0.00781467 -0.00413677 0.00173704 -0.00139528 0.00299314 0.00447728 0.00236504 0.000761806 -0.00803825 -0.00982272 -0.00770494 -0.00243749 -0.00197235 -0.00486593 -0.00399118 -0.00371746 -0.0107255 -0.00605943 -0.00695837 -0.00657504 -0.00664597 -0.00227038 0.00420943 -0.00187094 -0.000121865 -8.03546e-05 -0.000595191 -0.0095181 -0.000796764 0.00477414 0.00204455 -0.0041556 -0.00716619 -0.0105398 -0.0046282 0.000317846 0.00183103 0.00314484 -0.00172423 0.000168812 0.00654084 -0.00870081 -0.00418676 0.00300567 0.000393974 0.00676701 0.00940912 0.00233081 0.00326383 0.00333866 0.0060668 0.00321389 0.00279263 0.00293086 0.00829364 0.00893179 0.00382983 -0.00716844 -0.00349661 -0.00109366 -0.00345118 0.00487921 0.00371827 -0.00211755 -0.00254913 -0.00682539 -0.00877471 -0.00796287 -0.000267348 -0.00428064 -0.000473864 0.00140606 -0.00479639 -0.00780002 -0.0115786 0.0008097 0.00459317 0.00865247 0.00755484 0.00867979 -0.00515774 -0.0120485 -0.0071742 -0.00293524 -0.000561588 -0.00486929 -0.000832569 0.00231348 -0.00260163 0.000711316 -0.00406799 -0.00420679 -0.00564646 -0.0110323 -0.00407132 0.00112724 -0.000850121 0.00821921 0.00990026 0.00752218 4.42837e-05 -0.0025973 0.00313929 -0.00698235 -0.0111845 -0.0136788 0.000653392 -0.000988464 0.00219851 0.00119305 0.0080612 -0.00145452 0.00385428 0.00811267 0.00299297 -0.0083279 -0.00941927 -0.00651409 0.00419886 0.00185479 -0.00307096 -0.00138844 -0.00371132 -0.00582482 -0.0104015 -0.0124375 -0.00449041 -0.00282608 -0.0056472 -0.0051614 -0.00641474 -0.00356439 0.000722918 -0.00387964 0.0060528 -0.00410172 -0.00231927 -0.00413362 -0.0033547 -0.000103344 0.00410055 0.00599195 0.00087154 -0.00167737 -0.00183584 -0.00126577 0.00162153 0.00702834 -7.40272e-05 -0.00237586 -0.00399874 0.0006394 -0.00263951 -0.00170743 -0.00913524 -0.00971463 -0.00421741 -0.0110735 -0.0124629 -0.00469599 -0.00665039 0.00301376 0.000507771 -0.00121165 -0.00182629 0.00390708 -0.000464266 -0.00190763 -0.0090115 -0.00994468 -0.00419933 -0.00187383 0.000882841 -0.00183197 0.000315199 -0.00101422 0.00068793 -0.00279692 -0.00205697 -0.00285199 -0.00347486 0.00249078 -0.000277157 0.00139572 -0.000804055 0.00022336 -0.00609006 -0.00930057 -0.00466214 -0.0039004 -0.00605706 -0.00238225 0.00196981 -0.000403284 0.00262627 0.000706732 7.87784e-06 -0.00508736 -0.00752184 -0.000282755 -0.00143006 0.00182603 0.000328014 -0.00546007 0.00396842 0.00256183 0.00494237 0.00214455 0.00160725 0.00786124 0.00673646 0.00238513 -0.00228379 0.00387152 0.0027459 2.51109e-05 0.00640453 -0.00267976 0.00431111 0.00515717 0.00274948 -0.00559766 -0.00253261 -0.00124099 0.00474818 0.0039255 -0.00124743 -0.00181932 0.0027877 -0.00240109 -0.00676405 -0.00510095 0.0077674 -0.00543632 0.000207273 0.000368075 -0.00054283 -0.00448392 -0.00328643 0.00239132 -0.00243751 -0.0012611 0.000265873 -0.00473158 0.00288776 0.0058444 0.00927176 0.00386059 -0.00840346 -0.000860628 -0.000545032 -0.00795015 -0.0132871 -0.00366724 0.00978821 0.00374905 -0.000947917 0.000299816 -0.00266049 -0.00156804 -0.0107777 -0.00629734 -0.00522263 -0.00278782 0.00187862 0.000378309 0.00378718 0.00575088 0.00836775 0.00241322 0.00219824 -0.00934949 -0.00737866 -0.00836691 -0.00575369 -0.0130433 -0.00346348 -7.53671e-06 0.00265516 -0.00639663 0.00210922 0.00285162 0.00975988 0.00262644 0.00130322 -0.00916087 -0.00775833 -0.00691348 -0.000151011 -0.0105635 -0.00768444 -0.00574417 -0.000519072 -0.00126027 -0.00649077 -0.00245389 -0.00702694 -0.00339995 0.00071052 -0.0107384 -0.00684633 -0.00666935 0.000413812 -0.00679829 -0.00118482 0.00306142 -0.0029125 -0.0012292 -0.00386494 0.000435534 0.00265682 -4.77018e-05 -0.00212431 -0.0045426 -0.00765908 -0.00725804 -0.00348143 -0.00274627 -0.00097571 0.00153068 -0.00236536 -0.00592703 0.000119229 -0.00486226 -0.00903097 -0.00969138 -0.00652297 -0.00805488 0.00192553 0.00257981 -0.00355243 -0.00564133 -0.00450746 0.00353969 -0.00618178 0.000483905 -0.00611181 -0.00612256 -0.00809928 -0.0042271 0.000869144 -0.00187974 -0.000676009 0.00306584 0.00452003 0.00245532 0.00198143 0.00102174 -0.00199477 -0.000699268 0.00080996 -0.00309323 0.00295127 0.00755213 -0.000104776 0.00168905 0.000720338 0.00463579 -0.00205215 -0.00261485 0.00355098 -0.00324489 0.00181002 0.00385418 0.00630202 0.00524029 0.00801709 -0.00148404 -0.0102356 -0.00715653 -0.00227223 -0.00219762 0.00115821 -0.00105765 0.000898155 0.00727968 0.00265062 0.0041701 0.00290836 0.0104514 0.00779296 0.000178185 0.0102023 0.00095156 0.00148253 -0.00254224 -0.00611718 0.000285189 -0.00535057 -0.000665997 -0.00575229 -0.0137494 -0.0121455 -0.00374648 -8.72132e-05 0.00554451 -0.0031282 -0.0055814 0.00804264 -0.000766623 -0.00331098 -0.000684573 0.00192034 0.000237598 0.00366985 0.0016498 0.00568754 0.00413112 -0.000934512 -0.00547197 0.00405995 0.00387514 0.00628453 0.00677346 0.00751739 0.00298213 0.00640812 0.00231845 -0.00345283 -0.006859 -0.0091001 -0.00222739 -0.00992635 -0.00617041 -0.00109931 -0.000774385 0.00364575 -0.00199688 0.000326767 0.00197224 -0.00672143 -0.00507055 -0.00400066 0.00359714 0.0041166 0.000941409 -0.00196889 -0.00158093 0.00305606 0.00269324 0.0019723 -0.00829728 -0.00382866 -0.0118707 -0.0103032 -0.00893784 -0.000624935 0.00398502 0.00155742 -0.00520066 0.00170025 0.00467277 0.0022129 -0.00077459 0.0134549 0.00497471 -0.00405264 0.00228798 0.00266581 -0.00228595 -0.000979456 0.000378288 -0.0032049 0.00328368 -0.00453634 -0.00640837 0.000851158 0.00068579 -0.00477921 -0.00256966 -0.00784236 -0.00262738 -0.00516501 -0.00864244 -0.00342384 -0.00144938 0.00498755 -0.000259206 -0.00211466 -0.00087487 -0.00191714 -0.000470484 -0.00670096 -0.00719726 -0.00311756 -0.0017868 -0.00318197 -0.00571977 0.00177232 -0.00674323 -0.000955821 0.00392789 0.00144359 -0.00240749 -0.00654636 -0.00304727 -0.00646029 -0.00521192 0.00189149 -0.0025338 -0.00415698 -0.00743519 0.00110499 0.000610836 -0.00358338 -0.00237586 -0.000696792 -0.00370925 0.00207453 -0.00259664 0.0042467 -0.00323458 -0.00767306 -0.00487878 -0.00608748 0.00157164 -0.00254747 -0.000966619 -0.00232091 -0.00141366 -0.00063619 -0.00113792 0.00582038 0.00933981 -0.00109784 0.00344242 -0.00292889 0.00497562 -0.00110447 0.00364062 -0.000302984 -0.000633641 0.000780312 0.00326321 0.00120442 0.00111106 -0.000474823 -0.00253318 -0.00456594 0.000380162 -0.00244583 -0.00544767 0.00469223 0.00343502 0.00623176 0.00454618 -0.00395247 -0.000849277 0.00226113 0.0107034 0.00376071 0.0057733 0.00209893 0.001127 -0.002916 -0.00268401 -0.00682729 -0.00152979 -0.00257515 -0.00339307 -0.016654 -0.0140336 -0.0108433 -0.0065544 -0.00459877 -0.00459515 -0.00164017 -0.00654184 -0.000679031 0.00778889 0.00314729 0.00700976 0.0108199 -0.00545583 0.00260101 0.00156104 0.00857006 0.00478679 0.000582395 -0.00154236 -0.00308184 0.00478601 0.00486811 0.000672052 -0.00176613 -0.00228915 -0.00205298 -0.000883858 -0.0098428 -0.00489298 0.00115532 -0.00423539 -0.00319524 0.00175117 0.00900721 0.00594147 0.00472856 0.00814641 -0.00128247 -0.00026516 -0.00498219 -0.00866678 -0.00343005 -0.00171088 -0.00366296 0.00556681 0.00100258 -0.000988599 -0.00112194 0.00464096 0.000868051 0.00207194 -0.0020874 -0.0017156 -0.00226938 -0.0010055 -0.000572961 0.000759561 0.00257741 0.0047846 0.00616798 -0.000440939 0.00205453 0.00942628 0.00515144 0.00132369 -0.00458014 -0.00333842 -0.00314494 -0.00214649 0.00264741 -0.00191278 0.00583566 0.00248797 -0.00310948 0.00234487 0.00118189 -0.00210234 -0.00556062 0.002818 -0.00173278 -0.000154327 -0.00623166 -0.00810889 -0.00608058 -0.00249613 -0.00310242 0.00377565 -0.00375967 -0.00492254 -0.00734414 -0.00636469 -0.00399914 0.00122035 0.00117968 0.00507368 -0.00158484 0.00416787 0.00396484 0.00291779 0.000761945 0.00311181 0.0084263 0.00487859 0.00245921 -0.00231673 -0.0023771 -0.00272963 -0.000329155 0.000595642 -0.00100421 -0.00240134 0.00272564 -0.00439419 -0.00745476 0.00159087 -0.00790718 0.000917023 0.00538165 0.00101292 0.00241036 -0.00131882 -0.00929264 -0.00162286 -0.00220971 0.000490061 -0.00318862 -0.00340303 -0.00106697 -0.00281987 -0.00430983 -0.00470668 0.00852899 0.0119725 -0.00407976 0.00630183 0.00198016 -0.001381 0.00212212 0.000264057 -0.00610772 -0.00388415 0.0025018 0.00733062 0.00710081 0.00604531 0.00492319 0.00103183 -0.00462406 -0.000217793 -0.00293143 -0.000483915 0.00139432 0.00217236 0.00574484 0.00511688 -0.00288245 0.00657614 0.00177133 0.0135721 0.0148404 0.0136414 0.00780556 0.00645077 0.000807452 0.000278561 -0.00559881 -3.78854e-05 -0.00872407 -0.00627058 -0.0100807 -0.00849573 -0.00656149 -0.00265047 -0.0048833 -0.00453566 -0.000965869 0.00195179 0.00374206 0.00271657 0.00314519 0.00681864 -0.00461888 0.00723949 0.00592117 0.00104475 0.00429817 0.00968885 0.00463468 -0.00205004 -0.00194421 0.00162894 0.00423508 4.00838e-05 -0.00236749 -0.00862054 -0.00650337 -0.0055652 -0.00718451 -0.00649109 -0.00178108 -0.00160196 -0.00840346 -0.000589743 0.00181522 0.00221181 -0.0044951 0.00231456 -0.0052793 0.00144464 -0.00876264 -0.00305624 0.0011453 -0.00649705 -0.00486337 -0.00344627 -0.00115578 0.00735977 0.00396038 0.00330028 0.000620353 -0.00113112 -0.0067811 -0.0115139 -0.00279801 -0.00139571 -0.00393462 0.00326618 0.000388871 -0.00037976 -0.000999663 -0.00669746 -0.00179579 0.00537647 0.000728655 -0.00614022 -0.0031477 0.00242665 0.0106079 0.00629696 0.00668551 0.00589811 0.00735385 0.00231631 0.0066432 0.00475302 -0.00414985 -0.00559813 -0.0085703 0.00313501 -0.00762535 -0.00329611 -0.00846741 -0.0158565 -0.0118651 0.000196692 -0.00540591 -0.0107835 -0.0103291 -0.0123745 -0.00858876 -0.0118013 -0.0131881 -0.00238837 -0.00262151 -0.00104674 0.00219383 0.00699138 0.00227704 -0.00709937 -0.000188553 -0.00114962 0.000453536 0.00112698 -0.00174368 -0.00414047 -0.000606606 -0.00261855 0.0011581 -0.00111161 0.00299062 -0.00199212 -0.00033333 0.00267939 0.000412891 -0.000979195 -0.00312877 0.00456817 0.00134812 -0.00121101 0.000324269 -0.00240276 -0.00621468 -0.00562517 0.00175867 -0.0036215 -0.00334637 -0.00878937 -0.00551031 -0.000596026 -0.000285064 -0.00486757 0.00220023 0.00724699 0.00432928 0.0050953 0.00213561 -0.00394724 0.00259088 0.00159287 -0.00641281 0.000680653 -0.00209423 0.00942482 0.00515908 0.00764728 0.00751658 0.0003069 0.00075901 0.00267761 0.00142037 -0.000337962 -0.00310236 0.00509113 0.00677892 0.00663248 0.00459706 0.00315173 0.00320463 0.0121637 0.0154908 0.0126714 0.00347092 0.0101288 0.00702998 0.010327 0.00548771 -0.00238369 -0.0125806 -0.00325907 -0.00104232 -0.00323697 -0.00652572 -0.0100148 -4.57132e-05 0.00177238 -0.00267826 -0.00233778 -0.00450786 0.00568853 0.00738085 0.00721153 0.00842276 0.00655354 -0.00319906 0.00804867 0.00561429 0.0029941 -0.00678111 -0.00843254 -0.00542661 -0.00659023 0.000339353 -0.00111628 -0.00724796 -0.00448364 0.00123382 0.00453765 0.000349459 -0.00532484 0.000171273 -0.00394605 -0.00160046 0.00196754 0.00568428 0.00175022 0.00178565 -0.00454191 -0.00315429 0.00171691 -0.00571578 -0.00214881 0.00380007 -0.00293288 -0.0104822 -0.0064578 -0.00338127 -1.95019e-05 -0.00686278 -0.00221117 -0.00251548 -0.00251371 -0.0149328 -0.00649105 0.000309603 -0.000298822 0.00301929 -0.00361999 -0.00305612 -0.00298551 0.00731838 -0.000481045 -0.00696234 0.00239021 0.000650534 0.00176953 -0.00561349 0.00138493 0.00218226 0.00420321 0.00477655 0.00647267 0.00958052 0.00534685 0.00237369 0.000438462 -0.000985754 -0.00646078 -0.0143644 -0.00174008 0.00170133 -0.00221018 -0.00814919 -0.0141356 -0.00643138 -0.00466874 -0.00461516 -0.0106417 -0.00986881 -0.0116312 -0.00904471 -0.00844117 -0.00700972 -0.00932362 -0.00744599 0.00125742 0.00351743 0.00368501 0.00391034 -0.000837719 -0.00279485 -0.00490157 -0.00393933 -0.00198672 -0.00234163 -0.00653202 0.0063437 0.00505314 0.00175931 -0.00170645 0.00170036 -0.00133729 0.00704843 0.0046223 -0.00589323 0.00125803 0.00101829 -0.00109608 0.00128207 -0.00375255 0.00178731 -0.000118625 -0.00509979 0.000270593 0.0059457 0.00300902 0.00201554 -0.00348282 -5.10012e-05 0.00208563 0.000680027 0.000259345 0.00674623 0.00302568 0.00343861 0.00717156 -0.00202864 -0.0093606 -0.00598401 0.000874152 -0.00111589 -0.000725364 -0.0021472 -0.00378793 0.00696752 0.00245806 0.00670278 -0.00415977 -0.00790251 0.0010772 0.0063242 -0.00392578 0.00685584 0.00533423 -0.000993163 0.00975049 0.00610466 0.00492352 0.00219546 0.00787225 0.00967899 0.0129562 0.00906954 0.00856659 0.00774408 0.00490354 0.00459447 -0.00071408 -0.00856967 0.00145405 -0.00892792 -0.00454862 -0.00830407 -0.00768773 -0.00561782 -0.00203454 -0.00315288 -0.00540089 -0.00420522 0.00408017 0.00480411 0.0058601 0.00600634 0.00470046 0.00221589 0.00748049 0.00648208 -0.0019353 -0.00323163 -0.00456694 -0.00410283 -0.00383441 0.000454005 0.000279272 -0.000229457 -0.00340243 -0.00190682 -0.0102088 0.000836797 -0.00277946 0.00241841 -0.0022537 0.000676708 0.00713357 -0.00137053 0.00148561 0.003585 0.000142881 -0.00115495 -0.0062033 -0.00650782 -0.00427509 -0.000747478 0.000436163 -0.00330804 -8.72876e-05 -0.00815105 -0.013766 -0.0031164 0.00121039 0.00308064 -0.00154575 -0.00748896 -0.00209632 -0.00348442 -0.000369941 -0.00824016 -0.0115482 -0.00166399 0.000312958 0.00652394 0.00509512 -0.00249981 0.00468773 0.00256677 0.000977825 -0.00560563 -0.00164451 0.00192641 0.00216551 0.00222574 0.00565248 0.0112368 0.00498661 0.00749317 0.00236415 -0.00662494 -0.00965529 -0.008603 -0.00128617 -0.00459814 -0.00315257 -0.00235199 -0.00669188 -0.00327291 -0.00583647 -0.00035529 -0.00213602 -0.00868812 -0.00552098 -0.000811228 -0.0100966 -0.00734514 0.000826955 -0.004034 -0.00220703 0.000702222 0.00705309 0.00835795 -0.00161626 -0.00333311 -0.0124833 -0.00470723 -0.0033049 -0.00706439 -0.0072867 -0.00256812 -0.00477796 0.00236318 -0.0033504 -0.00734005 -0.00845183 0.00144155 0.000340202 -0.00064674 -0.00430032 0.00415915 5.98431e-06 -0.00631719 -0.000325251 -0.0013803 -0.00422854 0.000526835 -0.00381877 -0.00324726 0.00335329 0.00410034 -0.000845778 0.000699364 -0.000764652 -0.000913716 0.00453919 0.00621179 0.00384571 -0.00138818 0.00114784 -0.00585072 -0.00244495 -0.00269052 -0.00165625 -0.00514492 0.00170417 -0.00509453 -0.00113314 0.000420965 0.00664408 0.00590192 -0.00236628 -0.0104694 -0.000471088 -0.00234625 -0.00473242 0.00153515 0.00178136 0.00223828 0.00929862 0.00771984 0.00406527 0.00240607 0.00370495 0.00901011 0.00722795 0.00414285 0.00902715 0.0100684 0.00580712 0.00352579 -0.0034124 -0.0113301 -0.00716336 0.00465753 -0.0021765 -0.00290895 -0.00528053 -0.00019867 -0.00654475 -0.0115684 -0.00775795 -0.00351107 -0.00437251 0.0031323 0.00717132 0.00797223 0.000970242 0.00408298 0.00541049 0.00659096 0.00418107 -2.88585e-05 0.0047706 -0.00222503 -0.00623873 0.0031396 -0.00408602 0.00235673 -0.00398793 -0.00869884 -0.00714433 -0.00174289 -0.00207126 0.00130843 0.0037526 0.00136137 0.0038451 0.00442661 -0.000406648 0.00786339 -0.00280112 -0.00412828 -0.00220525 -0.00345317 -0.00102722 -0.00350556 -0.0045172 -0.00147752 -0.00440051 -0.00787733 -0.0123376 -0.0123854 -0.00624927 -0.00192067 -0.00430418 -0.00530257 -0.00734148 -0.0078013 -0.000401644 -0.000935714 -0.00918783 0.001041 0.00444007 0.00400681 -0.00787276 -0.00719339 -0.00358414 -0.00351642 0.00040189 -0.00306537 0.000354415 -0.00217462 -0.00303701 -0.00045906 0.00147207 0.00885102 0.0117608 0.00485663 0.0089773 0.000737192 -0.00949587 -0.0117707 -0.00330374 -0.00492138 0.00522355 0.00507205 -0.00130086 -0.00237751 5.27783e-05 0.00187043 0.0040881 0.00365705 -0.00456575 -0.00563931 -0.00640529 -0.00323404 -0.0079673 -0.0106139 -0.00847092 0.00213601 0.00221446 -0.00237382 -0.00199571 -0.00152462 -0.00673348 -0.00329058 -0.00339728 -0.00830471 -0.00717273 0.0010382 -0.00230731 -0.00286163 -0.00340826 -0.00578603 0.00409397 0.0011133 -0.00362835 0.000892612 0.000789642 0.00271789 -0.00247593 -0.00424112 -0.00249844 -0.00348455 -0.00619873 -0.00103338 -0.00357867 -0.00842618 -0.00401159 -0.00138637 0.00385556 0.00518249 0.00401559 0.00546636 9.51323e-05 0.00704804 0.00332841 -0.00359688 0.000548562 -0.00375251 -0.00330424 -0.00272632 0.00275114 -0.00347407 0.00127903 -0.0039274 0.00147427 -0.00136013 0.00216014 0.00509647 0.00315149 -0.00152424 0.00424907 -0.00220183 -0.00853181 -0.00180045 -0.000565952 0.00291391 0.0026605 0.00733006 0.00427734 0.00490254 0.00380283 0.00278717 0.00249181 0.00355427 0.00514722 0.00519095 -0.00492947 0.00124914 -0.00502081 -0.00744707 -0.00730774 0.00269546 0.0032896 0.000642311 -7.09767e-05 0.000976228 -0.00483466 -0.0129724 -0.00505463 -0.00273526 0.00325643 0.00625043 0.0124772 0.0105689 0.000794804 0.00281128 0.00886504 0.00587797 0.00827046 0.000613675 0.00107127 -0.00785931 -0.00786014 -0.00720446 -0.000239544 0.00243415 -0.00894509 -0.008154 -0.00627834 0.010867 -0.00463042 0.000189748 0.00849961 0.00503749 0.00543759 0.0116455 0.00357305 0.00527278 -0.00278363 -0.00984329 -0.00463714 -0.00192951 0.00430178 -0.00530826 0.000200793 0.00498088 -0.000765195 -0.0106356 -0.0120013 -0.0133298 -0.00374035 -0.00625556 -0.00415034 0.00250309 0.00674829 0.000272289 0.000260885 -0.00225442 -0.00249095 0.00477824 0.0082247 -0.00107564 -0.00230317 -0.0057145 -0.00993524 -0.0127683 0.00375649 0.00494583 0.000278117 -0.00523573 0.00731397 -0.00358539 -0.000959729 -0.00137678 0.00335838 2.17621e-05 0.0089359 0.00833313 -0.00792236 -0.0114802 -0.00658553 -0.00311667 0.00270808 -0.00138 0.000457207 -0.00562165 -0.00281596 0.00678474 0.0010087 -0.000724159 0.00330705 0.00159476 0.00195824 -0.00326047 -0.00447123 -0.00640984 -0.00129976 0.00519626 0.0063138 0.00117548 -0.000471511 -0.00196228 0.00450807 0.00174182 -0.000524712 0.00178236 -0.000973398 0.0034447 -0.0044047 -0.00162455 -0.00231916 -0.00127562 -0.00145019 0.000621722 0.00523851 0.00602148 0.0035987 0.00808967 0.00264561 0.000526087 0.00117258 0.00192062 0.00800004 -0.00196728 -0.00480727 -0.00524456 -0.00926286 0.00591813 0.0056482 -3.53747e-05 0.00610585 0.00497631 -0.000688121 0.00645606 -3.76697e-06 -0.00459117 -0.0067533 -0.00140825 -0.000844623 -0.00377131 -0.00616619 -0.00545576 -0.00622163 -0.00465116 0.00386127 -0.00187683 0.00450003 0.0115067 -0.00344547 -0.0045737 -0.00377251 -0.00704774 -0.00699271 -0.00174009 -0.00738137 -0.00280152 -0.000177967 -0.00534696 0.00494072 -0.00139061 -0.00223476 -0.00731098 0.000815681 -0.00245965 -0.00406164 -0.0104286 -0.0023342 0.00225798 -0.00124537 -0.00252087 0.00107818 -0.0013481 0.00577449 -0.000884035 -0.00352619 0.00391432 -0.00443303 -0.00970722 -0.00707578 0.00636163 0.00864435 0.00134637 0.0102608 0.00381051 -0.00140393 6.51618e-05 0.0022609 0.00724946 0.00596595 0.00267991 0.00382929 -0.00927086 -0.00839647 -0.00467796 0.00223761 0.00630122 -0.0116452 -0.0123251 -0.0030326 0.00372658 0.00278806 0.000785178 0.00471311 0.00774709 -0.00120357 -0.00408929 0.000128374 -0.00672795 -0.00314275 -0.00708401 -0.00147388 -0.00725874 -0.00279816 -0.00547997 -0.0101395 -0.0033122 0.00556556 -0.00264493 -0.00388059 -0.00183259 0.000640006 0.00257876 0.00222025 0.0011998 0.00978148 -0.000179956 -0.00285091 -0.00463404 0.000207258 0.000251887 -0.00453361 -0.0102154 -0.0142229 -0.00153401 -0.00294365 -0.000951619 0.00526814 0.00470043 -0.000267489 -0.00104957 -0.00745634 0.000135634 -0.00709771 -0.00176869 -0.000877603 -0.00249322 0.00442261 0.00778098 0.00176773 -0.00035775 0.00158198 0.00764141 0.00869119 -6.38973e-05 -0.00507627 0.00527175 -0.00233085 0.00489521 0.000609175 0.00725424 0.00521917 0.00264961 0.00802406 0.00865993 0.00360192 -0.00179664 -0.00120265 -0.00110179 0.00397623 0.000781289 0.00148883 0.00161078 0.000998724 0.00213406 -0.000986525 0.00444872 -0.00199974 0.00584309 0.00504997 0.0029042 0.00135798 -0.00357201 0.00112426 0.00161092 -0.000529117 0.00836809 0.00787877 0.00435871 0.00325832 -0.00267359 -0.00724214 -0.000558303 -0.000702249 -0.00866055 -0.016947 -0.00956323 -0.00586935 0.000713592 -0.000853848 0.0018194 0.00791265 -0.000572689 0.00916352 0.00203927 -0.00209398 -0.00272486 -0.000146703 0.00156124 -0.00256477 -0.000203036 -0.00315187 -0.00686071 -0.00370719 -0.000902269 -0.00262733 0.000829638 -0.000206905 0.00145837 0.00305885 0.00080305 -0.00231879 -0.00700093 -0.00701424 -0.00253382 0.000966247 -0.000903061 -0.000163369 -0.00496796 -0.00449708 -0.00338578 -0.00609517 0.00292021 0.00369116 0.00123309 -0.00414844 -0.0062053 0.0037143 -0.00141832 0.00430253 -0.00543476 0.000686005 0.00371176 0.0020475 -0.000899861 0.00234372 0.00175786 -0.00796164 -0.00883493 -0.00719196 0.00367153 0.000319966 0.00244125 0.0078273 0.000654669 0.00560736 0.00377044 -0.00337194 0.00263769 0.00721435 0.00168859 0.00470731 -0.00399818 -0.00557584 -0.00978167 -0.000242951 -0.00399284 -0.00779266 -0.00460293 -0.00657061 0.00187206 0.00670794 -0.000257605 0.00271763 0.00206218 -0.00308438 -0.000258745 -0.00948045 -0.000536194 -0.0111154 -0.00730474 -0.00401849 -0.000406552 -0.00982035 -0.00384489 -0.00573589 -0.00113582 0.0017195 0.0073105 0.00538692 0.00442436 0.00472309 0.00883852 0.0033508 0.00704876 0.00919977 0.00467801 -0.00273992 -0.0114245 -0.00343107 0.000298156 -0.00485493 -0.0134804 -0.00717996 -0.00197922 -0.00252545 0.00388767 0.00381739 -0.00206167 -0.00962409 -0.00216476 0.000130425 -0.0104255 -0.00454557 -0.00139195 0.000958709 0.00208207 0.00430057 0.00738456 0.00688141 -0.00166933 0.00385558 0.0059528 0.00944199 0.00149202 -0.00237136 -0.00525984 0.0178638 0.00351364 0.00527612 0.00366636 -0.000419024 0.00693203 0.00361181 0.00875483 0.00380232 0.00107137 -0.00248515 -0.00332694 0.0069614 0.00944567 0.00433381 0.000988453 -0.00146941 -0.00215525 -8.53686e-05 -0.00482241 0.000755884 0.00267963 0.00488028 0.00575898 0.000909641 0.00237336 0.00210527 0.000103783 0.00149872 0.000598964 0.00428148 0.0102344 0.00361055 0.00088982 -0.00046948 0.0034521 0.000575133 -0.00585488 -0.00879416 -0.0103135 -0.0121248 0.00945089 0.00342132 -0.000140295 0.00348383 0.00283592 0.0047385 0.00957876 -0.00366515 -0.00080533 0.000305357 0.00352304 -0.00704132 -0.000578439 0.00449286 -0.00454299 -0.000402897 -0.000722256 -0.000999873 -0.000339926 0.000625741 0.000883661 0.0105481 -0.000878738 0.00448362 -0.00181906 -0.00343442 0.00319002 0.00362253 0.00254873 0.00497085 0.00203356 -0.00278173 -0.00740151 -0.00682471 -0.00446428 -0.00264541 0.00167362 0.00229314 -0.00325736 -0.00040004 -0.00324894 0.000275514 -0.00587083 0.00469127 0.00143572 2.14152e-05 -0.00182337 -0.00353833 -0.00168109 -0.000370847 -0.00681828 -0.00921342 0.000767585 0.000281028 0.00276503 0.00465732 0.00410315 -0.0010603 -0.0018753 -0.00352995 -0.00327808 -0.00333293 -0.00745556 -0.00178388 -0.00641845 -0.010988 -0.0119773 -0.00721608 -0.00881195 -0.00666327 0.00144364 -0.00607739 -0.00159397 -0.00342214 -0.000740485 -0.00181185 0.00311014 -0.000281857 -0.00255491 -0.00850281 -0.00627658 -0.00872264 -0.00501764 -0.00293102 -0.00163136 -0.0108031 -0.00869458 -0.00486879 0.000378978 0.00588987 0.00231441 0.00301536 0.00199326 -0.00397942 0.00577847 -0.00268612 -0.00387177 0.00371929 0.000647038 -0.00119003 -0.00397818 -0.00541346 0.000656138 -0.000547721 -0.0172105 -0.00954907 -0.00546432 0.00124597 0.00326942 0.00227455 0.00128713 -0.00430841 -0.0058695 -0.00673404 -0.00874633 -0.00225508 -0.00290595 0.00085915 -0.00267842 -0.000825834 -0.00403476 -0.000437987 -0.00315024 0.00975032 0.0097136 0.00258095 0.00321426 -0.00237432 -0.0023199 0.00801756 0.00619681 0.00459144 0.00276221 0.000654819 0.00857757 0.00486749 0.001845 -0.00221886 0.00405616 0.000627231 -0.00149515 -0.000474562 -0.00227377 0.00377023 -0.00385661 -0.00401153 -0.0114645 -0.00303943 -0.00349471 0.00635324 0.00430708 -0.00296845 -0.00248327 0.00150702 0.00318249 0.00188037 -0.00175769 0.00484728 0.00121845 0.00501626 0.00541998 0.000943222 -0.00942663 -0.00439344 0.00406494 0.001971 -0.00355517 -0.00856581 -0.00268376 -0.00350932 0.00240404 0.00602182 0.00223135 -1.14237e-05 0.0045516 0.00150222 0.00341463 -0.00319686 -0.00389217 0.00206843 0.000570436 0.00633988 0.00288907 -0.00064017 -0.00356741 0.00110548 0.003437 0.00236563 -0.00347286 -0.00034175 0.00122515 0.00714407 0.00160485 0.00750278 0.00518201 -0.00113209 0.00391692 0.001018 0.00179407 0.00118921 0.00288867 -0.00452087 -0.00727637 -0.00588053 -0.00123516 -0.0029146 -0.00233661 -0.00504905 -0.00718244 -0.0037682 0.00416935 -0.00515537 -0.0013418 0.0107105 -0.00250185 -0.00783289 -0.0057308 -0.00261921 0.00385205 0.00464632 0.000239458 -0.00272238 0.00518512 0.00688532 -0.001809 0.0013506 5.92851e-05 -0.00228973 0.00395725 0.000142314 -0.00474005 -0.00133718 -0.00702506 -0.00476306 -0.000238719 -0.01043 -0.00898785 -0.00968356 -0.0093462 -0.00881556 -0.00542475 -0.00971019 -0.00305983 -0.00770708 -0.00370427 -0.00203341 -0.00427133 0.00299041 0.00384807 -0.00245078 -0.00312734 -0.0058504 -0.00990183 -0.00447856 -0.00514025 0.00122871 0.00103972 -0.00830422 -0.000614649 0.00487922 -0.000112333 -0.00053545 0.00947635 0.000745456 0.000198311 0.00316367 0.00191699 0.00824957 0.000714025 -0.00397622 0.00706456 9.15417e-05 -0.00222034 -0.0031962 -0.00901506 -0.00850134 -0.00374994 -0.00658015 0.00612727 0.0017702 0.0014273 -0.0076406 -0.00644109 -0.0058535 -0.00493386 -0.00880841 -0.0109623 -0.00787269 -0.00422249 0.00106223 -0.00524864 -0.00136038 -0.00218426 0.000890241 0.00354705 0.00652173 0.000262641 -0.00272167 -0.00817257 -0.00535405 -0.00121689 -0.0023658 -0.00142814 -0.000874488 0.00475479 0.00666782 -0.00371751 -0.00582445 0.00101057 -0.00350055 -0.00175186 -0.000216052 0.00292373 0.000530586 0.00144071 -0.00202964 0.00190547 0.00626356 0.00593109 0.00455466 0.00221535 -0.000476439 -0.00299192 -0.00520733 -0.00405194 0.000628688 0.00229181 0.00128262 -0.00336563 0.00399343 0.00841778 0.0059682 -0.00274788 2.00176e-06 0.00141182 -0.00037846 -0.000255039 -0.00249876 -0.00433483 -0.00047046 5.28665e-05 0.00120805 -0.00810528 0.00270748 0.00454874 0.00247017 1.93029e-05 -0.00104057 -0.00337181 0.00368003 0.012422 0.00162269 0.000283044 0.00173924 -0.00137371 0.00055815 -0.00311566 0.00262982 0.000728611 0.00210007 0.00570297 0.00335305 0.00299308 -0.0019017 0.00260681 0.00723618 0.0083739 0.00343196 0.00578562 0.0088899 0.0125982 -0.00206055 0.00210474 0.000437033 0.00451765 -0.0025181 0.00188611 -0.0120708 0.00193051 -0.00183205 -0.00121243 -0.00350643 -0.00169413 -5.72147e-05 -0.0027183 -0.0053658 -0.00276673 0.00249183 0.00329652 0.00502761 0.00727887 -0.00862893 0.000903827 0.00279403 -0.00146696 -0.000838913 -0.0023324 -0.00269563 -0.00138309 -0.00569928 -0.000335423 -0.00834814 -0.0109264 0.00378792 0.00427073 -0.00622248 -0.0120565 -0.00196387 -0.00950295 -0.00343879 -0.0011898 0.00215523 -0.00379273 -0.00110476 0.000142631 -3.53517e-05 -0.00374943 0.00186557 0.00835769 0.00967281 0.00268008 -0.00694381 -0.00704322 -0.00459745 0.000476033 -0.00212772 0.000631053 -0.00616297 -0.0021748 0.00322347 0.0020588 0.00453807 0.00750832 0.00151783 0.0082312 0.00668644 0.00344747 0.00138199 -0.00228224 0.00315585 -0.00445382 0.000591184 -0.00674008 -0.000852627 -0.0135596 -0.0110817 -0.0021152 -0.000541767 0.0101984 0.00579282 -0.00142898 -0.00357418 -0.00647327 -0.00330674 -0.00869952 -0.0119524 -0.00755747 -0.0128666 -0.00263206 0.00455428 -0.00476279 -0.000110701 0.00072681 -0.000526513 0.000398632 -0.000773564 0.00149811 0.00547985 0.00473448 0.00507183 0.00262318 0.000103914 0.00144372 0.00236441 0.0029016 0.00155598 0.00148533 0.00317042 0.00154981 -0.00577527 -0.00554105 -0.00955618 -0.0024317 -0.00141623 0.00651779 0.00668118 0.00547969 0.00201552 0.00405978 0.00353982 0.00493324 0.00167783 -0.000467482 -0.00459774 0.000191029 0.00140113 -0.00265504 0.000548912 -0.000345489 -0.002232 0.00496683 0.0067811 -0.00388422 -0.00604297 -0.00134443 -0.00379761 -0.00202351 -0.00101791 -0.00237586 -0.0064239 -0.000323705 0.000731137 -0.00440821 0.000286996 0.00414585 0.00707563 0.00191055 0.00361274 -0.00750678 -0.00549947 0.0047638 0.000534139 0.00450459 -0.00059223 -0.00612873 -0.00383472 -0.00493199 -0.000984053 -0.00171003 0.00275426 0.000542457 0.0103075 0.00465102 0.00155559 0.00169778 0.00111362 0.00110091 0.000562603 0.000129452 0.00388004 0.00563946 -0.00304523 0.00113231 -0.004748 -0.00110178 0.00146921 -0.000370676 -0.00197617 -0.00616763 -0.000813748 0.00488418 0.00552512 0.00339745 0.00255094 -0.00149738 -0.00316199 -0.00158272 0.000989024 -0.000611753 0.00361109 0.00387993 -0.00533257 0.000937406 -0.00234678 -0.0106531 -0.00738532 0.00211433 0.00222102 -0.00145369 -0.00675977 -0.00615354 -0.00723273 -0.00630763 0.00269318 0.000578961 -0.00513552 -0.0057815 -0.00316599 -0.0133621 -0.00100557 0.000183135 0.000442788 0.00331504 0.00661035 0.00917152 0.0048053 0.00113696 0.000694132 0.00229355 0.00588225 0.00245737 -0.00397381 0.00310719 -0.00791311 0.00274181 0.00284753 -0.00470823 -0.0101158 0.00221974 0.00397359 0.00428361 -0.00053039 -0.00289146 -0.00322564 -0.00250726 0.00375471 0.00225257 -0.00517284 0.00201057 0.0102746 0.00733318 0.00650157 -0.00640204 -0.00302064 -0.00225718 -0.00759896 0.00334967 0.00194427 0.00991409 0.0077724 0.00931129 -0.000729854 -0.00325485 0.000980756 -0.013856 -0.00934634 -0.0154327 -0.00674228 0.000534553 -0.00291924 -0.00625088 -0.000559529 0.00255174 -0.000527367 0.0030773 -0.00188476 0.00874853 -0.000451516 0.00068322 0.00657239 -0.00477516 0.00161564 0.00350889 -7.40298e-05 0.00511272 0.0044995 -0.00209776 0.00341811 0.00524508 -0.00120291 -0.00959135 -0.00115589 -0.000327467 -0.00143163 -0.000170788 0.00258277 0.00540092 0.00450707 0.00838544 0.00661306 0.00028094 0.00745572 -0.00196644 -0.00969019 -0.00679506 -0.000644665 -0.00284245 0.00197691 -0.0030489 -0.0092943 -0.00147624 0.00551705 -0.00288239 -0.00393803 -0.00160611 -0.00483389 -0.0100443 -0.00697048 0.00231538 -0.00488656 -0.0014408 0.000737282 -0.00213367 0.000655919 0.00199763 0.00827191 0.00811172 0.00677038 -0.00239262 -0.000546437 0.00863124 0.00804217 0.00492196 0.00322547 -0.00495956 -0.00170262 9.48815e-05 0.0016711 -0.000965376 0.00332338 0.00221099 0.00507802 0.00025423 0.00237241 -0.000965194 -0.00135276 4.07197e-05 9.2748e-05 0.00102978 0.00188672 0.00729278 -0.00220993 -0.00720131 -0.00527836 0.00240093 -0.0030675 0.00126695 -0.00334707 0.000692547 0.00512411 0.00399745 0.0033077 0.00157805 -0.000797863 -0.00385419 0.00197826 0.00353472 0.00673415 0.00254769 0.00514499 0.00316782 -0.0033366 0.000686086 -0.003728 -0.00785089 -0.00548746 -0.00126498 -0.00716586 -0.00560873 -0.00953232 -0.00180341 -0.00416112 -0.00514297 -0.00187786 0.00224194 -0.00230674 -0.00708421 -0.00486256 -0.00474726 -0.0118066 -0.00743772 0.000150454 0.000745514 0.000159471 0.00328715 0.0013418 0.00397602 0.0108044 -0.00378227 -0.00165419 -0.00190057 -0.00699597 0.00312746 -0.000557859 4.20554e-05 0.000150258 -0.00484393 -0.00834076 -0.00309309 0.00944146 0.0073847 0.00447641 0.00491393 0.0125346 0.00362037 0.001637 -0.0023665 -0.00226804 -0.00161312 0.00793876 0.00474033 0.00228708 0.000820607 -0.00204356 -0.00443378 0.00137112 -0.00163124 0.00176551 0.00540912 -0.0021117 0.00390471 -0.000628414 -0.00060473 0.00483502 0.00113722 -0.00324427 -0.0116658 -0.00236157 -0.00219827 -0.000491461 0.000431037 -0.00165537 0.00186489 -0.000153745 -0.00586353 -0.00590152 0.00730919 0.00489901 0.00278057 -0.00423962 -0.00579525 -0.00684146 -0.00212586 0.0017443 0.00406603 0.00144425 -0.00684668 -0.00524139 0.00118163 -0.00212203 -0.0055885 -0.00269983 -0.000499387 0.0017186 -0.00457926 -0.00019433 0.00249723 0.00111343 0.0100305 0.00553789 0.00271669 0.0022155 0.00427613 -0.0042309 -0.00541423 -0.00822382 -0.00350081 -0.00281785 -0.00599988 0.00082915 0.00197232 -0.00138469 -0.00387763 -0.00660778 0.000904927 -0.0101373 -0.00618867 -0.00401342 -0.00230095 -0.00841973 -0.00547018 -0.004542 -0.0019138 0.00135074 0.00307254 0.00330443 0.00716808 0.00664807 0.00216491 0.00254958 0.00428472 0.0100784 0.00429131 1.21472e-05 -0.00258407 -0.00254034 -0.0034055 -0.000877176 -0.00273459 0.000607288 0.00921481 0.00506052 0.00075767 0.00458364 0.00192629 0.00433064 -0.0036047 -0.0093522 -0.000293289 0.00425101 0.00500718 -0.00725159 -0.00892644 -0.00587503 0.00614403 0.00274038 -0.00294708 0.00156765 0.00167854 0.00621661 0.00516319 0.00570603 -0.00239322 0.000898261 -0.00202343 -0.00272536 0.00382128 -0.00242466 0.00457821 0.00614871 -0.00137908 -0.00558773 -0.00494894 -0.00338542 -0.00490088 -0.00686841 -0.00443145 -0.00416082 -0.0078627 -0.00834855 -0.00658442 -0.0113039 -0.000224168 -0.00122214 0.000829436 0.00178103 -0.00668856 -0.00361833 -0.0107275 -0.0133164 -0.0086074 -0.00267868 -0.00396212 -0.00613574 0.000912861 0.00873504 0.00305301 0.00566257 0.00182245 -0.000630481 -0.00338563 -0.00277705 0.00138432 0.00687881 -0.000887479 -0.00520705 -0.00193004 -0.00839035 -0.00383831 0.000247265 -0.00784009 -0.000456939 0.00447382 0.00438237 -0.000297887 -0.00509566 -0.00857804 -0.00814409 -0.00513379 0.00608531 -0.00340835 0.00233086 -0.000611238 -0.000934619 -0.00133657 0.00652596 0.00205941 0.00320713 0.00240404 -0.00506964 0.000153258 0.00828721 0.000681047 -0.00309006 -0.00156357 -0.00790992 -0.0084447 -0.00643607 -0.00611349 -0.0026097 -0.00312028 -0.00363819 -0.00514172 -0.000128503 0.00453569 -0.00178464 0.00569778 -0.00255253 -0.00106298 0.00198986 0.00116963 -0.000350932 0.00228579 -0.00187014 0.00475755 0.00191832 -0.00376623 -0.00350264 -0.00102635 0.00147334 -0.00666065 -0.00548033 -0.00252242 0.00391973 0.00086604 0.00368255 -0.00275022 -0.00197409 0.00330259 0.00967544 0.00611899 0.00654519 0.00889638 -0.00260272 -0.00902244 -0.00574274 -0.00804235 -0.00254679 -0.00141075 0.00350847 0.00387305 -0.0020302 0.00541091 -0.000272043 0.00083831 -0.00271564 -0.00640633 -0.00289092 -0.0113252 -0.00474165 -0.00133527 -0.0079524 -4.53473e-05 0.000949278 0.0100027 0.00516373 0.003659 -0.000163535 -0.00235877 0.00467275 0.0048182 0.00571206 0.00956073 0.00261729 0.00466766 -0.000616966 0.00138072 -0.00964565 0.00056993 0.00251226 0.00750042 0.0024969 0.00395945 0.00686172 0.00354811 0.00543078 0.000238738 -0.00313305 -0.00105608 -0.00326252 -0.000629412 -0.000668478 -0.00256067 -0.0149938 -0.00134698 0.00355232 -0.0023903 0.00367719 -0.00127693 0.00827468 0.00438774 0.0046758 0.00442105 -0.00714639 -0.00594346 -0.00133764 0.00112066 -0.00112823 0.00370765 0.00926877 0.0107956 0.00561353 -0.00173183 -0.00015136 0.00104869 -0.0048036 -0.00640972 -0.00209767 -0.00593515 -0.00224993 -0.00319261 -0.00250048 0.0022331 -0.00293103 -0.00203191 -0.000632504 -0.00853361 -0.00465778 -0.00786797 -0.0142819 -0.0151539 -0.00277014 -0.00969022 -0.001963 -0.00414484 0.00568679 8.5634e-05 0.00294096 -0.00547226 0.000533562 0.00568473 -0.0019194 0.0122947 0.00435683 0.0019224 -0.004231 -6.82091e-05 -0.00496514 -0.00457914 -0.000301253 -0.0138045 -0.00302995 -1.00011e-05 -0.00343074 -0.00600997 -0.0086402 -0.00929459 -0.011663 5.33466e-05 0.00379789 -0.00217403 -0.00316822 -0.00463595 0.000662678 -0.0030498 0.00498525 0.00431809 0.00109595 -0.00265296 -0.00474641 -0.00489431 0.00297849 0.00232776 0.00520027 -0.0031959 -0.00486006 -0.0109704 -0.00939583 -0.00589729 -0.00225507 -0.0123359 -0.0127065 -0.00866517 -0.00168106 0.00279145 -0.00170728 0.00100827 -0.00285928 0.0032438 0.0082455 0.000730551 0.000544834 0.00759824 0.00838229 -0.00106712 0.00534107 0.00216638 -0.00358713 -0.0110186 -0.000337336 -0.00507108 -0.0076187 0.000173748 -0.00151706 -4.76428e-05 0.00565048 -0.000778714 0.004773 0.0051741 0.0134097 0.011482 0.006817 0.00571622 0.00310708 -0.00635684 -0.0117817 -0.006087 -0.0073307 -0.00394474 -0.0065918 -0.00199021 -0.00348764 0.00204658 0.00458022 0.0066953 0.00248063 -0.00156171 -0.000402798 0.00499228 -0.0038628 0.000668413 -0.000231387 -0.00113174 0.000708171 0.00492371 0.00723156 0.0036418 0.0119017 -0.000230396 0.00544714 0.00261694 0.00373334 0.0119501 0.00151047 -0.00374085 -0.00715372 -0.00186303 -0.00303692 -8.96005e-05 0.00201785 0.00450757 0.00415498 -0.000688224 0.00554638 8.93188e-05 -0.00278749 0.00232065 -0.00319623 -0.00307176 0.000551293 0.000857324 -0.00433868 -0.0058979 -0.00404166 0.00173161 -0.00134697 -0.0041716 -0.00546951 -0.00132162 0.00460565 0.00698788 0.00339944 0.00133602 -0.00455079 -0.00189161 0.00170232 0.0106613 0.00275338 0.00394576 0.00555129 0.00614791 0.000325664 -0.00603308 -0.00261046 -0.00269793 -0.00431535 -0.00589144 -0.00349477 -0.000790968 -0.00612433 0.00666435 0.00426236 -0.00226819 -0.00113358 0.00479401 0.00415881 -0.00400855 -0.00456443 0.00140405 0.000310864 0.00351419 0.000760362 -0.0126634 -0.00244794 -0.0020123 -0.000267163 -0.00433695 0.00192043 -0.00155028 0.00130813 -0.000896549 -0.00146692 0.00382631 -0.000242 0.00164573 -0.000730934 -0.008746 -0.011436 -0.00601823 -0.0101818 -0.00992267 -0.004633 -0.000743084 0.00255367 -0.00654359 -0.00711314 -0.00782679 -0.00250265 0.00462542 0.00609976 0.000791653 0.00110772 -0.000934534 0.00485149 -0.00358391 -0.00149486 -0.00696666 -0.00606725 -0.00761466 -0.00465263 -0.00743782 -0.000620133 0.00287018 0.00383884 -0.00497671 -0.0023244 -0.0149771 -0.00647463 -0.00960918 -0.00781696 -0.00543528 -0.00593679 -0.0040951 -0.00324522 -0.00402982 -0.00420578 -0.00669611 -0.00469861 0.00528264 0.00889219 0.00607607 0.00143268 0.0072832 0.00501618 0.00362137 -0.0034445 -0.0069469 -0.00266313 -0.00477013 -0.00304255 0.00249093 -0.00685532 -0.00812572 -0.00342497 -0.00428428 0.0018155 4.16454e-05 0.00617129 0.0082413 0.00433743 0.0059233 0.00366836 0.00432127 -0.000893325 -0.00714412 -0.00625493 -0.0107066 -0.00356117 -0.00663599 -0.00325902 -0.00147307 -0.00132549 -0.00214242 0.00329015 0.00782241 0.00818409 -0.000283538 0.00668118 -0.00183943 -0.00447732 0.00139177 -0.00278465 -0.0012972 -0.007791 0.000102564 0.00508602 0.00310265 0.0081312 0.00132992 0.00435929 0.00753977 0.0103022 0.00447089 -0.00488471 -0.0107836 -0.000909799 -0.00127841 -0.00207533 -0.00203539 0.00391407 0.00316127 0.0038366 -0.00412887 -0.00611601 -0.00577864 -0.00690991 -0.00182754 0.00405085 0.00742093 -0.00087336 0.00710945 -0.00206187 -0.00241293 -0.00410259 -0.000563981 0.00644677 -0.00473344 -0.000619103 -0.00184808 0.00338744 0.00280859 0.000283978 -0.00577302 -0.00946209 -0.00194975 0.00212686 -0.000158006 -0.00185648 -0.00657571 0.00199773 -0.00041349 -0.0081332 -0.0133917 -0.0135711 -0.00841903 -0.00169778 -0.0119834 -0.00713109 0.000724463 -0.0018216 -0.00148921 -0.00292185 -0.0082076 0.00188014 0.00420401 -0.00340129 -0.00211972 -0.00391117 -0.0016574 0.00643326 0.00528486 0.011869 -0.00432694 -0.0100365 0.00064145 0.00257328 -0.00270777 -0.00203408 -0.00516994 -0.00399474 -0.00591256 -0.00639191 0.000578213 9.67352e-05 -0.00277712 0.00484663 -0.00405998 -0.0102865 -0.00715343 -0.0105898 -0.00482599 -0.00301502 0.00733675 -0.00217752 -0.00960004 -0.00385192 0.000788604 0.00698036 0.00624208 0.0159617 0.0142684 0.00231588 -0.00107243 -0.00578532 -0.00803238 -0.0076816 -0.0100587 -0.00978432 -0.000517323 -0.00105293 0.00129885 -7.90192e-05 -0.00611515 -0.00775797 -0.00709175 -0.00443691 -0.0100559 -0.0143144 -0.00206874 0.00242476 -1.59675e-05 -0.00199477 -0.00477683 -0.00151311 -0.00576143 -0.00347154 -0.00705219 -0.00634319 0.00593599 0.00899267 0.00445919 -0.00118665 0.0109583 0.00527412 0.00406326 0.00440648 0.000169344 -0.00172244 0.0033287 -0.00687844 -0.0024295 -0.00199161 -0.0110558 -0.00688514 -0.00551062 0.00275418 0.00184688 0.00096907 -0.00275345 0.00694285 0.0111207 0.00646401 0.00169002 0.00126464 -0.00564178 -0.00512077 -0.00697004 -0.00837356 -0.00898489 -0.000140569 0.00249819 0.00416182 0.00780244 0.0103352 0.00850628 0.000637229 -0.000795627 0.00718626 0.00603734 0.00497929 0.00528986 0.00580326 0.00337652 -0.00193743 0.000303687 0.0042318 0.00279348 -0.00648846 -0.0015703 -0.00141569 -0.000675649 0.00735437 -0.000866083 -0.00574805 -0.00846907 0.00055544 -0.00689736 -0.00874623 -0.00477722 0.00363797 -0.00168349 0.0053263 0.00173823 -0.00470825 0.00303621 -0.0030807 0.00179507 0.00314749 0.00543233 0.000458977 0.00448498 -0.000870922 -0.00668915 -0.00717474 0.00466253 0.00102293 -0.00685904 0.00132561 -0.00373595 -0.00242566 -0.00498662 0.0037016 0.00052617 0.000186557 -0.00401174 -0.0056499 -0.00186128 -0.00579065 -0.0116461 -0.00331321 2.16064e-06 -0.0046151 -0.00916807 -0.0135219 -0.00510662 -0.0106987 -0.0102281 -0.0112694 -0.0143579 -0.011542 -0.00425234 -0.00662631 -0.00676491 -0.00412719 -0.00410751 0.00165179 -0.00495029 -0.00467544 -0.00233257 0.0108207 0.00513364 -0.00264356 -0.0032472 -0.00446671 -0.0007265 1.2637e-05 -0.00391353 -0.004535 -0.00478227 -0.00420616 -0.00296357 0.00393765 0.00167687 0.000602571 -0.00158567 -0.00394143 -0.0032566 -0.00830669 -0.00605149 -0.00935644 -0.00264857 -0.000776336 -0.00442528 -0.00187541 -0.00334472 0.000722172 -0.00216358 -0.00279947 0.000662694 0.0119152 0.0059653 0.000609996 -0.000654836 -0.0100135 -0.00869546 -0.00719645 -0.0028034 -0.0037221 -0.00264131 0.00455752 0.00680133 0.00020202 -0.00618926 -0.00445298 -0.00809555 -0.0130772 -0.000534954 -7.83757e-06 -0.00711909 -0.00487128 0.000772775 0.00755825 0.00881842 0.00122258 -0.00262432 -0.00619133 -0.0120712 -0.00274062 0.00632495 0.00530556 0.00429169 -0.006477 0.0063677 0.00291516 0.0087519 0.0107813 0.00704062 0.00945815 7.53382e-05 0.00179048 0.00312858 0.000391945 -0.00754581 0.00561492 -0.00158435 0.00388301 0.00213524 -0.00377589 0.00283424 -0.00146668 0.0034102 -0.00134044 0.00346037 -0.00192593 -0.00323872 0.0016996 -0.00620141 -0.00472553 0.00392032 0.0016548 0.00138526 -0.00304388 -0.00116534 0.00474674 0.00766501 -0.000946592 -0.00433012 0.00286031 0.00576388 0.00643222 0.00207017 0.00469685 0.00886201 0.00413199 0.00349078 0.00351546 0.0051942 -0.00578612 -0.00100307 0.00279637 0.00250526 0.00791484 0.0120076 0.0053423 0.00625562 0.00779576 0.000504072 -0.00220514 0.00290726 0.00456711 0.00781608 0.000339015 0.00234059 -0.000613157 -0.00427096 -0.000248863 0.00379484 -0.000557484 0.00229729 0.00182669 0.00351239 -0.00414735 -0.0051795 -0.00171732 0.00362576 -0.00286853 -0.00828688 -0.00919203 -0.000563072 0.00148164 0.00227483 0.00277865 -0.002962 -0.0101106 -0.010331 -0.00567731 0.00338663 -0.00334618 -0.00842718 -0.00305976 0.00242558 -0.00138159 -0.00460765 -0.00308536 0.00194462 -0.000227566 -0.00400989 0.00383878 -0.00363456 -0.00544974 -0.00560433 -0.00726302 0.00193022 -0.00605418 -0.012486 -0.00721536 -0.00304093 -0.00392257 -0.00600995 -0.00372429 0.00555066 -0.000434448 -0.00264005 -0.000544319 -0.00261622 0.0028407 -0.003737 -0.0114729 -0.00528177 -0.00380765 -0.00639386 -0.00332978 -0.0047424 0.00903608 0.00241667 0.0037795 0.000690367 -0.00696158 -0.00307876 -0.00221895 -6.93602e-05 -0.00339322 0.00104173 0.000257804 -0.00147641 0.00724116 -0.0053188 -0.000929223 -0.00142545 0.00309006 0.00611266 -0.00425745 -0.00785741 -0.00216767 -0.00307798 -0.00986895 -0.00118118 -7.38116e-06 0.00676997 -0.0048197 -0.00553201 -0.00529684 -0.00152177 -0.0045696 -0.0113736 -0.0117444 -0.0085151 -3.09819e-05 -0.00652964 -0.00240907 -0.00264997 -0.00068994 0.00749737 0.00344799 0.00557173 -0.0042499 -0.00424845 -0.0105287 0.00415573 0.0023382 0.00311421 -0.00859812 0.00330705 0.00125409 0.00139034 0.00202775 0.0057654 -0.00107707 0.000163497 -0.00464262 0.00808668 0.00459934 -0.00136042 0.000211469 0.00264235 -0.00458543 0.000591457 -0.0051577 -0.00203537 -0.00485558 -0.0110988 -0.00739945 -0.00489905 0.00697053 -0.000779645 -0.00584895 -0.000882521 -0.00428027 -0.00160025 -0.00231517 -0.00327294 0.000562867 0.00191899 0.00372207 0.00636586 -0.00259686 0.00121228 -0.00175699 0.00236457 0.00112055 0.00115824 0.0039866 0.00650964 -0.000937013 -0.00222144 0.000250904 0.00745359 0.00141287 -0.00713877 0.00153161 0.00219858 0.00480533 0.000644269 0.0024914 0.00588127 0.00547692 0.0098198 0.00362477 0.00173632 0.00400962 0.00209518 0.00652345 0.00301971 -0.00255967 -0.00334581 0.00303804 0.00132639 0.00341071 0.00548668 0.00911414 0.00127092 -0.00256779 -0.00167715 -0.00232498 -0.00551268 -0.00390168 -0.00890999 -0.00178059 -0.00358536 0.00172956 -0.000486137 -0.0033214 -0.00929594 -0.0140882 -0.0111358 -0.00832292 -0.00622309 0.00169243 -0.00721678 -0.00194919 0.00409989 0.00351151 -0.00305058 0.00461065 0.00927704 0.00428133 -1.50759e-05 0.000711674 0.00117745 -0.00881557 -0.00597672 -0.0019304 -0.00158394 0.00121106 -0.00328162 -0.00944776 -0.00915701 0.000233132 -0.0175515 -0.00820516 -0.000372694 0.00233053 -0.0027773 0.00336018 0.00484246 0.00778665 -0.00311981 -0.00535119 0.000204287 -0.000554495 0.000530441 0.00561101 0.00551663 0.00382386 0.00842551 0.0048053 0.00783905 -0.00483804 -0.00306835 -0.00405624 0.0034583 0.00867025 0.00481024 -0.00342548 0.00454686 0.00731848 -0.00229282 -0.000979779 -0.0032537 0.00487838 0.00523297 -0.00350634 -0.00634918 -0.00288587 -0.00231437 -0.00230115 0.00197328 0.00213297 0.00210697 0.00315234 0.00172453 -0.00346304 -0.00129235 -0.000817088 -0.00187486 -0.005181 0.00302959 0.00155928 0.00545523 -0.0072115 0.000838927 -0.00161738 0.00261885 0.00132347 0.00173151 -0.00160407 -0.00515078 -0.011022 0.00588636 0.00800711 0.0042953 -0.00710675 -0.00151603 -0.00408105 -0.00198484 0.00663692 0.000648544 0.0024425 0.00174791 -0.0041458 -0.00390675 -0.00474146 -0.0066334 0.00385411 0.00524209 0.0025283 0.00348469 -0.00130432 -0.00588525 0.000902109 0.00501594 0.000780189 -0.00455174 0.00489823 0.0038888 -0.00533768 0.000586396 0.000853967 0.00175362 -0.00130741 -0.000217743 0.00192559 0.000905991 0.00420461 0.00901246 0.00295126 0.00896872 0.000500837 -0.000913304 0.00358043 0.00887131 0.00853678 0.00409491 -0.00736695 -0.00284676 0.000394142 0.0034181 0.00209994 -0.00416922 0.000152497 0.000230066 -0.00034111 -0.00385175 -0.00582268 -0.0049544 0.00316161 0.00305935 0.00230493 -0.00503885 0.00522631 0.00291231 0.0111633 0.00774851 0.00454502 0.0019831 -0.00108246 0.00211324 0.0021886 0.00318672 0.00583925 0.000920629 0.000158584 -0.00427364 -0.00500197 -0.00246325 0.00351304 -0.00029194 -0.00237895 -0.00908321 -0.00201002 -0.00126947 -0.00207321 -0.00361238 -0.0127921 -0.0144831 -0.00905227 -0.00518665 -0.00348664 -0.010006 -0.00251997 0.00237452 0.00159218 0.00505581 -0.00671407 0.00224162 0.00311423 0.0108515 0.0159767 -0.00260639 0.00321649 0.000854255 -0.00337688 -0.00212612 0.000280481 0.00579882 -0.00263043 -0.0114771 -0.00576669 -0.00950648 -0.00214474 0.000152612 -0.0026168 -0.00232805 0.000866746 -0.00240594 0.00427868 -0.00174233 -0.000948024 -0.00605526 -0.00125939 -0.00332464 0.00506694 -9.90898e-05 -0.000142772 -0.0020439 -0.00338341 0.0021235 -0.00220323 0.00106944 -0.00566542 -0.000283113 0.0018566 0.00112973 0.00678906 0.00338987 -0.0150031 -0.00566216 -0.00493492 0.00223048 0.00477351 0.000677692 0.00457009 -0.00625236 0.00466584 -0.0043253 -0.00351909 0.00687475 -0.00191733 0.00164251 0.00217163 0.000198606 0.000611105 0.00539148 0.000704579 -0.00454066 -0.0134455 -0.00585693 -0.000342645 -0.00322527 0.000371317 0.0125287 0.00909392 0.000402044 0.000966926 0.000556338 0.0015307 -0.00630769 -0.00643781 0.00596362 0.00322326 0.00378457 -0.000420866 0.00166395 -0.000104551 0.00273002 -0.00397287 -0.00537876 0.000391294 -0.000912449 0.00104582 -0.000425449 0.00173435 -0.00206073 0.00373199 -0.00713882 0.00199256 -0.0020238 0.0020508 -0.0012315 0.00438654 0.00796415 0.00314232 0.0044298 0.00903537 -0.00189489 -0.00397081 -0.001393 -0.00124148 -0.00170127 -0.00214452 -0.00373107 0.00244095 0.00322994 0.00735182 0.00714877 0.00582043 0.00358715 -0.00861003 -0.00410653 0.00732892 0.0069981 0.00754057 0.00908617 -0.00127476 -0.000885198 -0.00241051 0.00399194 0.0105594 0.00105002 0.00339153 0.0019457 -0.0005447 -0.00188772 0.00127776 -0.00146709 -0.00196917 -0.000198531 0.00101118 -0.00496415 0.000661477 0.0115727 0.0126474 0.00626387 0.00523122 0.00843405 0.00210333 -0.00115844 0.00156659 0.0046508 -0.00276014 0.00123753 0.000123621 -0.00289949 -0.00198316 0.000523028 0.00442005 0.000302228 -0.00178409 -0.0102448 -0.00789251 -0.0070443 -0.00806778 -0.00433456 -0.00358213 -0.0076106 -0.00673663 -0.00976219 -0.00455566 -0.0111345 -0.00540643 -0.00116752 -0.000166398 -0.00292762 0.00432938 0.00260788 0.00254415 0.00829506 0.00479144 0.00195642 -0.00287793 0.00746776 -0.00117388 -2.68176e-06 0.000942733 -0.003636 -0.0107285 -0.0127379 -0.00742172 -0.00647573 -0.00189558 -0.0014704 0.00148938 0.00345722 -0.00556158 0.00104566 -0.00306062 -0.00324128 -0.0079472 -0.0101694 -0.00538026 0.00201046 0.00288871 -0.000719576 0.0029312 0.000933727 0.00224687 1.698e-05 -0.00386426 -0.00875228 -0.00686145 -0.00919387 0.00292685 0.00771851 0.00819431 0.00335109 -0.00509016 -0.00529033 -0.00275656 -0.00074599 0.000793262 0.00116319 -0.00754801 -0.00519832 0.00121995 -0.000533095 0.00357083 0.00184371 -0.00270992 -0.00774872 -0.00544803 0.00416475 0.00144068 0.000828599 -0.00487967 0.000667639 -0.00373826 -0.00242609 -0.00351541 -0.00166376 0.00324998 -0.000484263 0.0119097 0.00834775 0.014656 0.00369086 0.00403171 -0.00556498 -0.00299266 0.00180724 0.00428011 0.000638949 0.00153795 -0.000199935 -0.00238147 -0.00629204 0.000923772 -0.00149632 0.00204201 -0.00323072 0.00309679 0.00108938 0.00236971 0.000180231 -0.00187761 -0.00755347 -0.00706766 -0.00476253 -0.0019835 0.000113829 0.00237339 0.00769658 0.00530632 0.00361781 7.83631e-05 -0.0057794 -0.00100377 -0.00576075 0.00331584 -0.000588358 0.00347014 -0.0026435 0.00642236 0.00291273 0.000889615 0.00692126 0.00675877 0.00254562 -0.00437133 0.000970591 -0.00363888 0.00291855 0.00593561 0.000573728 3.30831e-05 0.00318338 -0.000264153 0.00467667 0.00851943 0.00553892 -0.00165318 -0.00307062 -0.000604858 0.00196068 0.00430825 -0.000905819 0.00367549 0.00437952 0.00523663 -0.00026787 0.000441256 0.00146375 0.0109498 0.0105062 0.00782517 0.00973498 0.00688232 0.00694539 0.00343892 -0.00336757 0.00184833 -0.00284983 0.00126912 -0.00619772 -0.0054703 -0.00605913 -0.0061774 0.00142342 -0.0029472 -0.00452826 -0.00521429 -0.00236253 -0.00318569 -0.000696628 -0.00204695 -0.0107248 -0.0121925 0.000159183 0.00358743 -0.000296357 -0.00899363 -0.00695556 0.00524058 0.00136868 0.00316846 0.0107992 0.00542103 0.00849072 0.00530489 0.00241503 0.00199611 0.00847019 -0.00111184 -0.00306231 0.00224453 0.00270222 -0.00219055 -0.0088572 -0.00372483 -0.00579556 0.00344732 0.00427338 0.00242868 0.000301551 0.00375525 -0.00152807 0.00519715 0.003921 -0.00688925 -0.0136983 0.00105393 0.00376979 -0.00267314 -0.00884736 -0.000330819 0.00205254 -0.00326075 -0.00414393 -0.00232109 -0.00430795 -0.0120885 -0.0112674 0.00325171 0.00883379 0.00264925 0.00298632 -0.00143516 -0.00753522 -0.00292627 -0.00356236 -0.00239538 -0.0031512 -0.00972302 -0.00437974 -0.0046364 -0.00527675 -0.00139726 0.00458394 -0.00225192 -0.00550977 -0.00880671 -0.00514438 0.00459247 0.00112045 -0.00348527 0.00062494 -0.00437243 -0.00163456 0.00232051 0.0085447 0.000836259 0.00564994 0.00753806 0.0120694 0.0099833 -0.0031452 -0.0024413 -0.000760216 -0.002839 -0.00494744 0.00779903 0.00332457 -0.00599 0.00286622 0.000373279 -0.00114153 0.00164011 -0.00042456 0.000774422 -0.00145487 -0.00561201 0.000751635 0.00134749 0.00692922 0.00885713 -0.000552424 0.000562558 0.00290643 -0.00372583 -0.00208368 0.00223023 0.0112173 0.00911483 0.00991184 0.000589321 -0.00180476 -0.00561271 -0.00940407 -0.00484731 0.00105066 -0.00179883 0.00422386 -0.00170415 -0.00672617 -0.00417713 -0.000488966 -0.00240542 -0.00666819 -0.0109058 -0.000442589 0.000632954 0.00542448 0.0100918 0.00913165 0.00353822 0.00834411 -0.00294622 0.00657147 0.0106009 0.0039389 0.00121901 0.0068341 0.000952553 0.0011164 -7.09964e-05 -0.00493199 0.00115509 0.00249394 0.00571679 0.000711534 -0.000668314 0.00412454 0.00968691 0.00798043 0.00903611 0.0115984 0.00273621 -2.07268e-05 0.00493599 0.0044356 0.00522304 0.00232769 0.00499438 -0.00118038 -0.00623741 -0.00449625 -0.00278266 0.00344818 -0.0103446 -0.00667397 -0.0057373 -0.0024655 -0.00208689 0.00323599 0.00120969 -0.00271326 -0.00257069 0.00610759 0.00354848 0.00151611 -0.00312182 -0.00189219 -0.0017705 -0.00103017 0.00323329 0.00473745 0.00263575 0.00304418 0.00220713 -0.000730411 0.00106932 0.00355075 0.00841425 0.00181739 -0.001868 0.00230211 0.00359427 0.00423118 -0.00353722 -0.00186442 0.00206178 0.00153783 -0.00608209 -0.00250646 -0.00120356 0.000313844 0.00822763 0.00217716 -0.00444256 0.00059503 0.00397871 -0.00101809 -0.000551208 0.000175859 -0.00165017 -0.00332344 -0.00388743 -0.00238001 -0.00512261 -0.0103079 -0.0139506 -0.00447373 0.00132058 0.00551975 -0.00126054 0.000438764 0.00284625 -0.00332126 -0.00270441 -0.00931661 -0.00623003 -0.0103207 -0.012492 -0.00452063 -0.00459689 0.00342728 0.00427769 -0.00142928 -0.00415105 -0.00146648 -0.0103187 -0.00213724 -0.000103906 0.00266692 0.00433332 -0.00293045 -0.00967965 -0.0079082 -0.00569369 -0.000575854 0.00207977 0.014409 0.00957363 0.00609057 0.00359381 0.00042181 0.00696313 0.00707197 -0.00609655 -0.00471796 0.00182978 0.00346012 -0.00644676 -0.00431961 -0.00191618 -0.00451621 0.00442842 0.00311258 0.00312567 0.00166651 -0.00452931 0.00427144 0.0060171 0.00563677 0.0052115 0.00487058 -0.000585881 0.00115492 -0.00298448 -0.00684574 -0.00257511 0.00543133 0.0068051 0.0131117 0.00619103 -0.000902365 -0.00413115 -0.00610167 -0.0036208 0.000762909 0.000769362 0.000440617 -0.00421898 -0.00605072 -0.00292195 0.000538546 -0.00746791 -0.00703376 -0.00683571 0.00192824 0.00871967 0.0017486 0.00352381 0.0115532 0.00483387 0.00247551 -0.000144866 -0.00341232 0.00891571 0.00103333 0.00415032 0.00491586 0.00251672 0.0048033 0.00507303 6.8593e-05 -0.000712506 0.00118308 0.00681723 0.00472396 0.00658363 0.00772658 0.0086511 0.00678799 0.00818775 0.0113834 0.00162128 0.00177412 0.00970159 0.00963341 0.00238403 0.00481529 0.00766722 0.00110415 5.94201e-06 -0.00306704 -0.00624946 0.00554437 -0.0019244 -0.00370379 -1.12536e-06 0.000129051 -0.00473823 0.0014156 -0.00441576 -0.00588487 0.00237644 0.00348364 0.000319161 -0.00331013 -0.00398669 0.000976051 -0.00367209 -0.00424583 0.000251445 0.000793865 0.000448574 0.00826299 0.00361157 -4.73348e-05 0.00739749 0.000828048 0.00169885 0.00687784 0.00591729 -0.000863087 -0.00217674 0.00246196 0.00340725 0.00514798 -0.00286621 -0.000877495 0.00184346 0.00107083 0.00107636 0.0073397 0.000610511 -0.00176483 -0.0046144 -0.00581402 0.00175804 0.00497655 0.00299631 0.00382444 -0.00437305 -0.000355779 -0.00442189 -0.00227242 -0.0166396 -0.0128736 -0.00325603 -0.00573318 0.00607376 0.0101735 0.00661375 0.00322551 0.000560142 -0.00018019 -0.00683145 -0.0101553 -0.01046 -0.00613575 -0.00419101 -0.00650007 0.000404472 0.00245888 -0.0036232 -0.000508607 0.00305892 0.00299846 -0.00560371 -0.00152123 0.00708198 0.00751278 0.00338499 0.00026632 -0.00637817 -0.00823054 -0.00753029 -0.00468716 0.00652989 0.006837 0.000902474 0.00834514 0.00409854 0.00518972 0.00170797 0.00558143 -0.00676259 -0.00204815 0.0035348 -0.00528909 -0.00752513 -0.00532701 -0.00557424 -0.00768754 -0.00163715 0.00304802 -0.00180596 -0.000336563 -0.00804513 -0.000300202 0.00396707 -0.00118419 -0.00376272 0.00268048 -0.00364594 -0.00349453 -0.00778294 -0.0108745 -0.00616827 0.00156103 0.00559018 0.00706904 0.0042932 0.00201374 0.0101449 -0.00197252 0.00698857 0.00252533 5.30562e-05 0.00472764 0.00194252 0.00327085 0.000734855 0.00482004 -0.00430733 -0.00529574 -0.0045354 -0.00850229 -0.00136038 -0.0029455 0.00278971 0.00603572 0.00580503 0.00603762 0.00165751 0.00649521 0.00498158 -0.000790565 0.00730792 0.00234052 -0.00372351 0.00343665 0.00488038 -0.00320852 0.00362242 0.00245678 0.00513612 0.00393523 0.00687951 0.0057944 0.0134571 0.00475918 0.0104953 0.00366313 -0.0031833 -0.00110358 0.00726747 0.00101116 0.00122121 0.00229825 0.00363792 0.00875994 4.42558e-05 -0.00365384 -0.00770137 -0.00487807 -8.53418e-05 -0.0037478 -0.000512979 -0.000347282 -0.00275644 -0.00343993 -0.00340221 -0.0103445 -0.00264071 0.00496639 0.000893649 -0.00260073 -0.00279457 -0.00270243 0.00281443 0.000302728 0.00180048 -4.91358e-05 0.00101128 0.00996903 0.00129075 -0.00185686 -0.0013513 -0.000986204 0.00624648 0.00755305 0.0104209 0.00123635 -0.00290575 -0.00583883 -0.00759514 -0.00188043 -0.000266111 0.00254207 0.00492561 0.00501045 0.00994559 0.00212569 0.0017807 0.00404111 0.00244871 0.000567759 0.00164708 0.00491589 0.00132538 0.0011644 0.0010236 -0.00709707 -0.00267765 -0.00747185 -0.00932755 -0.00385252 0.00574672 0.00674303 0.00922915 0.00500668 0.0104036 0.00751428 -0.00168424 0.00217025 -0.00447894 -0.00607032 -0.00910461 -0.00219973 -0.00504577 0.00428238 -0.000489688 -0.00361211 0.000757718 -0.00148659 -0.00289969 -0.00796444 -0.0170388 -0.00802583 -0.00460829 0.00429661 -0.00954774 -0.00319105 -0.00570457 -0.00828426 -0.0100634 0.00263278 0.00578256 0.00117811 0.00253116 0.00578934 -0.00429514 -0.00825503 0.00525843 3.29183e-05 -0.00426007 0.00295121 -0.000370312 -0.00380167 -0.00612419 -0.00596791 -0.00502001 -0.0103074 -0.00102859 -0.00674816 -0.00452711 0.000993217 -0.00709354 -0.00797685 -0.00257506 -0.00287005 -0.00380822 -0.000551989 0.00441599 0.00525442 0.00118547 -0.000736351 -0.0017747 -0.00660984 0.00297828 0.00208794 0.00020407 -0.00118801 -0.00144248 -0.00313292 0.00514819 0.00459163 0.000231359 -0.00292786 -0.000384109 0.0028869 0.0024933 0.00265621 -0.000927076 0.00505884 0.0036127 0.00728108 0.00804075 0.00235129 0.00408652 0.00234286 0.00569939 0.00375742 0.000895667 0.00269134 -0.00213791 -0.00310388 0.000757278 0.00768278 0.00380428 0.00469672 0.00693123 0.00178218 -0.00550705 -0.00321289 -0.00297961 -0.000956419 0.0103334 0.0132667 0.00530259 0.00609672 0.00525653 0.00502143 -0.00401638 -0.00558267 -0.00435397 -0.00142214 -7.11337e-05 0.00164074 0.00258162 0.000750226 -0.00792917 -0.00412748 -0.0057257 -0.00330115 -0.00390906 0.00215369 0.000182488 0.000611815 -0.0018246 -0.00189106 -0.000788374 0.00439952 -0.000835887 0.00171744 0.00258174 0.00161444 -0.00164286 -0.00245844 0.00456891 -0.000364051 0.00386702 0.000127354 0.000902834 0.0032481 -0.00120082 -0.00332169 -0.000574216 -0.00745064 -0.000986654 -0.00374546 0.00485718 -0.00267341 -0.00506858 -0.00892481 -0.0057465 -0.00194699 -0.00196638 -0.0065229 0.00493687 0.00226682 0.00929532 0.00511191 0.00156156 -0.000106128 0.0115171 0.00918846 0.00638502 0.00608039 0.0067732 0.00307695 0.00014005 -0.00768165 -0.0114253 -0.0084574 -0.0101263 -0.0041208 -0.00245523 0.0102518 0.01157 0.0051963 0.00565854 0.00604353 0.0038002 -0.00219274 -0.000263102 -0.0072278 -0.0031673 -0.0022123 -0.00668097 0.000610406 0.00121316 0.0004677 -0.00312061 -0.00233221 -0.00624728 -0.0106682 -0.014549 -0.0116536 -0.00354942 -0.00704879 -0.00976247 -0.014182 -0.0152724 -0.00276645 -0.00839562 0.000243107 8.26653e-05 -0.00976134 0.00149483 0.00286416 -0.00849254 -0.00392516 -0.00337405 0.00803549 0.00605685 0.00579099 -9.99061e-05 -0.00863967 -0.00741711 -0.00570227 -0.00715896 -0.0134541 -0.00284678 -0.00455624 -0.00349229 0.00121175 -0.00491595 -0.00648567 -0.0141994 -0.00407041 -2.39706e-05 0.000362216 0.00610425 0.000412732 1.21905e-05 0.00595396 -0.00758557 -0.00221531 0.00118485 -0.00145183 -0.00246443 0.00267384 -0.00325959 0.00142901 0.00281339 0.00142059 -0.000998275 -0.00805238 -0.0124199 -0.00431536 7.80832e-05 0.00616001 -0.000502204 0.00489227 -0.00316419 -0.00573056 -0.00154492 0.00642017 -0.00504662 -0.00658146 0.00277464 -0.00433214 0.00562889 0.00192604 0.00763442 0.000997388 -0.00125098 0.0100039 0.00358772 0.00363045 0.00231002 -0.00386592 -0.00483703 -0.00773579 -0.00927878 -0.00161938 0.0037336 0.00467903 0.00769661 0.0013754 0.00249784 0.00585631 -0.003084 -0.00281343 -3.33573e-05 0.00553552 -0.00278484 -0.00250999 -0.000380698 -0.0052888 -0.0101064 -0.00482178 0.00206578 0.00244502 -0.00159085 -0.00262092 -0.00242331 -0.00952759 -0.00976579 0.00121354 0.00997279 0.00462603 0.00376883 0.0056568 -0.00308541 0.00683251 0.0030782 -0.00266704 -0.00325003 0.00025945 -0.00195223 -0.00575179 0.0025482 0.00205113 0.00062851 -0.000117444 -0.0104061 -0.0069774 -0.00485691 -0.00205373 0.00669514 0.00267623 -0.00458149 -0.00781242 -0.00488966 -0.00353075 -0.00362665 -0.0090956 -0.00972177 0.00279267 0.00834893 0.0114638 0.00344304 0.00487643 0.00934009 0.00596019 0.0105821 0.00733712 0.00417929 0.00144397 0.00113814 -0.00173915 -0.00235302 -0.00718131 -0.0125258 -0.00632247 -0.00106169 0.00585236 0.00502806 0.000522156 0.00846269 -0.00169167 0.00681281 -0.000267417 0.00275437 -0.00965153 -0.00307367 -0.00662525 -0.00250964 -0.00247846 -0.0010505 0.00150365 -0.00263643 -0.00180272 0.00138094 0.00115658 -0.00716294 -0.00480404 0.00261273 -0.00227019 -0.0151069 -0.00920719 -0.00916869 -0.0084932 -0.0091645 -0.0104985 -0.00794552 -0.00192298 0.00134498 0.00282277 -0.00356404 -0.00372312 -0.00146099 -4.92828e-05 0.00674167 0.00178903 0.00539825 -0.00140397 8.53042e-05 0.000503295 -0.00224659 -0.0108123 0.00161948 -0.0017836 0.00409751 0.00373996 -0.00222062 -0.0129682 -0.0147749 -0.00757731 0.00133892 0.00741043 0.00992276 0.00424917 0.00170451 0.00362512 -0.00833327 -0.00738097 -0.00211101 0.00499009 0.00299131 0.00415335 -0.00132588 0.00516821 0.00393029 0.00457455 0.000741351 0.00137594 -0.00467815 -0.00387945 -9.28121e-05 0.00284758 0.00740768 0.00157081 -0.00658964 -0.000808425 -0.00382548 -0.00262682 0.00172088 -0.00159411 -0.00511922 0.0032527 0.00731699 0.00718892 0.00746781 -0.00407276 -0.00299373 0.000368193 -0.008739 -0.000924763 0.000942547 -0.00568266 -0.0053674 -0.00125325 -0.00071796 0.000717493 -0.000685516 0.00122725 0.0054073 0.000740738 0.00461267 0.00354168 0.000392726 -0.00688322 0.00127747 0.00610564 0.00280807 -0.00164644 -0.00387672 0.000873245 -0.00371719 -0.00565013 -0.000320751 -0.00191294 0.00295978 -0.00581735 0.00522399 0.00268616 -0.00904817 0.00303545 0.00620767 0.00402914 -0.000645343 0.00547091 -0.0018737 0.00633678 0.00243423 0.00152658 0.00125598 -0.00159901 0.00569151 -0.00351526 0.00371142 -0.0027988 -0.0061869 -0.00184648 0.000175406 0.000102265 0.00101172 -0.000551831 0.000183088 0.00447933 -0.0011615 -0.00746417 0.000409803 0.000643024 -0.00492973 -0.0112519 -0.00474978 0.00239155 0.008352 0.00711678 0.0094412 0.00255185 0.00104202 0.00185569 -0.00262413 -0.00779515 -0.000127359 0.0019266 0.00485536 0.00626504 -0.00537124 -0.00785381 -0.00841626 0.00265516 0.00778798 0.00160576 -0.00589792 0.00101485 0.00694496 0.00622324 0.00360325 0.00556194 0.00414429 0.00349886 -0.000437495 -0.0122277 -0.00652984 0.000469816 0.00531452 0.000709727 -0.0036822 -0.0056293 0.000812843 -0.010477 -0.00890151 -0.00344782 0.000267429 -0.00474154 -0.000733481 0.000488544 -0.00254105 0.00256146 -0.00679423 -0.00774696 -0.00447559 -0.00526556 0.000555852 0.000102211 -0.000323818 -0.000156844 -0.00607816 -0.00048889 0.00714971 0.00776443 0.00439226 0.00370264 0.00143664 0.00166508 -0.00143496 -0.00216006 -0.00757948 0.000171502 -0.00154004 0.00238116 -0.0105113 -0.0070455 -0.0162664 -0.00192289 -0.0019931 0.00328451 0.00659567 0.00229893 -0.00373702 0.00199544 -0.0122812 -0.00601593 0.00253658 0.00682317 -0.00122593 -0.000789999 -0.00283744 -0.00308788 0.00105582 -0.000821621 0.000425983 0.00256532 -0.0033478 -0.00139886 -0.00188796 0.000633151 -0.00130784 0.000359177 -0.00459988 -0.00516373 -0.00815537 -0.00333117 -0.00538056 -0.00590659 -0.00281373 0.000757055 0.00716569 0.0053406 0.0125117 0.00360276 -0.00233588 0.000783188 -0.000462046 -0.000908237 0.00161264 -0.00426655 -0.00371147 0.00274172 0.00169993 0.0026233 1.55018e-05 0.00326079 0.00335358 -0.00280611 0.000924106 -0.00361227 -0.00433702 -0.0075231 -0.00733315 -0.00533518 -0.0050771 -0.0029447 0.00241154 0.000375828 -0.00638327 0.000937868 0.00483377 0.0023096 -0.000192655 0.00574927 0.00533302 0.00802763 -0.00146391 0.000466775 -0.000325286 -0.00572604 -0.00237236 0.00924623 0.00784904 0.00605399 0.00575099 0.00302977 0.00281611 -0.000967284 0.000599061 